################################################################################
# Neural network connection values (weights and biases).
################################################################################
# Col  Name       Description
################################################################################
# 1    connection Neural network connection value.
# 2    t          Connection type (a = weight, b = bias).
# 3    index      Index enumerating weights.
# 4    l_s        Starting point layer (end point layer for biases).
# 5    n_s        Starting point neuron in starting layer (end point neuron for biases).
# 6    l_e        End point layer.
# 7    n_e        End point neuron in end layer.
################################################################################
#                      1 2         3     4     5     6     7
#             connection t     index   l_s   n_s   l_e   n_e
############################################################
 -1.3130916307212864E-01 a         1     0     1     1     1
 -4.0032854099457671E-02 a         2     0     1     1     2
  1.2310421035510079E-02 a         3     0     1     1     3
  1.2329594077589151E-01 a         4     0     1     1     4
  3.5952237502538627E-02 a         5     0     1     1     5
  1.1189953664043650E-01 a         6     0     1     1     6
  6.6388515562391073E-02 a         7     0     1     1     7
  5.6799818743002953E-02 a         8     0     1     1     8
  1.0158781811055534E-01 a         9     0     1     1     9
 -3.0920738528716657E-02 a        10     0     1     1    10
 -8.7995866607587611E-02 a        11     0     1     1    11
  1.9931970187936487E-01 a        12     0     1     1    12
 -6.9033197418333470E-02 a        13     0     1     1    13
 -3.4976314285484660E-03 a        14     0     1     1    14
 -9.4840887586951403E-02 a        15     0     1     1    15
  4.9850511035275449E-03 a        16     0     1     1    16
  8.1289373337685156E-02 a        17     0     1     1    17
  1.9012387382190576E-01 a        18     0     1     1    18
  1.0121374854037965E-01 a        19     0     1     1    19
  5.3756577983079236E-02 a        20     0     1     1    20
  5.8025447348089385E-02 a        21     0     2     1     1
  5.4813344640211592E-02 a        22     0     2     1     2
  7.7388694828631699E-02 a        23     0     2     1     3
  4.5889295803647409E-03 a        24     0     2     1     4
  1.3013324802847545E-01 a        25     0     2     1     5
  1.0783847737490537E-02 a        26     0     2     1     6
 -1.9300337541875812E-01 a        27     0     2     1     7
 -1.6947793406109332E-01 a        28     0     2     1     8
  1.1591910800832805E-01 a        29     0     2     1     9
 -1.0958217985088019E-03 a        30     0     2     1    10
 -4.9097971894696731E-02 a        31     0     2     1    11
 -1.6673358286602794E-01 a        32     0     2     1    12
  1.4847277010237223E-02 a        33     0     2     1    13
 -6.6890611809207731E-02 a        34     0     2     1    14
  2.3765444790796927E-01 a        35     0     2     1    15
  1.7841348383066385E-01 a        36     0     2     1    16
 -2.5754655647855745E-01 a        37     0     2     1    17
 -6.7617584119093785E-02 a        38     0     2     1    18
  1.1951728151546236E-02 a        39     0     2     1    19
  9.4474564262858926E-02 a        40     0     2     1    20
 -1.6781715728364174E-01 a        41     0     3     1     1
  3.2266703414956829E-03 a        42     0     3     1     2
  6.8044066703869005E-02 a        43     0     3     1     3
  2.7596742327675127E-02 a        44     0     3     1     4
 -3.1703539008725502E-02 a        45     0     3     1     5
 -8.8721537012369539E-02 a        46     0     3     1     6
  3.3114558253603717E-02 a        47     0     3     1     7
  2.1595546881574804E-01 a        48     0     3     1     8
 -1.3972211655513017E-01 a        49     0     3     1     9
  1.4335601244851531E-01 a        50     0     3     1    10
  4.8526459423432977E-02 a        51     0     3     1    11
  9.5188620676226438E-02 a        52     0     3     1    12
  2.5912794843916409E-01 a        53     0     3     1    13
  1.7205136562629658E-01 a        54     0     3     1    14
 -2.3863378049355198E-02 a        55     0     3     1    15
  1.7807083090578565E-01 a        56     0     3     1    16
 -7.0511747472688888E-02 a        57     0     3     1    17
 -1.0747163959463185E-01 a        58     0     3     1    18
  2.6836743601156982E-01 a        59     0     3     1    19
 -3.8052785501033310E-03 a        60     0     3     1    20
  2.5479812651070455E-01 a        61     0     4     1     1
 -1.0281402177470879E-02 a        62     0     4     1     2
  1.4993184110895735E-01 a        63     0     4     1     3
  3.0495403947878919E-02 a        64     0     4     1     4
 -1.2868585196819798E-01 a        65     0     4     1     5
  1.7016831346028088E-01 a        66     0     4     1     6
  2.3432766325073884E-01 a        67     0     4     1     7
 -1.5813072896484531E-01 a        68     0     4     1     8
  1.0620495423620570E-01 a        69     0     4     1     9
 -1.3040864796807833E-01 a        70     0     4     1    10
 -4.5649763072424715E-02 a        71     0     4     1    11
 -1.4953731919178573E-01 a        72     0     4     1    12
  2.7335677484727167E-02 a        73     0     4     1    13
  1.6535196079455977E-01 a        74     0     4     1    14
  5.5210662419660127E-02 a        75     0     4     1    15
 -1.6540710279282267E-01 a        76     0     4     1    16
 -2.8772505804340841E-02 a        77     0     4     1    17
  2.1322721789278704E-01 a        78     0     4     1    18
  1.9703519747075146E-01 a        79     0     4     1    19
  1.6911678060054885E-01 a        80     0     4     1    20
  9.2033801886048788E-03 a        81     0     5     1     1
 -1.3349677854913725E-01 a        82     0     5     1     2
  1.9997127292134612E-01 a        83     0     5     1     3
 -2.0218449059430052E-01 a        84     0     5     1     4
  2.8751982460044768E-02 a        85     0     5     1     5
 -2.0989360021214457E-01 a        86     0     5     1     6
  2.4894588983617200E-01 a        87     0     5     1     7
  9.8638575684596955E-02 a        88     0     5     1     8
 -2.8284971345581822E-01 a        89     0     5     1     9
  1.8128624297275892E-01 a        90     0     5     1    10
  2.4030790535564034E-01 a        91     0     5     1    11
 -7.4423138623506399E-02 a        92     0     5     1    12
 -1.9747724878781009E-01 a        93     0     5     1    13
 -1.1079992789152732E-01 a        94     0     5     1    14
 -9.7239066996034407E-02 a        95     0     5     1    15
 -4.6692800607353729E-03 a        96     0     5     1    16
  2.0800481590351208E-01 a        97     0     5     1    17
 -2.9531438368951191E-01 a        98     0     5     1    18
  9.3276551804315710E-02 a        99     0     5     1    19
  1.8445508907068445E-01 a       100     0     5     1    20
 -1.2350885846404465E-01 a       101     0     6     1     1
 -5.6850682477199384E-02 a       102     0     6     1     2
  1.4110263182308852E-01 a       103     0     6     1     3
 -2.6866995580276169E-02 a       104     0     6     1     4
 -1.6726816582489751E-01 a       105     0     6     1     5
 -1.5766614735298060E-01 a       106     0     6     1     6
  1.3307480540795130E-01 a       107     0     6     1     7
 -2.2557109262519667E-01 a       108     0     6     1     8
  5.4513729785178232E-02 a       109     0     6     1     9
  6.6121355329818957E-02 a       110     0     6     1    10
  1.7410517864582506E-01 a       111     0     6     1    11
  5.4227372856692983E-02 a       112     0     6     1    12
  1.3480555670003375E-01 a       113     0     6     1    13
  4.2646660863583645E-02 a       114     0     6     1    14
  5.6776915498492161E-02 a       115     0     6     1    15
 -1.1318507105296408E-01 a       116     0     6     1    16
  1.7104620306493601E-01 a       117     0     6     1    17
  1.4611251164764422E-01 a       118     0     6     1    18
  1.0487888750327276E-01 a       119     0     6     1    19
 -2.2141619857956094E-01 a       120     0     6     1    20
  1.8936044606130456E-01 a       121     0     7     1     1
  2.5760818510084155E-01 a       122     0     7     1     2
 -8.7428601157384281E-02 a       123     0     7     1     3
 -7.0122957415303486E-02 a       124     0     7     1     4
  1.2218718722471163E-01 a       125     0     7     1     5
  7.3787564642463777E-02 a       126     0     7     1     6
 -1.3670134387517277E-01 a       127     0     7     1     7
 -1.8843483889520529E-01 a       128     0     7     1     8
  6.7168029496037868E-02 a       129     0     7     1     9
 -2.8796836976237233E-01 a       130     0     7     1    10
 -1.7992410487161706E-01 a       131     0     7     1    11
 -1.1906113582810507E-01 a       132     0     7     1    12
  1.3961929563373884E-01 a       133     0     7     1    13
  1.6431379499705223E-01 a       134     0     7     1    14
 -9.9204091773736208E-02 a       135     0     7     1    15
 -5.9339907824420744E-02 a       136     0     7     1    16
  2.7544606681703773E-02 a       137     0     7     1    17
 -1.6968203177261523E-01 a       138     0     7     1    18
 -2.6474516546675597E-01 a       139     0     7     1    19
  1.0182724925427277E-02 a       140     0     7     1    20
 -1.4323979556851935E-01 a       141     0     8     1     1
 -1.3960642795931760E-01 a       142     0     8     1     2
 -5.1368494099012035E-02 a       143     0     8     1     3
 -3.2662147315240392E-02 a       144     0     8     1     4
 -5.1653989590723093E-02 a       145     0     8     1     5
  3.8405486512558033E-02 a       146     0     8     1     6
  5.2063244677149562E-03 a       147     0     8     1     7
  2.4392882955446984E-01 a       148     0     8     1     8
 -5.6808486641671867E-02 a       149     0     8     1     9
  2.3446119289745052E-01 a       150     0     8     1    10
  2.6447505454982135E-02 a       151     0     8     1    11
  2.0254313526769127E-01 a       152     0     8     1    12
 -5.6125617706062100E-02 a       153     0     8     1    13
  1.6062959290822446E-01 a       154     0     8     1    14
 -5.4618733016320746E-02 a       155     0     8     1    15
 -1.7201166345306684E-01 a       156     0     8     1    16
 -1.2532343463485374E-01 a       157     0     8     1    17
  6.8179384405914104E-02 a       158     0     8     1    18
 -2.6815047993951602E-01 a       159     0     8     1    19
 -2.6492684958924662E-01 a       160     0     8     1    20
 -2.2580779875677623E-01 a       161     0     9     1     1
 -1.0850390020459488E-01 a       162     0     9     1     2
 -8.3232627541905552E-02 a       163     0     9     1     3
  6.7069953287874892E-02 a       164     0     9     1     4
  8.1527992918661280E-02 a       165     0     9     1     5
  2.1739511782672172E-01 a       166     0     9     1     6
  9.0557043222266029E-02 a       167     0     9     1     7
  1.5771680719267886E-01 a       168     0     9     1     8
  1.1309149035928071E-02 a       169     0     9     1     9
  9.1214809104752062E-02 a       170     0     9     1    10
  3.7346099471561582E-02 a       171     0     9     1    11
  1.2848015474580293E-01 a       172     0     9     1    12
 -2.5580522777507891E-01 a       173     0     9     1    13
  5.5806701906107842E-02 a       174     0     9     1    14
  2.9007370274366601E-01 a       175     0     9     1    15
  2.5752421514856944E-01 a       176     0     9     1    16
 -3.1763263229110224E-02 a       177     0     9     1    17
  2.6863452042406089E-02 a       178     0     9     1    18
  3.0251477654109730E-02 a       179     0     9     1    19
  2.5416192580849217E-01 a       180     0     9     1    20
  1.5218689065254840E-01 a       181     0    10     1     1
 -2.2023407443148308E-02 a       182     0    10     1     2
 -1.9599386076626354E-01 a       183     0    10     1     3
 -4.4973038387772939E-02 a       184     0    10     1     4
  3.6240340110745090E-02 a       185     0    10     1     5
  2.9014332268884885E-01 a       186     0    10     1     6
  9.8107791852277138E-02 a       187     0    10     1     7
  2.5324276919607591E-01 a       188     0    10     1     8
 -6.1568947276279720E-02 a       189     0    10     1     9
  1.9963234808903757E-01 a       190     0    10     1    10
 -2.4336551995575154E-01 a       191     0    10     1    11
 -8.5143246587930585E-03 a       192     0    10     1    12
  2.3651934339192029E-01 a       193     0    10     1    13
  1.3354366154466110E-01 a       194     0    10     1    14
  1.8958449598066521E-01 a       195     0    10     1    15
 -1.0271871840005456E-01 a       196     0    10     1    16
 -8.2130680805494113E-02 a       197     0    10     1    17
 -7.1353592891824066E-02 a       198     0    10     1    18
  2.3986770370983515E-01 a       199     0    10     1    19
  5.9475567423042802E-02 a       200     0    10     1    20
 -9.7558744840052114E-02 a       201     0    11     1     1
 -8.7857209060969041E-02 a       202     0    11     1     2
  2.0668400917668320E-01 a       203     0    11     1     3
 -1.1070017921071555E-01 a       204     0    11     1     4
  7.8874386485843162E-02 a       205     0    11     1     5
 -1.0681278048711093E-01 a       206     0    11     1     6
  2.2487204889660928E-01 a       207     0    11     1     7
 -2.9181142847723046E-01 a       208     0    11     1     8
  3.1023564251821931E-02 a       209     0    11     1     9
  1.8743048630616291E-01 a       210     0    11     1    10
  1.5568474800031332E-01 a       211     0    11     1    11
  9.6262812081667273E-02 a       212     0    11     1    12
 -2.3688046050056030E-01 a       213     0    11     1    13
  1.0612437028064847E-01 a       214     0    11     1    14
 -1.6832347137793377E-01 a       215     0    11     1    15
  1.8786450334523858E-01 a       216     0    11     1    16
 -2.1202716326567175E-01 a       217     0    11     1    17
  2.6496648059591632E-01 a       218     0    11     1    18
  1.4660326697596665E-01 a       219     0    11     1    19
 -4.4609867287993779E-02 a       220     0    11     1    20
 -3.1856175183145770E-02 a       221     0    12     1     1
 -1.7893898473113481E-01 a       222     0    12     1     2
  1.3310116135516320E-01 a       223     0    12     1     3
  1.5243655236624037E-01 a       224     0    12     1     4
  1.8560327486488648E-01 a       225     0    12     1     5
 -9.9237478767519219E-02 a       226     0    12     1     6
  6.4810148982369170E-02 a       227     0    12     1     7
  1.9528536930676032E-02 a       228     0    12     1     8
 -1.3888244254754639E-01 a       229     0    12     1     9
 -8.8731700285123005E-02 a       230     0    12     1    10
 -2.1359287764210813E-01 a       231     0    12     1    11
  1.3193611314463227E-01 a       232     0    12     1    12
  1.6113185006837277E-01 a       233     0    12     1    13
  2.1879396092050368E-01 a       234     0    12     1    14
  1.0472395544245369E-01 a       235     0    12     1    15
  3.7536192485190724E-02 a       236     0    12     1    16
  2.3262041719221935E-01 a       237     0    12     1    17
 -6.5505967409737867E-02 a       238     0    12     1    18
 -1.7346211022829940E-02 a       239     0    12     1    19
  2.2928808475054595E-02 a       240     0    12     1    20
 -7.3785371803114508E-02 a       241     0    13     1     1
 -1.7457372926833759E-01 a       242     0    13     1     2
  1.9707679765124198E-01 a       243     0    13     1     3
 -1.5503075804974778E-01 a       244     0    13     1     4
 -1.8161330666258680E-02 a       245     0    13     1     5
  1.8775340400110060E-01 a       246     0    13     1     6
  2.2004917710374043E-02 a       247     0    13     1     7
  2.2096940489429843E-02 a       248     0    13     1     8
 -2.4008406912038485E-03 a       249     0    13     1     9
  9.7505593110065486E-02 a       250     0    13     1    10
  2.6475697022331740E-01 a       251     0    13     1    11
  7.2310136724970234E-02 a       252     0    13     1    12
  3.0886534087709461E-03 a       253     0    13     1    13
 -1.7160275568987934E-01 a       254     0    13     1    14
 -1.7555499671877997E-01 a       255     0    13     1    15
  1.5315609827937822E-02 a       256     0    13     1    16
  3.2842790768308028E-01 a       257     0    13     1    17
 -5.6863192104407406E-02 a       258     0    13     1    18
  6.8305640493512121E-02 a       259     0    13     1    19
  4.1686224216893225E-01 a       260     0    13     1    20
 -7.0193328077210390E-02 a       261     0    14     1     1
 -7.1629488669718244E-02 a       262     0    14     1     2
 -1.2443365419090269E-01 a       263     0    14     1     3
  2.3342867649953819E-01 a       264     0    14     1     4
 -1.8718347043358272E-02 a       265     0    14     1     5
 -2.2384463420149397E-01 a       266     0    14     1     6
 -2.3081994389414037E-02 a       267     0    14     1     7
 -2.6362030485620264E-01 a       268     0    14     1     8
  3.5807085537189448E-01 a       269     0    14     1     9
  9.8199725188052464E-02 a       270     0    14     1    10
 -1.0754112244294224E-01 a       271     0    14     1    11
  1.9067619005378851E-02 a       272     0    14     1    12
 -6.0446117542238595E-02 a       273     0    14     1    13
 -2.1986475173886000E-01 a       274     0    14     1    14
 -1.6093306943254140E-01 a       275     0    14     1    15
  1.0206792047952154E-02 a       276     0    14     1    16
 -2.1944712461134613E-01 a       277     0    14     1    17
  2.1941503795098093E-02 a       278     0    14     1    18
 -1.9140573618858478E-01 a       279     0    14     1    19
  1.4575793132734077E-02 a       280     0    14     1    20
  2.8801090568357951E-01 a       281     0    15     1     1
  1.8884921217682712E-01 a       282     0    15     1     2
  1.7676634204883412E-01 a       283     0    15     1     3
  1.0645840781628355E-01 a       284     0    15     1     4
  4.3304749937835472E-02 a       285     0    15     1     5
 -2.9469390561472485E-02 a       286     0    15     1     6
  2.3230316732275369E-01 a       287     0    15     1     7
 -6.9128747943024052E-02 a       288     0    15     1     8
  3.9300622174436688E-03 a       289     0    15     1     9
 -4.6529573802552106E-02 a       290     0    15     1    10
  1.5374817636464819E-01 a       291     0    15     1    11
  2.2276801264237558E-01 a       292     0    15     1    12
 -8.1544677083335362E-03 a       293     0    15     1    13
  8.8563370298597052E-02 a       294     0    15     1    14
  1.7585472893307860E-01 a       295     0    15     1    15
  1.2777724099736506E-02 a       296     0    15     1    16
  1.5653692786014775E-01 a       297     0    15     1    17
  1.5141871977914606E-01 a       298     0    15     1    18
 -2.6999385447175894E-01 a       299     0    15     1    19
  2.3160634658037993E-01 a       300     0    15     1    20
 -7.6025022577443382E-02 a       301     0    16     1     1
  1.1563660752309447E-01 a       302     0    16     1     2
  3.3842868569650603E-02 a       303     0    16     1     3
 -2.2063335799699574E-02 a       304     0    16     1     4
  5.0870195170678853E-02 a       305     0    16     1     5
 -8.2775436480378699E-03 a       306     0    16     1     6
  4.1318097174881815E-02 a       307     0    16     1     7
  2.8824691944732684E-02 a       308     0    16     1     8
 -1.6320111590278541E-01 a       309     0    16     1     9
 -5.7420691078603578E-02 a       310     0    16     1    10
 -1.1981237098603817E-01 a       311     0    16     1    11
 -5.1318700055690378E-02 a       312     0    16     1    12
 -1.4856660443524569E-01 a       313     0    16     1    13
 -9.1901634628180198E-02 a       314     0    16     1    14
 -4.6432328419131072E-02 a       315     0    16     1    15
  2.5291251821151543E-02 a       316     0    16     1    16
 -2.6159903139180960E-02 a       317     0    16     1    17
 -1.1124877068466830E-01 a       318     0    16     1    18
 -1.6919389952041156E-01 a       319     0    16     1    19
  7.2237033925943592E-02 a       320     0    16     1    20
  3.3769814856332742E-01 a       321     0    17     1     1
 -2.0388534059991412E-01 a       322     0    17     1     2
  2.4377371932190889E-02 a       323     0    17     1     3
 -4.4772055555286620E-02 a       324     0    17     1     4
  9.0012973894670709E-02 a       325     0    17     1     5
 -8.0984164682179033E-02 a       326     0    17     1     6
  2.2389527159134830E-02 a       327     0    17     1     7
 -2.3181680651805892E-01 a       328     0    17     1     8
 -7.4161234263044953E-02 a       329     0    17     1     9
  1.1520703550939446E-01 a       330     0    17     1    10
 -4.1564731326584528E-04 a       331     0    17     1    11
 -1.6815249593174486E-01 a       332     0    17     1    12
  3.8052362604073894E-02 a       333     0    17     1    13
 -9.2962136856792610E-02 a       334     0    17     1    14
 -7.1375819599914292E-02 a       335     0    17     1    15
  1.0296997522266133E-01 a       336     0    17     1    16
  1.7019608609517273E-01 a       337     0    17     1    17
 -1.2486606028050830E-01 a       338     0    17     1    18
  9.9215814952227730E-03 a       339     0    17     1    19
  1.5331557886838965E-01 a       340     0    17     1    20
 -1.5415346962188697E-01 a       341     0    18     1     1
  9.0927125010317758E-02 a       342     0    18     1     2
  1.1831578756901732E-01 a       343     0    18     1     3
  4.4238801184271889E-03 a       344     0    18     1     4
  1.3994591376217726E-02 a       345     0    18     1     5
  1.7254976537342157E-01 a       346     0    18     1     6
  2.9556484226561680E-01 a       347     0    18     1     7
 -1.8452565795309220E-01 a       348     0    18     1     8
  2.2376302313493135E-01 a       349     0    18     1     9
  1.1726540694707525E-01 a       350     0    18     1    10
 -1.5887713497799943E-01 a       351     0    18     1    11
  9.9044435874949349E-02 a       352     0    18     1    12
  2.3810122874452366E-01 a       353     0    18     1    13
 -1.8451387189079554E-01 a       354     0    18     1    14
  6.8681943526762115E-02 a       355     0    18     1    15
 -7.5255312480723105E-02 a       356     0    18     1    16
 -3.7017894380624589E-01 a       357     0    18     1    17
 -1.2116129371400118E-01 a       358     0    18     1    18
  1.1951791006020582E-01 a       359     0    18     1    19
 -1.5746180882215710E-01 a       360     0    18     1    20
  1.3020232642444057E-01 a       361     0    19     1     1
 -1.3514060845637876E-01 a       362     0    19     1     2
 -4.5077451408185774E-02 a       363     0    19     1     3
 -5.5777855772284932E-02 a       364     0    19     1     4
 -8.9853123863134501E-02 a       365     0    19     1     5
  8.2953939730755932E-02 a       366     0    19     1     6
 -1.3923240069928913E-01 a       367     0    19     1     7
 -5.4186247400028260E-02 a       368     0    19     1     8
  5.5765101389350417E-02 a       369     0    19     1     9
 -6.1255524616193498E-02 a       370     0    19     1    10
  2.0693931825278941E-02 a       371     0    19     1    11
 -1.5790332336720914E-01 a       372     0    19     1    12
 -2.1878150062626142E-01 a       373     0    19     1    13
  1.3361193995544071E-01 a       374     0    19     1    14
  1.2090933972648095E-01 a       375     0    19     1    15
  1.0199960264898821E-02 a       376     0    19     1    16
 -1.8329746664220423E-01 a       377     0    19     1    17
 -8.9794140194826816E-02 a       378     0    19     1    18
  1.4051974027529739E-02 a       379     0    19     1    19
  2.9762147123359289E-01 a       380     0    19     1    20
  3.5813329801214440E-02 a       381     0    20     1     1
 -6.8064022024147658E-02 a       382     0    20     1     2
  8.5205195720555571E-02 a       383     0    20     1     3
 -3.5336072416753371E-02 a       384     0    20     1     4
 -2.4954369823045761E-01 a       385     0    20     1     5
  9.4566494670988419E-02 a       386     0    20     1     6
 -2.1695732982004728E-01 a       387     0    20     1     7
 -1.1193329786583980E-01 a       388     0    20     1     8
  2.6045156532951202E-01 a       389     0    20     1     9
 -1.8428384587439178E-01 a       390     0    20     1    10
 -6.1495348951359455E-02 a       391     0    20     1    11
  4.0244839959469710E-02 a       392     0    20     1    12
  4.4427795989885548E-02 a       393     0    20     1    13
  4.8155547472559297E-02 a       394     0    20     1    14
 -2.3488315766121914E-01 a       395     0    20     1    15
 -1.3763609748850850E-01 a       396     0    20     1    16
 -7.0589684148792395E-02 a       397     0    20     1    17
  1.1352335927587487E-01 a       398     0    20     1    18
  3.4761189391932054E-02 a       399     0    20     1    19
 -1.0172951136491559E-01 a       400     0    20     1    20
  2.4733638501537353E-01 a       401     0    21     1     1
  4.3219153946522579E-02 a       402     0    21     1     2
 -8.3205054084575847E-02 a       403     0    21     1     3
 -1.7151758419320168E-01 a       404     0    21     1     4
 -1.3271298085046571E-01 a       405     0    21     1     5
  1.9632092489590183E-01 a       406     0    21     1     6
 -3.0668893478260023E-01 a       407     0    21     1     7
  2.3940296368629002E-02 a       408     0    21     1     8
 -1.8543293486222297E-02 a       409     0    21     1     9
 -6.7399072398701021E-02 a       410     0    21     1    10
  1.3263157590197128E-01 a       411     0    21     1    11
  1.0241846095410446E-02 a       412     0    21     1    12
  5.7382138305187749E-02 a       413     0    21     1    13
 -2.4434048298236258E-01 a       414     0    21     1    14
 -2.5307383345580819E-01 a       415     0    21     1    15
 -6.8477987925868164E-02 a       416     0    21     1    16
 -5.6710086898523131E-02 a       417     0    21     1    17
 -1.5648454935660067E-01 a       418     0    21     1    18
  4.9196603529224524E-02 a       419     0    21     1    19
  1.2827120831692559E-01 a       420     0    21     1    20
 -2.6114456798851310E-01 a       421     0    22     1     1
 -1.6964755195856840E-01 a       422     0    22     1     2
  1.0768349039325643E-03 a       423     0    22     1     3
 -1.0157988922823852E-02 a       424     0    22     1     4
 -2.3684715725416186E-01 a       425     0    22     1     5
  8.9770545931981846E-02 a       426     0    22     1     6
  2.7755724522080957E-02 a       427     0    22     1     7
  6.4043245620949527E-02 a       428     0    22     1     8
 -2.7689820441853804E-02 a       429     0    22     1     9
  4.1272492586017862E-03 a       430     0    22     1    10
  4.5449713673187155E-03 a       431     0    22     1    11
 -2.6701429580114799E-02 a       432     0    22     1    12
 -4.5812670319829552E-02 a       433     0    22     1    13
  4.0570504850105757E-02 a       434     0    22     1    14
 -4.3428311165231562E-02 a       435     0    22     1    15
 -5.5867556328965076E-02 a       436     0    22     1    16
 -1.0288802918107524E-01 a       437     0    22     1    17
 -1.4530598627607325E-01 a       438     0    22     1    18
  1.5274537365072396E-01 a       439     0    22     1    19
 -9.7128025646189498E-02 a       440     0    22     1    20
  2.6227661621052856E-01 a       441     0    23     1     1
 -1.3926838662064379E-02 a       442     0    23     1     2
  1.3855967479999881E-01 a       443     0    23     1     3
 -7.8207720818915263E-02 a       444     0    23     1     4
  1.1957981890857990E-01 a       445     0    23     1     5
 -1.5983153002388756E-01 a       446     0    23     1     6
 -1.1336568993837158E-01 a       447     0    23     1     7
 -3.0436687796978157E-01 a       448     0    23     1     8
 -4.2116618059634126E-02 a       449     0    23     1     9
  2.6607345817707309E-02 a       450     0    23     1    10
  1.4623851134658647E-01 a       451     0    23     1    11
 -1.3495641618518198E-01 a       452     0    23     1    12
 -1.8276997777820897E-01 a       453     0    23     1    13
 -2.1289609986305674E-01 a       454     0    23     1    14
 -1.5793597160893980E-01 a       455     0    23     1    15
  9.9327791644594723E-02 a       456     0    23     1    16
  3.9328528146605868E-02 a       457     0    23     1    17
  9.8621551954471587E-02 a       458     0    23     1    18
  2.4587006811476955E-01 a       459     0    23     1    19
  1.9911787747455639E-02 a       460     0    23     1    20
 -4.6848957902442874E-02 a       461     0    24     1     1
  4.9118253389105034E-02 a       462     0    24     1     2
  8.4933575057556734E-02 a       463     0    24     1     3
  2.9682557341945406E-03 a       464     0    24     1     4
  2.3110139378886355E-02 a       465     0    24     1     5
 -3.8900150615814685E-02 a       466     0    24     1     6
  1.3288602924399173E-01 a       467     0    24     1     7
  2.1219492280747781E-01 a       468     0    24     1     8
  1.5983774108263748E-02 a       469     0    24     1     9
 -1.6272562989775950E-02 a       470     0    24     1    10
  5.0307217344143028E-02 a       471     0    24     1    11
  6.8165102698087135E-02 a       472     0    24     1    12
 -1.1542173248566601E-01 a       473     0    24     1    13
 -1.1482462281042764E-01 a       474     0    24     1    14
 -1.6940719400960445E-02 a       475     0    24     1    15
 -2.4409987833892838E-02 a       476     0    24     1    16
  6.4777228421092944E-02 a       477     0    24     1    17
  1.8754943536128745E-02 a       478     0    24     1    18
 -4.1889032338502344E-02 a       479     0    24     1    19
  2.1936864662157711E-02 a       480     0    24     1    20
  1.8992480623928901E-01 a       481     0    25     1     1
 -1.6144938888961849E-01 a       482     0    25     1     2
  6.1016730962759613E-02 a       483     0    25     1     3
  6.0867897431878856E-02 a       484     0    25     1     4
  1.2921124205840295E-01 a       485     0    25     1     5
 -1.0594021352761796E-02 a       486     0    25     1     6
 -1.7546155384079526E-01 a       487     0    25     1     7
 -2.2348507434345820E-02 a       488     0    25     1     8
 -1.1275014966243384E-01 a       489     0    25     1     9
  2.1886616205553162E-02 a       490     0    25     1    10
 -3.0165711586410149E-01 a       491     0    25     1    11
 -2.1510977849823346E-01 a       492     0    25     1    12
  1.0321689249010310E-01 a       493     0    25     1    13
  3.3328966756394618E-01 a       494     0    25     1    14
  2.5766595202834397E-01 a       495     0    25     1    15
 -1.2771764734874244E-02 a       496     0    25     1    16
  1.9528646962344443E-01 a       497     0    25     1    17
  1.9278027075487703E-02 a       498     0    25     1    18
  6.5478697968079341E-02 a       499     0    25     1    19
 -3.8541436507250515E-03 a       500     0    25     1    20
 -3.1083487190758491E-01 a       501     0    26     1     1
 -7.4140770198117337E-02 a       502     0    26     1     2
 -1.4932999721554829E-01 a       503     0    26     1     3
  1.3670998026716341E-01 a       504     0    26     1     4
  8.2010248709625880E-02 a       505     0    26     1     5
  3.8979964908102227E-03 a       506     0    26     1     6
  4.0924157592132311E-02 a       507     0    26     1     7
  1.9923853983782372E-01 a       508     0    26     1     8
  2.1951204062949239E-01 a       509     0    26     1     9
  6.1480433074445152E-02 a       510     0    26     1    10
 -2.3099594432994766E-01 a       511     0    26     1    11
  9.3737619196106750E-02 a       512     0    26     1    12
 -8.0522227001110752E-02 a       513     0    26     1    13
 -1.6422909948731929E-01 a       514     0    26     1    14
 -3.1021855254964280E-03 a       515     0    26     1    15
 -6.1992802453048029E-02 a       516     0    26     1    16
 -2.8071388392786245E-01 a       517     0    26     1    17
 -1.1893909532795492E-01 a       518     0    26     1    18
 -2.4777043479725017E-01 a       519     0    26     1    19
 -8.2481295364966872E-02 a       520     0    26     1    20
  1.7865907853806254E-01 a       521     0    27     1     1
  3.7641775928373575E-02 a       522     0    27     1     2
  1.1030109198886479E-01 a       523     0    27     1     3
  4.2023594089270686E-02 a       524     0    27     1     4
 -8.8987195693362945E-03 a       525     0    27     1     5
  8.1347908006231665E-02 a       526     0    27     1     6
 -7.3646484977180529E-02 a       527     0    27     1     7
 -1.7393605257720315E-01 a       528     0    27     1     8
 -2.2634617028770168E-01 a       529     0    27     1     9
 -5.8380604457062113E-02 a       530     0    27     1    10
  6.6801678590483221E-02 a       531     0    27     1    11
  7.3504812638908457E-02 a       532     0    27     1    12
 -1.8829496784222410E-02 a       533     0    27     1    13
  1.0060720066744541E-01 a       534     0    27     1    14
  1.6818805893985617E-01 a       535     0    27     1    15
  3.0224824243227640E-02 a       536     0    27     1    16
  6.3683021882678686E-02 a       537     0    27     1    17
 -3.5091674615017138E-02 a       538     0    27     1    18
  2.9947825543758058E-03 a       539     0    27     1    19
 -3.1541074728602271E-02 a       540     0    27     1    20
 -2.7239994013485597E-01 a       541     0    28     1     1
 -2.1999776906044038E-01 a       542     0    28     1     2
  1.5539908714222389E-01 a       543     0    28     1     3
  6.8214705807849940E-02 a       544     0    28     1     4
 -9.6752194454780116E-02 a       545     0    28     1     5
 -3.6115157174471259E-02 a       546     0    28     1     6
  2.2089347795105627E-01 a       547     0    28     1     7
 -8.6312897385483797E-02 a       548     0    28     1     8
 -9.3408418159974360E-02 a       549     0    28     1     9
  6.3821567422593886E-02 a       550     0    28     1    10
  3.9150837896647667E-02 a       551     0    28     1    11
  2.6370885373901132E-02 a       552     0    28     1    12
 -1.1745032576528644E-01 a       553     0    28     1    13
  1.4509594516901519E-01 a       554     0    28     1    14
 -5.3428987219335922E-02 a       555     0    28     1    15
  3.1876783639635288E-02 a       556     0    28     1    16
 -1.2088136559693841E-01 a       557     0    28     1    17
 -2.8605794560679822E-02 a       558     0    28     1    18
 -7.2118972353217681E-02 a       559     0    28     1    19
  1.1333267217501457E-01 a       560     0    28     1    20
  2.8179399591569515E-01 a       561     0    29     1     1
 -3.2023027925644022E-02 a       562     0    29     1     2
  1.8496882470857054E-01 a       563     0    29     1     3
 -6.1645989359446506E-02 a       564     0    29     1     4
  9.8638344259679078E-04 a       565     0    29     1     5
  5.6057170844463010E-02 a       566     0    29     1     6
 -1.7415609935909487E-01 a       567     0    29     1     7
 -1.8290004962613471E-01 a       568     0    29     1     8
 -4.5420858915518093E-02 a       569     0    29     1     9
 -1.1316572850464049E-01 a       570     0    29     1    10
  8.7696801448508679E-02 a       571     0    29     1    11
 -2.0049926124693324E-01 a       572     0    29     1    12
 -8.7405313467475612E-02 a       573     0    29     1    13
  1.2466877760840540E-01 a       574     0    29     1    14
  1.1502002886570745E-01 a       575     0    29     1    15
  1.3125470331083994E-01 a       576     0    29     1    16
 -1.0350542877714912E-01 a       577     0    29     1    17
  6.1466896128047975E-02 a       578     0    29     1    18
  2.5886463591100450E-01 a       579     0    29     1    19
 -1.0713610401477679E-02 a       580     0    29     1    20
 -2.1852133996996134E-01 a       581     0    30     1     1
  1.1283847913933448E-01 a       582     0    30     1     2
  4.4441438743942727E-02 a       583     0    30     1     3
 -2.0759398334110524E-01 a       584     0    30     1     4
 -1.0461910003694694E-01 a       585     0    30     1     5
  1.2775661407165836E-01 a       586     0    30     1     6
  1.2817407312005016E-01 a       587     0    30     1     7
 -2.1849304931767230E-01 a       588     0    30     1     8
  1.7574967881339101E-01 a       589     0    30     1     9
 -2.8047508747723063E-02 a       590     0    30     1    10
  1.9684467995581303E-01 a       591     0    30     1    11
 -1.6888714327793447E-01 a       592     0    30     1    12
  1.5136084359117608E-01 a       593     0    30     1    13
 -7.0427024203198171E-02 a       594     0    30     1    14
  1.7871201479075102E-01 a       595     0    30     1    15
  1.2880596559376348E-01 a       596     0    30     1    16
 -1.8514466111150804E-02 a       597     0    30     1    17
 -6.0574303639914916E-02 a       598     0    30     1    18
  2.1136194169962874E-01 a       599     0    30     1    19
  1.8222767668401075E-02 a       600     0    30     1    20
 -2.7746633674128114E-02 a       601     0    31     1     1
 -1.9320773494337015E-01 a       602     0    31     1     2
 -5.1761041373035548E-02 a       603     0    31     1     3
 -7.1038273231894281E-02 a       604     0    31     1     4
 -1.3686230429012949E-01 a       605     0    31     1     5
  1.3013164930825908E-02 a       606     0    31     1     6
 -1.1469157110396981E-01 a       607     0    31     1     7
  1.6572785311509469E-01 a       608     0    31     1     8
  6.6763196959984963E-02 a       609     0    31     1     9
 -6.5421710398856168E-03 a       610     0    31     1    10
 -6.5470035734921064E-02 a       611     0    31     1    11
  2.1682050643406052E-02 a       612     0    31     1    12
 -4.3056683661385688E-02 a       613     0    31     1    13
 -2.1279310413065278E-01 a       614     0    31     1    14
  7.7064196384121139E-02 a       615     0    31     1    15
 -1.3489882222705996E-01 a       616     0    31     1    16
  5.4303210943928801E-02 a       617     0    31     1    17
  1.7983817083233725E-02 a       618     0    31     1    18
  9.1549549209730088E-02 a       619     0    31     1    19
  3.3493879205740144E-02 a       620     0    31     1    20
 -1.1152832209642749E-01 a       621     0    32     1     1
  1.6571217595100335E-01 a       622     0    32     1     2
 -7.8013646415114823E-02 a       623     0    32     1     3
 -5.7711567206135399E-02 a       624     0    32     1     4
  5.0187037044726400E-02 a       625     0    32     1     5
 -1.1331477427016604E-01 a       626     0    32     1     6
  6.5362682129761332E-02 a       627     0    32     1     7
 -5.2418658841020795E-02 a       628     0    32     1     8
  1.9704241896687991E-01 a       629     0    32     1     9
  1.4813944019315717E-01 a       630     0    32     1    10
 -5.7845412794944449E-02 a       631     0    32     1    11
  6.9178334938637037E-02 a       632     0    32     1    12
 -9.2513216157742550E-02 a       633     0    32     1    13
 -1.5291580803126283E-02 a       634     0    32     1    14
  9.7789344385101729E-02 a       635     0    32     1    15
  1.9771322834636697E-02 a       636     0    32     1    16
  1.9554986142007194E-02 a       637     0    32     1    17
  7.4995866906120395E-02 a       638     0    32     1    18
  4.1958909332070415E-01 a       639     0    32     1    19
 -9.0700904222758408E-02 a       640     0    32     1    20
  9.0011864793778956E-02 a       641     0    33     1     1
  1.4581615714419568E-01 a       642     0    33     1     2
 -2.2323042904466694E-01 a       643     0    33     1     3
 -3.9555667001138078E-02 a       644     0    33     1     4
  8.5783622295063242E-02 a       645     0    33     1     5
  1.1932950526510404E-01 a       646     0    33     1     6
 -1.7624297222559990E-01 a       647     0    33     1     7
  1.5411169050340043E-01 a       648     0    33     1     8
 -1.9528283759680121E-02 a       649     0    33     1     9
  1.9788604376039784E-02 a       650     0    33     1    10
 -2.4486153307935807E-01 a       651     0    33     1    11
  1.7651436510356672E-01 a       652     0    33     1    12
  2.2951459875788854E-01 a       653     0    33     1    13
  1.1562898904172575E-01 a       654     0    33     1    14
 -1.0551400111982084E-01 a       655     0    33     1    15
 -5.6912371756849406E-02 a       656     0    33     1    16
  5.0349055224576764E-02 a       657     0    33     1    17
 -1.3620734728322215E-01 a       658     0    33     1    18
 -6.4970618272767108E-02 a       659     0    33     1    19
 -2.6954670254423347E-02 a       660     0    33     1    20
  1.0808411121392525E-01 a       661     0    34     1     1
 -1.2214170710754148E-01 a       662     0    34     1     2
 -8.3688656120862889E-02 a       663     0    34     1     3
  9.8333443098929628E-03 a       664     0    34     1     4
 -2.5562003778470191E-02 a       665     0    34     1     5
 -9.8156606328176271E-02 a       666     0    34     1     6
  1.2110570387649311E-02 a       667     0    34     1     7
  1.7906894584654048E-03 a       668     0    34     1     8
 -1.3013933158068167E-01 a       669     0    34     1     9
  1.9510962713640589E-01 a       670     0    34     1    10
 -1.3462497220047948E-01 a       671     0    34     1    11
 -6.9248769226965920E-02 a       672     0    34     1    12
  1.4426970159659808E-01 a       673     0    34     1    13
  1.0117791498349725E-01 a       674     0    34     1    14
 -4.2714546487679257E-02 a       675     0    34     1    15
 -3.2825644048450203E-02 a       676     0    34     1    16
 -1.7985899192373256E-02 a       677     0    34     1    17
 -1.6942736614189402E-01 a       678     0    34     1    18
 -1.8006883893108450E-01 a       679     0    34     1    19
 -1.5419288885540869E-01 a       680     0    34     1    20
  2.2227554274956260E-01 a       681     0    35     1     1
 -7.3283468309629063E-02 a       682     0    35     1     2
 -2.3746600950778692E-02 a       683     0    35     1     3
  5.4220635315956167E-02 a       684     0    35     1     4
  8.3300843224213286E-02 a       685     0    35     1     5
 -6.6347290041267257E-03 a       686     0    35     1     6
 -9.7179804066393899E-02 a       687     0    35     1     7
 -1.7836765642719807E-01 a       688     0    35     1     8
  2.6109386322102971E-02 a       689     0    35     1     9
 -1.2957985168229458E-01 a       690     0    35     1    10
 -9.2662958873678647E-02 a       691     0    35     1    11
 -1.2968713085058384E-01 a       692     0    35     1    12
  2.9164870393495544E-02 a       693     0    35     1    13
  2.8725481405901653E-02 a       694     0    35     1    14
 -2.5050052747972790E-01 a       695     0    35     1    15
 -3.5965127093292179E-02 a       696     0    35     1    16
 -1.3018052843059522E-01 a       697     0    35     1    17
 -1.1636202082347746E-01 a       698     0    35     1    18
 -2.4834248141510923E-01 a       699     0    35     1    19
  2.1329044529018945E-03 a       700     0    35     1    20
  3.7499041569777312E-02 a       701     0    36     1     1
 -1.7612324833013261E-02 a       702     0    36     1     2
 -7.6302174121543900E-02 a       703     0    36     1     3
 -2.8626138746803510E-02 a       704     0    36     1     4
 -1.3381284863329199E-01 a       705     0    36     1     5
  1.1143761366215031E-01 a       706     0    36     1     6
  2.4953959376864156E-03 a       707     0    36     1     7
  1.1768354630099483E-01 a       708     0    36     1     8
  2.0440037276552356E-01 a       709     0    36     1     9
  5.3919654636108991E-03 a       710     0    36     1    10
 -2.8609535884366832E-02 a       711     0    36     1    11
  1.1279642372568811E-01 a       712     0    36     1    12
  2.2156650842958210E-02 a       713     0    36     1    13
  2.1501948247830285E-01 a       714     0    36     1    14
  1.1041530179721355E-02 a       715     0    36     1    15
  1.1971524588123528E-01 a       716     0    36     1    16
 -2.4069019733851321E-02 a       717     0    36     1    17
 -4.5257345917939389E-02 a       718     0    36     1    18
 -9.7954082664391803E-02 a       719     0    36     1    19
  1.0928750208516673E-01 a       720     0    36     1    20
  1.0128412232458261E-01 a       721     0    37     1     1
 -1.4131913665905060E-01 a       722     0    37     1     2
  1.6170581752572125E-01 a       723     0    37     1     3
  6.6565145219376690E-02 a       724     0    37     1     4
 -1.4388410047975039E-01 a       725     0    37     1     5
  4.8644521299280770E-03 a       726     0    37     1     6
  2.8672809323358098E-02 a       727     0    37     1     7
 -1.2981553651690800E-01 a       728     0    37     1     8
  7.0795043484905923E-02 a       729     0    37     1     9
  7.6286778502311900E-02 a       730     0    37     1    10
  7.0235631474114581E-03 a       731     0    37     1    11
  1.3993786734128072E-01 a       732     0    37     1    12
 -2.0679301889141541E-01 a       733     0    37     1    13
 -1.9949674278449236E-01 a       734     0    37     1    14
 -1.3582013866015494E-01 a       735     0    37     1    15
 -1.3190594856132287E-01 a       736     0    37     1    16
 -2.8265580763470091E-02 a       737     0    37     1    17
  8.0501601733085890E-02 a       738     0    37     1    18
 -8.5631213111401622E-03 a       739     0    37     1    19
  1.9576987110598996E-02 a       740     0    37     1    20
 -2.0354577831964138E-01 a       741     0    38     1     1
  3.2898479751602247E-02 a       742     0    38     1     2
 -1.8888769251783906E-02 a       743     0    38     1     3
  7.2770223122966661E-03 a       744     0    38     1     4
  1.4826490165671851E-03 a       745     0    38     1     5
 -4.7580966332962250E-02 a       746     0    38     1     6
  1.3862800287309282E-01 a       747     0    38     1     7
  6.0908920956501529E-02 a       748     0    38     1     8
  5.8264618257185541E-02 a       749     0    38     1     9
 -1.1721358347874383E-01 a       750     0    38     1    10
  9.4590938779466907E-02 a       751     0    38     1    11
 -3.1550234155277079E-01 a       752     0    38     1    12
  4.8385557525887163E-02 a       753     0    38     1    13
 -9.0472438413233144E-02 a       754     0    38     1    14
 -1.0843594417306301E-01 a       755     0    38     1    15
 -7.5342881822770304E-03 a       756     0    38     1    16
  1.5271790043356358E-03 a       757     0    38     1    17
  8.4162597690043722E-02 a       758     0    38     1    18
 -1.1168731690706260E-01 a       759     0    38     1    19
  1.0178517218904529E-01 a       760     0    38     1    20
  1.3143201710679162E-01 a       761     0    39     1     1
  8.7973142233560953E-02 a       762     0    39     1     2
  2.6085515506121881E-02 a       763     0    39     1     3
 -2.3674291376286839E-03 a       764     0    39     1     4
 -8.8825245161889735E-02 a       765     0    39     1     5
 -1.8687490575351080E-02 a       766     0    39     1     6
  6.0585514333839047E-02 a       767     0    39     1     7
  3.6320868858648395E-02 a       768     0    39     1     8
  1.0709591299070993E-01 a       769     0    39     1     9
  5.5001781808726384E-02 a       770     0    39     1    10
  2.5942475712576237E-02 a       771     0    39     1    11
 -3.7168887610635561E-02 a       772     0    39     1    12
 -2.0237042859972360E-01 a       773     0    39     1    13
  1.0025832271584200E-02 a       774     0    39     1    14
  1.9646271492750383E-01 a       775     0    39     1    15
 -5.7846626038596449E-03 a       776     0    39     1    16
  8.7712337743116958E-02 a       777     0    39     1    17
  1.3867269251950631E-01 a       778     0    39     1    18
  1.0978822867490889E-02 a       779     0    39     1    19
  4.5523118495146252E-02 a       780     0    39     1    20
 -6.8424640677304999E-02 a       781     0    40     1     1
  2.5885086318419171E-02 a       782     0    40     1     2
  8.8556952656621959E-02 a       783     0    40     1     3
  3.8712368087882393E-02 a       784     0    40     1     4
  1.1390285711189489E-01 a       785     0    40     1     5
 -2.9834960909157864E-02 a       786     0    40     1     6
  9.3092401701008909E-02 a       787     0    40     1     7
  9.2276442462784186E-02 a       788     0    40     1     8
 -4.8514085253768213E-02 a       789     0    40     1     9
 -9.2397580609479488E-02 a       790     0    40     1    10
 -6.3185603683681091E-02 a       791     0    40     1    11
  1.0379377328054301E-01 a       792     0    40     1    12
  1.6629957134190598E-01 a       793     0    40     1    13
 -6.8718847511431383E-02 a       794     0    40     1    14
 -8.4865866358374398E-02 a       795     0    40     1    15
 -3.8582363920266448E-02 a       796     0    40     1    16
 -5.7595996084070018E-02 a       797     0    40     1    17
  4.4915854879303704E-02 a       798     0    40     1    18
 -6.5664221311856785E-02 a       799     0    40     1    19
 -9.7703980536946820E-03 a       800     0    40     1    20
  2.0806745866312337E-01 a       801     0    41     1     1
  1.5848547787035083E-01 a       802     0    41     1     2
 -1.0664725084602804E-01 a       803     0    41     1     3
 -1.4504487833253618E-01 a       804     0    41     1     4
  2.8920722579318870E-02 a       805     0    41     1     5
 -2.8807283339443962E-01 a       806     0    41     1     6
 -2.2585120547094825E-01 a       807     0    41     1     7
 -1.5509958839057975E-02 a       808     0    41     1     8
  6.4559507452296175E-02 a       809     0    41     1     9
 -2.8136152943919301E-01 a       810     0    41     1    10
 -1.2792464117107893E-01 a       811     0    41     1    11
 -6.1583443142176578E-02 a       812     0    41     1    12
 -2.3149330452772743E-01 a       813     0    41     1    13
 -8.3069067106140926E-02 a       814     0    41     1    14
  2.7984611888243088E-01 a       815     0    41     1    15
  7.2060462788980026E-02 a       816     0    41     1    16
  1.1240098248763061E-01 a       817     0    41     1    17
 -2.3385717225340562E-02 a       818     0    41     1    18
  6.4236234252956076E-02 a       819     0    41     1    19
  2.2680927592646338E-02 a       820     0    41     1    20
 -2.1379656342633913E-01 a       821     0    42     1     1
 -1.7660915194823965E-01 a       822     0    42     1     2
  3.3071570283206431E-01 a       823     0    42     1     3
  2.1633064393214024E-01 a       824     0    42     1     4
  2.3623877030478960E-01 a       825     0    42     1     5
  7.5927796599417244E-02 a       826     0    42     1     6
  1.1253267050167517E-01 a       827     0    42     1     7
  2.7606043020969462E-01 a       828     0    42     1     8
 -1.1630808855991208E-02 a       829     0    42     1     9
  1.2166549772929441E-01 a       830     0    42     1    10
 -2.4034215343058218E-01 a       831     0    42     1    11
  6.4537167727845735E-02 a       832     0    42     1    12
  1.6478475835511139E-01 a       833     0    42     1    13
  2.8887864664502316E-01 a       834     0    42     1    14
  1.2799025167614925E-01 a       835     0    42     1    15
 -1.7796226787801417E-01 a       836     0    42     1    16
 -8.0394190057185289E-02 a       837     0    42     1    17
  2.2341555117747358E-01 a       838     0    42     1    18
  9.8713621388439213E-02 a       839     0    42     1    19
  8.5111980448195554E-02 a       840     0    42     1    20
  1.5430620487324087E-01 a       841     0    43     1     1
 -1.0260043509179622E-02 a       842     0    43     1     2
  2.2678935267978556E-01 a       843     0    43     1     3
 -1.2786343265253989E-02 a       844     0    43     1     4
 -1.5002662778188508E-01 a       845     0    43     1     5
  2.9519551093042529E-01 a       846     0    43     1     6
 -3.1046926049074969E-01 a       847     0    43     1     7
 -1.1565863964068512E-01 a       848     0    43     1     8
 -2.6825745839508475E-01 a       849     0    43     1     9
  2.3737224009841729E-02 a       850     0    43     1    10
  2.2517478360639789E-01 a       851     0    43     1    11
  2.4695203247522082E-01 a       852     0    43     1    12
 -4.0699508176560442E-02 a       853     0    43     1    13
 -2.9999488675942204E-01 a       854     0    43     1    14
 -2.3700386758101943E-02 a       855     0    43     1    15
  7.6294233170827036E-02 a       856     0    43     1    16
  2.7610847915482656E-01 a       857     0    43     1    17
  3.9419129530735446E-02 a       858     0    43     1    18
 -7.9703561085697094E-02 a       859     0    43     1    19
 -5.4897884521826194E-02 a       860     0    43     1    20
  2.2575609383888851E-02 a       861     0    44     1     1
 -2.5894871107585361E-02 a       862     0    44     1     2
  1.4050549407569654E-01 a       863     0    44     1     3
 -7.2925168778976590E-02 a       864     0    44     1     4
 -4.8201597286130930E-02 a       865     0    44     1     5
 -9.0556538435070513E-02 a       866     0    44     1     6
  2.8023522968000120E-01 a       867     0    44     1     7
 -1.2272358084927246E-01 a       868     0    44     1     8
 -8.7768187151889859E-02 a       869     0    44     1     9
  1.2995950997400540E-01 a       870     0    44     1    10
  1.3707125342396231E-01 a       871     0    44     1    11
  8.0499859607932933E-02 a       872     0    44     1    12
 -1.7635611477182836E-01 a       873     0    44     1    13
  9.1402977376048994E-02 a       874     0    44     1    14
  2.9824434828437107E-01 a       875     0    44     1    15
  7.5439348615578286E-02 a       876     0    44     1    16
  6.3244717516235893E-02 a       877     0    44     1    17
 -9.2727674240387914E-02 a       878     0    44     1    18
 -1.5263955712641178E-01 a       879     0    44     1    19
 -2.3087492071937638E-02 a       880     0    44     1    20
  3.0293677494234929E-02 a       881     0    45     1     1
 -3.5927812670740904E-02 a       882     0    45     1     2
 -2.4458294566961905E-01 a       883     0    45     1     3
 -1.3259498006662787E-01 a       884     0    45     1     4
  4.7070025698765353E-02 a       885     0    45     1     5
 -8.1322273100376763E-02 a       886     0    45     1     6
 -1.4193578199560317E-01 a       887     0    45     1     7
 -6.2098599120376810E-02 a       888     0    45     1     8
  7.0900401933533627E-02 a       889     0    45     1     9
  1.9782425724351386E-03 a       890     0    45     1    10
  6.4238228003816705E-02 a       891     0    45     1    11
  5.1157797024191973E-02 a       892     0    45     1    12
  1.9393291497927406E-01 a       893     0    45     1    13
 -1.1554451723033088E-01 a       894     0    45     1    14
  2.3143348439337666E-01 a       895     0    45     1    15
  1.2032303181236031E-01 a       896     0    45     1    16
 -1.5688562478828003E-01 a       897     0    45     1    17
 -4.3679717506999192E-02 a       898     0    45     1    18
  1.6121038141857624E-02 a       899     0    45     1    19
 -6.2411438518120074E-02 a       900     0    45     1    20
  1.0618743368129548E-01 a       901     0    46     1     1
  7.4926497090565911E-02 a       902     0    46     1     2
 -1.2795672576941264E-01 a       903     0    46     1     3
  9.6177101117365507E-02 a       904     0    46     1     4
  4.6908318131717322E-02 a       905     0    46     1     5
 -1.4180223720622107E-01 a       906     0    46     1     6
  1.1376319688421331E-01 a       907     0    46     1     7
 -7.4614960372379233E-02 a       908     0    46     1     8
  1.1008864957129574E-01 a       909     0    46     1     9
  1.6723579504610686E-01 a       910     0    46     1    10
  7.8801244276874682E-02 a       911     0    46     1    11
 -3.9430751167940238E-02 a       912     0    46     1    12
 -1.1558552326593290E-01 a       913     0    46     1    13
 -1.9803647574511515E-01 a       914     0    46     1    14
  4.6581940148347392E-02 a       915     0    46     1    15
 -8.4049437016858547E-02 a       916     0    46     1    16
  6.8270757425286335E-02 a       917     0    46     1    17
  1.4308597111996801E-01 a       918     0    46     1    18
  6.5970355158932389E-02 a       919     0    46     1    19
  1.3644449599338873E-01 a       920     0    46     1    20
  1.9034217715938287E-01 a       921     0    47     1     1
  1.8189852959975630E-01 a       922     0    47     1     2
  8.9935033850059728E-02 a       923     0    47     1     3
  3.8855192850742376E-02 a       924     0    47     1     4
  7.5113630528551814E-02 a       925     0    47     1     5
 -2.0364036370168653E-01 a       926     0    47     1     6
 -4.7166287883475842E-02 a       927     0    47     1     7
 -9.6904104330648486E-02 a       928     0    47     1     8
  2.1494140869976724E-01 a       929     0    47     1     9
 -1.3709278594527566E-01 a       930     0    47     1    10
 -4.9848018822217767E-02 a       931     0    47     1    11
 -2.8827257169116016E-01 a       932     0    47     1    12
 -1.2595480782953725E-01 a       933     0    47     1    13
  9.0008181357562625E-02 a       934     0    47     1    14
  1.7004401639798231E-02 a       935     0    47     1    15
 -1.3100501414282875E-01 a       936     0    47     1    16
  1.4073555713509944E-01 a       937     0    47     1    17
  2.4678625335066851E-01 a       938     0    47     1    18
  1.1545213745066953E-01 a       939     0    47     1    19
  8.9156936644035220E-02 a       940     0    47     1    20
 -6.7092935199915271E-02 a       941     0    48     1     1
  1.0150051961984646E-01 a       942     0    48     1     2
 -3.9108433707026914E-02 a       943     0    48     1     3
  3.3626611469679692E-02 a       944     0    48     1     4
 -4.6066684252528654E-02 a       945     0    48     1     5
  1.3900378971665808E-01 a       946     0    48     1     6
  5.2879998703180407E-02 a       947     0    48     1     7
  6.2608165864941834E-02 a       948     0    48     1     8
 -5.0262479085637350E-02 a       949     0    48     1     9
 -6.0324964592396335E-02 a       950     0    48     1    10
 -1.8924174468926916E-01 a       951     0    48     1    11
 -1.9140609701061490E-01 a       952     0    48     1    12
  1.7996081711145623E-01 a       953     0    48     1    13
 -2.0906967373405275E-01 a       954     0    48     1    14
 -3.2754587291227044E-01 a       955     0    48     1    15
 -1.3523086782803423E-01 a       956     0    48     1    16
  5.5541578243253481E-02 a       957     0    48     1    17
 -7.6236936178256803E-02 a       958     0    48     1    18
  4.5971364327754699E-02 a       959     0    48     1    19
 -5.4153855199623513E-02 a       960     0    48     1    20
 -2.2617313530503419E-01 a       961     0    49     1     1
 -6.4253498813064705E-02 a       962     0    49     1     2
 -7.8758076105769681E-02 a       963     0    49     1     3
 -1.1112219181355272E-02 a       964     0    49     1     4
  1.3453434117332247E-01 a       965     0    49     1     5
 -7.7747363018252455E-02 a       966     0    49     1     6
 -7.2456321130431267E-02 a       967     0    49     1     7
 -1.0092069240446554E-01 a       968     0    49     1     8
  2.1890887488875144E-01 a       969     0    49     1     9
  1.9568895589143009E-01 a       970     0    49     1    10
 -2.2526510619503001E-02 a       971     0    49     1    11
  2.3477647690074493E-01 a       972     0    49     1    12
 -1.5025788872911555E-01 a       973     0    49     1    13
 -1.1052645702567809E-01 a       974     0    49     1    14
  1.3320334841062020E-01 a       975     0    49     1    15
  1.2309277443416913E-01 a       976     0    49     1    16
  1.3971570519244764E-02 a       977     0    49     1    17
  5.6756189669526058E-02 a       978     0    49     1    18
  1.4170094335533534E-01 a       979     0    49     1    19
 -2.0756201282096685E-02 a       980     0    49     1    20
  2.1558372798681869E-01 a       981     0    50     1     1
 -1.7589452784186110E-02 a       982     0    50     1     2
 -2.5919560038847458E-02 a       983     0    50     1     3
 -1.2279886765242920E-01 a       984     0    50     1     4
  1.3728818491034037E-02 a       985     0    50     1     5
  2.5419400142088124E-02 a       986     0    50     1     6
  1.5972900427903158E-01 a       987     0    50     1     7
  1.6289452836633794E-01 a       988     0    50     1     8
  2.0531815304331930E-01 a       989     0    50     1     9
 -1.2529057473355382E-01 a       990     0    50     1    10
 -1.6854930413511107E-01 a       991     0    50     1    11
  9.1042759663148454E-02 a       992     0    50     1    12
 -2.1084587727681661E-01 a       993     0    50     1    13
  1.7971252576467259E-02 a       994     0    50     1    14
 -1.4888819053206812E-01 a       995     0    50     1    15
 -9.7088890689549442E-02 a       996     0    50     1    16
 -1.9659783900327660E-01 a       997     0    50     1    17
  1.7010159610066033E-01 a       998     0    50     1    18
 -1.8006603261505330E-01 a       999     0    50     1    19
 -1.8466191048715250E-02 a      1000     0    50     1    20
  1.8282703226146418E-01 a      1001     0    51     1     1
 -1.6386108678217812E-01 a      1002     0    51     1     2
  1.7655206317939773E-01 a      1003     0    51     1     3
 -3.5556642316879231E-02 a      1004     0    51     1     4
 -2.2449654186302562E-01 a      1005     0    51     1     5
  1.8513109538024755E-01 a      1006     0    51     1     6
  9.3962850007181464E-02 a      1007     0    51     1     7
 -3.1288689266471043E-01 a      1008     0    51     1     8
 -1.6773829543855759E-01 a      1009     0    51     1     9
  2.2402983010616620E-01 a      1010     0    51     1    10
 -6.5400416668926639E-02 a      1011     0    51     1    11
  1.8493708248921878E-01 a      1012     0    51     1    12
 -1.1180288554803594E-01 a      1013     0    51     1    13
  4.6108125199447805E-02 a      1014     0    51     1    14
 -1.4799472584948736E-01 a      1015     0    51     1    15
 -2.9489589942850530E-01 a      1016     0    51     1    16
  6.3878692182625679E-02 a      1017     0    51     1    17
  4.5718810355551663E-02 a      1018     0    51     1    18
  1.6608478921862610E-01 a      1019     0    51     1    19
  9.2012424455245653E-03 a      1020     0    51     1    20
  1.7687665194900901E-01 a      1021     0    52     1     1
  6.2137767416638914E-02 a      1022     0    52     1     2
 -2.7368581576181467E-01 a      1023     0    52     1     3
  4.0333088736071228E-02 a      1024     0    52     1     4
  2.4987292070982398E-02 a      1025     0    52     1     5
 -3.0012161492840966E-01 a      1026     0    52     1     6
  5.7063996316878987E-02 a      1027     0    52     1     7
 -9.0312878540322692E-03 a      1028     0    52     1     8
 -1.3608990795614961E-01 a      1029     0    52     1     9
  2.5662804561140146E-01 a      1030     0    52     1    10
 -3.5815635744430141E-01 a      1031     0    52     1    11
 -2.5223203493027219E-01 a      1032     0    52     1    12
 -2.0133441551392656E-01 a      1033     0    52     1    13
 -1.2376001551981405E-01 a      1034     0    52     1    14
 -3.0153956420544241E-02 a      1035     0    52     1    15
  1.9939218936240929E-01 a      1036     0    52     1    16
 -2.5722498530456550E-01 a      1037     0    52     1    17
  1.5899876443107218E-02 a      1038     0    52     1    18
  2.8939091735509426E-01 a      1039     0    52     1    19
 -2.9553040777268291E-01 a      1040     0    52     1    20
 -2.8710271169356300E-01 a      1041     0    53     1     1
  1.0617957044056452E-01 a      1042     0    53     1     2
  5.2515098656787983E-03 a      1043     0    53     1     3
  8.6579030749867170E-02 a      1044     0    53     1     4
  1.1840199274689411E-01 a      1045     0    53     1     5
  1.0216052027082447E-02 a      1046     0    53     1     6
  1.1996450950353485E-01 a      1047     0    53     1     7
 -1.0734312138314564E-01 a      1048     0    53     1     8
  2.2821203854120717E-01 a      1049     0    53     1     9
  4.8679849080350064E-02 a      1050     0    53     1    10
 -1.9981488289359892E-01 a      1051     0    53     1    11
  1.1993091088143326E-01 a      1052     0    53     1    12
 -4.4039673096828913E-03 a      1053     0    53     1    13
 -1.2091954386229428E-01 a      1054     0    53     1    14
  1.3193756397377751E-01 a      1055     0    53     1    15
 -1.3866429478512099E-01 a      1056     0    53     1    16
 -1.6982024509060933E-01 a      1057     0    53     1    17
 -6.5862175441524937E-02 a      1058     0    53     1    18
 -1.4073979442383691E-01 a      1059     0    53     1    19
 -1.3886908411424648E-01 a      1060     0    53     1    20
 -1.4782391893589614E-01 a      1061     0    54     1     1
  3.3507949992204009E-02 a      1062     0    54     1     2
 -8.8356412654820055E-02 a      1063     0    54     1     3
 -2.8843809177089594E-02 a      1064     0    54     1     4
 -1.0511577000254466E-01 a      1065     0    54     1     5
  8.8776855740028637E-02 a      1066     0    54     1     6
 -1.8050911696913335E-01 a      1067     0    54     1     7
  1.9048014741405020E-01 a      1068     0    54     1     8
 -2.1355180408240862E-01 a      1069     0    54     1     9
  1.6313122987601242E-01 a      1070     0    54     1    10
  3.5674367593426251E-02 a      1071     0    54     1    11
 -1.0597207351085458E-01 a      1072     0    54     1    12
  2.2223619314238999E-01 a      1073     0    54     1    13
 -2.4419205535340285E-01 a      1074     0    54     1    14
 -7.7973020275603114E-02 a      1075     0    54     1    15
  1.0532118872068706E-01 a      1076     0    54     1    16
  9.7642447530196824E-02 a      1077     0    54     1    17
 -6.2865459212068523E-03 a      1078     0    54     1    18
  5.7100081481740186E-02 a      1079     0    54     1    19
 -6.1113462619050672E-02 a      1080     0    54     1    20
 -1.2627664713277878E-01 a      1081     0    55     1     1
  5.9156024097091198E-02 a      1082     0    55     1     2
 -1.2498340890202921E-01 a      1083     0    55     1     3
 -9.9287168204306830E-02 a      1084     0    55     1     4
 -1.1263094952082971E-01 a      1085     0    55     1     5
 -6.4804662504686361E-03 a      1086     0    55     1     6
  1.4725408361402584E-01 a      1087     0    55     1     7
  2.3309448136884692E-01 a      1088     0    55     1     8
 -1.3929679118218298E-02 a      1089     0    55     1     9
  1.4702323599439992E-02 a      1090     0    55     1    10
  2.4993263482231168E-01 a      1091     0    55     1    11
 -1.1891765675256578E-01 a      1092     0    55     1    12
 -1.8443239331183148E-01 a      1093     0    55     1    13
  2.5282712249158135E-01 a      1094     0    55     1    14
 -1.6995237770395721E-01 a      1095     0    55     1    15
 -1.0358107088253378E-01 a      1096     0    55     1    16
  3.4934184629635812E-01 a      1097     0    55     1    17
 -2.0504228382264589E-01 a      1098     0    55     1    18
 -1.3018593696250774E-01 a      1099     0    55     1    19
  1.5143178311574715E-01 a      1100     0    55     1    20
  6.0538951979284439E-02 a      1101     0    56     1     1
 -1.2529126181365207E-02 a      1102     0    56     1     2
  6.3579125613892409E-02 a      1103     0    56     1     3
 -9.0663979794701977E-02 a      1104     0    56     1     4
 -4.4694910634176917E-02 a      1105     0    56     1     5
 -1.1939518401578034E-01 a      1106     0    56     1     6
 -7.2415345754429025E-02 a      1107     0    56     1     7
  1.1979893858186133E-01 a      1108     0    56     1     8
  8.9374262251297257E-02 a      1109     0    56     1     9
 -1.4695809864588597E-01 a      1110     0    56     1    10
 -1.8391469396848920E-01 a      1111     0    56     1    11
 -2.2772198502810098E-01 a      1112     0    56     1    12
  1.8510300095134125E-01 a      1113     0    56     1    13
  2.7644508624354625E-01 a      1114     0    56     1    14
  9.6829869565918547E-02 a      1115     0    56     1    15
  6.1445218482033416E-02 a      1116     0    56     1    16
  2.0088346361519466E-01 a      1117     0    56     1    17
 -2.6646691682997332E-02 a      1118     0    56     1    18
  1.3348976995126088E-01 a      1119     0    56     1    19
 -1.7976746415769674E-02 a      1120     0    56     1    20
 -3.3592210580397415E-02 a      1121     0    57     1     1
 -1.1140363570588802E-02 a      1122     0    57     1     2
 -9.4887152208532194E-02 a      1123     0    57     1     3
 -5.8344477684961704E-02 a      1124     0    57     1     4
 -1.2334875688316291E-01 a      1125     0    57     1     5
 -4.9535736592649378E-02 a      1126     0    57     1     6
 -1.0396780804765078E-01 a      1127     0    57     1     7
 -1.3079390891766191E-01 a      1128     0    57     1     8
 -5.0641568047509614E-03 a      1129     0    57     1     9
  6.5203787173292949E-02 a      1130     0    57     1    10
  2.5064547247825220E-01 a      1131     0    57     1    11
  5.0765664172881177E-02 a      1132     0    57     1    12
  1.3621893481659150E-01 a      1133     0    57     1    13
  1.7330744647633850E-01 a      1134     0    57     1    14
 -1.9501032649930500E-01 a      1135     0    57     1    15
  2.3194215660889853E-01 a      1136     0    57     1    16
 -2.4717250190689166E-01 a      1137     0    57     1    17
  1.0508609013537833E-01 a      1138     0    57     1    18
  7.5428677944117506E-02 a      1139     0    57     1    19
 -7.3777579433949511E-02 a      1140     0    57     1    20
 -8.4324270179116173E-02 a      1141     0    58     1     1
 -1.8390090812169696E-01 a      1142     0    58     1     2
  6.2888481678860450E-02 a      1143     0    58     1     3
 -1.0179175480517548E-01 a      1144     0    58     1     4
  2.3925018930686218E-02 a      1145     0    58     1     5
  9.4175929472810810E-02 a      1146     0    58     1     6
 -1.3122045234777649E-01 a      1147     0    58     1     7
  6.3076040946224751E-02 a      1148     0    58     1     8
  1.2522054040856476E-01 a      1149     0    58     1     9
  7.5541170487054929E-02 a      1150     0    58     1    10
  2.1388708270385781E-01 a      1151     0    58     1    11
  2.3616555168581152E-01 a      1152     0    58     1    12
  1.2821384244406450E-01 a      1153     0    58     1    13
  8.9014776517946675E-02 a      1154     0    58     1    14
  1.4995743312042423E-01 a      1155     0    58     1    15
  2.0573339218409853E-01 a      1156     0    58     1    16
  1.6363482313322694E-01 a      1157     0    58     1    17
 -7.5892166987264476E-03 a      1158     0    58     1    18
  1.4988610199349507E-02 a      1159     0    58     1    19
 -4.4377241972794350E-02 a      1160     0    58     1    20
  1.9181915909850099E-02 a      1161     0    59     1     1
 -1.5026703441898476E-01 a      1162     0    59     1     2
 -1.6784590579782449E-01 a      1163     0    59     1     3
  1.0754897454561449E-02 a      1164     0    59     1     4
 -7.9665157070032133E-02 a      1165     0    59     1     5
  3.9925935958119753E-02 a      1166     0    59     1     6
  2.9747156995194751E-01 a      1167     0    59     1     7
 -5.0864594316961567E-02 a      1168     0    59     1     8
  8.8224544804893414E-03 a      1169     0    59     1     9
  8.5841135374283797E-02 a      1170     0    59     1    10
  1.7571123991424009E-01 a      1171     0    59     1    11
  6.6538364065315186E-02 a      1172     0    59     1    12
 -8.9742138628508508E-02 a      1173     0    59     1    13
 -7.7801852228674376E-02 a      1174     0    59     1    14
  1.2367364171015433E-01 a      1175     0    59     1    15
  1.1509087919774610E-01 a      1176     0    59     1    16
 -1.2665263543759908E-01 a      1177     0    59     1    17
 -1.1861138399784975E-01 a      1178     0    59     1    18
 -4.8828121693827782E-02 a      1179     0    59     1    19
  1.1770049453763187E-01 a      1180     0    59     1    20
 -1.4450576994818767E-02 a      1181     0    60     1     1
  1.6895473767918998E-01 a      1182     0    60     1     2
  5.4928832872476609E-02 a      1183     0    60     1     3
  8.0998089364713852E-02 a      1184     0    60     1     4
 -1.8153217845628372E-01 a      1185     0    60     1     5
  5.7520568658675914E-02 a      1186     0    60     1     6
 -1.6691678531603235E-01 a      1187     0    60     1     7
  2.2593397609482868E-01 a      1188     0    60     1     8
 -4.2640188391264801E-02 a      1189     0    60     1     9
  1.2159444746674852E-01 a      1190     0    60     1    10
  1.5538437040939865E-01 a      1191     0    60     1    11
 -8.9565931839045085E-02 a      1192     0    60     1    12
  1.8652270480365421E-01 a      1193     0    60     1    13
 -8.9545973484118219E-03 a      1194     0    60     1    14
  1.6625109427569998E-01 a      1195     0    60     1    15
  1.6258243872162040E-01 a      1196     0    60     1    16
 -1.5916326894750851E-02 a      1197     0    60     1    17
 -1.1288524185341689E-01 a      1198     0    60     1    18
 -8.0057845040665543E-02 a      1199     0    60     1    19
  1.1102304272220370E-01 a      1200     0    60     1    20
  1.5728326986334848E-01 a      1201     0    61     1     1
  2.4791425663798671E-02 a      1202     0    61     1     2
 -8.2787103875461107E-02 a      1203     0    61     1     3
 -3.9686674132684084E-02 a      1204     0    61     1     4
  2.3728048957845155E-02 a      1205     0    61     1     5
 -1.8738189612759651E-02 a      1206     0    61     1     6
  8.6510669803784704E-02 a      1207     0    61     1     7
 -5.7534156448468161E-02 a      1208     0    61     1     8
  2.3042319613894124E-01 a      1209     0    61     1     9
  6.4512055224739892E-02 a      1210     0    61     1    10
 -2.1990987876559048E-01 a      1211     0    61     1    11
 -1.8476477439320682E-02 a      1212     0    61     1    12
  2.9093701532470740E-03 a      1213     0    61     1    13
  3.0806844805730133E-01 a      1214     0    61     1    14
  5.8208258883552397E-02 a      1215     0    61     1    15
 -2.2715178887223311E-02 a      1216     0    61     1    16
 -1.5623170697923936E-02 a      1217     0    61     1    17
  8.1097171892098072E-02 a      1218     0    61     1    18
 -1.2249590334562087E-01 a      1219     0    61     1    19
 -3.4181787100640799E-02 a      1220     0    61     1    20
 -1.7367633450908515E-01 a      1221     0    62     1     1
  4.2077979638816633E-02 a      1222     0    62     1     2
 -1.1346927482733828E-01 a      1223     0    62     1     3
  8.8182510775949324E-02 a      1224     0    62     1     4
 -1.1477468925199371E-03 a      1225     0    62     1     5
  1.4498360683700048E-01 a      1226     0    62     1     6
 -1.0852337695522375E-01 a      1227     0    62     1     7
  3.5258526478879437E-01 a      1228     0    62     1     8
 -1.9074974274715256E-01 a      1229     0    62     1     9
 -1.1691637300384863E-01 a      1230     0    62     1    10
  1.1007793208808987E-01 a      1231     0    62     1    11
 -1.9794045831519358E-01 a      1232     0    62     1    12
  7.1321457440727445E-02 a      1233     0    62     1    13
 -1.7389412361489898E-01 a      1234     0    62     1    14
 -1.0191041412920812E-02 a      1235     0    62     1    15
  2.4807509861217273E-02 a      1236     0    62     1    16
  8.9772931833084935E-02 a      1237     0    62     1    17
  1.0642433202272790E-02 a      1238     0    62     1    18
 -1.3473307291332046E-01 a      1239     0    62     1    19
  1.0378094591599647E-01 a      1240     0    62     1    20
 -6.6548776609349325E-02 a      1241     0    63     1     1
 -7.6434849581065037E-03 a      1242     0    63     1     2
 -1.0254111264468466E-01 a      1243     0    63     1     3
 -3.3692890589140510E-02 a      1244     0    63     1     4
 -1.8084125334876161E-02 a      1245     0    63     1     5
 -3.7086172741771395E-02 a      1246     0    63     1     6
 -5.4902261433178008E-02 a      1247     0    63     1     7
 -8.5332462974460135E-02 a      1248     0    63     1     8
  1.4597334733728082E-01 a      1249     0    63     1     9
  7.6375552418259047E-03 a      1250     0    63     1    10
 -1.2511222226785036E-02 a      1251     0    63     1    11
  7.4536297606762336E-02 a      1252     0    63     1    12
  1.0608282575748604E-01 a      1253     0    63     1    13
 -1.3426363706561667E-01 a      1254     0    63     1    14
 -2.0386871107275029E-01 a      1255     0    63     1    15
  1.7091509902804843E-02 a      1256     0    63     1    16
  1.2929446017661370E-01 a      1257     0    63     1    17
  2.9200833467571179E-02 a      1258     0    63     1    18
  1.0646559461450086E-02 a      1259     0    63     1    19
  1.2116266050422846E-04 a      1260     0    63     1    20
 -1.4178138127626416E-01 a      1261     0    64     1     1
  9.7012259063896836E-02 a      1262     0    64     1     2
 -1.8904891470753277E-01 a      1263     0    64     1     3
 -3.4333561779696375E-03 a      1264     0    64     1     4
  1.0339364532825741E-01 a      1265     0    64     1     5
  4.4700513378367335E-03 a      1266     0    64     1     6
 -4.4757664916168583E-03 a      1267     0    64     1     7
  8.3936775764265836E-02 a      1268     0    64     1     8
  1.3531439867299153E-01 a      1269     0    64     1     9
  1.0355251987115570E-01 a      1270     0    64     1    10
 -1.5477846396478541E-02 a      1271     0    64     1    11
 -1.4677392875335285E-01 a      1272     0    64     1    12
  2.2129450315656218E-01 a      1273     0    64     1    13
 -3.9092320422473958E-02 a      1274     0    64     1    14
 -1.4820007687747608E-02 a      1275     0    64     1    15
  9.8248296276877103E-02 a      1276     0    64     1    16
  7.4463700340530237E-02 a      1277     0    64     1    17
  7.7189160360534220E-02 a      1278     0    64     1    18
  3.0953958823148945E-02 a      1279     0    64     1    19
  4.4243822742690793E-02 a      1280     0    64     1    20
  1.3295649156773781E-01 a      1281     0    65     1     1
 -2.7730808262839631E-02 a      1282     0    65     1     2
  1.3936287470627956E-01 a      1283     0    65     1     3
 -8.0082650984069276E-02 a      1284     0    65     1     4
 -7.6396101051525014E-02 a      1285     0    65     1     5
  1.0331816053710412E-02 a      1286     0    65     1     6
  1.8782180737466378E-01 a      1287     0    65     1     7
 -7.8270673759347029E-02 a      1288     0    65     1     8
  4.5699123962233294E-02 a      1289     0    65     1     9
 -7.9201422325020657E-02 a      1290     0    65     1    10
  4.1556746990425886E-02 a      1291     0    65     1    11
 -2.0469426255688913E-01 a      1292     0    65     1    12
  1.3371637584723131E-01 a      1293     0    65     1    13
 -1.4310408047755330E-01 a      1294     0    65     1    14
 -1.5992964112333380E-01 a      1295     0    65     1    15
 -7.9153051132837729E-02 a      1296     0    65     1    16
  1.3726711667496611E-01 a      1297     0    65     1    17
 -2.6660174823023290E-02 a      1298     0    65     1    18
 -7.2276769294881138E-02 a      1299     0    65     1    19
  5.8706718489486020E-04 a      1300     0    65     1    20
 -1.7097962457210302E-02 a      1301     0    66     1     1
 -4.2350372005231222E-02 a      1302     0    66     1     2
  9.0127490598336621E-02 a      1303     0    66     1     3
 -6.3576874896130869E-02 a      1304     0    66     1     4
 -5.6701863862435913E-02 a      1305     0    66     1     5
 -1.8159844046278306E-01 a      1306     0    66     1     6
  1.4140873883329436E-01 a      1307     0    66     1     7
  1.3078683472850394E-01 a      1308     0    66     1     8
 -2.8416916246855206E-01 a      1309     0    66     1     9
 -8.3741723354540498E-02 a      1310     0    66     1    10
  2.1453803627833806E-01 a      1311     0    66     1    11
 -1.4233594170326447E-01 a      1312     0    66     1    12
  2.0435977038290493E-01 a      1313     0    66     1    13
  1.7498875991181054E-01 a      1314     0    66     1    14
 -1.2051927276038055E-01 a      1315     0    66     1    15
  3.1456918705491305E-02 a      1316     0    66     1    16
 -3.3118683211773692E-02 a      1317     0    66     1    17
 -1.6694465335679848E-01 a      1318     0    66     1    18
  1.2500835459563886E-01 a      1319     0    66     1    19
 -2.2014507639490970E-02 a      1320     0    66     1    20
 -9.9675839509207970E-02 a      1321     0    67     1     1
  3.4781057958558674E-02 a      1322     0    67     1     2
 -9.1353428295943423E-02 a      1323     0    67     1     3
  4.0399402698071150E-02 a      1324     0    67     1     4
  8.7591063341750389E-02 a      1325     0    67     1     5
 -1.9633897892667612E-01 a      1326     0    67     1     6
  4.0861875267379527E-02 a      1327     0    67     1     7
 -9.1127009234773057E-02 a      1328     0    67     1     8
  2.9700679229553867E-01 a      1329     0    67     1     9
 -8.3041482348000933E-02 a      1330     0    67     1    10
  7.6526064857129608E-02 a      1331     0    67     1    11
 -1.7332830397963964E-01 a      1332     0    67     1    12
 -1.0544913114332283E-01 a      1333     0    67     1    13
 -3.6359691071090272E-02 a      1334     0    67     1    14
 -2.5957769366128652E-01 a      1335     0    67     1    15
  5.7919995203817388E-02 a      1336     0    67     1    16
 -5.2440765954025102E-02 a      1337     0    67     1    17
  1.4435390488114930E-01 a      1338     0    67     1    18
  2.6777368159456878E-02 a      1339     0    67     1    19
  1.0634074072519660E-01 a      1340     0    67     1    20
 -8.6143715758999428E-02 a      1341     0    68     1     1
 -1.1634595012863522E-01 a      1342     0    68     1     2
 -1.0142394946029608E-02 a      1343     0    68     1     3
  3.9925565771938572E-02 a      1344     0    68     1     4
 -8.5979248455408233E-02 a      1345     0    68     1     5
  1.5413122903501469E-01 a      1346     0    68     1     6
 -2.0662672900140713E-01 a      1347     0    68     1     7
  1.5626785690913625E-01 a      1348     0    68     1     8
 -1.9695505243969394E-01 a      1349     0    68     1     9
 -4.2884886372688065E-02 a      1350     0    68     1    10
  3.0651724651678994E-02 a      1351     0    68     1    11
  3.1299857144579099E-02 a      1352     0    68     1    12
  1.1314767622296203E-01 a      1353     0    68     1    13
 -3.2627430849979551E-02 a      1354     0    68     1    14
  8.1791019313495639E-02 a      1355     0    68     1    15
 -8.5088204999783035E-02 a      1356     0    68     1    16
  9.7871788581648619E-02 a      1357     0    68     1    17
 -7.2010724716275315E-02 a      1358     0    68     1    18
 -2.0558509698007158E-02 a      1359     0    68     1    19
 -5.7350004986023780E-02 a      1360     0    68     1    20
 -3.4028184577683425E-02 a      1361     0    69     1     1
  2.0957706655285364E-02 a      1362     0    69     1     2
 -8.5117209215387554E-03 a      1363     0    69     1     3
 -5.3504272089947451E-02 a      1364     0    69     1     4
  8.3148734433574581E-02 a      1365     0    69     1     5
 -5.1564812283403191E-02 a      1366     0    69     1     6
  5.3557793329365035E-02 a      1367     0    69     1     7
 -1.1508866390906002E-01 a      1368     0    69     1     8
 -8.3267149445133984E-02 a      1369     0    69     1     9
 -1.7732628868858272E-01 a      1370     0    69     1    10
  1.1030995279823874E-01 a      1371     0    69     1    11
  1.7499362016599077E-01 a      1372     0    69     1    12
 -7.9610705601518270E-02 a      1373     0    69     1    13
 -6.8990203100479597E-02 a      1374     0    69     1    14
  1.3525205926030182E-01 a      1375     0    69     1    15
  8.1316476467467078E-02 a      1376     0    69     1    16
 -3.1711316327110738E-02 a      1377     0    69     1    17
  9.6664404308761998E-02 a      1378     0    69     1    18
 -1.1584809999430788E-01 a      1379     0    69     1    19
  7.2044036813677451E-02 a      1380     0    69     1    20
  4.7867579283555992E-02 a      1381     0    70     1     1
 -1.1430528525319261E-01 a      1382     0    70     1     2
 -6.2764671793597307E-02 a      1383     0    70     1     3
  1.0000202712672482E-01 a      1384     0    70     1     4
 -8.6061179528802975E-02 a      1385     0    70     1     5
 -3.5908946094213239E-02 a      1386     0    70     1     6
 -5.7862380425341281E-03 a      1387     0    70     1     7
 -4.1537265004079241E-02 a      1388     0    70     1     8
 -1.0859597701124210E-01 a      1389     0    70     1     9
  7.8276589702153593E-02 a      1390     0    70     1    10
  3.1262340047094571E-02 a      1391     0    70     1    11
  1.4124480358377328E-01 a      1392     0    70     1    12
 -1.6689192323203578E-01 a      1393     0    70     1    13
  5.9330986018404565E-02 a      1394     0    70     1    14
  6.8913596101120370E-02 a      1395     0    70     1    15
 -1.8254524382438492E-01 a      1396     0    70     1    16
  1.1280274226040536E-01 a      1397     0    70     1    17
  4.8733726858887404E-02 a      1398     0    70     1    18
 -2.9492085294876480E-01 a      1399     0    70     1    19
 -3.4243652599882442E-02 a      1400     0    70     1    20
  3.3981327236750090E-02 a      1401     0    71     1     1
  2.6815851595996854E-02 a      1402     0    71     1     2
  3.6951243420982910E-02 a      1403     0    71     1     3
  2.1004823863024114E-01 a      1404     0    71     1     4
  1.4751049154163581E-01 a      1405     0    71     1     5
  4.3603248670728040E-02 a      1406     0    71     1     6
 -3.9838787784871998E-03 a      1407     0    71     1     7
  2.6417142830689727E-01 a      1408     0    71     1     8
  1.0926019459654787E-01 a      1409     0    71     1     9
  1.1640790208640645E-02 a      1410     0    71     1    10
 -1.7713668706643387E-01 a      1411     0    71     1    11
  2.4459196056741181E-01 a      1412     0    71     1    12
 -2.3692966193355616E-01 a      1413     0    71     1    13
 -1.4935356438122524E-01 a      1414     0    71     1    14
  1.7780641227771851E-01 a      1415     0    71     1    15
 -5.7923631594595151E-03 a      1416     0    71     1    16
 -7.4214756734821224E-02 a      1417     0    71     1    17
  7.7526836714510118E-03 a      1418     0    71     1    18
  2.0757573032509366E-01 a      1419     0    71     1    19
 -4.4893566439096234E-02 a      1420     0    71     1    20
  2.7246976876005452E-01 a      1421     0    72     1     1
  1.2360419156822262E-01 a      1422     0    72     1     2
 -1.5316329279728268E-02 a      1423     0    72     1     3
 -2.7164368597376704E-01 a      1424     0    72     1     4
  3.3607301512814372E-03 a      1425     0    72     1     5
 -1.9533483637869922E-01 a      1426     0    72     1     6
 -9.5091942763523684E-03 a      1427     0    72     1     7
  3.7402512225455702E-02 a      1428     0    72     1     8
  3.5934201071331717E-01 a      1429     0    72     1     9
 -1.2348401893520235E-01 a      1430     0    72     1    10
 -1.1698905948448822E-01 a      1431     0    72     1    11
  2.0543103584928951E-01 a      1432     0    72     1    12
  3.0050449384808403E-01 a      1433     0    72     1    13
 -1.0729709063983081E-01 a      1434     0    72     1    14
  1.6015833365168400E-01 a      1435     0    72     1    15
 -3.2355516619694041E-01 a      1436     0    72     1    16
 -9.7747344396412458E-02 a      1437     0    72     1    17
 -8.0767383755724082E-03 a      1438     0    72     1    18
 -1.4175905622881999E-01 a      1439     0    72     1    19
 -2.2115764227306718E-02 a      1440     0    72     1    20
  1.8213829246199187E-01 a      1441     0    73     1     1
  1.9032655351180917E-02 a      1442     0    73     1     2
 -7.5970299136585623E-02 a      1443     0    73     1     3
 -1.8263007594099101E-02 a      1444     0    73     1     4
 -2.1126709917476526E-02 a      1445     0    73     1     5
  1.9634111809781463E-02 a      1446     0    73     1     6
  8.9581069388841111E-02 a      1447     0    73     1     7
  1.1726756704086827E-01 a      1448     0    73     1     8
 -1.5742190250462479E-01 a      1449     0    73     1     9
 -3.4052787705065403E-02 a      1450     0    73     1    10
 -1.9167814079621051E-01 a      1451     0    73     1    11
 -6.4252528528392153E-03 a      1452     0    73     1    12
  1.5384747455328188E-01 a      1453     0    73     1    13
  2.0512456309118207E-01 a      1454     0    73     1    14
  5.1976965907421839E-02 a      1455     0    73     1    15
  1.1432535463332547E-01 a      1456     0    73     1    16
  3.3669304367016539E-02 a      1457     0    73     1    17
  1.1519326967986834E-01 a      1458     0    73     1    18
 -2.1656978370565020E-02 a      1459     0    73     1    19
  1.5232171129433900E-01 a      1460     0    73     1    20
  1.5633185436173615E-02 a      1461     0    74     1     1
 -1.5312824282495091E-01 a      1462     0    74     1     2
 -3.3736261117490146E-02 a      1463     0    74     1     3
  9.8984089707810627E-02 a      1464     0    74     1     4
  1.1412019688656824E-01 a      1465     0    74     1     5
 -1.0487883916927135E-01 a      1466     0    74     1     6
  7.9229882868334670E-02 a      1467     0    74     1     7
  5.3965908314290885E-02 a      1468     0    74     1     8
  3.2459523889983821E-01 a      1469     0    74     1     9
 -5.4750687314664315E-02 a      1470     0    74     1    10
 -1.1262810981030406E-01 a      1471     0    74     1    11
 -6.0096032081444883E-03 a      1472     0    74     1    12
  1.2451810898757928E-01 a      1473     0    74     1    13
 -1.5416204919740603E-01 a      1474     0    74     1    14
 -7.2575657516196906E-02 a      1475     0    74     1    15
 -3.0669160343754204E-01 a      1476     0    74     1    16
 -3.6928375182910540E-02 a      1477     0    74     1    17
  8.0274288062300470E-02 a      1478     0    74     1    18
 -2.4924601127413595E-01 a      1479     0    74     1    19
 -4.8652999392909714E-02 a      1480     0    74     1    20
 -1.5652867190599058E-02 a      1481     0    75     1     1
 -4.2351986474611664E-02 a      1482     0    75     1     2
  8.3934317411487991E-02 a      1483     0    75     1     3
  6.5804114151788634E-02 a      1484     0    75     1     4
  6.9689687928462946E-02 a      1485     0    75     1     5
  1.4223638175079566E-02 a      1486     0    75     1     6
  7.1821029892043128E-02 a      1487     0    75     1     7
 -5.8257858393849768E-02 a      1488     0    75     1     8
  2.2543531688934984E-02 a      1489     0    75     1     9
 -8.1246463498722915E-02 a      1490     0    75     1    10
 -1.5190127711659854E-01 a      1491     0    75     1    11
 -1.1696994310027144E-01 a      1492     0    75     1    12
  2.4849985705429381E-01 a      1493     0    75     1    13
 -1.1197761779285982E-02 a      1494     0    75     1    14
 -3.6603998762515626E-02 a      1495     0    75     1    15
  6.5932862989964314E-02 a      1496     0    75     1    16
  5.2639357550693662E-02 a      1497     0    75     1    17
  2.3414229022853364E-01 a      1498     0    75     1    18
 -1.8724236995310738E-02 a      1499     0    75     1    19
 -8.9590691839159624E-03 a      1500     0    75     1    20
  4.7909171407418234E-04 a      1501     0    76     1     1
  1.4140007671024424E-01 a      1502     0    76     1     2
 -3.1336452782668958E-02 a      1503     0    76     1     3
 -5.6602302955693580E-02 a      1504     0    76     1     4
  9.6386599958267774E-02 a      1505     0    76     1     5
  1.4985944016076272E-03 a      1506     0    76     1     6
 -7.2673170479317303E-03 a      1507     0    76     1     7
  9.2560777366418514E-03 a      1508     0    76     1     8
  1.4797534236386248E-01 a      1509     0    76     1     9
  1.8550263221923202E-01 a      1510     0    76     1    10
  6.9612702911906910E-02 a      1511     0    76     1    11
  4.1030728205442756E-02 a      1512     0    76     1    12
  7.9059205615946929E-03 a      1513     0    76     1    13
 -3.4091077390843334E-02 a      1514     0    76     1    14
 -2.6289467389938154E-01 a      1515     0    76     1    15
 -2.9904989395548972E-02 a      1516     0    76     1    16
 -1.0758719593549232E-01 a      1517     0    76     1    17
 -2.0753726560078404E-02 a      1518     0    76     1    18
  1.1409890779494958E-01 a      1519     0    76     1    19
 -8.2930563668454402E-02 a      1520     0    76     1    20
  2.9559910437812989E-02 a      1521     0    77     1     1
  5.5993733819885240E-02 a      1522     0    77     1     2
  1.0291161842077687E-01 a      1523     0    77     1     3
 -1.5490656984762242E-02 a      1524     0    77     1     4
  1.4753688723660566E-01 a      1525     0    77     1     5
  1.8191823436304461E-01 a      1526     0    77     1     6
 -1.4013927687740035E-01 a      1527     0    77     1     7
 -7.5467737001404619E-02 a      1528     0    77     1     8
 -5.9349737765559497E-02 a      1529     0    77     1     9
 -1.7449964282294361E-01 a      1530     0    77     1    10
 -3.3850765520136113E-02 a      1531     0    77     1    11
  3.9033222890999170E-02 a      1532     0    77     1    12
  7.1830385876559918E-02 a      1533     0    77     1    13
 -6.6718460724182152E-02 a      1534     0    77     1    14
 -9.1594664848438881E-02 a      1535     0    77     1    15
  6.0099485839736233E-02 a      1536     0    77     1    16
  5.1435742696142983E-02 a      1537     0    77     1    17
 -2.0047270963332386E-01 a      1538     0    77     1    18
  1.4208203417258117E-01 a      1539     0    77     1    19
  3.1161676947388028E-02 a      1540     0    77     1    20
  4.1877147851978665E-02 a      1541     0    78     1     1
  1.2096312053416765E-01 a      1542     0    78     1     2
  1.3926084502371268E-02 a      1543     0    78     1     3
  1.0275004122916399E-01 a      1544     0    78     1     4
 -5.9683312813116139E-02 a      1545     0    78     1     5
  2.5670747970762915E-02 a      1546     0    78     1     6
  7.6605043393873126E-02 a      1547     0    78     1     7
  1.4639852462159372E-01 a      1548     0    78     1     8
 -2.0538236360609444E-01 a      1549     0    78     1     9
 -9.6519445055799818E-02 a      1550     0    78     1    10
 -2.4143941823288961E-01 a      1551     0    78     1    11
 -2.5798537474160571E-01 a      1552     0    78     1    12
 -7.3954096702384037E-02 a      1553     0    78     1    13
  3.6488437641800486E-02 a      1554     0    78     1    14
  6.2194440526182067E-02 a      1555     0    78     1    15
 -1.6065067577511152E-01 a      1556     0    78     1    16
  5.0689559565503493E-02 a      1557     0    78     1    17
  8.2212042367092505E-03 a      1558     0    78     1    18
 -1.6334735108924059E-01 a      1559     0    78     1    19
  1.7542083374312525E-02 a      1560     0    78     1    20
  2.0100182209013498E-01 a      1561     0    79     1     1
  3.1544045500002299E-01 a      1562     0    79     1     2
  7.3190547187623828E-02 a      1563     0    79     1     3
  7.7661160046316154E-03 a      1564     0    79     1     4
  5.6436755999001158E-02 a      1565     0    79     1     5
 -4.5345338477245180E-02 a      1566     0    79     1     6
 -8.8221099180674181E-02 a      1567     0    79     1     7
  2.6621405325086795E-02 a      1568     0    79     1     8
  2.1500133750317141E-01 a      1569     0    79     1     9
 -1.0486886799351107E-03 a      1570     0    79     1    10
 -1.7285403163640850E-01 a      1571     0    79     1    11
 -2.3857599423600354E-01 a      1572     0    79     1    12
  7.1837583130699961E-02 a      1573     0    79     1    13
  1.4889360939695623E-01 a      1574     0    79     1    14
  5.6921661105854707E-03 a      1575     0    79     1    15
 -1.3464397880598686E-01 a      1576     0    79     1    16
 -4.6738446295366068E-02 a      1577     0    79     1    17
  1.9550500349806296E-01 a      1578     0    79     1    18
 -1.2181346721430758E-01 a      1579     0    79     1    19
 -4.1541622439858206E-02 a      1580     0    79     1    20
  1.1904587424487768E-01 a      1581     0    80     1     1
  1.7477135222238310E-01 a      1582     0    80     1     2
 -4.3756879485811875E-02 a      1583     0    80     1     3
 -1.7646558839778104E-02 a      1584     0    80     1     4
  2.3819707011624178E-01 a      1585     0    80     1     5
  1.0983269492426459E-01 a      1586     0    80     1     6
  3.9240640389247008E-03 a      1587     0    80     1     7
 -1.2487643394219701E-01 a      1588     0    80     1     8
  6.1161053531776206E-02 a      1589     0    80     1     9
  1.1533327053887630E-02 a      1590     0    80     1    10
 -1.6719352014722638E-01 a      1591     0    80     1    11
 -1.2819163238121200E-02 a      1592     0    80     1    12
 -5.3502090497371396E-02 a      1593     0    80     1    13
  7.3833475752677818E-02 a      1594     0    80     1    14
 -2.8556519870049213E-01 a      1595     0    80     1    15
 -1.6732464032986331E-02 a      1596     0    80     1    16
  3.6481935737994214E-02 a      1597     0    80     1    17
 -2.0618629590403958E-01 a      1598     0    80     1    18
  2.6521880048988883E-01 a      1599     0    80     1    19
 -1.6420921912728187E-01 a      1600     0    80     1    20
 -1.1925892915190459E+00 b      1601     1     1
  1.3133948413731715E+00 b      1602     1     2
  1.0497588391398560E+00 b      1603     1     3
  1.0322935847621231E+00 b      1604     1     4
 -5.5062853752514740E-01 b      1605     1     5
 -8.8097685380656110E-01 b      1606     1     6
 -8.3445484496715172E-01 b      1607     1     7
 -6.7842482415529870E-01 b      1608     1     8
  1.0674846910627092E+00 b      1609     1     9
 -6.5036299030074607E-01 b      1610     1    10
  9.5508301638283388E-01 b      1611     1    11
 -1.3735658286941463E+00 b      1612     1    12
  1.1439140844447868E+00 b      1613     1    13
  8.7995361859924848E-01 b      1614     1    14
  1.4148711560422564E+00 b      1615     1    15
 -3.9994218684840888E-01 b      1616     1    16
  1.3027079996332678E+00 b      1617     1    17
 -5.4733473502228214E-01 b      1618     1    18
 -7.7939732587904376E-01 b      1619     1    19
 -3.9673013280599367E-01 b      1620     1    20
  6.5752099544293202E-02 a      1621     1     1     2     1
  2.7411285891083637E-01 a      1622     1     1     2     2
 -5.9461381208098063E-01 a      1623     1     1     2     3
  4.3581975958049107E-01 a      1624     1     1     2     4
 -3.2620020424012525E-01 a      1625     1     1     2     5
  5.4736984120806698E-01 a      1626     1     1     2     6
 -3.4591903891448506E-01 a      1627     1     1     2     7
