################################################################################
# Neural network connection values (weights and biases).
################################################################################
# Col  Name       Description
################################################################################
# 1    connection Neural network connection value.
# 2    t          Connection type (a = weight, b = bias).
# 3    index      Index enumerating weights.
# 4    l_s        Starting point layer (end point layer for biases).
# 5    n_s        Starting point neuron in starting layer (end point neuron for biases).
# 6    l_e        End point layer.
# 7    n_e        End point neuron in end layer.
################################################################################
#                      1 2         3     4     5     6     7
#             connection t     index   l_s   n_s   l_e   n_e
############################################################
  1.4826303448037262E-01 a         1     0     1     1     1
  2.8753104178089711E-01 a         2     0     1     1     2
 -4.3960085708338664E-01 a         3     0     1     1     3
  1.2365976575058689E-01 a         4     0     1     1     4
 -9.6451992557437902E-02 a         5     0     1     1     5
  5.4802693922016844E-02 a         6     0     1     1     6
  1.8847363562238242E-01 a         7     0     1     1     7
  3.5138059017415613E-01 a         8     0     1     1     8
 -1.4852913323672404E-01 a         9     0     1     1     9
 -1.6700309861245902E-01 a        10     0     1     1    10
  1.9100668173555510E-01 a        11     0     1     1    11
 -2.7866688457572963E-01 a        12     0     1     1    12
 -7.9842021646131189E-02 a        13     0     1     1    13
  9.6855900221641769E-02 a        14     0     1     1    14
  7.1716268436234451E-02 a        15     0     1     1    15
 -2.4772997973665874E-04 a        16     0     1     1    16
 -4.7079494920976633E-01 a        17     0     1     1    17
 -2.4703112729280118E-02 a        18     0     1     1    18
  5.0290707136505727E-02 a        19     0     1     1    19
 -8.8447919228138605E-01 a        20     0     1     1    20
 -5.0662366327504059E-03 a        21     0     2     1     1
 -3.5321920247232524E-01 a        22     0     2     1     2
  1.2828658396249748E-01 a        23     0     2     1     3
  1.1751811404477818E-02 a        24     0     2     1     4
 -2.3375324533634281E-01 a        25     0     2     1     5
 -2.6633253665380070E-02 a        26     0     2     1     6
  3.9149976127903896E-01 a        27     0     2     1     7
 -7.5325774788975217E-02 a        28     0     2     1     8
  3.4958150891912287E-02 a        29     0     2     1     9
  3.0126215074102340E-02 a        30     0     2     1    10
 -4.8531140902158418E-02 a        31     0     2     1    11
 -2.3856797753589402E-02 a        32     0     2     1    12
  7.9740941753806582E-02 a        33     0     2     1    13
 -9.1775826663368809E-01 a        34     0     2     1    14
 -4.9958642994335709E-02 a        35     0     2     1    15
  3.8275624516262097E-01 a        36     0     2     1    16
  4.0156585706252795E-01 a        37     0     2     1    17
 -1.6686803321625321E-01 a        38     0     2     1    18
 -1.4013282649030162E-01 a        39     0     2     1    19
  5.7670371726527087E-02 a        40     0     2     1    20
 -3.9502587625791175E-02 a        41     0     3     1     1
  8.3718719416017301E-02 a        42     0     3     1     2
  7.4097907496803478E-02 a        43     0     3     1     3
  2.7798845986564021E-02 a        44     0     3     1     4
 -5.0633115458350461E-02 a        45     0     3     1     5
 -1.2571296161512494E-01 a        46     0     3     1     6
  1.0533337967851884E-01 a        47     0     3     1     7
 -9.9461168119217874E-02 a        48     0     3     1     8
 -1.5803475486154592E-01 a        49     0     3     1     9
  1.4440383356256320E-01 a        50     0     3     1    10
  6.9762036845187766E-02 a        51     0     3     1    11
  1.6189893622827087E-01 a        52     0     3     1    12
  4.6138233354731648E-02 a        53     0     3     1    13
 -3.5274718652669478E-02 a        54     0     3     1    14
 -4.2239179165527725E-02 a        55     0     3     1    15
  6.8718841761091179E-02 a        56     0     3     1    16
  8.2567907578213293E-02 a        57     0     3     1    17
 -2.2768773045836821E-01 a        58     0     3     1    18
  2.0639379593938340E-01 a        59     0     3     1    19
 -1.0762907866878745E-01 a        60     0     3     1    20
 -5.4223672866549631E-02 a        61     0     4     1     1
  1.0370413899291123E-01 a        62     0     4     1     2
  6.8100594826927818E-01 a        63     0     4     1     3
  4.3111926264667616E-02 a        64     0     4     1     4
  3.3226575549719589E-01 a        65     0     4     1     5
 -4.9154043832496726E-02 a        66     0     4     1     6
 -2.3747085016637229E-01 a        67     0     4     1     7
 -1.8311547355175387E-01 a        68     0     4     1     8
 -9.5452549573499315E-02 a        69     0     4     1     9
  3.3918174517489719E-01 a        70     0     4     1    10
 -2.8296454357535505E-01 a        71     0     4     1    11
 -7.7161762724215210E-01 a        72     0     4     1    12
  2.5521363538784717E-02 a        73     0     4     1    13
 -1.2841334065044460E-01 a        74     0     4     1    14
 -2.2763783816578895E-01 a        75     0     4     1    15
 -5.4185945483901668E-02 a        76     0     4     1    16
  3.7325241571574985E-01 a        77     0     4     1    17
  4.5100490994452846E-02 a        78     0     4     1    18
  1.6075376278998785E-01 a        79     0     4     1    19
 -4.9295424057626103E-01 a        80     0     4     1    20
  2.9166811330316833E-01 a        81     0     5     1     1
  5.9946795550816556E-01 a        82     0     5     1     2
  4.7618685008437182E-02 a        83     0     5     1     3
  1.4685664254876246E-01 a        84     0     5     1     4
  4.9689530613895178E-01 a        85     0     5     1     5
 -5.3518339331751219E-01 a        86     0     5     1     6
  1.3975586767723125E-01 a        87     0     5     1     7
  5.6412337041263576E-02 a        88     0     5     1     8
  2.7090849271954714E-01 a        89     0     5     1     9
 -3.8864664521816727E-01 a        90     0     5     1    10
  4.2359471911250134E-02 a        91     0     5     1    11
  1.6979685041552264E-01 a        92     0     5     1    12
 -4.8150075387441388E-01 a        93     0     5     1    13
  5.1150160957163526E-01 a        94     0     5     1    14
 -2.6089384986513114E-01 a        95     0     5     1    15
  4.9504024657017941E-02 a        96     0     5     1    16
 -3.8486431632164653E-01 a        97     0     5     1    17
  1.7882223795197627E-01 a        98     0     5     1    18
  4.5027471082570625E-01 a        99     0     5     1    19
  1.1585026055588474E-01 a       100     0     5     1    20
 -1.5089879059248940E-01 a       101     0     6     1     1
  2.7030956017936147E-02 a       102     0     6     1     2
  1.6345381745772068E-02 a       103     0     6     1     3
 -1.5104079139899843E-01 a       104     0     6     1     4
 -1.7052576745770667E-01 a       105     0     6     1     5
  2.5365674184996433E-02 a       106     0     6     1     6
 -5.3386103931581455E-02 a       107     0     6     1     7
 -9.3470234271840327E-02 a       108     0     6     1     8
  4.4884755683674046E-02 a       109     0     6     1     9
 -6.4632450165489949E-02 a       110     0     6     1    10
 -1.0134694809865315E-01 a       111     0     6     1    11
  9.1351285209078634E-02 a       112     0     6     1    12
 -1.7730356298220054E-01 a       113     0     6     1    13
  7.1714419075338334E-02 a       114     0     6     1    14
 -9.4007798416401792E-02 a       115     0     6     1    15
  7.6550561458529010E-02 a       116     0     6     1    16
 -2.3890952269274089E-02 a       117     0     6     1    17
 -8.3087951764749517E-03 a       118     0     6     1    18
  7.1890252581704214E-02 a       119     0     6     1    19
 -8.7305479915160494E-02 a       120     0     6     1    20
  2.3116896616611926E-01 a       121     0     7     1     1
  4.1939381648654822E-02 a       122     0     7     1     2
 -1.4192530063256620E-01 a       123     0     7     1     3
  3.7149168417940112E-03 a       124     0     7     1     4
  2.9538379585630475E-01 a       125     0     7     1     5
 -6.0969062533132778E-02 a       126     0     7     1     6
 -1.1739195372303496E-01 a       127     0     7     1     7
 -2.4355625947750342E-01 a       128     0     7     1     8
 -2.0071567153595610E-01 a       129     0     7     1     9
 -4.9973127093669821E-02 a       130     0     7     1    10
 -1.2587775813459409E-01 a       131     0     7     1    11
 -5.7526071531097310E-02 a       132     0     7     1    12
  2.4705501249983029E-02 a       133     0     7     1    13
  1.4628479264012648E-01 a       134     0     7     1    14
  1.3728798774130921E-01 a       135     0     7     1    15
  2.6757559469479208E-01 a       136     0     7     1    16
  1.1059279233436450E-01 a       137     0     7     1    17
  1.8416598522559890E-02 a       138     0     7     1    18
 -1.2593147170869179E-01 a       139     0     7     1    19
 -1.4425721436695574E-01 a       140     0     7     1    20
 -9.8228175770965306E-02 a       141     0     8     1     1
 -2.9508593562665658E-01 a       142     0     8     1     2
 -4.6091145376754689E-01 a       143     0     8     1     3
 -2.4727105524001455E-01 a       144     0     8     1     4
 -6.7974665815998744E-02 a       145     0     8     1     5
  4.2549835526868640E-02 a       146     0     8     1     6
  1.6945857808129114E-01 a       147     0     8     1     7
 -9.2196639251095391E-02 a       148     0     8     1     8
 -4.4982355036704913E-01 a       149     0     8     1     9
  8.7994491772341504E-02 a       150     0     8     1    10
  1.2885450536165977E-01 a       151     0     8     1    11
  7.0192391148630229E-01 a       152     0     8     1    12
 -2.4498940859593174E-01 a       153     0     8     1    13
  9.6984480324735445E-02 a       154     0     8     1    14
  2.5876857427655420E-01 a       155     0     8     1    15
  9.9110841905689057E-02 a       156     0     8     1    16
 -6.6390944849253081E-03 a       157     0     8     1    17
 -1.9057507166259358E-01 a       158     0     8     1    18
 -5.8910608951214145E-02 a       159     0     8     1    19
  8.1633184790571323E-01 a       160     0     8     1    20
  5.0397700065204533E-03 a       161     0     9     1     1
 -2.3926473668997353E-01 a       162     0     9     1     2
  2.7186084311868430E-01 a       163     0     9     1     3
 -7.1191235332744393E-02 a       164     0     9     1     4
 -3.7630691351513862E-01 a       165     0     9     1     5
 -3.1881575898552054E-02 a       166     0     9     1     6
  1.9936362534020681E-02 a       167     0     9     1     7
  1.8151883766777313E-01 a       168     0     9     1     8
 -3.5098685222269954E-01 a       169     0     9     1     9
 -9.3977058412700373E-03 a       170     0     9     1    10
  1.3117045571774480E-01 a       171     0     9     1    11
  3.2366421296377838E-02 a       172     0     9     1    12
 -1.5291829068914015E-01 a       173     0     9     1    13
 -2.2313782169718940E-01 a       174     0     9     1    14
  2.0604872959124035E-01 a       175     0     9     1    15
  1.0253635315107076E-01 a       176     0     9     1    16
  1.2510943954247383E-01 a       177     0     9     1    17
 -8.7065624238286510E-02 a       178     0     9     1    18
  1.2157532215588766E-02 a       179     0     9     1    19
  1.8045414747188637E-02 a       180     0     9     1    20
 -4.7569912863792509E-02 a       181     0    10     1     1
 -2.7394227056865235E-02 a       182     0    10     1     2
 -8.4400732996218461E-02 a       183     0    10     1     3
  2.1196693545466799E-01 a       184     0    10     1     4
  2.1175279112746281E-01 a       185     0    10     1     5
  5.4335231820583446E-02 a       186     0    10     1     6
 -2.6628845613092061E-02 a       187     0    10     1     7
 -1.6595293843894313E-01 a       188     0    10     1     8
 -6.1363572886117893E-02 a       189     0    10     1     9
  3.3399157042135330E-01 a       190     0    10     1    10
  2.2601861395262969E-02 a       191     0    10     1    11
 -2.3725402164476433E-01 a       192     0    10     1    12
  1.7673790341734352E-01 a       193     0    10     1    13
 -9.0673936429479518E-02 a       194     0    10     1    14
 -1.9796146593222291E-02 a       195     0    10     1    15
  7.5780838009950308E-02 a       196     0    10     1    16
  3.8266188677957350E-02 a       197     0    10     1    17
 -1.2093601401633605E-01 a       198     0    10     1    18
 -2.0455261801595787E-01 a       199     0    10     1    19
  3.8639579070658056E-02 a       200     0    10     1    20
  2.2785895832701930E-01 a       201     0    11     1     1
  1.5493638824633962E-01 a       202     0    11     1     2
  6.4743953581527436E-03 a       203     0    11     1     3
  1.8399498092827929E-01 a       204     0    11     1     4
 -5.9681230259648985E-02 a       205     0    11     1     5
 -1.6620000312546895E-01 a       206     0    11     1     6
 -1.0559508124928046E-02 a       207     0    11     1     7
 -1.2871523733384244E-01 a       208     0    11     1     8
 -1.1743673058397246E-01 a       209     0    11     1     9
  4.4253528009245403E-02 a       210     0    11     1    10
  1.9782459534579810E-01 a       211     0    11     1    11
  1.7643042519857158E-01 a       212     0    11     1    12
 -3.2257985073667755E-02 a       213     0    11     1    13
 -8.7386862923094447E-03 a       214     0    11     1    14
  8.2227367450163971E-02 a       215     0    11     1    15
  1.6841958193315809E-01 a       216     0    11     1    16
  7.5135720408452886E-02 a       217     0    11     1    17
 -2.4200756931668879E-03 a       218     0    11     1    18
 -5.0686133204209172E-02 a       219     0    11     1    19
  1.1046985640355417E-01 a       220     0    11     1    20
 -3.8625638272556384E-02 a       221     0    12     1     1
 -6.7613242035566068E-02 a       222     0    12     1     2
  1.0809000457367211E-01 a       223     0    12     1     3
  3.3916309207858802E-01 a       224     0    12     1     4
 -6.4083038395058634E-02 a       225     0    12     1     5
  1.6150899254524850E-01 a       226     0    12     1     6
  6.0633243138458012E-02 a       227     0    12     1     7
 -2.5044968938498242E-02 a       228     0    12     1     8
 -1.2531780651039051E-01 a       229     0    12     1     9
  2.2671922276829470E-01 a       230     0    12     1    10
 -8.4018735859754154E-02 a       231     0    12     1    11
 -5.7308871326128774E-01 a       232     0    12     1    12
 -1.9915786226689028E-01 a       233     0    12     1    13
 -1.1899156371520349E-01 a       234     0    12     1    14
  4.5845140497506945E-02 a       235     0    12     1    15
  1.1095182814297817E-01 a       236     0    12     1    16
  2.5098536504011126E-03 a       237     0    12     1    17
 -7.3678574676285274E-02 a       238     0    12     1    18
  1.3964345271388490E-01 a       239     0    12     1    19
 -8.0090501721323071E-01 a       240     0    12     1    20
 -1.6618979017552762E-01 a       241     0    13     1     1
 -6.2591785409884998E-02 a       242     0    13     1     2
 -2.5594154631873997E-03 a       243     0    13     1     3
  2.7064008430730480E-01 a       244     0    13     1     4
  2.2371906199029723E-01 a       245     0    13     1     5
 -3.6348148007894532E-01 a       246     0    13     1     6
 -9.6076521553423042E-02 a       247     0    13     1     7
 -9.2336404873044217E-02 a       248     0    13     1     8
  2.3418505940422996E-01 a       249     0    13     1     9
 -1.1731693852253948E-01 a       250     0    13     1    10
  1.4865727547108420E-01 a       251     0    13     1    11
  1.9393666035141538E-01 a       252     0    13     1    12
  1.9669124271692862E-01 a       253     0    13     1    13
  1.0289575349371562E-01 a       254     0    13     1    14
  1.0011546975564327E-01 a       255     0    13     1    15
 -7.9874530789134507E-02 a       256     0    13     1    16
 -2.9748082069054469E-02 a       257     0    13     1    17
  5.0951142905749570E-02 a       258     0    13     1    18
  1.8288828684364794E-01 a       259     0    13     1    19
  3.7131661392398763E-02 a       260     0    13     1    20
 -5.8741356729584672E-02 a       261     0    14     1     1
  2.3667925779927917E-02 a       262     0    14     1     2
  5.1815201665126945E-02 a       263     0    14     1     3
 -4.9305370717406170E-02 a       264     0    14     1     4
  4.1638226754896930E-02 a       265     0    14     1     5
  5.8459642090321562E-02 a       266     0    14     1     6
  1.1788063704911339E-01 a       267     0    14     1     7
 -1.3071875730000326E-01 a       268     0    14     1     8
 -2.3131485727859638E-01 a       269     0    14     1     9
 -1.6283970285795940E-01 a       270     0    14     1    10
  1.2742458262663861E-01 a       271     0    14     1    11
  1.5230054987730854E-01 a       272     0    14     1    12
 -1.5048511237464590E-01 a       273     0    14     1    13
  3.1607149875068317E-02 a       274     0    14     1    14
  5.4973965158923874E-02 a       275     0    14     1    15
  4.3739773218988594E-02 a       276     0    14     1    16
  8.2479381533904592E-02 a       277     0    14     1    17
  6.4611521902094043E-02 a       278     0    14     1    18
  5.8079989357030619E-02 a       279     0    14     1    19
 -1.9056737083702782E-01 a       280     0    14     1    20
  2.9324649944873868E-02 a       281     0    15     1     1
 -9.9854814432801364E-02 a       282     0    15     1     2
 -9.4644523472654871E-03 a       283     0    15     1     3
 -2.9021154131945670E-01 a       284     0    15     1     4
  1.6145018214459075E-01 a       285     0    15     1     5
 -1.6037042604855251E-01 a       286     0    15     1     6
 -1.2544320364728287E-01 a       287     0    15     1     7
 -1.1390948677568501E-01 a       288     0    15     1     8
 -8.0018148555550103E-02 a       289     0    15     1     9
  8.7079322669715395E-02 a       290     0    15     1    10
  6.1715420254990772E-02 a       291     0    15     1    11
  8.0793275702885857E-04 a       292     0    15     1    12
  1.7311139784893848E-01 a       293     0    15     1    13
  6.8591351308404366E-02 a       294     0    15     1    14
  9.2309866550910405E-02 a       295     0    15     1    15
 -3.2728752026492482E-02 a       296     0    15     1    16
  1.2960817848915687E-01 a       297     0    15     1    17
  1.7133653255608387E-02 a       298     0    15     1    18
 -1.0510360446362672E-02 a       299     0    15     1    19
 -1.3511350381828424E-01 a       300     0    15     1    20
 -3.7156831351870631E-02 a       301     0    16     1     1
  2.8018396903781695E-01 a       302     0    16     1     2
  1.5986899418007149E-02 a       303     0    16     1     3
  2.1013202536745260E-01 a       304     0    16     1     4
  7.9338083134369519E-02 a       305     0    16     1     5
  6.1374716912526335E-02 a       306     0    16     1     6
 -2.9560877203375122E-02 a       307     0    16     1     7
  1.5501446112448025E-01 a       308     0    16     1     8
 -3.3688011692782432E-01 a       309     0    16     1     9
  8.3705343166252374E-02 a       310     0    16     1    10
  1.5143372343799269E-02 a       311     0    16     1    11
 -7.6656846883536536E-02 a       312     0    16     1    12
 -3.6792288749306240E-01 a       313     0    16     1    13
  1.4302039003624370E-01 a       314     0    16     1    14
  1.5793594749788447E-03 a       315     0    16     1    15
  8.5957996843215798E-02 a       316     0    16     1    16
  1.1462887312539144E-02 a       317     0    16     1    17
 -2.6313141530624477E-02 a       318     0    16     1    18
 -1.5549685332649679E-01 a       319     0    16     1    19
  1.1552636446720210E-01 a       320     0    16     1    20
  5.8112583462148037E-02 a       321     0    17     1     1
  1.5318706425694703E-01 a       322     0    17     1     2
  2.2762684586539825E-01 a       323     0    17     1     3
  1.1974964982220095E-02 a       324     0    17     1     4
  2.4912170061219430E-01 a       325     0    17     1     5
  6.7228280087440043E-02 a       326     0    17     1     6
 -1.1918238468626767E-01 a       327     0    17     1     7
 -8.1205783401586809E-02 a       328     0    17     1     8
 -5.7720790216207282E-02 a       329     0    17     1     9
 -4.5458396629309988E-01 a       330     0    17     1    10
  1.2864681130501360E-01 a       331     0    17     1    11
 -3.7075954564690317E-02 a       332     0    17     1    12
  2.5250834043924442E-01 a       333     0    17     1    13
 -1.4242030976965231E-01 a       334     0    17     1    14
 -1.1172959504742171E-01 a       335     0    17     1    15
 -1.6964920428600306E-02 a       336     0    17     1    16
  3.6767286102653104E-02 a       337     0    17     1    17
  2.9861538739514405E-02 a       338     0    17     1    18
  8.2008317794666816E-02 a       339     0    17     1    19
  6.7578012581647265E-02 a       340     0    17     1    20
 -1.6842173377715347E-02 a       341     0    18     1     1
 -9.7305453565146010E-03 a       342     0    18     1     2
 -6.1226149852820981E-02 a       343     0    18     1     3
  8.7724621876062642E-02 a       344     0    18     1     4
 -8.5194923569096609E-02 a       345     0    18     1     5
  1.0188784530043392E-01 a       346     0    18     1     6
 -6.7139590037256199E-03 a       347     0    18     1     7
 -3.0117836870241242E-02 a       348     0    18     1     8
  1.5661383048380140E-01 a       349     0    18     1     9
  2.9673765605500158E-01 a       350     0    18     1    10
 -2.1291851356230133E-03 a       351     0    18     1    11
 -2.3756122043984074E-01 a       352     0    18     1    12
 -9.3649629304750331E-03 a       353     0    18     1    13
  4.3863354094220028E-02 a       354     0    18     1    14
 -7.0544559526332686E-03 a       355     0    18     1    15
  9.3730706217517862E-02 a       356     0    18     1    16
  8.1305725207361061E-03 a       357     0    18     1    17
 -9.3282979278953834E-02 a       358     0    18     1    18
 -2.0180497507372996E-01 a       359     0    18     1    19
 -2.5502378352284968E-02 a       360     0    18     1    20
  1.2690311691398998E-01 a       361     0    19     1     1
  2.8038062620413573E-01 a       362     0    19     1     2
 -3.6399775739100353E-02 a       363     0    19     1     3
  1.7670214707639622E-03 a       364     0    19     1     4
 -2.0005280465780061E-02 a       365     0    19     1     5
 -6.2772362715584104E-02 a       366     0    19     1     6
 -8.8460557829860384E-02 a       367     0    19     1     7
 -1.6747272457771245E-01 a       368     0    19     1     8
 -1.1291436953825276E-01 a       369     0    19     1     9
 -1.4347382688047083E-01 a       370     0    19     1    10
  9.1580075645565515E-02 a       371     0    19     1    11
  3.3068368872275017E-02 a       372     0    19     1    12
  5.9742024497761455E-02 a       373     0    19     1    13
 -3.3071383810051006E-03 a       374     0    19     1    14
 -3.2566446558829509E-02 a       375     0    19     1    15
  6.2509841480893225E-02 a       376     0    19     1    16
 -3.5328517613023330E-02 a       377     0    19     1    17
  1.2000128366751661E-01 a       378     0    19     1    18
 -6.7210664188939048E-02 a       379     0    19     1    19
  8.8682558934162325E-02 a       380     0    19     1    20
 -1.2075909283422210E-02 a       381     0    20     1     1
 -4.1508139914566540E-02 a       382     0    20     1     2
 -1.7580394433604279E-01 a       383     0    20     1     3
 -6.3345434484724031E-02 a       384     0    20     1     4
 -2.1574071387685070E-01 a       385     0    20     1     5
 -1.6135987569420061E-02 a       386     0    20     1     6
  5.4513585524352474E-02 a       387     0    20     1     7
  2.5457740813209884E-01 a       388     0    20     1     8
 -1.5276347071322044E-01 a       389     0    20     1     9
  2.1557487181332749E-01 a       390     0    20     1    10
  6.3387802412556205E-02 a       391     0    20     1    11
  1.7031342458529067E-01 a       392     0    20     1    12
 -2.6391893459773308E-01 a       393     0    20     1    13
 -1.2445044409902653E-01 a       394     0    20     1    14
  1.8116688202644091E-01 a       395     0    20     1    15
  2.0135451783530484E-01 a       396     0    20     1    16
 -1.8679208560966349E-02 a       397     0    20     1    17
 -9.5279416610353204E-02 a       398     0    20     1    18
 -4.2883753834195688E-02 a       399     0    20     1    19
 -4.2649402695198263E-02 a       400     0    20     1    20
 -2.0503738057430743E-01 a       401     0    21     1     1
 -1.9898133947751090E-01 a       402     0    21     1     2
 -5.3752082446828144E-02 a       403     0    21     1     3
  9.2978689795670151E-03 a       404     0    21     1     4
 -4.0733828505366110E-02 a       405     0    21     1     5
 -1.8726731778878891E-01 a       406     0    21     1     6
  6.5901127770487521E-03 a       407     0    21     1     7
  8.7051315821969719E-02 a       408     0    21     1     8
  6.8853367986458483E-02 a       409     0    21     1     9
 -2.3608738143079108E-02 a       410     0    21     1    10
 -5.6711818133284408E-02 a       411     0    21     1    11
  2.1140404422870956E-01 a       412     0    21     1    12
  2.8856199471083926E-01 a       413     0    21     1    13
  5.1493687708659135E-02 a       414     0    21     1    14
  3.9356576087332368E-02 a       415     0    21     1    15
 -2.2265624322577837E-01 a       416     0    21     1    16
 -1.6672523216904746E-02 a       417     0    21     1    17
 -4.1569103441808392E-02 a       418     0    21     1    18
  2.9358702652262730E-01 a       419     0    21     1    19
  5.3789082216183656E-02 a       420     0    21     1    20
 -1.2332484551559425E-01 a       421     0    22     1     1
  4.7755183424616418E-02 a       422     0    22     1     2
 -6.6538721420076177E-02 a       423     0    22     1     3
 -1.1113444819671514E-01 a       424     0    22     1     4
  1.3232170160808926E-01 a       425     0    22     1     5
 -5.0097767499116590E-02 a       426     0    22     1     6
 -4.2129967542506370E-02 a       427     0    22     1     7
 -9.9573140644589664E-02 a       428     0    22     1     8
 -9.2553470618108535E-02 a       429     0    22     1     9
  2.0284253886560129E-02 a       430     0    22     1    10
 -1.8143342270829216E-01 a       431     0    22     1    11
  1.4434852713657603E-02 a       432     0    22     1    12
 -6.6145819048794269E-02 a       433     0    22     1    13
 -3.3173712980883084E-02 a       434     0    22     1    14
 -6.3241321060657940E-02 a       435     0    22     1    15
  9.5479053699984939E-02 a       436     0    22     1    16
  9.2618089880226254E-03 a       437     0    22     1    17
  1.0044623994728998E-01 a       438     0    22     1    18
 -1.0205535800119053E-01 a       439     0    22     1    19
 -2.8638065451386391E-02 a       440     0    22     1    20
 -3.1595333058985077E-02 a       441     0    23     1     1
 -1.3637189963445931E-01 a       442     0    23     1     2
 -7.7205450884900882E-03 a       443     0    23     1     3
  2.9439832815875089E-02 a       444     0    23     1     4
  6.6822998464108094E-02 a       445     0    23     1     5
 -2.5199657144921481E-02 a       446     0    23     1     6
 -2.3793882202562188E-02 a       447     0    23     1     7
 -5.7203524708165983E-02 a       448     0    23     1     8
  3.0360712679597470E-02 a       449     0    23     1     9
 -3.2616252608514288E-03 a       450     0    23     1    10
 -8.2243081497011261E-02 a       451     0    23     1    11
  3.4577618884929495E-02 a       452     0    23     1    12
  1.9394705680432825E-01 a       453     0    23     1    13
  2.0253685378261686E-02 a       454     0    23     1    14
  4.0274820134092518E-02 a       455     0    23     1    15
 -1.0270202581703759E-01 a       456     0    23     1    16
  9.0501299328304002E-02 a       457     0    23     1    17
 -3.1543578317107787E-02 a       458     0    23     1    18
  5.8670058151071472E-02 a       459     0    23     1    19
 -4.0528800683288513E-02 a       460     0    23     1    20
  1.3796690837209136E-01 a       461     0    24     1     1
  1.5744315308122867E-01 a       462     0    24     1     2
  1.4638707817816640E-01 a       463     0    24     1     3
  2.1807629842821327E-01 a       464     0    24     1     4
  2.3558150766397307E-02 a       465     0    24     1     5
  9.1057217339847382E-02 a       466     0    24     1     6
 -4.9845705206847009E-02 a       467     0    24     1     7
 -7.2749520437049540E-03 a       468     0    24     1     8
 -1.2248397023695780E-01 a       469     0    24     1     9
  1.8339286746336364E-01 a       470     0    24     1    10
 -1.8604963002302174E-02 a       471     0    24     1    11
 -2.4519375258221396E-01 a       472     0    24     1    12
 -2.7469732774082828E-01 a       473     0    24     1    13
  1.2756427485496924E-01 a       474     0    24     1    14
 -7.0747676581240357E-02 a       475     0    24     1    15
  1.2217955483522662E-01 a       476     0    24     1    16
 -6.8819022559721372E-03 a       477     0    24     1    17
 -9.3779346405462038E-02 a       478     0    24     1    18
 -6.4422404750268988E-02 a       479     0    24     1    19
 -2.6496038377687248E-01 a       480     0    24     1    20
 -4.8454434492967720E-02 a       481     0    25     1     1
  5.5073207336847532E-03 a       482     0    25     1     2
  1.0356992486130127E-01 a       483     0    25     1     3
  1.8774484069397124E-02 a       484     0    25     1     4
  8.2170622452525752E-02 a       485     0    25     1     5
  3.0089638569563253E-02 a       486     0    25     1     6
  6.5109132758663169E-03 a       487     0    25     1     7
 -1.7161530857764437E-01 a       488     0    25     1     8
  1.3397343842342024E-01 a       489     0    25     1     9
 -2.5985689379217580E-01 a       490     0    25     1    10
 -5.3648290994936169E-02 a       491     0    25     1    11
  4.1272822979924899E-02 a       492     0    25     1    12
  2.0814859807929198E-01 a       493     0    25     1    13
 -7.8853169964071462E-02 a       494     0    25     1    14
 -6.5909437425300393E-02 a       495     0    25     1    15
 -1.0449090570338170E-01 a       496     0    25     1    16
  4.5872109022979050E-02 a       497     0    25     1    17
 -2.8338324159812123E-02 a       498     0    25     1    18
  4.0522133921159671E-02 a       499     0    25     1    19
  1.4349073837543255E-01 a       500     0    25     1    20
  1.8624412361298856E-01 a       501     0    26     1     1
  3.7387417357862843E-02 a       502     0    26     1     2
  1.7543875703694988E-02 a       503     0    26     1     3
  1.6491698005488212E-01 a       504     0    26     1     4
 -5.4952810310899838E-02 a       505     0    26     1     5
  1.3916263419522290E-01 a       506     0    26     1     6
 -3.8119614176152901E-02 a       507     0    26     1     7
  9.8767986449356929E-02 a       508     0    26     1     8
  4.3939581334311237E-02 a       509     0    26     1     9
  1.5823957807496618E-02 a       510     0    26     1    10
  1.8150385043428272E-01 a       511     0    26     1    11
  2.9558494535605162E-02 a       512     0    26     1    12
  3.3988883745180033E-02 a       513     0    26     1    13
  4.5401954990980188E-02 a       514     0    26     1    14
 -8.2081458466244182E-03 a       515     0    26     1    15
  5.5099198394899893E-02 a       516     0    26     1    16
  3.2403392438719356E-02 a       517     0    26     1    17
 -2.7239334654950750E-02 a       518     0    26     1    18
 -6.9972349794544281E-02 a       519     0    26     1    19
 -4.2431525671455618E-02 a       520     0    26     1    20
  1.2877638889879947E-01 a       521     0    27     1     1
  5.4357470417169956E-02 a       522     0    27     1     2
 -6.0849341650753017E-03 a       523     0    27     1     3
 -1.7128309435046593E-01 a       524     0    27     1     4
 -2.1656639011495189E-02 a       525     0    27     1     5
 -7.1541062670915243E-02 a       526     0    27     1     6
 -2.9552780268705812E-02 a       527     0    27     1     7
  3.1178851051487061E-03 a       528     0    27     1     8
  7.5811756580341810E-02 a       529     0    27     1     9
 -9.9672975926192092E-02 a       530     0    27     1    10
  7.1513835635240927E-02 a       531     0    27     1    11
 -1.8515271515164317E-02 a       532     0    27     1    12
  1.7821564507552113E-02 a       533     0    27     1    13
 -2.5832733284818370E-02 a       534     0    27     1    14
 -6.3570716829100399E-02 a       535     0    27     1    15
 -1.0639011170021136E-02 a       536     0    27     1    16
 -6.5169731260388067E-02 a       537     0    27     1    17
  1.1358838049489353E-01 a       538     0    27     1    18
 -6.9298749526299344E-02 a       539     0    27     1    19
  1.0910380013755860E-01 a       540     0    27     1    20
 -2.7306259542037287E-01 a       541     0    28     1     1
 -6.8195623851004111E-02 a       542     0    28     1     2
 -1.6213622072771072E-01 a       543     0    28     1     3
  1.0757876538715470E-01 a       544     0    28     1     4
  3.1062499833707430E-02 a       545     0    28     1     5
  6.2518372306430661E-02 a       546     0    28     1     6
  3.2240997660535786E-02 a       547     0    28     1     7
  1.8493067329911733E-01 a       548     0    28     1     8
 -9.6832188868687788E-02 a       549     0    28     1     9
  9.5179901305321394E-03 a       550     0    28     1    10
  1.3173818722869426E-01 a       551     0    28     1    11
  1.8151758307467308E-01 a       552     0    28     1    12
 -4.9288020112572051E-02 a       553     0    28     1    13
 -1.0793370734286661E-01 a       554     0    28     1    14
  7.9122952625723872E-02 a       555     0    28     1    15
  1.1440653183547554E-01 a       556     0    28     1    16
 -1.4942377309825682E-02 a       557     0    28     1    17
  1.5986344791362850E-02 a       558     0    28     1    18
 -9.7954350954929754E-04 a       559     0    28     1    19
  1.5437465635143768E-01 a       560     0    28     1    20
  1.8714328678592837E-02 a       561     0    29     1     1
 -3.4366701824548311E-02 a       562     0    29     1     2
 -1.4617401597793109E-02 a       563     0    29     1     3
 -6.2760837157254425E-03 a       564     0    29     1     4
 -1.1615936087371548E-01 a       565     0    29     1     5
 -6.0895772203165791E-02 a       566     0    29     1     6
 -4.8416099864782652E-04 a       567     0    29     1     7
  2.5347699962671371E-02 a       568     0    29     1     8
  6.3640144361921461E-02 a       569     0    29     1     9
 -1.0915270515662859E-01 a       570     0    29     1    10
 -1.0406569730174874E-01 a       571     0    29     1    11
  1.8735326894623504E-02 a       572     0    29     1    12
  1.6011924059364724E-01 a       573     0    29     1    13
  4.9116155743973877E-02 a       574     0    29     1    14
 -1.0125228528351377E-02 a       575     0    29     1    15
 -1.2190406136912242E-01 a       576     0    29     1    16
 -5.4860163263481039E-02 a       577     0    29     1    17
  3.1551041208327697E-02 a       578     0    29     1    18
  1.2351767593195942E-01 a       579     0    29     1    19
  2.3144219743833901E-02 a       580     0    29     1    20
 -1.7183961396164213E-01 a       581     0    30     1     1
  6.7660090110272381E-02 a       582     0    30     1     2
 -6.2582033441829540E-02 a       583     0    30     1     3
 -5.0189799089538363E-02 a       584     0    30     1     4
 -7.1470081445628761E-02 a       585     0    30     1     5
 -9.7033377576310240E-02 a       586     0    30     1     6
  4.5833421514979961E-02 a       587     0    30     1     7
 -1.1033873417017033E-01 a       588     0    30     1     8
 -1.8313363920183696E-02 a       589     0    30     1     9
  9.9445959585617610E-02 a       590     0    30     1    10
 -1.9704383900769459E-01 a       591     0    30     1    11
 -9.5873055633646440E-02 a       592     0    30     1    12
 -1.7939658680641749E-01 a       593     0    30     1    13
 -9.4101266773208448E-03 a       594     0    30     1    14
  1.0470930877130746E-01 a       595     0    30     1    15
  3.5880338648071206E-02 a       596     0    30     1    16
 -2.9987735387956058E-02 a       597     0    30     1    17
 -2.8708899337222177E-02 a       598     0    30     1    18
 -6.5308986455603540E-02 a       599     0    30     1    19
  2.3954713522882330E-02 a       600     0    30     1    20
  8.8833158713775440E-03 a       601     0    31     1     1
 -3.5217924326816231E-02 a       602     0    31     1     2
  3.0027991103730403E-02 a       603     0    31     1     3
 -2.0197930442576294E-02 a       604     0    31     1     4
  9.6386569207918424E-02 a       605     0    31     1     5
  1.3316289341562990E-03 a       606     0    31     1     6
  3.5850683839071598E-02 a       607     0    31     1     7
 -3.6731658476124411E-02 a       608     0    31     1     8
 -8.7733514241430055E-02 a       609     0    31     1     9
  6.4794927636185912E-02 a       610     0    31     1    10
 -4.4597138106506069E-02 a       611     0    31     1    11
  4.4156300683876736E-02 a       612     0    31     1    12
  1.6553673499836344E-01 a       613     0    31     1    13
  1.7566507026564183E-02 a       614     0    31     1    14
  2.9768221282780827E-02 a       615     0    31     1    15
 -7.8601187681216877E-02 a       616     0    31     1    16
  7.8915384397558977E-02 a       617     0    31     1    17
 -1.0552946523919303E-01 a       618     0    31     1    18
  1.4746938506071094E-01 a       619     0    31     1    19
 -1.0546578936888915E-01 a       620     0    31     1    20
 -1.7865858019828998E-01 a       621     0    32     1     1
  1.3293076693516712E-01 a       622     0    32     1     2
  5.0405961559499675E-02 a       623     0    32     1     3
  6.4063402221631552E-02 a       624     0    32     1     4
 -5.4906884731779987E-02 a       625     0    32     1     5
 -3.3439702774621521E-02 a       626     0    32     1     6
  7.9430231677045070E-03 a       627     0    32     1     7
  4.0481348756077007E-02 a       628     0    32     1     8
 -4.9062923940394264E-02 a       629     0    32     1     9
  1.2334382911674073E-01 a       630     0    32     1    10
 -6.0397154177483051E-02 a       631     0    32     1    11
 -5.7976901376558289E-02 a       632     0    32     1    12
 -1.2054131342425094E-01 a       633     0    32     1    13
  5.2843892792088412E-02 a       634     0    32     1    14
  5.4607095549137286E-02 a       635     0    32     1    15
 -1.8172594444041453E-02 a       636     0    32     1    16
  3.4864985892634939E-02 a       637     0    32     1    17
 -7.8357453538640237E-02 a       638     0    32     1    18
 -1.9312303839337814E-02 a       639     0    32     1    19
 -9.6298413209694261E-02 a       640     0    32     1    20
  2.7840640737923326E-03 a       641     0    33     1     1
  5.9964164981138490E-02 a       642     0    33     1     2
  2.8009367653357244E-02 a       643     0    33     1     3
 -7.4160932428657206E-02 a       644     0    33     1     4
 -3.1143572273660586E-03 a       645     0    33     1     5
 -6.0151314757966888E-02 a       646     0    33     1     6
  1.8995197165480378E-02 a       647     0    33     1     7
  8.9531502452176830E-03 a       648     0    33     1     8
 -1.1527250633629416E-02 a       649     0    33     1     9
  5.3018419884388844E-03 a       650     0    33     1    10
 -1.4125733255790139E-02 a       651     0    33     1    11
 -1.3174718053301259E-02 a       652     0    33     1    12
 -4.9946613120952846E-02 a       653     0    33     1    13
 -2.5695667798483455E-02 a       654     0    33     1    14
  1.3558220810019415E-02 a       655     0    33     1    15
 -2.2448364910926621E-02 a       656     0    33     1    16
  9.8546509138882580E-03 a       657     0    33     1    17
 -5.3956292829707042E-02 a       658     0    33     1    18
 -3.2085354343534748E-03 a       659     0    33     1    19
 -2.3046911025036878E-04 a       660     0    33     1    20
  8.9545552871101983E-02 a       661     0    34     1     1
 -3.4229641092774439E-02 a       662     0    34     1     2
  3.3182968596544120E-02 a       663     0    34     1     3
  4.6009276678114289E-02 a       664     0    34     1     4
  7.7947529772422447E-02 a       665     0    34     1     5
  6.1516772497725997E-02 a       666     0    34     1     6
 -5.3880875041860531E-02 a       667     0    34     1     7
  7.0436444125731426E-02 a       668     0    34     1     8
 -4.9570512914006416E-02 a       669     0    34     1     9
 -6.7795551049369851E-02 a       670     0    34     1    10
  1.5868503179385177E-01 a       671     0    34     1    11
  6.1661018975671632E-02 a       672     0    34     1    12
  1.3537795223455212E-01 a       673     0    34     1    13
  6.3788569909977218E-03 a       674     0    34     1    14
 -1.0295975704456212E-01 a       675     0    34     1    15
 -9.0012279056895066E-03 a       676     0    34     1    16
  2.8430777023223181E-02 a       677     0    34     1    17
  7.6971874395705311E-02 a       678     0    34     1    18
  1.7055000382855515E-02 a       679     0    34     1    19
 -4.3901723070317970E-02 a       680     0    34     1    20
  1.2213655171027692E-02 a       681     0    35     1     1
  1.3802730108347708E-01 a       682     0    35     1     2
 -3.8213453401421689E-02 a       683     0    35     1     3
  1.1343937675619592E-02 a       684     0    35     1     4
 -8.6638689171119554E-02 a       685     0    35     1     5
 -3.8426811819130373E-02 a       686     0    35     1     6
 -3.0269339291560102E-02 a       687     0    35     1     7
  7.4699532602686747E-02 a       688     0    35     1     8
  3.2838132564862212E-02 a       689     0    35     1     9
 -6.4115146908585025E-02 a       690     0    35     1    10
 -3.8525657912405503E-02 a       691     0    35     1    11
  1.5203738189175925E-02 a       692     0    35     1    12
 -6.3954691748220077E-02 a       693     0    35     1    13
 -9.4495298307084811E-03 a       694     0    35     1    14
  3.0320807050617776E-02 a       695     0    35     1    15
 -5.7139794694702666E-03 a       696     0    35     1    16
 -2.4424378485518483E-02 a       697     0    35     1    17
  3.7673605963639223E-02 a       698     0    35     1    18
 -8.7573779245301686E-02 a       699     0    35     1    19
  8.7358667660131478E-02 a       700     0    35     1    20
  7.1486585981110629E-03 a       701     0    36     1     1
 -5.0321004373372412E-02 a       702     0    36     1     2
 -2.4880031084006320E-02 a       703     0    36     1     3
  1.0691443861095716E-01 a       704     0    36     1     4
  4.4878668183073109E-02 a       705     0    36     1     5
  7.6541677604816366E-02 a       706     0    36     1     6
 -7.2645428553468256E-04 a       707     0    36     1     7
  1.8887560007530849E-02 a       708     0    36     1     8
 -2.1604615194156053E-02 a       709     0    36     1     9
 -1.8739577161930080E-03 a       710     0    36     1    10
  7.6418972554475439E-02 a       711     0    36     1    11
  2.4580164026237313E-02 a       712     0    36     1    12
 -1.9939810811860528E-03 a       713     0    36     1    13
 -2.4601452134976404E-02 a       714     0    36     1    14
 -1.5410336409053401E-03 a       715     0    36     1    15
  5.2853635370160863E-02 a       716     0    36     1    16
 -4.6805980389274500E-03 a       717     0    36     1    17
  5.0397341281494109E-03 a       718     0    36     1    18
  4.2459638587308947E-03 a       719     0    36     1    19
  1.4680480051467581E-02 a       720     0    36     1    20
  2.3414852523934871E-03 a       721     0    37     1     1
 -7.9790313590851758E-02 a       722     0    37     1     2
  1.5272839471429352E-02 a       723     0    37     1     3
  3.0086477505859657E-02 a       724     0    37     1     4
 -2.7288431123458426E-02 a       725     0    37     1     5
  1.1174656324670351E-02 a       726     0    37     1     6
 -9.8307454458113567E-03 a       727     0    37     1     7
 -1.5646252074841840E-02 a       728     0    37     1     8
  6.8555053867426233E-02 a       729     0    37     1     9
 -7.0417153530688351E-02 a       730     0    37     1    10
 -4.7557030425246165E-02 a       731     0    37     1    11
  3.4219068451333719E-03 a       732     0    37     1    12
  9.7710590198882244E-02 a       733     0    37     1    13
  4.6506515902542305E-03 a       734     0    37     1    14
 -5.1693009243008216E-02 a       735     0    37     1    15
 -3.0853222129119912E-02 a       736     0    37     1    16
 -3.0978542146075871E-02 a       737     0    37     1    17
  1.0055079639349896E-02 a       738     0    37     1    18
  6.7344457510533959E-02 a       739     0    37     1    19
  2.1131932579434565E-02 a       740     0    37     1    20
 -3.2427639018025360E-02 a       741     0    38     1     1
  1.8246996017000252E-03 a       742     0    38     1     2
 -1.8052228963777044E-02 a       743     0    38     1     3
 -4.0423476163293982E-02 a       744     0    38     1     4
 -4.4728282658247139E-02 a       745     0    38     1     5
  1.5582858906634492E-03 a       746     0    38     1     6
  2.3699999043958832E-02 a       747     0    38     1     7
 -1.4446524802928060E-02 a       748     0    38     1     8
  6.6044675105233722E-02 a       749     0    38     1     9
  6.3186711811032303E-02 a       750     0    38     1    10
 -5.0592008224001415E-02 a       751     0    38     1    11
 -5.6707366130832798E-02 a       752     0    38     1    12
 -1.2020915951234169E-01 a       753     0    38     1    13
  8.9665764378636190E-03 a       754     0    38     1    14
  4.4376150733510124E-02 a       755     0    38     1    15
  3.6340053990274929E-02 a       756     0    38     1    16
 -1.5466220197516837E-02 a       757     0    38     1    17
 -1.0270076878107319E-02 a       758     0    38     1    18
 -6.4194897611168866E-02 a       759     0    38     1    19
  1.7408832732396570E-02 a       760     0    38     1    20
  2.7721412001188325E-02 a       761     0    39     1     1
 -1.2320678847539505E-01 a       762     0    39     1     2
  1.9174763817554508E-02 a       763     0    39     1     3
 -3.0190042535269968E-02 a       764     0    39     1     4
  7.1838716281114184E-02 a       765     0    39     1     5
 -3.1320070640232689E-03 a       766     0    39     1     6
 -1.5702234344316347E-03 a       767     0    39     1     7
 -9.1905053013275922E-02 a       768     0    39     1     8
  2.0620013978549522E-02 a       769     0    39     1     9
 -8.7287336016248183E-03 a       770     0    39     1    10
  2.0252842452446223E-02 a       771     0    39     1    11
 -1.2196898341667622E-02 a       772     0    39     1    12
  1.1776769479137052E-01 a       773     0    39     1    13
 -4.5497345486553657E-03 a       774     0    39     1    14
 -5.0619028743998422E-02 a       775     0    39     1    15
 -2.2965712948433564E-02 a       776     0    39     1    16
  1.0998650566995392E-02 a       777     0    39     1    17
  2.1080332445015573E-02 a       778     0    39     1    18
  4.3660256735361058E-02 a       779     0    39     1    19
 -2.4421044118351783E-02 a       780     0    39     1    20
  8.5781639089280382E-02 a       781     0    40     1     1
 -1.6319723284073870E-01 a       782     0    40     1     2
 -2.3663100564060588E-01 a       783     0    40     1     3
 -2.4763795296084154E-01 a       784     0    40     1     4
  1.4189611946875286E-01 a       785     0    40     1     5
  2.9058649444506979E-01 a       786     0    40     1     6
 -1.2854026801474516E-01 a       787     0    40     1     7
 -2.1361671549372618E-01 a       788     0    40     1     8
  2.2486967169964309E-01 a       789     0    40     1     9
 -2.2359134921110144E-01 a       790     0    40     1    10
 -3.0212517914189962E-01 a       791     0    40     1    11
  3.3126516400789152E-01 a       792     0    40     1    12
  3.8783198831490096E-01 a       793     0    40     1    13
  1.4739155352783015E-02 a       794     0    40     1    14
  2.2096499971703792E-02 a       795     0    40     1    15
 -1.9608301195374672E-01 a       796     0    40     1    16
  1.1355758433642572E-01 a       797     0    40     1    17
  5.2931833848520272E-02 a       798     0    40     1    18
 -6.9083082227639883E-02 a       799     0    40     1    19
  1.1590231053878026E-02 a       800     0    40     1    20
 -2.1162326079044405E-02 a       801     0    41     1     1
  1.8141013312880880E-01 a       802     0    41     1     2
  4.2928904462401291E-01 a       803     0    41     1     3
  4.9259432913824269E-01 a       804     0    41     1     4
  2.4659290954697932E-01 a       805     0    41     1     5
 -2.5590124642565620E-01 a       806     0    41     1     6
  5.3000098354960154E-02 a       807     0    41     1     7
 -9.3124658826004056E-02 a       808     0    41     1     8
  1.2959549099033235E-01 a       809     0    41     1     9
 -1.2700192851081843E-01 a       810     0    41     1    10
 -2.3184618831139769E-02 a       811     0    41     1    11
 -1.4425181207667165E-01 a       812     0    41     1    12
 -1.3161999234550253E-01 a       813     0    41     1    13
 -5.9947417669081980E-02 a       814     0    41     1    14
 -8.6011696930712284E-02 a       815     0    41     1    15
  4.5614131037692462E-01 a       816     0    41     1    16
 -2.3083400450242281E-01 a       817     0    41     1    17
  1.9761477006172903E-01 a       818     0    41     1    18
  1.5365854401113233E-01 a       819     0    41     1    19
  3.3856730356575149E-01 a       820     0    41     1    20
 -1.1039063363692635E-01 a       821     0    42     1     1
 -1.4225191352765812E-01 a       822     0    42     1     2
 -1.4928398083919991E-01 a       823     0    42     1     3
  1.1884208583727468E-01 a       824     0    42     1     4
  1.1693327169461266E-01 a       825     0    42     1     5
  4.1283484680110123E-02 a       826     0    42     1     6
  9.7903812825377162E-02 a       827     0    42     1     7
  3.9971655303568969E-03 a       828     0    42     1     8
 -2.7355090072949209E-03 a       829     0    42     1     9
  4.3323847082625051E-02 a       830     0    42     1    10
 -1.2064950278532814E-01 a       831     0    42     1    11
  1.1890158399559701E-01 a       832     0    42     1    12
  7.5606366900266106E-02 a       833     0    42     1    13
 -1.1343130450622855E-02 a       834     0    42     1    14
  4.8888158707191383E-02 a       835     0    42     1    15
 -5.6633204513214068E-02 a       836     0    42     1    16
  8.7872972013200629E-02 a       837     0    42     1    17
  7.3633880656453848E-02 a       838     0    42     1    18
  2.5796399265839178E-02 a       839     0    42     1    19
 -9.9808876153294826E-02 a       840     0    42     1    20
  2.2459885701150473E-02 a       841     0    43     1     1
  6.6647463722174381E-04 a       842     0    43     1     2
  9.6407362190589790E-02 a       843     0    43     1     3
 -3.9879972301533929E-02 a       844     0    43     1     4
 -1.8924694300854441E-02 a       845     0    43     1     5
 -7.6265770287105406E-02 a       846     0    43     1     6
  1.9948013590850402E-01 a       847     0    43     1     7
 -1.1542337720754170E-01 a       848     0    43     1     8
  2.4919085910112820E-01 a       849     0    43     1     9
 -9.7437236474500671E-02 a       850     0    43     1    10
 -2.4273757576224739E-01 a       851     0    43     1    11
 -7.1175968575761694E-02 a       852     0    43     1    12
 -6.9696838450149443E-02 a       853     0    43     1    13
  3.0154086599416628E-02 a       854     0    43     1    14
 -6.0887125917783384E-02 a       855     0    43     1    15
 -6.8393565482986638E-03 a       856     0    43     1    16
 -8.2592773457992374E-02 a       857     0    43     1    17
  6.0708941149984097E-02 a       858     0    43     1    18
  9.8721872084110554E-02 a       859     0    43     1    19
  9.7558452622279926E-02 a       860     0    43     1    20
 -9.1220539811108670E-02 a       861     0    44     1     1
 -7.4070878793925862E-02 a       862     0    44     1     2
 -4.4701372074756340E-01 a       863     0    44     1     3
 -1.7454193628682504E-01 a       864     0    44     1     4
 -3.6652630944621012E-01 a       865     0    44     1     5
  5.5616671733824685E-01 a       866     0    44     1     6
  1.0762673406665960E-01 a       867     0    44     1     7
 -2.1700736498410516E-02 a       868     0    44     1     8
 -8.5088581234339711E-02 a       869     0    44     1     9
 -1.7247781255705560E-01 a       870     0    44     1    10
 -2.4038856531026273E-01 a       871     0    44     1    11
 -7.5074301491261208E-02 a       872     0    44     1    12
  1.9339639539136108E-01 a       873     0    44     1    13
  2.9431082259865168E-02 a       874     0    44     1    14
 -3.8288552028315320E-01 a       875     0    44     1    15
 -3.8871216614033277E-01 a       876     0    44     1    16
 -4.7863142008631170E-02 a       877     0    44     1    17
 -7.1289683097772394E-02 a       878     0    44     1    18
  4.7180393674337899E-02 a       879     0    44     1    19
 -2.5959028254168037E-01 a       880     0    44     1    20
  1.1864481728863210E-01 a       881     0    45     1     1
 -9.8398756677808702E-02 a       882     0    45     1     2
 -1.4800311599528930E-02 a       883     0    45     1     3
  1.1047153707795306E-01 a       884     0    45     1     4
  3.8588064229768688E-02 a       885     0    45     1     5
  8.5796193962174722E-02 a       886     0    45     1     6
 -1.8262823980979387E-01 a       887     0    45     1     7
  3.4156818105145766E-02 a       888     0    45     1     8
  2.8537835407996992E-01 a       889     0    45     1     9
 -1.1056851432721168E-01 a       890     0    45     1    10
  3.4972765709677826E-02 a       891     0    45     1    11
 -6.3915632360914063E-02 a       892     0    45     1    12
  9.8757113376094843E-02 a       893     0    45     1    13
  1.0463218347172280E-02 a       894     0    45     1    14
 -2.4500942599705366E-01 a       895     0    45     1    15
  2.4866365482419075E-02 a       896     0    45     1    16
 -2.0177030847869401E-01 a       897     0    45     1    17
  1.4899197537661457E-01 a       898     0    45     1    18
 -3.4800832973603493E-02 a       899     0    45     1    19
  1.3715225430582584E-01 a       900     0    45     1    20
 -3.4055090861883679E-02 a       901     0    46     1     1
  1.1163483923708277E-01 a       902     0    46     1     2
 -9.0158293420097860E-02 a       903     0    46     1     3
 -1.4524344944833559E-01 a       904     0    46     1     4
  6.0196166886854349E-02 a       905     0    46     1     5
  1.7042758507875824E-01 a       906     0    46     1     6
  2.7028660361611341E-02 a       907     0    46     1     7
  1.6212926697542387E-01 a       908     0    46     1     8
  5.4815936509565802E-02 a       909     0    46     1     9
 -2.1526414922236356E-01 a       910     0    46     1    10
 -9.7811588118500076E-02 a       911     0    46     1    11
 -2.0493585084331700E-01 a       912     0    46     1    12
  2.7984411196162717E-01 a       913     0    46     1    13
 -1.2144101331353144E-01 a       914     0    46     1    14
 -2.6102132307161990E-01 a       915     0    46     1    15
 -3.9173825494418479E-01 a       916     0    46     1    16
 -1.3909034905101111E-01 a       917     0    46     1    17
  1.2486027128640090E-01 a       918     0    46     1    18
  2.0929586980807369E-02 a       919     0    46     1    19
  4.9038397484380304E-02 a       920     0    46     1    20
 -1.2372405875463426E-01 a       921     0    47     1     1
  2.0739109619244904E-02 a       922     0    47     1     2
 -2.7017014562076860E-02 a       923     0    47     1     3
  1.8947064052243921E-02 a       924     0    47     1     4
  1.2339771597418532E-01 a       925     0    47     1     5
  6.6073674482758776E-02 a       926     0    47     1     6
  3.9249098129886029E-02 a       927     0    47     1     7
 -1.9369677928477530E-01 a       928     0    47     1     8
  1.2546876377195743E-01 a       929     0    47     1     9
 -1.3430720225331240E-02 a       930     0    47     1    10
  1.7411892130668360E-02 a       931     0    47     1    11
  7.9293460854823208E-02 a       932     0    47     1    12
  1.1875717730103397E-01 a       933     0    47     1    13
  4.8797569402142874E-02 a       934     0    47     1    14
  1.0227711773665774E-02 a       935     0    47     1    15
  5.6675415835827940E-03 a       936     0    47     1    16
  7.4822868515535976E-02 a       937     0    47     1    17
  1.0081847658794545E-02 a       938     0    47     1    18
 -9.2244395761839765E-02 a       939     0    47     1    19
  1.6656829503296288E-02 a       940     0    47     1    20
  1.5968747296154856E-01 a       941     0    48     1     1
  4.2558804199757327E-02 a       942     0    48     1     2
  4.5922689209377275E-02 a       943     0    48     1     3
 -3.7457917404294161E-02 a       944     0    48     1     4
  1.5838893958650024E-01 a       945     0    48     1     5
 -8.3603692014566008E-02 a       946     0    48     1     6
 -7.9707741515713137E-02 a       947     0    48     1     7
  1.1708563637929674E-01 a       948     0    48     1     8
  9.3802671565632767E-02 a       949     0    48     1     9
 -1.3775217961442363E-01 a       950     0    48     1    10
  1.4386808383812613E-01 a       951     0    48     1    11
 -1.1903187010264205E-01 a       952     0    48     1    12
  1.4809596291557275E-01 a       953     0    48     1    13
 -5.6633360033219199E-02 a       954     0    48     1    14
 -3.6708581700198077E-02 a       955     0    48     1    15
 -9.1712780248219480E-03 a       956     0    48     1    16
 -7.0987215910892243E-02 a       957     0    48     1    17
  2.5994129756739670E-01 a       958     0    48     1    18
 -1.9207314535889675E-01 a       959     0    48     1    19
  2.2509339456901582E-02 a       960     0    48     1    20
  1.2758215962229777E-01 a       961     0    49     1     1
  1.5379184824319639E-01 a       962     0    49     1     2
 -1.2702651656817726E-01 a       963     0    49     1     3
 -2.1755306120100595E-02 a       964     0    49     1     4
  4.7650102609159535E-02 a       965     0    49     1     5
  7.1717112842137457E-02 a       966     0    49     1     6
  5.8287072941664193E-02 a       967     0    49     1     7
  1.0158149980191787E-01 a       968     0    49     1     8
  1.8759471780510923E-02 a       969     0    49     1     9
 -2.5574750160760035E-01 a       970     0    49     1    10
 -3.8801154599144384E-02 a       971     0    49     1    11
 -9.7997148729741593E-02 a       972     0    49     1    12
 -4.9597972172565730E-02 a       973     0    49     1    13
  6.4766482671260131E-02 a       974     0    49     1    14
  1.1708245090330455E-01 a       975     0    49     1    15
 -8.3337535997264192E-02 a       976     0    49     1    16
  4.0040395742169950E-02 a       977     0    49     1    17
  4.4002801442732678E-02 a       978     0    49     1    18
  2.5023114485561687E-02 a       979     0    49     1    19
  1.3733806220805186E-01 a       980     0    49     1    20
 -1.4234366277990762E-01 a       981     0    50     1     1
  2.3018766496594417E-01 a       982     0    50     1     2
  1.8124715233088001E-01 a       983     0    50     1     3
  6.0118654498921495E-02 a       984     0    50     1     4
 -2.8917618838385395E-02 a       985     0    50     1     5
 -8.3169228574810364E-02 a       986     0    50     1     6
  1.4157406958975463E-01 a       987     0    50     1     7
  9.5302757700243740E-02 a       988     0    50     1     8
  2.5840019851286401E-02 a       989     0    50     1     9
  3.0197421169236860E-01 a       990     0    50     1    10
  3.5538407138659639E-01 a       991     0    50     1    11
 -7.7607163901290896E-02 a       992     0    50     1    12
 -1.7243067044728705E-01 a       993     0    50     1    13
 -1.2210840829213794E-02 a       994     0    50     1    14
  7.0202604082804848E-02 a       995     0    50     1    15
 -2.4511904195503184E-01 a       996     0    50     1    16
  1.3472174844661083E-01 a       997     0    50     1    17
 -1.1523221361392151E-01 a       998     0    50     1    18
 -2.0597382608589918E-01 a       999     0    50     1    19
  7.7668122069426831E-02 a      1000     0    50     1    20
 -6.4373676334451249E-02 a      1001     0    51     1     1
 -3.5922908412546611E-01 a      1002     0    51     1     2
 -1.1836608955975475E-01 a      1003     0    51     1     3
 -4.5751125557127897E-01 a      1004     0    51     1     4
 -4.6602976489128556E-01 a      1005     0    51     1     5
  3.3494456037940712E-01 a      1006     0    51     1     6
 -1.7890784747304922E-01 a      1007     0    51     1     7
 -1.1756271383844558E-01 a      1008     0    51     1     8
  3.1889553774457302E-01 a      1009     0    51     1     9
  2.5950777954020554E-01 a      1010     0    51     1    10
 -5.2475404121316148E-02 a      1011     0    51     1    11
 -7.5575997063498393E-02 a      1012     0    51     1    12
  2.3996446633215668E-01 a      1013     0    51     1    13
  1.0894018004000251E-01 a      1014     0    51     1    14
  3.4025125496090941E-01 a      1015     0    51     1    15
  1.7750444624729134E-01 a      1016     0    51     1    16
  2.4147695502762221E-02 a      1017     0    51     1    17
 -1.2828089152780231E-01 a      1018     0    51     1    18
 -2.5025098046431462E-02 a      1019     0    51     1    19
 -9.9177626099113569E-01 a      1020     0    51     1    20
 -1.1754576617929716E-01 a      1021     0    52     1     1
  1.9016592877597643E-01 a      1022     0    52     1     2
  1.3850542363403887E-01 a      1023     0    52     1     3
 -1.3854519430493439E-01 a      1024     0    52     1     4
 -1.6473123026699282E-01 a      1025     0    52     1     5
 -7.7669356808425169E-02 a      1026     0    52     1     6
 -8.3615957140547273E-02 a      1027     0    52     1     7
 -6.6785135018589065E-03 a      1028     0    52     1     8
 -1.2786093991530441E-02 a      1029     0    52     1     9
 -1.2279588620949357E-01 a      1030     0    52     1    10
  1.6549057822421144E-02 a      1031     0    52     1    11
 -5.9289525142856556E-02 a      1032     0    52     1    12
  2.2000869771632247E-02 a      1033     0    52     1    13
  1.3371676133567130E-02 a      1034     0    52     1    14
 -8.8709551964297251E-02 a      1035     0    52     1    15
 -6.5407018369427875E-02 a      1036     0    52     1    16
 -1.6713561307439624E-02 a      1037     0    52     1    17
 -5.4372833215627900E-02 a      1038     0    52     1    18
 -7.7828082245960925E-02 a      1039     0    52     1    19
  9.2643447676811735E-02 a      1040     0    52     1    20
  8.3482926120210452E-03 a      1041     0    53     1     1
  5.4581332569914112E-02 a      1042     0    53     1     2
  1.4107566932115654E-02 a      1043     0    53     1     3
  4.9404770119193232E-02 a      1044     0    53     1     4
 -1.1722435949096026E-01 a      1045     0    53     1     5
  1.1280982437137996E-01 a      1046     0    53     1     6
 -1.9596525557917030E-01 a      1047     0    53     1     7
  4.6692378642883330E-02 a      1048     0    53     1     8
 -6.7492457049294213E-02 a      1049     0    53     1     9
 -1.1765478386247025E-01 a      1050     0    53     1    10
  1.6656733969882614E-01 a      1051     0    53     1    11
  4.4800545597607162E-02 a      1052     0    53     1    12
 -3.3676982921777496E-02 a      1053     0    53     1    13
  4.8663677228301491E-02 a      1054     0    53     1    14
 -4.1881744155135431E-02 a      1055     0    53     1    15
  1.7519897242506366E-01 a      1056     0    53     1    16
 -2.9423209320113799E-02 a      1057     0    53     1    17
  4.7685935234442645E-02 a      1058     0    53     1    18
 -1.7265807482434894E-01 a      1059     0    53     1    19
 -1.0778015977886454E-01 a      1060     0    53     1    20
  2.7681007315015838E-01 a      1061     0    54     1     1
 -1.3874368092694114E-01 a      1062     0    54     1     2
  1.7971305473602089E-01 a      1063     0    54     1     3
  1.4670338428718507E-01 a      1064     0    54     1     4
  7.7427501447122973E-02 a      1065     0    54     1     5
 -4.0187838406329668E-01 a      1066     0    54     1     6
 -3.4898878918256604E-02 a      1067     0    54     1     7
  2.4886197295410950E-01 a      1068     0    54     1     8
  5.9329685740259069E-02 a      1069     0    54     1     9
 -1.2985195304337387E-02 a      1070     0    54     1    10
  2.8964196860784504E-02 a      1071     0    54     1    11
 -2.7009123330608154E-01 a      1072     0    54     1    12
 -3.6832023499300948E-01 a      1073     0    54     1    13
 -1.0780303027942143E-02 a      1074     0    54     1    14
 -1.0593242422558560E-01 a      1075     0    54     1    15
  8.9809216310278314E-02 a      1076     0    54     1    16
 -8.1265961588199209E-02 a      1077     0    54     1    17
  9.4880654891132590E-03 a      1078     0    54     1    18
 -1.4279465845155939E-01 a      1079     0    54     1    19
  3.3756624839536442E-01 a      1080     0    54     1    20
 -5.1307630257259394E-02 a      1081     0    55     1     1
 -1.1562664185904277E-01 a      1082     0    55     1     2
 -2.9858420849104349E-02 a      1083     0    55     1     3
 -1.5711054689195200E-01 a      1084     0    55     1     4
 -8.2672432978180249E-02 a      1085     0    55     1     5
 -9.2220225699712180E-02 a      1086     0    55     1     6
 -1.3427961092290989E-02 a      1087     0    55     1     7
  1.5847150295459866E-01 a      1088     0    55     1     8
  1.8344683960862779E-01 a      1089     0    55     1     9
  7.0002276932441126E-02 a      1090     0    55     1    10
 -1.6544532558659703E-01 a      1091     0    55     1    11
 -5.6504762918469127E-02 a      1092     0    55     1    12
 -3.5286529798090147E-02 a      1093     0    55     1    13
  1.1022835139647134E-02 a      1094     0    55     1    14
  2.0648196214250775E-01 a      1095     0    55     1    15
  6.4651893657933238E-02 a      1096     0    55     1    16
  5.8215739907533426E-02 a      1097     0    55     1    17
  1.4043395178190202E-01 a      1098     0    55     1    18
 -6.5212829499804482E-03 a      1099     0    55     1    19
  1.1850360219822420E-01 a      1100     0    55     1    20
  1.6432708371792654E-01 a      1101     0    56     1     1
 -2.0082660512902309E-01 a      1102     0    56     1     2
  4.2393577367071882E-02 a      1103     0    56     1     3
 -1.2814147104206527E-01 a      1104     0    56     1     4
  1.2624482469984560E-01 a      1105     0    56     1     5
 -3.0959634645035542E-02 a      1106     0    56     1     6
  3.1510570967341146E-02 a      1107     0    56     1     7
  2.9688870727773028E-02 a      1108     0    56     1     8
  5.9556856348104058E-02 a      1109     0    56     1     9
  8.3665891651294844E-02 a      1110     0    56     1    10
  3.8599218111399214E-02 a      1111     0    56     1    11
  8.6929393749536260E-02 a      1112     0    56     1    12
  3.1234420461064397E-02 a      1113     0    56     1    13
 -1.5848705709564037E-02 a      1114     0    56     1    14
 -5.7656798521548581E-03 a      1115     0    56     1    15
 -1.0787690751009172E-02 a      1116     0    56     1    16
  7.6812942259322572E-02 a      1117     0    56     1    17
 -4.6849609758718973E-03 a      1118     0    56     1    18
 -1.9402617803247198E-02 a      1119     0    56     1    19
  1.8404136364993003E-02 a      1120     0    56     1    20
 -6.6731182085979210E-02 a      1121     0    57     1     1
 -2.1373440149490155E-01 a      1122     0    57     1     2
  4.1912433406232352E-03 a      1123     0    57     1     3
  1.7870191346536224E-01 a      1124     0    57     1     4
 -1.5850688768073465E-01 a      1125     0    57     1     5
 -3.3838620092566420E-02 a      1126     0    57     1     6
 -8.4995485076121632E-02 a      1127     0    57     1     7
  2.8818101701269007E-02 a      1128     0    57     1     8
  7.7917592935091332E-02 a      1129     0    57     1     9
  1.1868195058793533E-01 a      1130     0    57     1    10
  9.5381860122355812E-03 a      1131     0    57     1    11
 -1.2635016654995604E-01 a      1132     0    57     1    12
 -1.2053381557113316E-02 a      1133     0    57     1    13
 -7.3562425277698448E-02 a      1134     0    57     1    14
  1.3013633031747016E-01 a      1135     0    57     1    15
 -4.9994282690615857E-03 a      1136     0    57     1    16
  3.0238749137442267E-03 a      1137     0    57     1    17
 -3.5241419535791366E-02 a      1138     0    57     1    18
 -1.2609161325327567E-01 a      1139     0    57     1    19
 -6.5458028906711069E-02 a      1140     0    57     1    20
  9.1905280055339475E-02 a      1141     0    58     1     1
 -1.0592884639977786E-01 a      1142     0    58     1     2
 -1.6346118119618714E-02 a      1143     0    58     1     3
 -1.4692399435675349E-01 a      1144     0    58     1     4
 -2.1315593026577115E-01 a      1145     0    58     1     5
 -2.0423990410564811E-02 a      1146     0    58     1     6
  8.0621271950784695E-03 a      1147     0    58     1     7
 -3.3150437415827787E-02 a      1148     0    58     1     8
  2.1496551318542660E-02 a      1149     0    58     1     9
  8.7182507463546638E-02 a      1150     0    58     1    10
 -1.4117508288256306E-01 a      1151     0    58     1    11
  7.8399094621206741E-02 a      1152     0    58     1    12
 -1.0311988772729336E-01 a      1153     0    58     1    13
  9.7923054185318062E-02 a      1154     0    58     1    14
  1.0854619947801242E-04 a      1155     0    58     1    15
  2.5797227203190193E-02 a      1156     0    58     1    16
  2.2251319682759566E-02 a      1157     0    58     1    17
 -1.9598978788495883E-01 a      1158     0    58     1    18
  1.1701751590871709E-01 a      1159     0    58     1    19
 -2.1173000267939092E-02 a      1160     0    58     1    20
  1.6677366801667848E-01 a      1161     0    59     1     1
  5.2195349034157686E-02 a      1162     0    59     1     2
  1.0419048963902650E-01 a      1163     0    59     1     3
 -1.9529179532059704E-01 a      1164     0    59     1     4
 -3.3160810769076746E-02 a      1165     0    59     1     5
 -1.9887320136556977E-01 a      1166     0    59     1     6
 -6.9804240838096721E-02 a      1167     0    59     1     7
  1.7499117656116112E-01 a      1168     0    59     1     8
 -7.2599854924754112E-02 a      1169     0    59     1     9
  2.3617583282990923E-01 a      1170     0    59     1    10
 -2.5645813998314480E-02 a      1171     0    59     1    11
  1.0733415886166230E-01 a      1172     0    59     1    12
  7.6277346900039331E-02 a      1173     0    59     1    13
 -7.9113697419020121E-02 a      1174     0    59     1    14
 -8.8326690694592563E-02 a      1175     0    59     1    15
 -3.3362835411867270E-02 a      1176     0    59     1    16
 -1.2216437969229265E-02 a      1177     0    59     1    17
 -5.3172930795595708E-02 a      1178     0    59     1    18
 -3.1729682627848664E-02 a      1179     0    59     1    19
 -1.4145306787330431E-01 a      1180     0    59     1    20
 -7.4880574003068676E-02 a      1181     0    60     1     1
  7.3501738913087047E-02 a      1182     0    60     1     2
  1.6198834246568407E-02 a      1183     0    60     1     3
  5.9223593638716009E-02 a      1184     0    60     1     4
  3.3556779540986306E-02 a      1185     0    60     1     5
 -2.3068219517622925E-02 a      1186     0    60     1     6
 -4.9226457117723416E-02 a      1187     0    60     1     7
  8.4326959050124412E-02 a      1188     0    60     1     8
 -4.2091433958839103E-02 a      1189     0    60     1     9
  1.8903478964078027E-02 a      1190     0    60     1    10
  1.5749035975046846E-01 a      1191     0    60     1    11
  4.3644156664772116E-02 a      1192     0    60     1    12
  4.4686281755691636E-02 a      1193     0    60     1    13
 -1.8466222791967035E-02 a      1194     0    60     1    14
  7.5037404210419240E-02 a      1195     0    60     1    15
 -6.0531176759813149E-02 a      1196     0    60     1    16
  7.1221580110184826E-02 a      1197     0    60     1    17
  2.1674668304364628E-02 a      1198     0    60     1    18
 -8.8795276959342709E-02 a      1199     0    60     1    19
 -2.4196202189212604E-02 a      1200     0    60     1    20
 -6.6052775238283790E-02 a      1201     0    61     1     1
 -1.9482205169432484E-01 a      1202     0    61     1     2
  6.1132164964524836E-03 a      1203     0    61     1     3
  9.9877557615693779E-02 a      1204     0    61     1     4
  4.4793329632468988E-03 a      1205     0    61     1     5
  9.0874791577612770E-03 a      1206     0    61     1     6
  3.3827934744077297E-02 a      1207     0    61     1     7
 -1.7222575390915437E-01 a      1208     0    61     1     8
  9.9086441750882367E-02 a      1209     0    61     1     9
  5.7851286912714392E-02 a      1210     0    61     1    10
 -6.0510194782605817E-02 a      1211     0    61     1    11
 -4.5378235091818667E-02 a      1212     0    61     1    12
  1.0336440951684138E-01 a      1213     0    61     1    13
 -7.3277337966983162E-03 a      1214     0    61     1    14
  5.2896034154328829E-02 a      1215     0    61     1    15
  4.0608874121664883E-02 a      1216     0    61     1    16
  3.6200515197611412E-03 a      1217     0    61     1    17
 -8.8964078097766880E-02 a      1218     0    61     1    18
  7.0113791423332156E-02 a      1219     0    61     1    19
 -6.8453207241545022E-02 a      1220     0    61     1    20
  7.6068270964103346E-02 a      1221     0    62     1     1
  4.4365978187580465E-02 a      1222     0    62     1     2
  4.1075779410673821E-02 a      1223     0    62     1     3
  1.7221489835948737E-02 a      1224     0    62     1     4
 -1.2217260668700675E-01 a      1225     0    62     1     5
 -6.3724577152851181E-02 a      1226     0    62     1     6
 -8.0529564161762844E-03 a      1227     0    62     1     7
 -1.7509516261033428E-01 a      1228     0    62     1     8
 -2.3931682004008439E-02 a      1229     0    62     1     9
 -2.1116929863008057E-02 a      1230     0    62     1    10
 -1.7413597201711029E-02 a      1231     0    62     1    11
  7.1248871381392478E-02 a      1232     0    62     1    12
  7.4102989453430232E-02 a      1233     0    62     1    13
  1.0241482392074980E-02 a      1234     0    62     1    14
  1.9601079276335104E-01 a      1235     0    62     1    15
 -9.3834791695547745E-02 a      1236     0    62     1    16
  8.5251067797556937E-02 a      1237     0    62     1    17
 -6.0400894232661859E-02 a      1238     0    62     1    18
 -8.4661128681941672E-02 a      1239     0    62     1    19
  7.2960710996176265E-02 a      1240     0    62     1    20
 -3.7076982055450756E-02 a      1241     0    63     1     1
 -2.1823798495723806E-01 a      1242     0    63     1     2
  9.0936910804512525E-03 a      1243     0    63     1     3
  2.0206774842705014E-01 a      1244     0    63     1     4
  2.9101687369734768E-02 a      1245     0    63     1     5
  1.1686997745971190E-02 a      1246     0    63     1     6
 -9.4717991574631392E-03 a      1247     0    63     1     7
 -1.4854660233932176E-01 a      1248     0    63     1     8
  1.7780588415275567E-01 a      1249     0    63     1     9
 -3.0062835221742381E-02 a      1250     0    63     1    10
  5.4629683981911398E-02 a      1251     0    63     1    11
  1.2405340921157727E-01 a      1252     0    63     1    12
  1.1671162419121581E-01 a      1253     0    63     1    13
 -2.4106488865096438E-02 a      1254     0    63     1    14
 -4.1501288513534143E-03 a      1255     0    63     1    15
  7.4529010948739649E-02 a      1256     0    63     1    16
  6.2894324153691408E-02 a      1257     0    63     1    17
 -3.4461319139001988E-02 a      1258     0    63     1    18
 -4.2041954587380380E-02 a      1259     0    63     1    19
 -4.9011217220032523E-02 a      1260     0    63     1    20
  5.3385785435726654E-02 a      1261     0    64     1     1
  3.0321751895404564E-01 a      1262     0    64     1     2
  3.1296531796962256E-02 a      1263     0    64     1     3
  5.7448897580302034E-02 a      1264     0    64     1     4
 -1.9507971655347228E-01 a      1265     0    64     1     5
 -2.1923756185826274E-02 a      1266     0    64     1     6
 -1.7551961056912554E-01 a      1267     0    64     1     7
 -1.4391086777095732E-01 a      1268     0    64     1     8
 -1.4207868782132774E-01 a      1269     0    64     1     9
 -4.0104136535989515E-01 a      1270     0    64     1    10
  2.6952694821408990E-01 a      1271     0    64     1    11
 -8.5550815407126238E-02 a      1272     0    64     1    12
 -1.6623980886102244E-01 a      1273     0    64     1    13
  1.1066857107525940E-01 a      1274     0    64     1    14
 -6.3686318694807662E-02 a      1275     0    64     1    15
  1.9379860094054169E-01 a      1276     0    64     1    16
 -2.1332634225020319E-03 a      1277     0    64     1    17
  1.3411853943964788E-01 a      1278     0    64     1    18
 -3.4308485085774182E-01 a      1279     0    64     1    19
 -1.1803840248087828E-02 a      1280     0    64     1    20
  2.0321688584884687E-01 a      1281     0    65     1     1
  1.6609922647840350E-01 a      1282     0    65     1     2
  2.9782332769957988E-02 a      1283     0    65     1     3
 -4.9455587627181677E-02 a      1284     0    65     1     4
  1.0355897729147515E-01 a      1285     0    65     1     5
 -3.2655140422413194E-02 a      1286     0    65     1     6
 -7.8613445073604002E-02 a      1287     0    65     1     7
 -9.9845839812527398E-02 a      1288     0    65     1     8
 -6.3957916637573707E-03 a      1289     0    65     1     9
 -1.0052127124250693E-01 a      1290     0    65     1    10
 -7.4134324275495170E-02 a      1291     0    65     1    11
 -1.2040858299786090E-02 a      1292     0    65     1    12
  1.8917582051242422E-02 a      1293     0    65     1    13
 -1.5362113013723607E-03 a      1294     0    65     1    14
 -3.5193626426241097E-02 a      1295     0    65     1    15
  6.5564891449077248E-02 a      1296     0    65     1    16
 -6.6879488786048503E-03 a      1297     0    65     1    17
  3.3814150519349356E-02 a      1298     0    65     1    18
  4.8680402088319662E-03 a      1299     0    65     1    19
  3.6019887330472899E-02 a      1300     0    65     1    20
  3.7758207612713833E-02 a      1301     0    66     1     1
 -1.8014326631384606E-01 a      1302     0    66     1     2
 -1.7023849057062904E-02 a      1303     0    66     1     3
 -2.2399635925417472E-01 a      1304     0    66     1     4
  7.7818209865795920E-02 a      1305     0    66     1     5
  3.4803348485458643E-02 a      1306     0    66     1     6
  1.3093260699944351E-01 a      1307     0    66     1     7
 -1.7746609761478122E-01 a      1308     0    66     1     8
 -9.1344370547629297E-02 a      1309     0    66     1     9
 -6.4665809339815687E-03 a      1310     0    66     1    10
  1.1498735691876946E-01 a      1311     0    66     1    11
  8.3810686898127429E-02 a      1312     0    66     1    12
 -5.5523811392260390E-02 a      1313     0    66     1    13
  4.7114740243088059E-02 a      1314     0    66     1    14
 -1.7037925360898032E-01 a      1315     0    66     1    15
  1.6650236300950835E-01 a      1316     0    66     1    16
  1.4847518337427348E-01 a      1317     0    66     1    17
  1.0392341844961174E-01 a      1318     0    66     1    18
 -8.1380850049201689E-02 a      1319     0    66     1    19
 -7.8534715248669684E-03 a      1320     0    66     1    20
 -7.5377153180184106E-02 a      1321     0    67     1     1
  5.4123045891199845E-02 a      1322     0    67     1     2
 -1.1980806859471936E-02 a      1323     0    67     1     3
  6.7321929414893539E-02 a      1324     0    67     1     4
 -1.7813033202727199E-01 a      1325     0    67     1     5
 -8.3919020775208592E-03 a      1326     0    67     1     6
  3.0384095681439759E-02 a      1327     0    67     1     7
 -3.0090682082595931E-02 a      1328     0    67     1     8
  1.3596721144703051E-03 a      1329     0    67     1     9
 -4.5810633771903038E-02 a      1330     0    67     1    10
 -1.0902631714418969E-01 a      1331     0    67     1    11
 -1.2422310793028656E-01 a      1332     0    67     1    12
 -9.1892040951291054E-02 a      1333     0    67     1    13
  4.5957885783750830E-03 a      1334     0    67     1    14
 -1.3979588073976599E-02 a      1335     0    67     1    15
 -6.2859255244246274E-03 a      1336     0    67     1    16
 -9.5307126841684589E-02 a      1337     0    67     1    17
  6.2830944967683404E-03 a      1338     0    67     1    18
  2.7090284907559707E-02 a      1339     0    67     1    19
 -3.0126805579756425E-03 a      1340     0    67     1    20
  8.2453523071542564E-02 a      1341     0    68     1     1
  2.4094684712643150E-01 a      1342     0    68     1     2
 -3.7405545540099602E-02 a      1343     0    68     1     3
 -5.7741046782254099E-02 a      1344     0    68     1     4
 -1.2945926168357694E-01 a      1345     0    68     1     5
  2.8775708950660492E-02 a      1346     0    68     1     6
  2.4556089941266544E-02 a      1347     0    68     1     7
 -1.3394691767724526E-01 a      1348     0    68     1     8
 -5.8305228296407968E-02 a      1349     0    68     1     9
  2.0204082261280353E-02 a      1350     0    68     1    10
 -1.2116969525439961E-01 a      1351     0    68     1    11
  9.3061053149685130E-02 a      1352     0    68     1    12
 -9.8798506523745652E-02 a      1353     0    68     1    13
  4.8724535139035186E-02 a      1354     0    68     1    14
  6.9998215175837430E-02 a      1355     0    68     1    15
  3.4648048468425272E-03 a      1356     0    68     1    16
  3.6592096413920583E-02 a      1357     0    68     1    17
 -1.5305110281124248E-01 a      1358     0    68     1    18
  7.3760831881959185E-02 a      1359     0    68     1    19
  3.1915402549368359E-02 a      1360     0    68     1    20
 -1.6941764395351053E-01 a      1361     0    69     1     1
  2.4502272332183109E-02 a      1362     0    69     1     2
  6.6105887247980125E-02 a      1363     0    69     1     3
  6.8449209005620112E-02 a      1364     0    69     1     4
 -2.3941299769299976E-01 a      1365     0    69     1     5
 -5.2274286938630163E-02 a      1366     0    69     1     6
  1.4883971084662226E-02 a      1367     0    69     1     7
  7.3838348458204345E-04 a      1368     0    69     1     8
 -1.5622961437511945E-02 a      1369     0    69     1     9
  8.2223153604325375E-02 a      1370     0    69     1    10
  2.4588648682834710E-02 a      1371     0    69     1    11
  7.2001044189571081E-02 a      1372     0    69     1    12
 -4.0568177707701727E-02 a      1373     0    69     1    13
  8.2124980944038879E-03 a      1374     0    69     1    14
  3.9690962218290597E-02 a      1375     0    69     1    15
  2.7026677654736157E-02 a      1376     0    69     1    16
 -2.3361043741031606E-02 a      1377     0    69     1    17
 -1.1891408605583218E-02 a      1378     0    69     1    18
 -1.5473586946618442E-01 a      1379     0    69     1    19
 -8.5096154239748686E-02 a      1380     0    69     1    20
 -2.2154870209134567E-01 a      1381     0    70     1     1
 -1.7773213224304533E-02 a      1382     0    70     1     2
 -1.0151203227584311E-01 a      1383     0    70     1     3
  1.1747651158209763E-01 a      1384     0    70     1     4
  1.5073303802666860E-01 a      1385     0    70     1     5
  1.7560275986944610E-02 a      1386     0    70     1     6
 -6.8619669087158957E-03 a      1387     0    70     1     7
 -1.1021339763292309E-01 a      1388     0    70     1     8
 -2.3347403590350377E-01 a      1389     0    70     1     9
 -2.8026648968235807E-01 a      1390     0    70     1    10
  2.3555844283845294E-02 a      1391     0    70     1    11
 -7.1170945441175984E-02 a      1392     0    70     1    12
 -7.2618375458660664E-02 a      1393     0    70     1    13
 -4.2509845081371997E-02 a      1394     0    70     1    14
  2.1173570395902433E-01 a      1395     0    70     1    15
  2.2327418940951992E-02 a      1396     0    70     1    16
 -1.8592491596019872E-02 a      1397     0    70     1    17
  9.2120491130893031E-02 a      1398     0    70     1    18
  2.4592655553968759E-01 a      1399     0    70     1    19
  3.7277553487865406E-02 a      1400     0    70     1    20
 -1.7803845878808566E-01 a      1401     0    71     1     1
  3.1201804234477742E-01 a      1402     0    71     1     2
 -2.4202882131450459E-01 a      1403     0    71     1     3
 -2.2111810235050117E-01 a      1404     0    71     1     4
 -2.0968838289028724E-01 a      1405     0    71     1     5
 -2.7572146111991258E-01 a      1406     0    71     1     6
  3.5325653320417738E-01 a      1407     0    71     1     7
 -1.4915302096067221E-01 a      1408     0    71     1     8
  3.5245567248421905E-01 a      1409     0    71     1     9
  4.0460822974048000E-01 a      1410     0    71     1    10
 -1.5578743818236532E-01 a      1411     0    71     1    11
  5.7852692663500949E-01 a      1412     0    71     1    12
  4.4912653537089181E-01 a      1413     0    71     1    13
  4.2525269644411355E-02 a      1414     0    71     1    14
 -8.6618117023153463E-01 a      1415     0    71     1    15
  1.4283204201322341E-02 a      1416     0    71     1    16
 -5.9159448246204241E-02 a      1417     0    71     1    17
  8.6550731870759928E-02 a      1418     0    71     1    18
 -4.9244829707369159E-01 a      1419     0    71     1    19
  9.2558256157513508E-01 a      1420     0    71     1    20
  5.3538136063560775E-02 a      1421     0    72     1     1
 -1.0673760936379953E-01 a      1422     0    72     1     2
 -2.3920243993823039E-02 a      1423     0    72     1     3
  5.6703014742153376E-02 a      1424     0    72     1     4
  1.5150264075034292E-01 a      1425     0    72     1     5
  1.1954794507770297E-01 a      1426     0    72     1     6
  5.2135164619197566E-02 a      1427     0    72     1     7
 -1.5430665924264292E-01 a      1428     0    72     1     8
 -4.7471985264818668E-02 a      1429     0    72     1     9
 -8.2334763713431836E-03 a      1430     0    72     1    10
  3.1193808851871261E-02 a      1431     0    72     1    11
  8.5972355255333657E-02 a      1432     0    72     1    12
 -5.1897313384234700E-02 a      1433     0    72     1    13
 -6.8570402288277424E-03 a      1434     0    72     1    14
  4.5428834705040951E-02 a      1435     0    72     1    15
  2.7697568100733913E-02 a      1436     0    72     1    16
  3.7579676723170259E-02 a      1437     0    72     1    17
  4.4543604106451327E-02 a      1438     0    72     1    18
  5.3627130144619520E-02 a      1439     0    72     1    19
  1.4721542685066542E-02 a      1440     0    72     1    20
 -3.4389887038568628E-01 a      1441     0    73     1     1
 -1.9047694035498778E-02 a      1442     0    73     1     2
 -4.8552673759290559E-02 a      1443     0    73     1     3
  1.9267503971779512E-01 a      1444     0    73     1     4
  2.0161498288218085E-02 a      1445     0    73     1     5
 -8.2278798525867641E-02 a      1446     0    73     1     6
  1.0929054564838045E-01 a      1447     0    73     1     7
  1.9640312062131779E-01 a      1448     0    73     1     8
  1.9571992675688976E-01 a      1449     0    73     1     9
  1.6225864241004220E-01 a      1450     0    73     1    10
 -3.8716804084372655E-02 a      1451     0    73     1    11
 -4.8535198960874175E-03 a      1452     0    73     1    12
  1.2794779140095805E-01 a      1453     0    73     1    13
 -5.8984667780589951E-02 a      1454     0    73     1    14
 -9.8491987106638056E-03 a      1455     0    73     1    15
 -1.1031446570235852E-01 a      1456     0    73     1    16
  9.3369440837555162E-03 a      1457     0    73     1    17
 -1.2014281312950872E-01 a      1458     0    73     1    18
  7.0304615052381739E-02 a      1459     0    73     1    19
  5.2924096042196264E-02 a      1460     0    73     1    20
 -1.6545726989410353E-01 a      1461     0    74     1     1
 -6.5646247472702174E-02 a      1462     0    74     1     2
  5.3117620254170737E-02 a      1463     0    74     1     3
 -3.3299736254953594E-04 a      1464     0    74     1     4
  8.6074395700050710E-02 a      1465     0    74     1     5
  1.8934657936132940E-01 a      1466     0    74     1     6
 -1.9339994126730219E-02 a      1467     0    74     1     7
  1.1230223437171770E-01 a      1468     0    74     1     8
 -2.4283196752414367E-02 a      1469     0    74     1     9
 -1.7137257669162828E-01 a      1470     0    74     1    10
 -8.9799503678253317E-02 a      1471     0    74     1    11
 -1.9927590008854645E-01 a      1472     0    74     1    12
  2.0241430197284415E-03 a      1473     0    74     1    13
  1.0740598293636752E-03 a      1474     0    74     1    14
  2.0934528545701303E-01 a      1475     0    74     1    15
 -1.4581370982549513E-01 a      1476     0    74     1    16
 -1.3997303183437990E-02 a      1477     0    74     1    17
  5.7477768164856547E-03 a      1478     0    74     1    18
  2.9558807729002351E-01 a      1479     0    74     1    19
 -3.1582215698893096E-01 a      1480     0    74     1    20
 -9.3701816229963764E-02 a      1481     0    75     1     1
 -3.6552052717630297E-02 a      1482     0    75     1     2
 -1.5782615731678475E-02 a      1483     0    75     1     3
  8.7033115843370326E-02 a      1484     0    75     1     4
 -2.2416097968737957E-02 a      1485     0    75     1     5
  2.3216805197631314E-02 a      1486     0    75     1     6
  4.0235606323915790E-02 a      1487     0    75     1     7
  1.2863749125341359E-01 a      1488     0    75     1     8
  3.2262461095909227E-04 a      1489     0    75     1     9
  1.2817085546602242E-01 a      1490     0    75     1    10
  1.6881869845614106E-01 a      1491     0    75     1    11
  4.1119599485696916E-03 a      1492     0    75     1    12
  5.6410964399777011E-02 a      1493     0    75     1    13
 -2.0958248713175278E-02 a      1494     0    75     1    14
 -1.4797123865385317E-01 a      1495     0    75     1    15
 -3.0198978127347013E-02 a      1496     0    75     1    16
 -9.2502600226943593E-02 a      1497     0    75     1    17
 -1.3409708787076746E-01 a      1498     0    75     1    18
  2.6007988539240440E-02 a      1499     0    75     1    19
 -1.3106965965358713E-01 a      1500     0    75     1    20
  4.9589764640851734E-02 a      1501     0    76     1     1
  6.2007780269391508E-02 a      1502     0    76     1     2
  1.6702825139905543E-02 a      1503     0    76     1     3
  5.1721936392066528E-02 a      1504     0    76     1     4
  9.7072877629447094E-02 a      1505     0    76     1     5
  8.3508205497609456E-02 a      1506     0    76     1     6
 -4.2848347735476175E-02 a      1507     0    76     1     7
 -1.4222207258289465E-01 a      1508     0    76     1     8
 -1.1648228752112780E-01 a      1509     0    76     1     9
 -9.9597343517605089E-02 a      1510     0    76     1    10
 -2.3586518902872940E-02 a      1511     0    76     1    11
 -5.1096358483290451E-02 a      1512     0    76     1    12
  9.6936530011860669E-03 a      1513     0    76     1    13
  1.5232941494853908E-02 a      1514     0    76     1    14
  4.1450570486173031E-02 a      1515     0    76     1    15
  2.7266229039962387E-02 a      1516     0    76     1    16
  6.9324084338226273E-03 a      1517     0    76     1    17
  3.7864429333869708E-02 a      1518     0    76     1    18
  3.9017237579934617E-02 a      1519     0    76     1    19
 -4.1161641702984940E-02 a      1520     0    76     1    20
 -8.7363742563239352E-02 a      1521     0    77     1     1
  2.3827967650362497E-01 a      1522     0    77     1     2
 -4.9245673647323865E-02 a      1523     0    77     1     3
 -7.1566844708865512E-02 a      1524     0    77     1     4
  1.4276333690985241E-01 a      1525     0    77     1     5
 -2.4565793556627032E-03 a      1526     0    77     1     6
  9.0596095407713441E-03 a      1527     0    77     1     7
 -8.6100583455445191E-05 a      1528     0    77     1     8
 -1.8070670781054327E-01 a      1529     0    77     1     9
 -8.3926988939734590E-02 a      1530     0    77     1    10
 -1.3037192352334487E-01 a      1531     0    77     1    11
  6.2749946974524962E-02 a      1532     0    77     1    12
  7.4960424063668540E-02 a      1533     0    77     1    13
  2.0781661720915626E-02 a      1534     0    77     1    14
 -9.1269679669655879E-02 a      1535     0    77     1    15
 -2.9916250464344690E-02 a      1536     0    77     1    16
  6.8896768605162728E-03 a      1537     0    77     1    17
  4.6211285145943665E-02 a      1538     0    77     1    18
  1.2793053548600031E-01 a      1539     0    77     1    19
  4.6011684761337733E-02 a      1540     0    77     1    20
 -1.3170506549385214E-01 a      1541     0    78     1     1
 -2.6872405981440056E-02 a      1542     0    78     1     2
  2.0533807478023847E-02 a      1543     0    78     1     3
  7.3838010128919579E-02 a      1544     0    78     1     4
  1.6102047599081123E-02 a      1545     0    78     1     5
 -9.9747272723841960E-03 a      1546     0    78     1     6
 -7.3499080650497517E-03 a      1547     0    78     1     7
  1.3590651653368713E-01 a      1548     0    78     1     8
  1.1458763237982669E-01 a      1549     0    78     1     9
 -3.3109479593344211E-02 a      1550     0    78     1    10
  8.2808465312566804E-02 a      1551     0    78     1    11
 -1.0146475790074337E-01 a      1552     0    78     1    12
 -7.3847636501219505E-02 a      1553     0    78     1    13
 -6.4008152510392477E-02 a      1554     0    78     1    14
 -5.5164763277702512E-02 a      1555     0    78     1    15
  1.1065956029575394E-02 a      1556     0    78     1    16
 -8.5477332181372281E-02 a      1557     0    78     1    17
  1.1180445964229031E-01 a      1558     0    78     1    18
 -5.0950042830761912E-02 a      1559     0    78     1    19
  3.4459536136163267E-02 a      1560     0    78     1    20
 -1.0140986496138338E-01 a      1561     0    79     1     1
  8.2339543741529672E-02 a      1562     0    79     1     2
 -2.3090147662236667E-02 a      1563     0    79     1     3
  9.7497435751975961E-02 a      1564     0    79     1     4
  2.6369490074951787E-02 a      1565     0    79     1     5
  9.9374730196359992E-02 a      1566     0    79     1     6
  3.2514245960295396E-02 a      1567     0    79     1     7
  7.6998889342100557E-02 a      1568     0    79     1     8
  3.0909561418169047E-02 a      1569     0    79     1     9
 -8.2690633578173175E-02 a      1570     0    79     1    10
  8.0341251180924417E-02 a      1571     0    79     1    11
 -1.4549044980943188E-02 a      1572     0    79     1    12
 -6.6605834189629454E-02 a      1573     0    79     1    13
  2.4545611139611154E-02 a      1574     0    79     1    14
  3.4733609532540378E-02 a      1575     0    79     1    15
  1.0870259151715238E-02 a      1576     0    79     1    16
  1.3545443870889162E-02 a      1577     0    79     1    17
  2.6679155709774965E-03 a      1578     0    79     1    18
 -1.4991888676172859E-02 a      1579     0    79     1    19
  3.2317321574506092E-02 a      1580     0    79     1    20
 -8.6030480161984813E-01 b      1581     1     1
 -9.1294327819321885E-01 b      1582     1     2
 -9.6181409356799752E-01 b      1583     1     3
  6.0486966527764818E-01 b      1584     1     4
  1.0317031343651926E-01 b      1585     1     5
  6.1312416451831797E-01 b      1586     1     6
 -8.8622630467308972E-01 b      1587     1     7
 -8.6949172309315492E-01 b      1588     1     8
  5.7096615931676209E-01 b      1589     1     9
 -5.1133140597917148E-01 b      1590     1    10
 -1.0884443020618026E+00 b      1591     1    11
  3.8510607687987425E-01 b      1592     1    12
 -6.3927885515830096E-01 b      1593     1    13
  1.2771935453353680E+00 b      1594     1    14
 -7.1003639002762575E-01 b      1595     1    15
  4.9649398542713730E-01 b      1596     1    16
  5.2359368862302014E-01 b      1597     1    17
 -8.6279612326107535E-01 b      1598     1    18
  5.6432272471166174E-02 b      1599     1    19
 -1.0750925431400600E+00 b      1600     1    20
 -4.4552897216054471E-01 a      1601     1     1     2     1
 -5.7667972808148482E-01 a      1602     1     1     2     2
  1.4961956546359680E-02 a      1603     1     1     2     3
  2.0139549596844955E-01 a      1604     1     1     2     4
 -3.4969974467780907E-01 a      1605     1     1     2     5
  3.1269532505013742E-01 a      1606     1     1     2     6
 -3.0462241136982027E-01 a      1607     1     1     2     7
  4.0054338855927502E-01 a      1608     1     1     2     8
 -3.4169796391178391E-02 a      1609     1     1     2     9
 -7.6942347419952567E-02 a      1610     1     1     2    10
  2.9052632651307064E-01 a      1611     1     1     2    11
 -2.4304716229052416E-02 a      1612     1     1     2    12
  1.9004362241679878E-02 a      1613     1     1     2    13
  3.9091007487965984E-01 a      1614     1     1     2    14
 -1.3252242246375592E-01 a      1615     1     1     2    15
  2.3639721218291762E-01 a      1616     1     1     2    16
 -1.5404195213644839E-01 a      1617     1     1     2    17
 -1.2758771869461313E-01 a      1618     1     1     2    18
  6.9324612712280825E-02 a      1619     1     1     2    19
  3.6332385557974856E-01 a      1620     1     1     2    20
 -3.5599384404813872E-01 a      1621     1     2     2     1
 -2.8658377945489388E-01 a      1622     1     2     2     2
 -4.2629446130692340E-02 a      1623     1     2     2     3
  2.5020746225731982E-02 a      1624     1     2     2     4
 -4.1563708950226719E-01 a      1625     1     2     2     5
 -4.6702493704549972E-02 a      1626     1     2     2     6
  1.9841344579303605E-01 a      1627     1     2     2     7
