################################################################################
# Neural network connection values (weights and biases).
################################################################################
# Col  Name       Description
################################################################################
# 1    connection Neural network connection value.
# 2    t          Connection type (a = weight, b = bias).
# 3    index      Index enumerating weights.
# 4    l_s        Starting point layer (end point layer for biases).
# 5    n_s        Starting point neuron in starting layer (end point neuron for biases).
# 6    l_e        End point layer.
# 7    n_e        End point neuron in end layer.
################################################################################
#                      1 2         3     4     5     6     7
#             connection t     index   l_s   n_s   l_e   n_e
############################################################
 -5.0198341901781976E-02 a         1     0     1     1     1
 -7.0642007526910662E-03 a         2     0     1     1     2
  9.9709449693968819E-02 a         3     0     1     1     3
  9.0742670586155622E-02 a         4     0     1     1     4
 -3.5728272228084716E-02 a         5     0     1     1     5
  8.3528829416863723E-02 a         6     0     1     1     6
 -1.2745755181489171E-01 a         7     0     1     1     7
 -5.6500747904274347E-02 a         8     0     1     1     8
 -4.0369797552642341E-02 a         9     0     1     1     9
 -5.4107539712240298E-02 a        10     0     1     1    10
  6.3463799435714667E-03 a        11     0     1     1    11
  1.4496203246600345E+00 a        12     0     1     1    12
 -1.1741145520262077E-01 a        13     0     1     1    13
  5.8145881838229323E-02 a        14     0     1     1    14
  2.0701466322072573E-01 a        15     0     1     1    15
  1.5824739192420178E-02 a        16     0     1     1    16
 -1.9903590695135365E-01 a        17     0     1     1    17
  1.5378700233340967E-01 a        18     0     1     1    18
 -3.1985775518309383E-02 a        19     0     1     1    19
  2.6470845145864558E-01 a        20     0     1     1    20
 -1.1553722129368198E-01 a        21     0     2     1     1
 -3.4329818725536798E-01 a        22     0     2     1     2
  1.2144401216628470E-01 a        23     0     2     1     3
 -2.9769603499423541E-01 a        24     0     2     1     4
  1.5575654245646739E-01 a        25     0     2     1     5
 -4.4629032219136117E-01 a        26     0     2     1     6
  5.9855314989208896E-01 a        27     0     2     1     7
 -8.1229258771093715E-02 a        28     0     2     1     8
 -2.3699300788043460E-02 a        29     0     2     1     9
  3.9954107528075364E-02 a        30     0     2     1    10
  7.9017100888388578E-02 a        31     0     2     1    11
  3.9210719964234211E-02 a        32     0     2     1    12
 -2.3229415285675456E-01 a        33     0     2     1    13
 -1.6353171748879419E-01 a        34     0     2     1    14
 -2.5388639501266819E-01 a        35     0     2     1    15
  2.5239129906288699E-01 a        36     0     2     1    16
 -3.5788102762798113E-01 a        37     0     2     1    17
  2.1596890912435504E-01 a        38     0     2     1    18
  3.8451658869338393E-02 a        39     0     2     1    19
  1.4526534992022119E-01 a        40     0     2     1    20
  5.7587511407012459E-02 a        41     0     3     1     1
  5.9490351956437489E-02 a        42     0     3     1     2
  1.2203427384609698E-01 a        43     0     3     1     3
  1.1487062420959807E-01 a        44     0     3     1     4
 -1.0961040744506820E-01 a        45     0     3     1     5
  4.0569123551011610E-02 a        46     0     3     1     6
  1.1297758246084266E-01 a        47     0     3     1     7
 -2.3913711842445295E-02 a        48     0     3     1     8
 -6.3261773779166058E-02 a        49     0     3     1     9
 -2.4648711945741687E-02 a        50     0     3     1    10
  7.7770650807208214E-02 a        51     0     3     1    11
 -1.6935451107354571E-01 a        52     0     3     1    12
 -9.2512172210324789E-02 a        53     0     3     1    13
  6.6125887799184394E-02 a        54     0     3     1    14
 -1.2884636353645601E-01 a        55     0     3     1    15
  8.9986905027450631E-02 a        56     0     3     1    16
  2.2094482715594135E-01 a        57     0     3     1    17
 -1.9682493994706743E-01 a        58     0     3     1    18
  6.1041602795718838E-02 a        59     0     3     1    19
 -7.7920502315204599E-03 a        60     0     3     1    20
 -4.8123487187696590E-01 a        61     0     4     1     1
 -1.8414399088662842E-01 a        62     0     4     1     2
  2.5295886009038376E-01 a        63     0     4     1     3
 -2.4309158019817881E-01 a        64     0     4     1     4
  1.8616308476984206E-01 a        65     0     4     1     5
  2.7720127326087934E-01 a        66     0     4     1     6
  3.1730085208705561E-01 a        67     0     4     1     7
 -3.1459348224725997E-01 a        68     0     4     1     8
 -1.1342440502864631E-01 a        69     0     4     1     9
 -3.2239127448104959E-01 a        70     0     4     1    10
  6.4792268580968715E-01 a        71     0     4     1    11
  7.3816809339336070E-02 a        72     0     4     1    12
 -2.2299491986239880E-01 a        73     0     4     1    13
  2.3112696319216283E-01 a        74     0     4     1    14
 -5.6399456861278940E-01 a        75     0     4     1    15
 -2.0411065741255349E-01 a        76     0     4     1    16
 -7.3372869207362856E-02 a        77     0     4     1    17
  3.4211392036835025E-01 a        78     0     4     1    18
 -1.2472954664132904E-01 a        79     0     4     1    19
 -9.9382457992582288E-02 a        80     0     4     1    20
 -8.2904859674180806E-02 a        81     0     5     1     1
  7.5693346761504965E-01 a        82     0     5     1     2
 -2.0182412623254559E-01 a        83     0     5     1     3
 -8.3931370562606578E-02 a        84     0     5     1     4
 -2.6825370311522889E-01 a        85     0     5     1     5
  3.1173844422919544E-01 a        86     0     5     1     6
 -3.5128680062232787E-01 a        87     0     5     1     7
  4.6707701417022631E-03 a        88     0     5     1     8
 -7.0725441395709604E-02 a        89     0     5     1     9
 -3.0590268733288678E-01 a        90     0     5     1    10
 -1.2781188368583152E-01 a        91     0     5     1    11
 -1.0211573283394983E-01 a        92     0     5     1    12
  1.0355284589968201E-01 a        93     0     5     1    13
  2.0364095138619279E-01 a        94     0     5     1    14
 -2.2106542952578140E-01 a        95     0     5     1    15
  2.5473845638218284E-01 a        96     0     5     1    16
  3.3263407891665348E-01 a        97     0     5     1    17
 -6.3133539361057756E-01 a        98     0     5     1    18
  2.1373944591519034E-01 a        99     0     5     1    19
 -6.0319532630284826E-02 a       100     0     5     1    20
 -5.5151243142400316E-02 a       101     0     6     1     1
  5.7954167728509573E-02 a       102     0     6     1     2
 -1.4407280205399367E-01 a       103     0     6     1     3
  3.5706373890816316E-02 a       104     0     6     1     4
 -9.4054105501334737E-02 a       105     0     6     1     5
 -1.0592059527278692E-01 a       106     0     6     1     6
  3.3121191504838412E-03 a       107     0     6     1     7
  4.6762645481388442E-02 a       108     0     6     1     8
  6.5251935874382300E-02 a       109     0     6     1     9
 -5.6594810912862517E-02 a       110     0     6     1    10
 -1.3806550481395580E-02 a       111     0     6     1    11
 -2.7257948917463509E-02 a       112     0     6     1    12
 -6.4476762893814196E-02 a       113     0     6     1    13
  8.5051043278455349E-02 a       114     0     6     1    14
 -6.0717135970617113E-02 a       115     0     6     1    15
 -2.7075373765084482E-02 a       116     0     6     1    16
 -6.0966050542296875E-02 a       117     0     6     1    17
 -9.1409647288368725E-03 a       118     0     6     1    18
  5.5975411859569939E-03 a       119     0     6     1    19
  1.1123163151533903E-01 a       120     0     6     1    20
 -2.1447562100163263E-02 a       121     0     7     1     1
  1.1407562275772302E-01 a       122     0     7     1     2
 -5.2984874955335881E-02 a       123     0     7     1     3
  4.1924908554117547E-02 a       124     0     7     1     4
  3.2820386817631797E-01 a       125     0     7     1     5
 -1.4343777753207204E-01 a       126     0     7     1     6
 -3.9363375027619434E-02 a       127     0     7     1     7
  3.8695463459403806E-02 a       128     0     7     1     8
 -3.4604675529422584E-02 a       129     0     7     1     9
 -6.8116181038851184E-02 a       130     0     7     1    10
 -1.8637101232608380E-01 a       131     0     7     1    11
  1.5287016476648796E-01 a       132     0     7     1    12
 -1.2016852029204278E-01 a       133     0     7     1    13
 -1.6573805362281580E-01 a       134     0     7     1    14
 -1.0248687126758181E-01 a       135     0     7     1    15
 -3.2258445878705230E-02 a       136     0     7     1    16
  1.9237624296625777E-01 a       137     0     7     1    17
  2.1118268044171873E-01 a       138     0     7     1    18
 -7.7195514603512162E-03 a       139     0     7     1    19
  3.5120388042302213E-02 a       140     0     7     1    20
  3.6348750673636054E-01 a       141     0     8     1     1
  2.8681687665257211E-04 a       142     0     8     1     2
 -2.6777813067463196E-02 a       143     0     8     1     3
  2.2702844239446662E-01 a       144     0     8     1     4
 -3.4652978704065440E-01 a       145     0     8     1     5
 -1.2882700307166903E-01 a       146     0     8     1     6
 -3.3284192667702095E-01 a       147     0     8     1     7
  4.1370403244405513E-01 a       148     0     8     1     8
  2.8024164353506503E-01 a       149     0     8     1     9
  3.8260599445109689E-01 a       150     0     8     1    10
 -5.1095929812441654E-01 a       151     0     8     1    11
 -5.5713045191868260E-01 a       152     0     8     1    12
  3.2210872461674506E-02 a       153     0     8     1    13
 -2.0915175184837770E-01 a       154     0     8     1    14
  1.3768244103714275E-01 a       155     0     8     1    15
 -6.4036320251845649E-02 a       156     0     8     1    16
  1.9506468892906079E-01 a       157     0     8     1    17
 -1.4760292780103887E-01 a       158     0     8     1    18
 -8.8139966572233809E-03 a       159     0     8     1    19
  1.9616750615540449E-01 a       160     0     8     1    20
 -1.9554380761530590E-01 a       161     0     9     1     1
 -7.2616788102293314E-02 a       162     0     9     1     2
  2.2882007836405337E-02 a       163     0     9     1     3
  1.7682339098056848E-01 a       164     0     9     1     4
  6.0071607579284376E-02 a       165     0     9     1     5
 -3.8822352484450390E-01 a       166     0     9     1     6
  3.7808686640317435E-01 a       167     0     9     1     7
  1.1498585762353321E-01 a       168     0     9     1     8
 -4.2411357311127679E-01 a       169     0     9     1     9
  5.1843733030561674E-02 a       170     0     9     1    10
 -7.9028243455480568E-02 a       171     0     9     1    11
  5.2276054452870868E-02 a       172     0     9     1    12
 -1.3872941616547235E-01 a       173     0     9     1    13
  6.6890965295888574E-02 a       174     0     9     1    14
  1.4686105427923249E-02 a       175     0     9     1    15
 -2.1396350556658608E-01 a       176     0     9     1    16
 -2.7487008897923093E-01 a       177     0     9     1    17
 -2.0109347135917000E-01 a       178     0     9     1    18
 -5.9181094963909900E-02 a       179     0     9     1    19
 -2.1532735775307119E-01 a       180     0     9     1    20
  1.8996843233847935E-01 a       181     0    10     1     1
 -1.7132977489970797E-01 a       182     0    10     1     2
  8.9877563954540551E-02 a       183     0    10     1     3
 -1.4300071032552792E-04 a       184     0    10     1     4
  6.2242505056808041E-02 a       185     0    10     1     5
  1.4681129660709760E-01 a       186     0    10     1     6
 -1.9471782436398018E-02 a       187     0    10     1     7
 -1.2289032845398433E-01 a       188     0    10     1     8
  1.4322835943735227E-01 a       189     0    10     1     9
  3.1938384585930735E-02 a       190     0    10     1    10
  1.7532601472470036E-01 a       191     0    10     1    11
  4.9068986672737909E-02 a       192     0    10     1    12
  1.1074698975335172E-01 a       193     0    10     1    13
 -2.1680626888727436E-01 a       194     0    10     1    14
 -8.6652593464428454E-02 a       195     0    10     1    15
 -9.8638992886054710E-02 a       196     0    10     1    16
  2.6269663204873717E-01 a       197     0    10     1    17
  7.2368427396475574E-02 a       198     0    10     1    18
 -5.5070098217272379E-02 a       199     0    10     1    19
 -1.7677753035494242E-01 a       200     0    10     1    20
  1.2134721078476220E-01 a       201     0    11     1     1
  5.4990417227668911E-02 a       202     0    11     1     2
  2.5089302376675851E-02 a       203     0    11     1     3
  1.6831622347328695E-01 a       204     0    11     1     4
  3.2618724834831987E-03 a       205     0    11     1     5
  5.0337853306308196E-02 a       206     0    11     1     6
  1.5525463218117751E-02 a       207     0    11     1     7
 -8.6359403454482148E-02 a       208     0    11     1     8
 -5.5194872884483506E-02 a       209     0    11     1     9
  1.6849847838839187E-02 a       210     0    11     1    10
  1.0804871886656028E-01 a       211     0    11     1    11
 -4.7525373127217933E-02 a       212     0    11     1    12
  6.8168492280543502E-02 a       213     0    11     1    13
 -7.3812352137791887E-02 a       214     0    11     1    14
 -1.8256947089164766E-01 a       215     0    11     1    15
 -5.4420996298598305E-02 a       216     0    11     1    16
  8.5601163527872046E-02 a       217     0    11     1    17
 -2.4916839628621992E-01 a       218     0    11     1    18
  2.3671346487249091E-02 a       219     0    11     1    19
 -1.4245702906728577E-01 a       220     0    11     1    20
 -8.6170733382756270E-02 a       221     0    12     1     1
 -2.2662556680166956E-01 a       222     0    12     1     2
  1.5947624829312032E-01 a       223     0    12     1     3
 -7.6082878142670091E-02 a       224     0    12     1     4
 -7.8253460632634150E-02 a       225     0    12     1     5
  2.1097488684141633E-01 a       226     0    12     1     6
  2.0096573201537127E-01 a       227     0    12     1     7
 -2.5825028143454737E-01 a       228     0    12     1     8
 -9.5054634006410919E-03 a       229     0    12     1     9
 -1.2110591789042006E-01 a       230     0    12     1    10
  5.1356785732927812E-01 a       231     0    12     1    11
  7.0881604449697078E-01 a       232     0    12     1    12
 -1.0375875606685446E-01 a       233     0    12     1    13
 -4.5339454455294345E-02 a       234     0    12     1    14
  5.6896480069370543E-02 a       235     0    12     1    15
  1.3356246855192544E-01 a       236     0    12     1    16
 -1.3757310384619645E-01 a       237     0    12     1    17
  1.9006769574932575E-01 a       238     0    12     1    18
  8.7869138625494198E-02 a       239     0    12     1    19
 -1.2856818369517820E-01 a       240     0    12     1    20
 -1.5252522285363666E-02 a       241     0    13     1     1
  1.8736751976752863E-01 a       242     0    13     1     2
  2.2756461615224008E-01 a       243     0    13     1     3
 -3.0525254163338023E-01 a       244     0    13     1     4
  3.4582068207639843E-01 a       245     0    13     1     5
  1.7869088198132971E-01 a       246     0    13     1     6
 -2.6377586003207809E-01 a       247     0    13     1     7
 -1.8906038590390592E-01 a       248     0    13     1     8
 -1.8737548582458813E-01 a       249     0    13     1     9
 -1.2680470610388028E-01 a       250     0    13     1    10
 -9.6375643713231526E-02 a       251     0    13     1    11
  3.8237630369902485E-02 a       252     0    13     1    12
  3.0844132623389576E-02 a       253     0    13     1    13
 -9.3374198484459728E-02 a       254     0    13     1    14
 -2.4861623266678443E-01 a       255     0    13     1    15
  2.4910285439229637E-01 a       256     0    13     1    16
  1.8660448523538456E-01 a       257     0    13     1    17
 -2.1851645258045310E-01 a       258     0    13     1    18
  3.5305276818670006E-01 a       259     0    13     1    19
  5.0780071063024094E-03 a       260     0    13     1    20
 -5.2124209428758693E-02 a       261     0    14     1     1
 -1.1032843018603981E-01 a       262     0    14     1     2
  6.8712949765230194E-02 a       263     0    14     1     3
  1.7360651145455963E-01 a       264     0    14     1     4
 -1.5095853820783858E-01 a       265     0    14     1     5
 -2.3656617441635433E-01 a       266     0    14     1     6
  2.4056810138259430E-02 a       267     0    14     1     7
  3.4596410532690511E-02 a       268     0    14     1     8
  4.1028980112924357E-02 a       269     0    14     1     9
 -3.0098967834254618E-02 a       270     0    14     1    10
  1.5319816656557300E-01 a       271     0    14     1    11
  6.2270003787239459E-02 a       272     0    14     1    12
 -1.0854948396077652E-01 a       273     0    14     1    13
  1.0735967994909200E-01 a       274     0    14     1    14
  6.1834934627733457E-03 a       275     0    14     1    15
 -1.9313094594985566E-01 a       276     0    14     1    16
 -5.4649754682478111E-02 a       277     0    14     1    17
  4.2487625649625348E-02 a       278     0    14     1    18
  1.4774284389336073E-01 a       279     0    14     1    19
  1.7563373693215689E-01 a       280     0    14     1    20
 -8.5186834422827873E-02 a       281     0    15     1     1
 -5.1183411128958170E-03 a       282     0    15     1     2
  1.8053720138209370E-01 a       283     0    15     1     3
  4.6343979472137198E-02 a       284     0    15     1     4
  1.3968998874201383E-01 a       285     0    15     1     5
 -2.1442076642177229E-02 a       286     0    15     1     6
  8.1388161792571870E-02 a       287     0    15     1     7
 -8.1620233441852569E-02 a       288     0    15     1     8
 -1.3309398318931279E-01 a       289     0    15     1     9
 -1.3467632139476302E-01 a       290     0    15     1    10
 -4.0006765325800234E-02 a       291     0    15     1    11
 -1.5917837996906912E-02 a       292     0    15     1    12
  2.6331169887732549E-02 a       293     0    15     1    13
  9.1200112887805565E-02 a       294     0    15     1    14
 -6.1413860537793803E-02 a       295     0    15     1    15
 -2.0657797598659469E-01 a       296     0    15     1    16
  3.0876142146215652E-01 a       297     0    15     1    17
 -1.7995393000886156E-01 a       298     0    15     1    18
 -1.5053906728937186E-01 a       299     0    15     1    19
 -5.7238677776176590E-02 a       300     0    15     1    20
 -1.1085964847082949E-01 a       301     0    16     1     1
 -2.8841028514868347E-02 a       302     0    16     1     2
 -4.4532676050770166E-02 a       303     0    16     1     3
  1.2407235254935081E-01 a       304     0    16     1     4
  3.1717621690419605E-02 a       305     0    16     1     5
 -1.3066009953451630E-02 a       306     0    16     1     6
 -8.9112772286148043E-02 a       307     0    16     1     7
  1.4661638161316123E-01 a       308     0    16     1     8
  8.9677700222091955E-02 a       309     0    16     1     9
  2.2223715247213425E-02 a       310     0    16     1    10
  2.5780316461710345E-01 a       311     0    16     1    11
 -1.1523762685023350E-02 a       312     0    16     1    12
  2.2253457387448352E-02 a       313     0    16     1    13
  6.0235227246111444E-03 a       314     0    16     1    14
 -2.1972351475482663E-01 a       315     0    16     1    15
 -2.5206099753645933E-01 a       316     0    16     1    16
  4.4842974260923200E-02 a       317     0    16     1    17
  2.1286078507300477E-01 a       318     0    16     1    18
 -2.2334211097028395E-02 a       319     0    16     1    19
  1.7572039065644238E-01 a       320     0    16     1    20
 -1.2285402256589238E-01 a       321     0    17     1     1
 -4.4474856623617921E-02 a       322     0    17     1     2
 -2.0989064644522919E-02 a       323     0    17     1     3
 -1.2921783861561528E-01 a       324     0    17     1     4
  6.6732851672642882E-02 a       325     0    17     1     5
 -1.6045844990270461E-01 a       326     0    17     1     6
  9.0053051627734457E-02 a       327     0    17     1     7
  1.4552386109517343E-01 a       328     0    17     1     8
 -1.0778798227700372E-01 a       329     0    17     1     9
  4.0144459940579628E-02 a       330     0    17     1    10
 -2.1922235540807630E-01 a       331     0    17     1    11
 -3.4540003648072685E-02 a       332     0    17     1    12
 -2.2218493551283977E-01 a       333     0    17     1    13
  9.6238791021196604E-02 a       334     0    17     1    14
  5.2174945136825066E-02 a       335     0    17     1    15
  1.7435484254602146E-01 a       336     0    17     1    16
 -2.1493031340864424E-01 a       337     0    17     1    17
 -4.3092216592243909E-02 a       338     0    17     1    18
  3.9776500945321189E-02 a       339     0    17     1    19
 -5.2433375343488874E-02 a       340     0    17     1    20
  1.9288891545777676E-01 a       341     0    18     1     1
  1.0309856677403961E-01 a       342     0    18     1     2
 -6.7525391770904733E-02 a       343     0    18     1     3
  3.6051223927977966E-02 a       344     0    18     1     4
 -1.2674947678106549E-01 a       345     0    18     1     5
  6.8413215199127353E-02 a       346     0    18     1     6
  4.3229983228239713E-03 a       347     0    18     1     7
 -9.7314851879262393E-02 a       348     0    18     1     8
  1.3535422360848881E-01 a       349     0    18     1     9
 -3.9728742757696833E-02 a       350     0    18     1    10
  9.5932347896132961E-02 a       351     0    18     1    11
 -5.9514348094644072E-02 a       352     0    18     1    12
 -1.6335347485759519E-02 a       353     0    18     1    13
 -1.3624994408131974E-01 a       354     0    18     1    14
  2.8163521522797169E-03 a       355     0    18     1    15
 -9.3783314573164578E-02 a       356     0    18     1    16
  9.7705194476900084E-02 a       357     0    18     1    17
 -1.5630378420818711E-01 a       358     0    18     1    18
  8.3070507382947148E-02 a       359     0    18     1    19
 -1.0619072102345313E-01 a       360     0    18     1    20
  8.0361375632771737E-02 a       361     0    19     1     1
 -5.4195566980757247E-02 a       362     0    19     1     2
  4.6501165972615534E-02 a       363     0    19     1     3
  4.1373049963040458E-03 a       364     0    19     1     4
  1.0762195246507539E-01 a       365     0    19     1     5
 -9.5186173120752407E-02 a       366     0    19     1     6
 -6.2606282709960159E-02 a       367     0    19     1     7
 -1.1374034337957084E-01 a       368     0    19     1     8
 -1.0315855864773475E-01 a       369     0    19     1     9
  4.0883881734642136E-02 a       370     0    19     1    10
  8.5412095518374295E-02 a       371     0    19     1    11
  1.8228625232128016E-02 a       372     0    19     1    12
  1.3354713209962071E-01 a       373     0    19     1    13
 -7.4430594799317254E-02 a       374     0    19     1    14
  5.1039076919858865E-02 a       375     0    19     1    15
  6.1584751875958616E-03 a       376     0    19     1    16
 -1.9124563812960463E-01 a       377     0    19     1    17
 -1.3038595521252963E-02 a       378     0    19     1    18
  2.1364195930189131E-01 a       379     0    19     1    19
 -6.3281071176559622E-02 a       380     0    19     1    20
  2.6639573593438876E-01 a       381     0    20     1     1
 -9.8474386420620591E-02 a       382     0    20     1     2
 -2.8364995440000923E-01 a       383     0    20     1     3
 -1.0638408034356731E-02 a       384     0    20     1     4
 -2.0706175960116591E-01 a       385     0    20     1     5
 -9.0573595812445423E-02 a       386     0    20     1     6
  8.7729419372863146E-02 a       387     0    20     1     7
  7.2563887084557993E-02 a       388     0    20     1     8
  1.2915116499280971E-01 a       389     0    20     1     9
  1.7322202580647267E-01 a       390     0    20     1    10
  5.4427612813463498E-02 a       391     0    20     1    11
 -1.2097848845378963E-01 a       392     0    20     1    12
  1.5775327995456029E-01 a       393     0    20     1    13
 -1.9815255744455790E-01 a       394     0    20     1    14
  1.9212040562112878E-01 a       395     0    20     1    15
  1.7298990731390254E-01 a       396     0    20     1    16
  1.7123108985587773E-01 a       397     0    20     1    17
 -8.6847028387164057E-02 a       398     0    20     1    18
  1.5610378581424023E-02 a       399     0    20     1    19
 -2.8769618360452620E-01 a       400     0    20     1    20
 -1.4831242495331434E-01 a       401     0    21     1     1
  1.8000060656095951E-01 a       402     0    21     1     2
  3.6990817436067536E-01 a       403     0    21     1     3
 -1.1550226522916424E-01 a       404     0    21     1     4
  2.1205636037658795E-01 a       405     0    21     1     5
  6.1840768239170819E-02 a       406     0    21     1     6
 -1.0072672796180684E-01 a       407     0    21     1     7
 -8.1932260648901023E-02 a       408     0    21     1     8
 -2.4192240295758308E-01 a       409     0    21     1     9
 -9.3563723593797665E-02 a       410     0    21     1    10
 -3.6774353138892429E-01 a       411     0    21     1    11
  1.3743427924123533E-01 a       412     0    21     1    12
 -5.8393229657771106E-02 a       413     0    21     1    13
  1.3759530922507526E-01 a       414     0    21     1    14
 -1.6626305411105624E-01 a       415     0    21     1    15
  7.9883117938319717E-02 a       416     0    21     1    16
 -2.8703172442916633E-02 a       417     0    21     1    17
 -8.3301156281976776E-02 a       418     0    21     1    18
  8.5832750010418693E-02 a       419     0    21     1    19
  1.1608139955801970E-01 a       420     0    21     1    20
  5.2457990611573708E-04 a       421     0    22     1     1
 -2.9452328574336095E-01 a       422     0    22     1     2
  8.0496219388408410E-02 a       423     0    22     1     3
  3.4950199675220277E-02 a       424     0    22     1     4
  2.8243741473317260E-02 a       425     0    22     1     5
 -7.1103615589916722E-02 a       426     0    22     1     6
 -5.1032727635430498E-04 a       427     0    22     1     7
  4.3877116881433455E-02 a       428     0    22     1     8
  9.8224747649531888E-02 a       429     0    22     1     9
  1.0273891715949965E-01 a       430     0    22     1    10
  3.7326836167756877E-01 a       431     0    22     1    11
  5.1007251350874631E-02 a       432     0    22     1    12
  1.6387447867564120E-01 a       433     0    22     1    13
  3.1008736684505600E-02 a       434     0    22     1    14
  3.4900233381100584E-02 a       435     0    22     1    15
  9.1634730836402473E-02 a       436     0    22     1    16
  4.8127161566307593E-02 a       437     0    22     1    17
  1.2931746158058791E-01 a       438     0    22     1    18
 -1.5534253328619264E-03 a       439     0    22     1    19
 -9.4007535202558654E-02 a       440     0    22     1    20
 -9.5294036656508110E-02 a       441     0    23     1     1
  9.5303467423790977E-02 a       442     0    23     1     2
  9.6341821767299246E-02 a       443     0    23     1     3
 -1.3449858819922840E-02 a       444     0    23     1     4
  5.0983612901684086E-02 a       445     0    23     1     5
  2.5648989327605835E-02 a       446     0    23     1     6
  2.2726554558937847E-02 a       447     0    23     1     7
  5.4430081151951928E-02 a       448     0    23     1     8
 -6.2175187799084469E-03 a       449     0    23     1     9
 -6.1675102401838731E-02 a       450     0    23     1    10
 -1.4861115105828718E-01 a       451     0    23     1    11
 -1.8528234445010013E-02 a       452     0    23     1    12
 -1.1655068253441450E-01 a       453     0    23     1    13
  1.0425083314081951E-01 a       454     0    23     1    14
 -8.4903435356953275E-03 a       455     0    23     1    15
  1.3512827531972590E-01 a       456     0    23     1    16
  7.5068719162779282E-02 a       457     0    23     1    17
 -4.9663474194911530E-02 a       458     0    23     1    18
 -3.3754158958892416E-02 a       459     0    23     1    19
  7.9649930024610210E-02 a       460     0    23     1    20
 -1.7073758145735318E-01 a       461     0    24     1     1
  1.3119036554761052E-02 a       462     0    24     1     2
  9.4206844162467676E-02 a       463     0    24     1     3
  1.6097925954649334E-01 a       464     0    24     1     4
 -8.3687053338425493E-02 a       465     0    24     1     5
  7.1744313505265889E-02 a       466     0    24     1     6
  4.7988421379646554E-02 a       467     0    24     1     7
  1.3461085745314932E-02 a       468     0    24     1     8
 -2.5688859595217120E-02 a       469     0    24     1     9
 -1.5749739754965511E-01 a       470     0    24     1    10
  2.2494797391767860E-01 a       471     0    24     1    11
  2.4334605649802751E-01 a       472     0    24     1    12
 -1.4083547061088234E-01 a       473     0    24     1    13
  8.0320381149277628E-02 a       474     0    24     1    14
 -9.4048757031980262E-02 a       475     0    24     1    15
 -3.2457670323668497E-01 a       476     0    24     1    16
  6.6108163322415210E-03 a       477     0    24     1    17
  2.9127977574678731E-02 a       478     0    24     1    18
  4.1667522871699945E-03 a       479     0    24     1    19
  1.1012274965841408E-01 a       480     0    24     1    20
  4.0593285826520518E-02 a       481     0    25     1     1
  1.0297666554119986E-02 a       482     0    25     1     2
 -9.4535812622921087E-02 a       483     0    25     1     3
 -2.2598721159908363E-02 a       484     0    25     1     4
 -8.2019958056730458E-03 a       485     0    25     1     5
  8.2093805543830153E-02 a       486     0    25     1     6
  1.0819150419632488E-02 a       487     0    25     1     7
  2.6493671652886547E-02 a       488     0    25     1     8
  3.8798395201744308E-02 a       489     0    25     1     9
 -7.0153110233913589E-03 a       490     0    25     1    10
 -2.1065638535281639E-01 a       491     0    25     1    11
 -1.6801686709353694E-01 a       492     0    25     1    12
 -1.1897714485068729E-01 a       493     0    25     1    13
 -3.0633779346280782E-02 a       494     0    25     1    14
 -3.6032390014796536E-02 a       495     0    25     1    15
  2.5188760926826509E-02 a       496     0    25     1    16
 -5.7177656816188728E-02 a       497     0    25     1    17
  8.6742765414328418E-02 a       498     0    25     1    18
  5.8668064036993262E-03 a       499     0    25     1    19
  8.8107048527639412E-02 a       500     0    25     1    20
  6.1690590518013955E-02 a       501     0    26     1     1
  1.0526206987372656E-01 a       502     0    26     1     2
 -2.7683376669992901E-02 a       503     0    26     1     3
  8.1263026715030162E-02 a       504     0    26     1     4
 -3.1521821383776856E-02 a       505     0    26     1     5
  4.4904397562039724E-03 a       506     0    26     1     6
  3.0355322182243655E-02 a       507     0    26     1     7
 -9.2496457251978026E-02 a       508     0    26     1     8
 -2.5009405110466884E-02 a       509     0    26     1     9
 -6.0249580687862535E-02 a       510     0    26     1    10
 -2.3869201390766977E-02 a       511     0    26     1    11
 -6.6387654079379313E-02 a       512     0    26     1    12
  5.1459201442326685E-02 a       513     0    26     1    13
 -4.8327073864328655E-02 a       514     0    26     1    14
  8.1100098158738115E-02 a       515     0    26     1    15
 -2.6834425643547780E-02 a       516     0    26     1    16
 -2.7951297409616726E-02 a       517     0    26     1    17
 -1.9864886442657412E-01 a       518     0    26     1    18
 -3.0262567209178134E-02 a       519     0    26     1    19
 -5.8827162460989534E-02 a       520     0    26     1    20
  7.2469187771410606E-02 a       521     0    27     1     1
 -7.8838417164267399E-02 a       522     0    27     1     2
  2.7691933273739002E-03 a       523     0    27     1     3
 -5.7423044780091644E-02 a       524     0    27     1     4
  9.1303067014180516E-03 a       525     0    27     1     5
  8.2281127938636484E-02 a       526     0    27     1     6
 -3.0590870119844106E-02 a       527     0    27     1     7
 -3.0745150774748375E-02 a       528     0    27     1     8
 -4.1641489522072112E-02 a       529     0    27     1     9
  3.7950279060187476E-02 a       530     0    27     1    10
 -7.0633745302057710E-02 a       531     0    27     1    11
  5.6176739411202027E-03 a       532     0    27     1    12
  5.0432965778327100E-02 a       533     0    27     1    13
 -5.4258996789056956E-02 a       534     0    27     1    14
 -1.1946601821189611E-01 a       535     0    27     1    15
 -1.1122684056033864E-01 a       536     0    27     1    16
 -3.9352036174896778E-02 a       537     0    27     1    17
  9.0028548966725672E-02 a       538     0    27     1    18
  9.7787473721352852E-02 a       539     0    27     1    19
 -3.8459002924056157E-02 a       540     0    27     1    20
  1.7192852597355382E-01 a       541     0    28     1     1
 -6.9983371953399581E-03 a       542     0    28     1     2
 -1.3760299734974116E-01 a       543     0    28     1     3
  1.0015106119826965E-01 a       544     0    28     1     4
 -4.2345871494964847E-02 a       545     0    28     1     5
 -1.4307591160868458E-01 a       546     0    28     1     6
  6.1291591949851907E-03 a       547     0    28     1     7
 -5.0906834136642945E-02 a       548     0    28     1     8
  5.3851595544511528E-02 a       549     0    28     1     9
  1.0526058799375121E-01 a       550     0    28     1    10
  9.8466573016727260E-02 a       551     0    28     1    11
 -1.6189929761944510E-01 a       552     0    28     1    12
  1.8048874481771326E-01 a       553     0    28     1    13
 -7.0578379776089870E-02 a       554     0    28     1    14
  1.3270146573430722E-01 a       555     0    28     1    15
  1.1452164323668908E-01 a       556     0    28     1    16
 -5.0639660740169082E-02 a       557     0    28     1    17
 -5.7060057222277444E-02 a       558     0    28     1    18
 -3.5741851474973475E-02 a       559     0    28     1    19
 -1.1537604519926485E-01 a       560     0    28     1    20
 -1.0992192948275004E-01 a       561     0    29     1     1
  9.6535469673936905E-02 a       562     0    29     1     2
  1.5068465012800938E-01 a       563     0    29     1     3
 -1.2861025696814354E-01 a       564     0    29     1     4
  1.5528586874169523E-01 a       565     0    29     1     5
 -8.3395472792736944E-02 a       566     0    29     1     6
 -4.9791040625796375E-02 a       567     0    29     1     7
  1.2902611781721751E-02 a       568     0    29     1     8
 -1.2424545317048061E-01 a       569     0    29     1     9
 -2.2209620622671837E-02 a       570     0    29     1    10
 -2.0042202441248200E-01 a       571     0    29     1    11
  1.2459998473541808E-01 a       572     0    29     1    12
 -1.1135940327060012E-01 a       573     0    29     1    13
  8.1516566837017482E-02 a       574     0    29     1    14
 -5.6690392292000132E-02 a       575     0    29     1    15
  4.4482788700111554E-02 a       576     0    29     1    16
 -1.2416149351068734E-02 a       577     0    29     1    17
 -1.8973786827540290E-03 a       578     0    29     1    18
  5.2451976459332687E-02 a       579     0    29     1    19
  5.5724690505728487E-02 a       580     0    29     1    20
  7.9886539510322471E-02 a       581     0    30     1     1
 -9.1360553617612195E-02 a       582     0    30     1     2
 -3.7757328347648049E-02 a       583     0    30     1     3
  8.9663516890393230E-02 a       584     0    30     1     4
 -3.5476392969465587E-02 a       585     0    30     1     5
  2.6343811874862101E-02 a       586     0    30     1     6
  4.1059655818240261E-03 a       587     0    30     1     7
 -1.7852803234771591E-02 a       588     0    30     1     8
  6.2434303359674800E-02 a       589     0    30     1     9
  1.1697512774796718E-02 a       590     0    30     1    10
  2.0423432453523599E-01 a       591     0    30     1    11
  1.8055813048760924E-03 a       592     0    30     1    12
 -1.2038883563763498E-02 a       593     0    30     1    13
 -5.5846809603365119E-02 a       594     0    30     1    14
 -1.6731943772194065E-02 a       595     0    30     1    15
 -8.0760539635930453E-02 a       596     0    30     1    16
  9.9498316600968237E-02 a       597     0    30     1    17
  1.1662514432852324E-02 a       598     0    30     1    18
  5.4748042096365891E-02 a       599     0    30     1    19
 -3.6488286763675104E-02 a       600     0    30     1    20
 -5.0690969421691344E-02 a       601     0    31     1     1
  6.2915971362465212E-02 a       602     0    31     1     2
  9.4246236495858629E-02 a       603     0    31     1     3
  8.0622429200721477E-02 a       604     0    31     1     4
  1.9018061008407186E-01 a       605     0    31     1     5
 -1.7613636810172216E-02 a       606     0    31     1     6
  1.4191275068062611E-02 a       607     0    31     1     7
 -7.8182588955848786E-02 a       608     0    31     1     8
 -2.4572155721629744E-02 a       609     0    31     1     9
 -5.1818042034780132E-02 a       610     0    31     1    10
 -5.6356066934650437E-03 a       611     0    31     1    11
 -2.8215920540314712E-02 a       612     0    31     1    12
  3.2607815517634725E-02 a       613     0    31     1    13
  1.4733672969568372E-02 a       614     0    31     1    14
  1.6448500604510960E-01 a       615     0    31     1    15
  1.6437620964933747E-01 a       616     0    31     1    16
  2.4232362962567657E-03 a       617     0    31     1    17
 -6.3804623252985956E-02 a       618     0    31     1    18
 -1.3478132323456465E-01 a       619     0    31     1    19
  6.3570555095486467E-02 a       620     0    31     1    20
 -9.8462677737713569E-02 a       621     0    32     1     1
 -7.1022564251668668E-02 a       622     0    32     1     2
  1.3136525106529565E-01 a       623     0    32     1     3
 -7.7813199491332266E-02 a       624     0    32     1     4
 -7.1620770886679772E-02 a       625     0    32     1     5
  8.3410715821569906E-02 a       626     0    32     1     6
  2.3921817975061779E-02 a       627     0    32     1     7
  8.6171723863797692E-02 a       628     0    32     1     8
  4.2517902690060077E-03 a       629     0    32     1     9
  2.6046782777212188E-02 a       630     0    32     1    10
  9.8276347408434009E-02 a       631     0    32     1    11
  6.3297957351778983E-02 a       632     0    32     1    12
  7.1367452353766722E-02 a       633     0    32     1    13
  6.7569288214727088E-02 a       634     0    32     1    14
  8.1261833329087929E-03 a       635     0    32     1    15
  8.0368338026086186E-02 a       636     0    32     1    16
 -8.1824549116966700E-03 a       637     0    32     1    17
 -3.4922551857202659E-02 a       638     0    32     1    18
  1.8440647430148834E-02 a       639     0    32     1    19
 -7.1443594689600515E-02 a       640     0    32     1    20
  2.7890369547086517E-02 a       641     0    33     1     1
 -1.2176770824357716E-02 a       642     0    33     1     2
 -1.3224576140794089E-01 a       643     0    33     1     3
 -2.4981795480960321E-02 a       644     0    33     1     4
 -3.3573455024514108E-02 a       645     0    33     1     5
  1.1487075045255542E-01 a       646     0    33     1     6
  3.8344603863307318E-03 a       647     0    33     1     7
  3.6649593470996930E-02 a       648     0    33     1     8
  4.8542319729950496E-02 a       649     0    33     1     9
 -1.4968310387245478E-03 a       650     0    33     1    10
 -8.4766683572249604E-02 a       651     0    33     1    11
 -6.5874521273122003E-02 a       652     0    33     1    12
 -1.8399047520233695E-02 a       653     0    33     1    13
 -6.0463593233893977E-02 a       654     0    33     1    14
 -8.4107785465425924E-02 a       655     0    33     1    15
 -6.8587004120995183E-03 a       656     0    33     1    16
  1.8352904153325859E-02 a       657     0    33     1    17
  1.3866673871720447E-01 a       658     0    33     1    18
  2.2443731202766395E-02 a       659     0    33     1    19
  5.7154376289780900E-02 a       660     0    33     1    20
 -6.8590847807799948E-02 a       661     0    34     1     1
  2.1439302949628051E-03 a       662     0    34     1     2
  8.4487623979963705E-02 a       663     0    34     1     3
 -1.4330395136546398E-01 a       664     0    34     1     4
  3.6616656032808712E-02 a       665     0    34     1     5
 -6.6871094730796554E-02 a       666     0    34     1     6
 -1.8506840974787164E-02 a       667     0    34     1     7
  6.1792310930479835E-02 a       668     0    34     1     8
  3.4509445713726580E-03 a       669     0    34     1     9
  4.3396798844988461E-02 a       670     0    34     1    10
 -7.8352760009962066E-02 a       671     0    34     1    11
  1.2240368055058989E-03 a       672     0    34     1    12
  5.6332676630245188E-02 a       673     0    34     1    13
  7.6530192787588672E-02 a       674     0    34     1    14
  3.0868853965938654E-02 a       675     0    34     1    15
  1.4632249549906740E-01 a       676     0    34     1    16
 -8.4480470480407521E-02 a       677     0    34     1    17
  3.0537373942656168E-02 a       678     0    34     1    18
  1.1870348799991009E-02 a       679     0    34     1    19
 -9.0493614232408995E-03 a       680     0    34     1    20
  3.8697013826969277E-03 a       681     0    35     1     1
 -4.4397795695694825E-02 a       682     0    35     1     2
 -1.6962570802297145E-02 a       683     0    35     1     3
 -7.8095747777452457E-02 a       684     0    35     1     4
 -1.2710103254885824E-01 a       685     0    35     1     5
  2.3643376549071032E-02 a       686     0    35     1     6
 -1.4333109096801926E-02 a       687     0    35     1     7
  5.6386253023100609E-02 a       688     0    35     1     8
  1.7509820632108201E-02 a       689     0    35     1     9
  4.3835898672427070E-02 a       690     0    35     1    10
  2.0426935907898493E-02 a       691     0    35     1    11
  2.3757337736287909E-02 a       692     0    35     1    12
 -6.0352197347259551E-03 a       693     0    35     1    13
  3.1792342519373344E-02 a       694     0    35     1    14
 -1.1472779610483898E-01 a       695     0    35     1    15
 -4.5980257574021723E-02 a       696     0    35     1    16
 -2.5234418356665518E-02 a       697     0    35     1    17
  2.1430685738474616E-02 a       698     0    35     1    18
  6.7060005944458795E-02 a       699     0    35     1    19
 -4.8428592868556435E-02 a       700     0    35     1    20
  3.8179628078805816E-02 a       701     0    36     1     1
  3.7200509111524449E-02 a       702     0    36     1     2
 -6.6766590033296061E-02 a       703     0    36     1     3
  8.0371558785164943E-02 a       704     0    36     1     4
  6.1351930864204712E-03 a       705     0    36     1     5
 -7.8576712503059698E-02 a       706     0    36     1     6
 -6.5839690883573400E-03 a       707     0    36     1     7
 -4.3711084904067006E-02 a       708     0    36     1     8
  1.2944377311212870E-02 a       709     0    36     1     9
 -1.8848471422154442E-02 a       710     0    36     1    10
  2.6530535340200421E-02 a       711     0    36     1    11
 -5.2572597907230368E-03 a       712     0    36     1    12
 -4.6386402179047506E-02 a       713     0    36     1    13
 -3.0829429744897247E-02 a       714     0    36     1    14
  4.4242383960740941E-02 a       715     0    36     1    15
 -8.0054889016822436E-02 a       716     0    36     1    16
 -4.8966200447705926E-03 a       717     0    36     1    17
  2.4533512914489274E-03 a       718     0    36     1    18
 -4.7420268922323872E-02 a       719     0    36     1    19
  4.2479581256882115E-02 a       720     0    36     1    20
 -1.1990944927670277E-02 a       721     0    37     1     1
  9.4077318602030446E-02 a       722     0    37     1     2
 -2.0294243977690859E-02 a       723     0    37     1     3
  1.6649942552057984E-02 a       724     0    37     1     4
  8.9573139338912075E-02 a       725     0    37     1     5
 -5.1324011468310407E-02 a       726     0    37     1     6
  1.0423014913868353E-03 a       727     0    37     1     7
 -1.4721691472657134E-02 a       728     0    37     1     8
 -7.8742333714445154E-02 a       729     0    37     1     9
 -6.0254954545276539E-02 a       730     0    37     1    10
 -1.5959930712750406E-01 a       731     0    37     1    11
  3.2130400000579422E-02 a       732     0    37     1    12
 -1.2400078757870264E-01 a       733     0    37     1    13
 -1.8404214046744232E-02 a       734     0    37     1    14
 -2.6730003032045837E-02 a       735     0    37     1    15
 -7.0633864300420346E-02 a       736     0    37     1    16
  1.4232135053139958E-02 a       737     0    37     1    17
  1.2404265610147775E-02 a       738     0    37     1    18
  8.0390911445154367E-02 a       739     0    37     1    19
  6.7258649927749950E-02 a       740     0    37     1    20
  4.9153761816306756E-02 a       741     0    38     1     1
 -5.3635973176585409E-02 a       742     0    38     1     2
  3.3607776834462089E-02 a       743     0    38     1     3
  7.0958164142237046E-02 a       744     0    38     1     4
 -8.9108824533134054E-02 a       745     0    38     1     5
  2.5749623624052746E-02 a       746     0    38     1     6
  1.0563919720880801E-02 a       747     0    38     1     7
 -2.1199045014391939E-02 a       748     0    38     1     8
  4.1426659152519432E-02 a       749     0    38     1     9
  2.2774175568145177E-02 a       750     0    38     1    10
  1.6214128847258930E-01 a       751     0    38     1    11
 -1.7912064318172004E-02 a       752     0    38     1    12
  4.5980069135102317E-02 a       753     0    38     1    13
 -1.4573272019976526E-02 a       754     0    38     1    14
  5.0420471132195742E-02 a       755     0    38     1    15
 -1.0391724607048031E-02 a       756     0    38     1    16
  2.8100776587307013E-02 a       757     0    38     1    17
 -1.2289314337228273E-01 a       758     0    38     1    18
 -4.1501378419582659E-02 a       759     0    38     1    19
 -8.9134589407649623E-02 a       760     0    38     1    20
  2.2351750018077789E-02 a       761     0    39     1     1
  4.6573552031649791E-02 a       762     0    39     1     2
  1.7971556573947691E-02 a       763     0    39     1     3
  6.8141140324417648E-02 a       764     0    39     1     4
  1.0031441970203947E-01 a       765     0    39     1     5
  4.1879073840175333E-03 a       766     0    39     1     6
  7.2086045670461864E-03 a       767     0    39     1     7
 -6.9689315146662059E-02 a       768     0    39     1     8
 -3.5990216293104622E-02 a       769     0    39     1     9
 -6.0389428813084359E-02 a       770     0    39     1    10
 -6.8976531915048336E-02 a       771     0    39     1    11
 -1.6757124006167284E-02 a       772     0    39     1    12
 -3.5006030703317460E-02 a       773     0    39     1    13
 -3.0104261027970525E-02 a       774     0    39     1    14
  3.1454404741683060E-02 a       775     0    39     1    15
 -3.1249068721855039E-02 a       776     0    39     1    16
  8.5693450098805902E-03 a       777     0    39     1    17
 -1.1636155160657548E-02 a       778     0    39     1    18
  1.8230919656637427E-02 a       779     0    39     1    19
  4.9964113200346875E-02 a       780     0    39     1    20
  1.7268468844049598E-01 a       781     0    40     1     1
 -1.4491760213440824E-01 a       782     0    40     1     2
  2.5047980615480753E-01 a       783     0    40     1     3
  1.9786575795088440E-02 a       784     0    40     1     4
  1.0567479074549520E-01 a       785     0    40     1     5
  1.9735252721406561E-02 a       786     0    40     1     6
 -8.2916926177948713E-02 a       787     0    40     1     7
 -1.4928117606218558E-01 a       788     0    40     1     8
  5.3797747420561766E-02 a       789     0    40     1     9
  4.1693372931976232E-02 a       790     0    40     1    10
 -8.3001422580654086E-02 a       791     0    40     1    11
 -6.1906746672797750E-03 a       792     0    40     1    12
  8.4338279688013079E-02 a       793     0    40     1    13
  1.9720032777866978E-01 a       794     0    40     1    14
  1.4591466984127130E-01 a       795     0    40     1    15
  7.9366748264325465E-02 a       796     0    40     1    16
  5.0605697851353257E-02 a       797     0    40     1    17
 -2.0449389541689997E-01 a       798     0    40     1    18
 -5.7962672661370333E-03 a       799     0    40     1    19
 -9.7028868342038353E-03 a       800     0    40     1    20
 -2.8463361060326570E-01 a       801     0    41     1     1
  6.2284067587236558E-01 a       802     0    41     1     2
 -7.0416053860909955E-01 a       803     0    41     1     3
 -2.7155898593976269E-01 a       804     0    41     1     4
 -1.9860091339503122E-01 a       805     0    41     1     5
 -3.1486344982931519E-01 a       806     0    41     1     6
 -1.4654498990309770E-02 a       807     0    41     1     7
  7.4506009576650864E-02 a       808     0    41     1     8
 -2.1364592441778119E-01 a       809     0    41     1     9
 -7.4001937191745817E-02 a       810     0    41     1    10
  1.5062931449277808E-01 a       811     0    41     1    11
 -2.9863053942320816E-01 a       812     0    41     1    12
 -3.3249279579486485E-01 a       813     0    41     1    13
 -5.7935577974915699E-02 a       814     0    41     1    14
 -1.2069661546527341E-01 a       815     0    41     1    15
  7.4127065210228466E-02 a       816     0    41     1    16
 -1.2110557462898058E-01 a       817     0    41     1    17
 -1.4142210167722705E-01 a       818     0    41     1    18
 -3.3042702565261795E-01 a       819     0    41     1    19
  1.0490753098610533E-02 a       820     0    41     1    20
  1.0799381841648098E-01 a       821     0    42     1     1
  2.1865216153730042E-02 a       822     0    42     1     2
 -8.7569446233472167E-02 a       823     0    42     1     3
  7.5352862945805135E-02 a       824     0    42     1     4
  1.8883296394799007E-01 a       825     0    42     1     5
 -2.3405562842899064E-01 a       826     0    42     1     6
 -4.2098466548929230E-02 a       827     0    42     1     7
 -7.1505446015176707E-02 a       828     0    42     1     8
 -8.9612531468674483E-02 a       829     0    42     1     9
 -1.0067906816844695E-01 a       830     0    42     1    10
 -6.7570168039023312E-02 a       831     0    42     1    11
  1.0899427009454661E-02 a       832     0    42     1    12
 -6.5184085613487375E-02 a       833     0    42     1    13
 -9.3491690624912402E-02 a       834     0    42     1    14
  2.8601014838685580E-02 a       835     0    42     1    15
 -2.4555124456632087E-02 a       836     0    42     1    16
 -1.7600928111818730E-02 a       837     0    42     1    17
 -9.6364495619257529E-02 a       838     0    42     1    18
  9.5598626083559304E-02 a       839     0    42     1    19
  4.3335173283883394E-02 a       840     0    42     1    20
  1.3369376628359384E-02 a       841     0    43     1     1
  1.4555862527216576E-01 a       842     0    43     1     2
  9.2011681374694176E-02 a       843     0    43     1     3
  1.6092827352630120E-02 a       844     0    43     1     4
  1.1854137066038412E-01 a       845     0    43     1     5
  7.8228105445317081E-02 a       846     0    43     1     6
 -1.1943906942713122E-02 a       847     0    43     1     7
 -2.3829423568389248E-02 a       848     0    43     1     8
 -1.8088851516230725E-01 a       849     0    43     1     9
  1.4549770774356353E-02 a       850     0    43     1    10
 -1.3258703597782698E-01 a       851     0    43     1    11
 -1.2880588547369712E-01 a       852     0    43     1    12
  6.1290878144690426E-02 a       853     0    43     1    13
 -2.1455591503550201E-02 a       854     0    43     1    14
  2.0197818673701580E-02 a       855     0    43     1    15
  2.5429692781237778E-01 a       856     0    43     1    16
 -2.5336574636416992E-01 a       857     0    43     1    17
  1.8018547206105753E-01 a       858     0    43     1    18
  2.2113188795750746E-01 a       859     0    43     1    19
 -5.6273320110334004E-03 a       860     0    43     1    20
  3.2401356411564636E-01 a       861     0    44     1     1
 -3.8661546962077775E-01 a       862     0    44     1     2
  1.5669876046419778E-01 a       863     0    44     1     3
  3.0545853890180752E-01 a       864     0    44     1     4
 -4.9217950011137622E-02 a       865     0    44     1     5
  8.3354722013811555E-02 a       866     0    44     1     6
 -4.0214588396921061E-02 a       867     0    44     1     7
 -5.3736860929064038E-02 a       868     0    44     1     8
  5.3795299528038709E-01 a       869     0    44     1     9
  5.3957793409808594E-02 a       870     0    44     1    10
 -2.3929034744065500E-01 a       871     0    44     1    11
  1.5879278998088805E-01 a       872     0    44     1    12
  1.1288459233045607E-01 a       873     0    44     1    13
  5.2214101823663511E-02 a       874     0    44     1    14
 -2.0439327142615748E-03 a       875     0    44     1    15
 -2.0711409401190156E-01 a       876     0    44     1    16
 -2.9052454784149313E-02 a       877     0    44     1    17
  5.7621314147704483E-01 a       878     0    44     1    18
 -3.1858562752767557E-02 a       879     0    44     1    19
  3.1230653193936536E-01 a       880     0    44     1    20
 -2.9836691949147568E-02 a       881     0    45     1     1
  5.1734000557742091E-02 a       882     0    45     1     2
 -1.3341904341207017E-02 a       883     0    45     1     3
 -1.2872142160197883E-01 a       884     0    45     1     4
  2.4198327501830683E-02 a       885     0    45     1     5
  1.8156696272798367E-01 a       886     0    45     1     6
 -1.1060402154354115E-01 a       887     0    45     1     7
 -5.1116619870958266E-02 a       888     0    45     1     8
  2.8128666613463874E-02 a       889     0    45     1     9
  4.7781149314074609E-02 a       890     0    45     1    10
  1.0029757368036758E-01 a       891     0    45     1    11
  2.9871189776782991E-02 a       892     0    45     1    12
 -6.4396759282995791E-02 a       893     0    45     1    13
  3.7778897000607416E-02 a       894     0    45     1    14
  1.7521199532603363E-01 a       895     0    45     1    15
  8.7816525807626486E-02 a       896     0    45     1    16
 -1.3545405054282905E-01 a       897     0    45     1    17
 -3.1468562658385386E-02 a       898     0    45     1    18
 -3.0315707987612567E-01 a       899     0    45     1    19
  1.8512072758334840E-02 a       900     0    45     1    20
  1.7438029531301810E-01 a       901     0    46     1     1
 -1.1001091093791471E-01 a       902     0    46     1     2
 -1.6460792878934691E-01 a       903     0    46     1     3
  1.6610572536575530E-01 a       904     0    46     1     4
 -1.7717174543795677E-02 a       905     0    46     1     5
  2.4607142999269385E-01 a       906     0    46     1     6
 -3.0653674554710752E-02 a       907     0    46     1     7
 -1.3233498713357361E-01 a       908     0    46     1     8
  2.3430921514706454E-01 a       909     0    46     1     9
  2.2881168768583877E-02 a       910     0    46     1    10
 -1.6304782433651015E-02 a       911     0    46     1    11
 -8.1505350270897378E-02 a       912     0    46     1    12
  1.7233769818425587E-01 a       913     0    46     1    13
 -1.2843178784387510E-01 a       914     0    46     1    14
  5.3895501449430214E-02 a       915     0    46     1    15
  1.4638622157151202E-01 a       916     0    46     1    16
 -2.2999353319972463E-01 a       917     0    46     1    17
  1.3862932766502353E-01 a       918     0    46     1    18
 -2.2826399677377748E-01 a       919     0    46     1    19
  1.2106435389760070E-01 a       920     0    46     1    20
  5.0715419908589901E-03 a       921     0    47     1     1
 -8.9312284963157004E-02 a       922     0    47     1     2
  1.4703637991746013E-01 a       923     0    47     1     3
 -1.0272506042197545E-01 a       924     0    47     1     4
 -9.7215522957644296E-02 a       925     0    47     1     5
 -1.1173292259178710E-01 a       926     0    47     1     6
 -3.5458593367278052E-02 a       927     0    47     1     7
  3.2925374839687688E-02 a       928     0    47     1     8
  1.2654714393849367E-02 a       929     0    47     1     9
  5.8271224600049312E-02 a       930     0    47     1    10
 -6.6570737228544577E-02 a       931     0    47     1    11
 -1.1086887538215620E-02 a       932     0    47     1    12
  3.8729601088261248E-02 a       933     0    47     1    13
  6.4213323082828538E-02 a       934     0    47     1    14
 -1.0213961647895137E-02 a       935     0    47     1    15
 -6.3074885076833759E-02 a       936     0    47     1    16
 -1.5031331280416857E-02 a       937     0    47     1    17
 -1.6240294771879583E-02 a       938     0    47     1    18
 -1.3657766021376541E-02 a       939     0    47     1    19
 -5.5636124929350026E-03 a       940     0    47     1    20
  4.7089185277190720E-02 a       941     0    48     1     1
  7.5286444053711973E-02 a       942     0    48     1     2
 -7.6116049343474795E-02 a       943     0    48     1     3
  4.1084706667915277E-02 a       944     0    48     1     4
  8.0624631167410879E-03 a       945     0    48     1     5
  2.3620999690659736E-03 a       946     0    48     1     6
 -2.3938491010381820E-02 a       947     0    48     1     7
 -3.7159121389591501E-02 a       948     0    48     1     8
 -5.5532232150346583E-02 a       949     0    48     1     9
 -1.7802276657163399E-02 a       950     0    48     1    10
 -4.1162994306852836E-02 a       951     0    48     1    11
 -2.1650372737714207E-02 a       952     0    48     1    12
  2.0747790741672639E-02 a       953     0    48     1    13
 -8.9162871916802472E-02 a       954     0    48     1    14
 -4.0029198525651517E-02 a       955     0    48     1    15
  8.6359987201577906E-02 a       956     0    48     1    16
 -1.2775940013508610E-01 a       957     0    48     1    17
 -3.4671135084667006E-04 a       958     0    48     1    18
  9.1866951324700800E-03 a       959     0    48     1    19
 -2.4771953235383001E-02 a       960     0    48     1    20
  9.5144435686875806E-02 a       961     0    49     1     1
 -3.8406478022810282E-02 a       962     0    49     1     2
  1.3316732898485986E-01 a       963     0    49     1     3
  1.0737087287933963E-01 a       964     0    49     1     4
 -3.7979717966601908E-03 a       965     0    49     1     5
  7.1323932407529253E-02 a       966     0    49     1     6
 -6.3191133103475516E-02 a       967     0    49     1     7
 -6.8085716830237328E-02 a       968     0    49     1     8
 -1.7131086425212683E-01 a       969     0    49     1     9
 -1.9243934417328582E-02 a       970     0    49     1    10
 -7.7720159712308445E-02 a       971     0    49     1    11
  6.2745157153702037E-03 a       972     0    49     1    12
 -2.2543210757937644E-02 a       973     0    49     1    13
 -1.4044646896568413E-01 a       974     0    49     1    14
 -1.4330938105001009E-01 a       975     0    49     1    15
  7.8570585363059955E-02 a       976     0    49     1    16
 -1.1069957891751828E-01 a       977     0    49     1    17
  8.9082277300952403E-02 a       978     0    49     1    18
 -1.2283613263569471E-01 a       979     0    49     1    19
 -1.2476572351736685E-02 a       980     0    49     1    20
 -1.4586992614513578E-01 a       981     0    50     1     1
  1.3723873167764761E-01 a       982     0    50     1     2
  1.4972094568657773E-01 a       983     0    50     1     3
  6.5707196747349275E-02 a       984     0    50     1     4
  9.2631656703370591E-02 a       985     0    50     1     5
  1.4513715768611163E-01 a       986     0    50     1     6
  1.7326760602379668E-01 a       987     0    50     1     7
  3.1413745474510191E-01 a       988     0    50     1     8
  3.2387667005227126E-02 a       989     0    50     1     9
  4.6709336095752197E-03 a       990     0    50     1    10
 -1.3506338135476484E-01 a       991     0    50     1    11
 -9.1921256948594307E-02 a       992     0    50     1    12
  1.2893177079794954E-01 a       993     0    50     1    13
 -1.7357102704754271E-01 a       994     0    50     1    14
  1.3413643829616131E-01 a       995     0    50     1    15
  9.6644720845501395E-02 a       996     0    50     1    16
  2.4424935769595424E-02 a       997     0    50     1    17
  1.2902302772514238E-01 a       998     0    50     1    18
  1.9304753659944451E-01 a       999     0    50     1    19
 -2.5911196403179931E-02 a      1000     0    50     1    20
  7.3879792306510747E-02 a      1001     0    51     1     1
 -3.9901987486530033E-01 a      1002     0    51     1     2
  1.5712469820017844E-01 a      1003     0    51     1     3
  7.2963326453123867E-02 a      1004     0    51     1     4
  1.8686861007103955E-01 a      1005     0    51     1     5
  2.2915695887358528E-01 a      1006     0    51     1     6
  4.7184934307850160E-02 a      1007     0    51     1     7
 -1.7990576983869366E-01 a      1008     0    51     1     8
 -3.4109893076450876E-01 a      1009     0    51     1     9
  1.5565255718729842E-01 a      1010     0    51     1    10
  6.7761920197157960E-02 a      1011     0    51     1    11
  8.0921638676822494E-01 a      1012     0    51     1    12
 -1.2013212089255999E-01 a      1013     0    51     1    13
  4.1034826398916807E-01 a      1014     0    51     1    14
 -1.2249649338071054E-01 a      1015     0    51     1    15
 -2.6470212817717520E-01 a      1016     0    51     1    16
 -1.5956645351492246E-01 a      1017     0    51     1    17
  2.6126868378819079E-01 a      1018     0    51     1    18
  2.1683933980222420E-01 a      1019     0    51     1    19
 -1.8076827208909613E-01 a      1020     0    51     1    20
 -7.5457451909923270E-02 a      1021     0    52     1     1
 -1.0767941614316122E-02 a      1022     0    52     1     2
  5.9792423758504888E-02 a      1023     0    52     1     3
  8.5179006321178891E-02 a      1024     0    52     1     4
 -3.9228376084575106E-02 a      1025     0    52     1     5
 -3.9011159875448616E-04 a      1026     0    52     1     6
  1.0246940698405591E-01 a      1027     0    52     1     7
  9.0737391220797103E-02 a      1028     0    52     1     8
  5.8937466802238409E-02 a      1029     0    52     1     9
  2.5264411341155864E-02 a      1030     0    52     1    10
  1.7262773185780921E-02 a      1031     0    52     1    11
 -8.3996274296398263E-02 a      1032     0    52     1    12
  7.1947734974004862E-02 a      1033     0    52     1    13
  1.0047577220043523E-01 a      1034     0    52     1    14
 -6.1534902959138734E-03 a      1035     0    52     1    15
  8.5202359067212030E-04 a      1036     0    52     1    16
  1.7270274571498093E-01 a      1037     0    52     1    17
  2.1406140593510273E-02 a      1038     0    52     1    18
  1.9257199454275303E-01 a      1039     0    52     1    19
 -6.7615983810638838E-02 a      1040     0    52     1    20
 -3.1011466944373511E-02 a      1041     0    53     1     1
 -6.4282686513868106E-04 a      1042     0    53     1     2
  8.9841749867215371E-03 a      1043     0    53     1     3
  1.3175292825844889E-01 a      1044     0    53     1     4
  3.2924059165007818E-02 a      1045     0    53     1     5
 -2.8482837094723636E-02 a      1046     0    53     1     6
  9.4893783392165656E-02 a      1047     0    53     1     7
 -2.9856290481644544E-02 a      1048     0    53     1     8
 -4.3837742476547835E-02 a      1049     0    53     1     9
 -1.3285475097394495E-01 a      1050     0    53     1    10
  4.5727031967698402E-02 a      1051     0    53     1    11
  4.6091906667816582E-02 a      1052     0    53     1    12
  1.4598734519044046E-02 a      1053     0    53     1    13
  8.2135771914553457E-02 a      1054     0    53     1    14
  1.2237506442755079E-01 a      1055     0    53     1    15
  1.1750264641562725E-03 a      1056     0    53     1    16
  8.4328697061886226E-02 a      1057     0    53     1    17
 -1.5224541211724832E-01 a      1058     0    53     1    18
  1.4198764434616334E-01 a      1059     0    53     1    19
  4.9933529513621004E-02 a      1060     0    53     1    20
 -1.0101665219734005E-01 a      1061     0    54     1     1
  1.0252319748692172E-01 a      1062     0    54     1     2
 -1.1890514684997575E-01 a      1063     0    54     1     3
 -6.8454189931220155E-02 a      1064     0    54     1     4
 -3.3661827616454443E-01 a      1065     0    54     1     5
 -1.1777341503671777E-01 a      1066     0    54     1     6
 -8.7525503733282620E-03 a      1067     0    54     1     7
  1.9035023537949147E-01 a      1068     0    54     1     8
  7.4589486447680584E-02 a      1069     0    54     1     9
 -9.8374416801757153E-02 a      1070     0    54     1    10
 -1.0885323193268161E-01 a      1071     0    54     1    11
 -2.0955687951534924E-01 a      1072     0    54     1    12
 -1.5657212602348880E-01 a      1073     0    54     1    13
 -3.2622757149119080E-01 a      1074     0    54     1    14
 -8.5240630095422917E-02 a      1075     0    54     1    15
 -1.3500230433103108E-01 a      1076     0    54     1    16
  2.1337348453712862E-01 a      1077     0    54     1    17
 -1.7332376790361095E-01 a      1078     0    54     1    18
  1.1554164843456031E-02 a      1079     0    54     1    19
 -2.1806768029233987E-03 a      1080     0    54     1    20
  1.0885501403579679E-02 a      1081     0    55     1     1
  7.3189473614485176E-02 a      1082     0    55     1     2
  3.4259333025351857E-04 a      1083     0    55     1     3
 -1.0233366567165871E-01 a      1084     0    55     1     4
 -2.3440057817653231E-01 a      1085     0    55     1     5
  1.2425520848641590E-01 a      1086     0    55     1     6
  1.0051850032163790E-02 a      1087     0    55     1     7
 -8.3131646078617553E-03 a      1088     0    55     1     8
 -6.2406772008065554E-02 a      1089     0    55     1     9
  9.8666547561457926E-04 a      1090     0    55     1    10
 -1.7178281902712059E-01 a      1091     0    55     1    11
 -1.4954479527407799E-01 a      1092     0    55     1    12
 -9.8755714745175471E-02 a      1093     0    55     1    13
  1.1092991670547357E-01 a      1094     0    55     1    14
 -1.3955367899037702E-01 a      1095     0    55     1    15
  9.0837510384680256E-02 a      1096     0    55     1    16
 -1.8414356847987479E-01 a      1097     0    55     1    17
 -9.7007446900867461E-02 a      1098     0    55     1    18
 -4.8055359147271708E-02 a      1099     0    55     1    19
 -6.5250186809533567E-02 a      1100     0    55     1    20
 -1.2576963464525319E-02 a      1101     0    56     1     1
 -6.9369895765058389E-03 a      1102     0    56     1     2
 -2.4877392689748597E-02 a      1103     0    56     1     3
 -2.7214665595254938E-02 a      1104     0    56     1     4
 -5.8648444112338223E-02 a      1105     0    56     1     5
 -1.1129419431821568E-02 a      1106     0    56     1     6
 -1.2093202857174882E-02 a      1107     0    56     1     7
  4.4627881280661412E-02 a      1108     0    56     1     8
  6.2487615291378217E-02 a      1109     0    56     1     9
  2.0507146091292176E-02 a      1110     0    56     1    10
 -1.6988661273475005E-02 a      1111     0    56     1    11
  8.1778483215406442E-02 a      1112     0    56     1    12
 -1.5720910955710704E-01 a      1113     0    56     1    13
 -4.4750251183878147E-02 a      1114     0    56     1    14
 -6.9143401216163122E-02 a      1115     0    56     1    15
 -2.3866584406633118E-01 a      1116     0    56     1    16
  2.0775486897062848E-01 a      1117     0    56     1    17
 -4.5187754557543307E-02 a      1118     0    56     1    18
 -1.9435551860131414E-01 a      1119     0    56     1    19
 -8.4051255207591991E-03 a      1120     0    56     1    20
 -1.0145495365262173E-01 a      1121     0    57     1     1
  1.1824593235229630E-01 a      1122     0    57     1     2
 -4.8031409787446196E-02 a      1123     0    57     1     3
  4.6744708061886436E-02 a      1124     0    57     1     4
 -1.6115214502191327E-01 a      1125     0    57     1     5
  1.5451587782470139E-01 a      1126     0    57     1     6
  1.2176428117244332E-02 a      1127     0    57     1     7
  4.5848961852168947E-02 a      1128     0    57     1     8
  6.6280215009758295E-02 a      1129     0    57     1     9
 -2.5129939216170401E-02 a      1130     0    57     1    10
  1.0022140944127536E-01 a      1131     0    57     1    11
  8.9227580561979228E-02 a      1132     0    57     1    12
 -1.4876408482285899E-01 a      1133     0    57     1    13
  8.6960611179737871E-02 a      1134     0    57     1    14
 -8.7075988717391917E-02 a      1135     0    57     1    15
  7.1985357642665213E-02 a      1136     0    57     1    16
 -1.3803681430259573E-01 a      1137     0    57     1    17
 -4.2072875212947197E-02 a      1138     0    57     1    18
 -1.4391892157312836E-01 a      1139     0    57     1    19
 -2.7249351997326043E-02 a      1140     0    57     1    20
 -2.0169469081076578E-02 a      1141     0    58     1     1
  2.7988030081264544E-02 a      1142     0    58     1     2
  1.6408379366739317E-01 a      1143     0    58     1     3
  1.3462559442498873E-01 a      1144     0    58     1     4
  6.9245713389088109E-02 a      1145     0    58     1     5
  2.4254144802683766E-01 a      1146     0    58     1     6
  7.5022194273613840E-02 a      1147     0    58     1     7
 -1.2460531171908576E-01 a      1148     0    58     1     8
 -4.7389964645100480E-02 a      1149     0    58     1     9
 -5.5820422939701422E-02 a      1150     0    58     1    10
  5.0081984596062321E-02 a      1151     0    58     1    11
 -4.1472464376259358E-02 a      1152     0    58     1    12
  8.0948297686413304E-02 a      1153     0    58     1    13
  1.6034256425284432E-01 a      1154     0    58     1    14
  2.5553793878138310E-02 a      1155     0    58     1    15
 -3.8985629813023025E-02 a      1156     0    58     1    16
  5.5345702429509314E-02 a      1157     0    58     1    17
 -5.1430397916660590E-02 a      1158     0    58     1    18
 -1.2845023792366442E-01 a      1159     0    58     1    19
  2.8365005086694210E-02 a      1160     0    58     1    20
 -9.0748474651377475E-02 a      1161     0    59     1     1
  2.5364165014197394E-02 a      1162     0    59     1     2
 -8.0577474952620340E-02 a      1163     0    59     1     3
 -1.7681156218172994E-01 a      1164     0    59     1     4
  7.8368647097637287E-02 a      1165     0    59     1     5
  8.6750521999920428E-03 a      1166     0    59     1     6
  4.3028247507531509E-02 a      1167     0    59     1     7
  1.2020278876995656E-01 a      1168     0    59     1     8
  1.3824558806580686E-01 a      1169     0    59     1     9
  6.2674230908526779E-02 a      1170     0    59     1    10
 -1.1003882322961114E-01 a      1171     0    59     1    11
 -5.2775567384431349E-03 a      1172     0    59     1    12
  2.9345394493664780E-03 a      1173     0    59     1    13
  5.3584980656890935E-02 a      1174     0    59     1    14
  1.4516338701574893E-01 a      1175     0    59     1    15
  1.0776185089973668E-02 a      1176     0    59     1    16
  6.6045988372160760E-02 a      1177     0    59     1    17
  5.1701417874330247E-02 a      1178     0    59     1    18
  7.8282823781216718E-03 a      1179     0    59     1    19
  1.7115031302475454E-02 a      1180     0    59     1    20
 -2.7649433642612423E-02 a      1181     0    60     1     1
 -9.1963813272172013E-03 a      1182     0    60     1     2
  7.5697474969617720E-02 a      1183     0    60     1     3
  1.1434228860351454E-01 a      1184     0    60     1     4
  1.0169175999152591E-01 a      1185     0    60     1     5
 -4.5576984845347335E-04 a      1186     0    60     1     6
  8.0733002153668257E-02 a      1187     0    60     1     7
 -3.8889067118265314E-02 a      1188     0    60     1     8
 -8.8210939822763554E-02 a      1189     0    60     1     9
 -4.6029789528059258E-02 a      1190     0    60     1    10
  7.0972376970418305E-02 a      1191     0    60     1    11
  1.8799925681263686E-02 a      1192     0    60     1    12
  1.4992633771687242E-01 a      1193     0    60     1    13
  4.5389929640436269E-02 a      1194     0    60     1    14
 -3.0217565213196879E-03 a      1195     0    60     1    15
 -5.0319527593258945E-02 a      1196     0    60     1    16
  3.9140899719956629E-02 a      1197     0    60     1    17
 -4.8224062997682247E-02 a      1198     0    60     1    18
  6.8092588697144713E-02 a      1199     0    60     1    19
 -5.1956463295737429E-02 a      1200     0    60     1    20
  7.8825348688522992E-02 a      1201     0    61     1     1
 -4.1592417433932050E-02 a      1202     0    61     1     2
  3.3373171274688362E-02 a      1203     0    61     1     3
  1.5317207402411402E-02 a      1204     0    61     1     4
 -1.2547266915765579E-01 a      1205     0    61     1     5
  1.9048071132308358E-01 a      1206     0    61     1     6
 -4.1906252793312152E-03 a      1207     0    61     1     7
 -8.4664853280937716E-02 a      1208     0    61     1     8
 -3.4769529870402702E-02 a      1209     0    61     1     9
 -2.9611569719143020E-02 a      1210     0    61     1    10
 -8.8651524552973773E-02 a      1211     0    61     1    11
  3.4704478905668322E-02 a      1212     0    61     1    12
 -7.2649799661325148E-02 a      1213     0    61     1    13
 -6.1664842181323155E-02 a      1214     0    61     1    14
 -1.1675131969671090E-01 a      1215     0    61     1    15
 -8.2735710036152516E-02 a      1216     0    61     1    16
 -4.3202537001569917E-02 a      1217     0    61     1    17
 -7.5658936910252550E-02 a      1218     0    61     1    18
  3.8225600238281733E-02 a      1219     0    61     1    19
 -9.1564156220835385E-02 a      1220     0    61     1    20
  6.2453709916142408E-02 a      1221     0    62     1     1
 -5.6004049124217959E-03 a      1222     0    62     1     2
 -8.7784012180252224E-02 a      1223     0    62     1     3
  5.8166541703615154E-02 a      1224     0    62     1     4
  1.7632342187009917E-01 a      1225     0    62     1     5
  2.2074289596318231E-02 a      1226     0    62     1     6
  7.0357157581479965E-02 a      1227     0    62     1     7
  1.1907116981221436E-02 a      1228     0    62     1     8
 -3.4303169208685758E-02 a      1229     0    62     1     9
  2.6287639688538714E-02 a      1230     0    62     1    10
 -3.5799388688471573E-02 a      1231     0    62     1    11
 -1.1337511072567910E-01 a      1232     0    62     1    12
  7.5902469775999182E-02 a      1233     0    62     1    13
 -7.7273315410449919E-02 a      1234     0    62     1    14
  1.3733609199253655E-01 a      1235     0    62     1    15
  1.5204754504903727E-02 a      1236     0    62     1    16
  2.0733436834974128E-01 a      1237     0    62     1    17
 -4.0853580745220879E-02 a      1238     0    62     1    18
  8.6852962491658622E-02 a      1239     0    62     1    19
 -1.1445837818300486E-01 a      1240     0    62     1    20
 -5.1157711406949087E-02 a      1241     0    63     1     1
 -5.8303554138750886E-02 a      1242     0    63     1     2
  9.4245852999990817E-02 a      1243     0    63     1     3
 -1.1369235762800795E-01 a      1244     0    63     1     4
 -4.7608234055604680E-02 a      1245     0    63     1     5
  4.8205647940917681E-02 a      1246     0    63     1     6
  1.6737095127578670E-02 a      1247     0    63     1     7
  8.1866358307293774E-02 a      1248     0    63     1     8
  4.4971888704986078E-02 a      1249     0    63     1     9
  8.4247932049848998E-02 a      1250     0    63     1    10
  4.5283929454998859E-02 a      1251     0    63     1    11
 -3.8234758386926526E-02 a      1252     0    63     1    12
  9.8577012340298684E-02 a      1253     0    63     1    13
  9.2573260404808691E-02 a      1254     0    63     1    14
  6.1080133857666294E-02 a      1255     0    63     1    15
  2.1719126473671796E-01 a      1256     0    63     1    16
  1.4216816503989578E-02 a      1257     0    63     1    17
 -1.0702751627995100E-01 a      1258     0    63     1    18
  2.5251058474470435E-02 a      1259     0    63     1    19
 -1.0015877996141992E-01 a      1260     0    63     1    20
 -1.6345131650685457E-01 a      1261     0    64     1     1
 -2.6250887774893145E-01 a      1262     0    64     1     2
  1.1331789902965975E-01 a      1263     0    64     1     3
 -2.3386452907139373E-02 a      1264     0    64     1     4
  9.4082694320712229E-02 a      1265     0    64     1     5
 -6.2646657206606948E-01 a      1266     0    64     1     6
 -5.5872402454475445E-02 a      1267     0    64     1     7
 -5.6332735001432876E-02 a      1268     0    64     1     8
 -6.2269068412386351E-02 a      1269     0    64     1     9
 -3.9292787957661439E-02 a      1270     0    64     1    10
  3.1751298958412888E-01 a      1271     0    64     1    11
  5.3649683429303742E-02 a      1272     0    64     1    12
  1.4579318439413827E-01 a      1273     0    64     1    13
  1.2344124856968443E-01 a      1274     0    64     1    14
 -1.6917106530488443E-02 a      1275     0    64     1    15
  9.3180460033343723E-02 a      1276     0    64     1    16
  6.8849875082741124E-02 a      1277     0    64     1    17
  5.3120085639242261E-02 a      1278     0    64     1    18
  1.1217426261666974E-01 a      1279     0    64     1    19
  1.6192627947834437E-01 a      1280     0    64     1    20
 -2.7873802546073356E-02 a      1281     0    65     1     1
  3.7034835178390956E-04 a      1282     0    65     1     2
  3.2378454659283948E-02 a      1283     0    65     1     3
 -7.2886778588642814E-02 a      1284     0    65     1     4
 -6.9755649198190273E-02 a      1285     0    65     1     5
  4.1554696717047432E-03 a      1286     0    65     1     6
 -4.3656734482225512E-02 a      1287     0    65     1     7
 -1.6886256472948009E-02 a      1288     0    65     1     8
 -6.8277222244977134E-03 a      1289     0    65     1     9
 -1.2524554051679905E-02 a      1290     0    65     1    10
 -1.6084605904304178E-02 a      1291     0    65     1    11
 -2.0804263437377183E-02 a      1292     0    65     1    12
 -4.7212657077335289E-02 a      1293     0    65     1    13
  5.0375899737376785E-03 a      1294     0    65     1    14
 -2.9200257511517620E-02 a      1295     0    65     1    15
  1.4717395020151805E-01 a      1296     0    65     1    16
 -1.1108103127287901E-01 a      1297     0    65     1    17
 -3.0826813086893678E-02 a      1298     0    65     1    18
  6.6668294178855045E-02 a      1299     0    65     1    19
 -2.2059014601408612E-02 a      1300     0    65     1    20
 -1.5913000542766984E-02 a      1301     0    66     1     1
 -1.5463325784723322E-01 a      1302     0    66     1     2
  7.4425985902397657E-02 a      1303     0    66     1     3
  4.0221553813423065E-02 a      1304     0    66     1     4
 -5.6127718793415216E-02 a      1305     0    66     1     5
 -1.6729164613760142E-01 a      1306     0    66     1     6
 -3.6617728368291233E-02 a      1307     0    66     1     7
 -9.7191257722362395E-02 a      1308     0    66     1     8
 -4.6614581736688747E-02 a      1309     0    66     1     9
 -7.8538775672388900E-02 a      1310     0    66     1    10
  4.8025630402115334E-02 a      1311     0    66     1    11
  5.7322583414558356E-02 a      1312     0    66     1    12
 -1.0052595977482033E-01 a      1313     0    66     1    13
  1.0665457277184761E-04 a      1314     0    66     1    14
 -2.9292582355408475E-01 a      1315     0    66     1    15
 -5.9188310777111924E-02 a      1316     0    66     1    16
  5.2265811882994784E-02 a      1317     0    66     1    17
  1.1759647612958127E-02 a      1318     0    66     1    18
  9.1018222873133714E-02 a      1319     0    66     1    19
  1.0692171348389268E-01 a      1320     0    66     1    20
 -4.0170926956333369E-02 a      1321     0    67     1     1
 -3.1955247180103397E-02 a      1322     0    67     1     2
 -8.9604176798126225E-02 a      1323     0    67     1     3
 -3.3853440948024859E-02 a      1324     0    67     1     4
  2.2559203888185353E-01 a      1325     0    67     1     5
  1.3091296040225860E-02 a      1326     0    67     1     6
  2.6799351012672782E-02 a      1327     0    67     1     7
  4.8804701709814803E-02 a      1328     0    67     1     8
 -2.2659119108611649E-02 a      1329     0    67     1     9
 -2.1614524053131995E-02 a      1330     0    67     1    10
 -1.0313190632542453E-01 a      1331     0    67     1    11
  1.9450550963884098E-02 a      1332     0    67     1    12
  3.8286831810627787E-02 a      1333     0    67     1    13
 -3.6905940054806304E-02 a      1334     0    67     1    14
  2.4445858403277267E-03 a      1335     0    67     1    15
  1.1498732791741523E-01 a      1336     0    67     1    16
  1.3809928490896647E-01 a      1337     0    67     1    17
  1.8659498299244007E-01 a      1338     0    67     1    18
  8.5280505857362424E-02 a      1339     0    67     1    19
  5.8609110728365457E-02 a      1340     0    67     1    20
 -4.3330390875095146E-02 a      1341     0    68     1     1
 -3.5066997260226607E-02 a      1342     0    68     1     2
 -8.0013635744077438E-02 a      1343     0    68     1     3
 -8.7992872777912359E-02 a      1344     0    68     1     4
 -3.2612757752920031E-02 a      1345     0    68     1     5
 -7.9851558992889635E-02 a      1346     0    68     1     6
 -1.7131636379305530E-02 a      1347     0    68     1     7
  5.8999989848399687E-02 a      1348     0    68     1     8
  1.1887098156550240E-03 a      1349     0    68     1     9
  3.4264993719023938E-02 a      1350     0    68     1    10
  4.2014079557447202E-02 a      1351     0    68     1    11
 -3.2769245273860340E-02 a      1352     0    68     1    12
  8.1565237959538013E-04 a      1353     0    68     1    13
  4.0961106720410707E-02 a      1354     0    68     1    14
 -4.2441585257426293E-02 a      1355     0    68     1    15
  8.5010402992420186E-02 a      1356     0    68     1    16
  2.3900495221484786E-02 a      1357     0    68     1    17
 -4.0472763012169975E-02 a      1358     0    68     1    18
 -1.9513151987599592E-02 a      1359     0    68     1    19
 -7.1523349908953829E-02 a      1360     0    68     1    20
 -4.8375478578075677E-02 a      1361     0    69     1     1
  5.1542604935299018E-02 a      1362     0    69     1     2
  3.0734645356763513E-02 a      1363     0    69     1     3
 -1.3447189926962808E-01 a      1364     0    69     1     4
 -8.0989613392525181E-02 a      1365     0    69     1     5
  4.9894081805168779E-02 a      1366     0    69     1     6
 -3.5419130916820064E-02 a      1367     0    69     1     7
  1.1326169479725687E-01 a      1368     0    69     1     8
  1.5691020310745196E-01 a      1369     0    69     1     9
  9.0184828641945894E-02 a      1370     0    69     1    10
 -4.5471502675317368E-02 a      1371     0    69     1    11
  1.1490128647319542E-02 a      1372     0    69     1    12
 -1.4424185627996056E-01 a      1373     0    69     1    13
  9.4612388254548402E-02 a      1374     0    69     1    14
  9.6183895491250379E-02 a      1375     0    69     1    15
  1.3091250033054971E-01 a      1376     0    69     1    16
 -1.2692765498257335E-02 a      1377     0    69     1    17
  5.4209829509010397E-02 a      1378     0    69     1    18
 -6.4637570988111306E-02 a      1379     0    69     1    19
  7.1967870776014298E-02 a      1380     0    69     1    20
  8.7532763663519017E-02 a      1381     0    70     1     1
 -3.2441481685726282E-02 a      1382     0    70     1     2
 -2.7404535747226966E-01 a      1383     0    70     1     3
 -1.1065689559620936E-01 a      1384     0    70     1     4
 -4.4522971080927204E-02 a      1385     0    70     1     5
 -2.3566684538390040E-01 a      1386     0    70     1     6
 -1.9068408654044514E-01 a      1387     0    70     1     7
 -2.2793266951907787E-01 a      1388     0    70     1     8
 -4.3178766247507723E-02 a      1389     0    70     1     9
  8.7076981248185867E-04 a      1390     0    70     1    10
  5.9637773515799457E-02 a      1391     0    70     1    11
  6.4755396511052346E-02 a      1392     0    70     1    12
 -2.4329236762575751E-01 a      1393     0    70     1    13
 -1.2368377462855079E-01 a      1394     0    70     1    14
 -1.7792159797357324E-02 a      1395     0    70     1    15
 -1.2209871580908448E-01 a      1396     0    70     1    16
 -8.5793504714015797E-02 a      1397     0    70     1    17
 -9.9832012203016712E-02 a      1398     0    70     1    18
  3.6511931711840889E-02 a      1399     0    70     1    19
  1.0007756943742442E-01 a      1400     0    70     1    20
  4.1117218116591792E-01 a      1401     0    71     1     1
  5.4170052437442484E-01 a      1402     0    71     1     2
 -5.2721409816318321E-01 a      1403     0    71     1     3
  4.0176946501956146E-01 a      1404     0    71     1     4
 -8.7005604255955299E-02 a      1405     0    71     1     5
 -3.1406444816781043E-01 a      1406     0    71     1     6
  2.5394350930380627E-01 a      1407     0    71     1     7
  1.9461058152786045E-01 a      1408     0    71     1     8
  4.0832370161920689E-01 a      1409     0    71     1     9
 -2.9790953610759918E-01 a      1410     0    71     1    10
 -4.8070985584096387E-01 a      1411     0    71     1    11
 -1.4292629639289487E+00 a      1412     0    71     1    12
  5.1309953977645151E-01 a      1413     0    71     1    13
 -1.9970036015835252E-01 a      1414     0    71     1    14
  6.2518277385204057E-01 a      1415     0    71     1    15
 -1.9230632538306594E-01 a      1416     0    71     1    16
  5.0630207605140420E-01 a      1417     0    71     1    17
  3.6868266280633145E-02 a      1418     0    71     1    18
  1.4380006551325696E-02 a      1419     0    71     1    19
  2.4236280613168637E-01 a      1420     0    71     1    20
 -1.2143369337450426E-02 a      1421     0    72     1     1
  9.1372712285065702E-03 a      1422     0    72     1     2
  4.1405767739631879E-04 a      1423     0    72     1     3
 -1.6392226703896839E-01 a      1424     0    72     1     4
  3.0925553423387660E-02 a      1425     0    72     1     5
 -8.0362477894772327E-02 a      1426     0    72     1     6
 -7.5849674456940283E-02 a      1427     0    72     1     7
  6.9428332549741165E-02 a      1428     0    72     1     8
 -1.1598025757921447E-02 a      1429     0    72     1     9
  5.6632615565459114E-02 a      1430     0    72     1    10
 -6.7024601627240138E-02 a      1431     0    72     1    11
  4.9939290004272302E-02 a      1432     0    72     1    12
 -8.4719939386044760E-02 a      1433     0    72     1    13
 -4.0231685942109296E-02 a      1434     0    72     1    14
  5.6170976764987286E-02 a      1435     0    72     1    15
  5.3811774587926277E-02 a      1436     0    72     1    16
 -6.7602247425314108E-02 a      1437     0    72     1    17
  8.1420314805557600E-02 a      1438     0    72     1    18
  2.1228425925069631E-02 a      1439     0    72     1    19
  9.0536589183509028E-02 a      1440     0    72     1    20
  2.6117799328896952E-02 a      1441     0    73     1     1
  2.0023696532931113E-02 a      1442     0    73     1     2
 -5.8918791392112722E-02 a      1443     0    73     1     3
 -8.4304449458472652E-02 a      1444     0    73     1     4
 -2.0367043546980412E-01 a      1445     0    73     1     5
 -8.1820753867325902E-02 a      1446     0    73     1     6
 -1.6499875835615394E-02 a      1447     0    73     1     7
  6.7319568720690212E-02 a      1448     0    73     1     8
  9.3012113614435690E-02 a      1449     0    73     1     9
  8.1477467507253085E-02 a      1450     0    73     1    10
 -2.6840755089405709E-02 a      1451     0    73     1    11
 -1.2222030250817403E-01 a      1452     0    73     1    12
  4.2304457254229197E-02 a      1453     0    73     1    13
  3.5699600681798657E-02 a      1454     0    73     1    14
  4.6346605855190293E-02 a      1455     0    73     1    15
 -6.1099792608848562E-02 a      1456     0    73     1    16
 -9.7200485316605717E-02 a      1457     0    73     1    17
 -2.4801238115827396E-02 a      1458     0    73     1    18
 -2.0550054315643487E-01 a      1459     0    73     1    19
 -1.3152643918953344E-01 a      1460     0    73     1    20
 -1.4796004809063901E-01 a      1461     0    74     1     1
 -5.1256514443492676E-02 a      1462     0    74     1     2
  1.9404954860598628E-01 a      1463     0    74     1     3
 -1.1331084518281853E-01 a      1464     0    74     1     4
  1.3728086287612540E-01 a      1465     0    74     1     5
  1.6748422085209286E-01 a      1466     0    74     1     6
 -1.4684292998369589E-01 a      1467     0    74     1     7
 -1.5039902618728435E-01 a      1468     0    74     1     8
 -9.6952784263187528E-02 a      1469     0    74     1     9
  6.3305411185935995E-02 a      1470     0    74     1    10
  1.0499935940263515E-01 a      1471     0    74     1    11
  5.1279207981246100E-01 a      1472     0    74     1    12
 -2.8821820235754608E-01 a      1473     0    74     1    13
  1.7476703562955354E-01 a      1474     0    74     1    14
 -2.6996415405775021E-01 a      1475     0    74     1    15
  8.5735155920600714E-02 a      1476     0    74     1    16
 -2.9317437748435149E-01 a      1477     0    74     1    17
  1.5326254405527490E-01 a      1478     0    74     1    18
 -1.7283541415284573E-01 a      1479     0    74     1    19
  1.1694763582017149E-01 a      1480     0    74     1    20
  1.6753982659678923E-02 a      1481     0    75     1     1
  7.1626069907987366E-02 a      1482     0    75     1     2
 -1.0869911776052482E-01 a      1483     0    75     1     3
  1.7202993510499870E-01 a      1484     0    75     1     4
  1.8013581541795926E-01 a      1485     0    75     1     5
  2.5593155685509416E-02 a      1486     0    75     1     6
  5.0026959065394026E-02 a      1487     0    75     1     7
 -7.2379566348693830E-03 a      1488     0    75     1     8
 -2.8422749573192768E-02 a      1489     0    75     1     9
 -6.0026747488511910E-02 a      1490     0    75     1    10
  4.8153991327022270E-04 a      1491     0    75     1    11
  8.2985239005104836E-02 a      1492     0    75     1    12
  7.4800953307086526E-02 a      1493     0    75     1    13
 -8.9800075945759297E-02 a      1494     0    75     1    14
  9.8172359144958823E-02 a      1495     0    75     1    15
 -1.0071281879317893E-01 a      1496     0    75     1    16
  5.8759902087592665E-02 a      1497     0    75     1    17
  1.4746741059761395E-01 a      1498     0    75     1    18
  5.4167705747655212E-02 a      1499     0    75     1    19
  1.0145514468174673E-01 a      1500     0    75     1    20
 -2.0949016167403325E-02 a      1501     0    76     1     1
  4.3779278735334663E-03 a      1502     0    76     1     2
  6.7829816982841448E-02 a      1503     0    76     1     3
 -2.7945658114644596E-03 a      1504     0    76     1     4
  3.5795138691411051E-02 a      1505     0    76     1     5
  2.2247390102085891E-02 a      1506     0    76     1     6
 -3.4827686385095508E-02 a      1507     0    76     1     7
 -5.3643851012634559E-02 a      1508     0    76     1     8
 -5.8758422969574120E-02 a      1509     0    76     1     9
 -2.3552564731865698E-02 a      1510     0    76     1    10
  3.8636511366340054E-02 a      1511     0    76     1    11
  5.7633835900324476E-02 a      1512     0    76     1    12
 -3.6699656402590840E-02 a      1513     0    76     1    13
  2.3951258007904676E-02 a      1514     0    76     1    14
 -8.9447657612865106E-02 a      1515     0    76     1    15
  1.1018596069626645E-01 a      1516     0    76     1    16
 -1.0888485479349294E-01 a      1517     0    76     1    17
  1.9998990980109467E-02 a      1518     0    76     1    18
  1.6855491120624996E-01 a      1519     0    76     1    19
  5.8169890049407716E-02 a      1520     0    76     1    20
  6.2292169771261105E-02 a      1521     0    77     1     1
 -7.5480233648389863E-02 a      1522     0    77     1     2
  1.0818729699939006E-01 a      1523     0    77     1     3
  1.8490914245261075E-01 a      1524     0    77     1     4
  1.0346281662685912E-01 a      1525     0    77     1     5
  2.5851460531166429E-04 a      1526     0    77     1     6
  7.6147084277917290E-02 a      1527     0    77     1     7
 -1.5457188140365749E-01 a      1528     0    77     1     8
 -1.0185636270760645E-01 a      1529     0    77     1     9
 -3.5616782694722009E-02 a      1530     0    77     1    10
  1.0513093703639521E-01 a      1531     0    77     1    11
 -4.8951606267166839E-02 a      1532     0    77     1    12
  2.5572199524223227E-01 a      1533     0    77     1    13
 -4.9383192794708484E-03 a      1534     0    77     1    14
  9.2065179645539189E-02 a      1535     0    77     1    15
 -7.2675283583284359E-02 a      1536     0    77     1    16
  8.1781480312247939E-02 a      1537     0    77     1    17
 -1.8079036268666865E-01 a      1538     0    77     1    18
 -4.6942213318888079E-02 a      1539     0    77     1    19
 -9.7436143041870010E-02 a      1540     0    77     1    20
  7.5564774619098739E-03 a      1541     0    78     1     1
 -3.1495861980507835E-02 a      1542     0    78     1     2
 -1.7127389011096206E-01 a      1543     0    78     1     3
 -1.1259357956289878E-01 a      1544     0    78     1     4
 -4.7613433750050484E-02 a      1545     0    78     1     5
 -2.2559629680018428E-01 a      1546     0    78     1     6
 -1.8888896906052378E-02 a      1547     0    78     1     7
  1.1208784486903739E-01 a      1548     0    78     1     8
  1.5698077122360460E-02 a      1549     0    78     1     9
  4.9626890478341137E-02 a      1550     0    78     1    10
  8.2147762123050538E-03 a      1551     0    78     1    11
  1.4890153915583905E-02 a      1552     0    78     1    12
 -8.5525690331475224E-03 a      1553     0    78     1    13
 -7.8316526926982599E-02 a      1554     0    78     1    14
 -2.1154365699947560E-02 a      1555     0    78     1    15
 -1.0693085294709567E-02 a      1556     0    78     1    16
  1.5217064751063951E-02 a      1557     0    78     1    17
 -2.1932072621181175E-03 a      1558     0    78     1    18
  8.2751215063412084E-02 a      1559     0    78     1    19
 -9.3758674568951761E-02 a      1560     0    78     1    20
  3.8805553883740011E-02 a      1561     0    79     1     1
  8.0859048248847973E-02 a      1562     0    79     1     2
 -3.1503427600454684E-03 a      1563     0    79     1     3
  2.0251751865220227E-01 a      1564     0    79     1     4
 -4.5668192364052791E-02 a      1565     0    79     1     5
 -9.0480908270468549E-02 a      1566     0    79     1     6
 -7.4753825148671741E-03 a      1567     0    79     1     7
 -1.2317978512441506E-01 a      1568     0    79     1     8
 -6.0310787265468520E-02 a      1569     0    79     1     9
 -7.7905601619213616E-02 a      1570     0    79     1    10
  1.3191799473802959E-01 a      1571     0    79     1    11
  3.3766858097066518E-02 a      1572     0    79     1    12
 -5.9108766631412103E-02 a      1573     0    79     1    13
  1.8159929025946032E-02 a      1574     0    79     1    14
  9.4142441165585272E-03 a      1575     0    79     1    15
 -5.2479903180440449E-02 a      1576     0    79     1    16
 -8.9973147068782247E-02 a      1577     0    79     1    17
 -7.5495473000514318E-02 a      1578     0    79     1    18
  5.2609134030581289E-02 a      1579     0    79     1    19
  4.8007048183287354E-02 a      1580     0    79     1    20
 -2.8098364249192859E-01 b      1581     1     1
 -9.5154728009476819E-01 b      1582     1     2
 -9.6662044573041972E-01 b      1583     1     3
  4.0503007735211266E-01 b      1584     1     4
 -3.2373392614272234E-01 b      1585     1     5
 -1.1705890488595609E+00 b      1586     1     6
 -1.4242131583890068E+00 b      1587     1     7
 -1.4130133515004906E-01 b      1588     1     8
  1.2712928398638235E+00 b      1589     1     9
 -2.8520830883580262E-01 b      1590     1    10
 -1.2185513752099197E+00 b      1591     1    11
  1.3484096583365921E+00 b      1592     1    12
 -9.3655281432289631E-03 b      1593     1    13
  8.5810366080081579E-01 b      1594     1    14
 -1.4896902077698206E+00 b      1595     1    15
  9.4788944588805379E-01 b      1596     1    16
 -6.0758448800912590E-01 b      1597     1    17
 -2.9488523233383968E-01 b      1598     1    18
  6.8147823608307168E-01 b      1599     1    19
 -6.6968222712818248E-01 b      1600     1    20
  4.9868347782451755E-01 a      1601     1     1     2     1
 -2.0791489917656439E-01 a      1602     1     1     2     2
 -8.9702576327192873E-01 a      1603     1     1     2     3
  4.4340295054833612E-02 a      1604     1     1     2     4
 -7.8118387244830756E-01 a      1605     1     1     2     5
  5.9801861105405196E-01 a      1606     1     1     2     6
 -6.9890288388370025E-01 a      1607     1     1     2     7
 -1.7370922359299742E-01 a      1608     1     1     2     8
 -5.3341941453961303E-02 a      1609     1     1     2     9
  7.8494799735350465E-02 a      1610     1     1     2    10
  4.3624520040646014E-01 a      1611     1     1     2    11
 -2.7493780346436697E-01 a      1612     1     1     2    12
 -3.6429622018340857E-01 a      1613     1     1     2    13
 -6.7454586151272056E-01 a      1614     1     1     2    14
  4.1905072958812756E-01 a      1615     1     1     2    15
  2.4761569979589756E-01 a      1616     1     1     2    16
  1.9458339921517936E-01 a      1617     1     1     2    17
 -3.3939529665754808E-01 a      1618     1     1     2    18
  5.3989202175490447E-01 a      1619     1     1     2    19
 -2.0858479029526017E-01 a      1620     1     1     2    20
 -6.4016455148427506E-02 a      1621     1     2     2     1
  1.3316056642271529E-01 a      1622     1     2     2     2
 -7.8225066853456454E-02 a      1623     1     2     2     3
 -4.5659656223936890E-01 a      1624     1     2     2     4
 -8.7273088847556735E-01 a      1625     1     2     2     5
 -6.0436810230788111E-02 a      1626     1     2     2     6
  5.1975969525696886E-01 a      1627     1     2     2     7
