################################################################################
# Neural network connection values (weights and biases).
################################################################################
# Col  Name       Description
################################################################################
# 1    connection Neural network connection value.
# 2    t          Connection type (a = weight, b = bias).
# 3    index      Index enumerating weights.
# 4    l_s        Starting point layer (end point layer for biases).
# 5    n_s        Starting point neuron in starting layer (end point neuron for biases).
# 6    l_e        End point layer.
# 7    n_e        End point neuron in end layer.
################################################################################
#                      1 2         3     4     5     6     7
#             connection t     index   l_s   n_s   l_e   n_e
############################################################
 -9.7425203472350662E-04 a         1     0     1     1     1
 -6.9519554485140286E-02 a         2     0     1     1     2
 -1.1319580754794282E-02 a         3     0     1     1     3
  1.6639687330975447E-01 a         4     0     1     1     4
 -9.1914630376119077E-02 a         5     0     1     1     5
  4.2871903125696734E-02 a         6     0     1     1     6
 -5.5548786093809775E-02 a         7     0     1     1     7
  1.3981032289469386E-01 a         8     0     1     1     8
  6.0824336393733268E-02 a         9     0     1     1     9
 -2.1165054340603409E-01 a        10     0     1     1    10
 -2.7243279034829718E-02 a        11     0     1     1    11
  1.6029923833767709E-02 a        12     0     1     1    12
 -8.5333593764490789E-02 a        13     0     1     1    13
 -8.8504552248028653E-02 a        14     0     1     1    14
 -8.1489674650900498E-02 a        15     0     1     1    15
  2.4588877437863848E-03 a        16     0     1     1    16
 -2.1174101916382641E-02 a        17     0     1     1    17
  4.4419542924691940E-02 a        18     0     1     1    18
  8.8933204735824098E-02 a        19     0     1     1    19
  8.4273486256952565E-02 a        20     0     1     1    20
 -1.0615839860291117E-03 a        21     0     2     1     1
  6.4395768572882789E-02 a        22     0     2     1     2
 -5.0803024923145548E-02 a        23     0     2     1     3
  2.4721012135064942E-03 a        24     0     2     1     4
 -4.1449489344802417E-04 a        25     0     2     1     5
 -1.3792303896988314E-02 a        26     0     2     1     6
 -1.8512040203310574E-02 a        27     0     2     1     7
 -7.4827326462279770E-02 a        28     0     2     1     8
 -1.8769505108538426E-01 a        29     0     2     1     9
  1.1621623927984946E-01 a        30     0     2     1    10
 -9.4785005170344966E-02 a        31     0     2     1    11
 -5.1984514685162776E-02 a        32     0     2     1    12
  2.6238460955217820E-02 a        33     0     2     1    13
 -1.2931519412417064E-01 a        34     0     2     1    14
 -1.2049631035193560E-02 a        35     0     2     1    15
  6.9763241030171286E-02 a        36     0     2     1    16
 -4.8391633356710352E-02 a        37     0     2     1    17
 -2.1682386399536149E-02 a        38     0     2     1    18
  1.0600563797826650E-01 a        39     0     2     1    19
  1.1423762250898392E-01 a        40     0     2     1    20
  2.9364106748270585E-02 a        41     0     3     1     1
 -1.7057799685446143E-02 a        42     0     3     1     2
 -3.1911292888831388E-03 a        43     0     3     1     3
 -1.0619154630384429E-02 a        44     0     3     1     4
 -1.4832403653379823E-02 a        45     0     3     1     5
  1.1718360221635598E-02 a        46     0     3     1     6
  4.3402879398569197E-02 a        47     0     3     1     7
  2.3444681450049423E-01 a        48     0     3     1     8
 -1.2021281707102633E-02 a        49     0     3     1     9
  2.0368737056415287E-01 a        50     0     3     1    10
 -2.9934568159057894E-02 a        51     0     3     1    11
 -5.2138955799886415E-02 a        52     0     3     1    12
  1.8503563644188173E-01 a        53     0     3     1    13
 -1.1184913269582347E-02 a        54     0     3     1    14
  2.4347851907270809E-01 a        55     0     3     1    15
 -2.9797479731349674E-01 a        56     0     3     1    16
 -1.2807173820984682E-01 a        57     0     3     1    17
  1.9657448963070565E-01 a        58     0     3     1    18
 -1.2982328590567116E-01 a        59     0     3     1    19
 -8.9750797800141391E-02 a        60     0     3     1    20
  4.2241351313818440E-02 a        61     0     4     1     1
 -1.2499762342037530E-02 a        62     0     4     1     2
 -1.7631083154127222E-01 a        63     0     4     1     3
 -2.3900563613669129E-01 a        64     0     4     1     4
  1.9445162390447460E-01 a        65     0     4     1     5
  1.8425434040085809E-01 a        66     0     4     1     6
  3.3187271088426791E-02 a        67     0     4     1     7
 -3.8530966100317698E-02 a        68     0     4     1     8
  1.8999642227619784E-01 a        69     0     4     1     9
 -2.2560206838501046E-01 a        70     0     4     1    10
  1.1087493260805356E-01 a        71     0     4     1    11
 -1.1309376630773979E-01 a        72     0     4     1    12
 -4.6542625866178786E-02 a        73     0     4     1    13
  8.5132245851977442E-02 a        74     0     4     1    14
  8.0269301695791422E-03 a        75     0     4     1    15
  1.9842212787026688E-02 a        76     0     4     1    16
  1.0200082623051834E-01 a        77     0     4     1    17
  2.6524183289086539E-01 a        78     0     4     1    18
  1.2900175855303095E-01 a        79     0     4     1    19
  3.1816306233996569E-03 a        80     0     4     1    20
  2.1193731058731444E-01 a        81     0     5     1     1
  1.3355119745161062E-01 a        82     0     5     1     2
  1.0927357074216883E-01 a        83     0     5     1     3
 -1.3629426701712793E-01 a        84     0     5     1     4
  1.8926383567000570E-02 a        85     0     5     1     5
 -7.8212453947606536E-02 a        86     0     5     1     6
 -5.8508115132533650E-02 a        87     0     5     1     7
 -1.4345006828874474E-01 a        88     0     5     1     8
 -8.1926929342008001E-02 a        89     0     5     1     9
  2.3293931729392200E-02 a        90     0     5     1    10
  3.4123290675649912E-02 a        91     0     5     1    11
 -1.1116815733549516E-01 a        92     0     5     1    12
  1.1458275624803270E-01 a        93     0     5     1    13
  8.2216157225684233E-02 a        94     0     5     1    14
  2.4568875070821738E-01 a        95     0     5     1    15
 -7.4065677645640302E-02 a        96     0     5     1    16
  8.0349661296562569E-02 a        97     0     5     1    17
  1.1994846484337431E-01 a        98     0     5     1    18
 -1.5571393185246887E-01 a        99     0     5     1    19
 -8.3314780414166997E-02 a       100     0     5     1    20
 -3.5334261065034657E-02 a       101     0     6     1     1
 -1.8653734866142010E-01 a       102     0     6     1     2
  8.4077923336287747E-02 a       103     0     6     1     3
 -7.8448557292852800E-02 a       104     0     6     1     4
 -6.1694396482134879E-02 a       105     0     6     1     5
  1.1221084249470195E-01 a       106     0     6     1     6
  3.4169050429104231E-02 a       107     0     6     1     7
 -2.8612851237651733E-02 a       108     0     6     1     8
  2.7191910644437373E-01 a       109     0     6     1     9
 -4.2420189688594762E-02 a       110     0     6     1    10
 -1.4769662046724297E-03 a       111     0     6     1    11
  6.1263455660385921E-02 a       112     0     6     1    12
 -1.3502676918767340E-01 a       113     0     6     1    13
  1.8639621717804086E-01 a       114     0     6     1    14
  3.2208474395456599E-02 a       115     0     6     1    15
 -1.1704763899942804E-01 a       116     0     6     1    16
  8.9298503686235833E-02 a       117     0     6     1    17
 -5.4880221188991947E-02 a       118     0     6     1    18
 -1.7418464169682787E-01 a       119     0     6     1    19
 -4.9025096181707140E-02 a       120     0     6     1    20
 -1.5771666261568987E-01 a       121     0     7     1     1
  7.1569962921567365E-02 a       122     0     7     1     2
 -1.0251162980641766E-01 a       123     0     7     1     3
 -1.4037114466354494E-01 a       124     0     7     1     4
  9.8842346856304844E-02 a       125     0     7     1     5
 -5.6857452643435176E-02 a       126     0     7     1     6
  8.5476375481751354E-02 a       127     0     7     1     7
 -1.1837954902093037E-01 a       128     0     7     1     8
 -4.2944195074479802E-02 a       129     0     7     1     9
 -8.7455058203167041E-02 a       130     0     7     1    10
 -9.3423907486756261E-02 a       131     0     7     1    11
  1.2388850717377554E-01 a       132     0     7     1    12
 -1.2219497932843487E-01 a       133     0     7     1    13
  1.3765513412224373E-01 a       134     0     7     1    14
 -1.4730345176860651E-01 a       135     0     7     1    15
  2.9284391486483158E-01 a       136     0     7     1    16
  8.7595594656942180E-02 a       137     0     7     1    17
 -1.7214890789870507E-01 a       138     0     7     1    18
  1.1996562842052912E-01 a       139     0     7     1    19
  1.2023061606977763E-01 a       140     0     7     1    20
 -3.6307564826770194E-02 a       141     0     8     1     1
 -1.4242553186980103E-01 a       142     0     8     1     2
  1.6512514180552532E-01 a       143     0     8     1     3
  1.3558920518438952E-01 a       144     0     8     1     4
 -2.2605310045486349E-01 a       145     0     8     1     5
  3.9467821703745812E-02 a       146     0     8     1     6
  4.4899513386664008E-02 a       147     0     8     1     7
 -7.6272113850476289E-02 a       148     0     8     1     8
 -7.4088620213626374E-02 a       149     0     8     1     9
  1.0781128750286580E-01 a       150     0     8     1    10
 -1.2652349727962539E-01 a       151     0     8     1    11
  1.5667165372273489E-01 a       152     0     8     1    12
 -7.5035531864160329E-02 a       153     0     8     1    13
  1.4864904452160864E-02 a       154     0     8     1    14
  1.1213421121925458E-01 a       155     0     8     1    15
  4.0870175437560351E-02 a       156     0     8     1    16
 -6.6449563118057220E-02 a       157     0     8     1    17
 -2.2197573610364030E-01 a       158     0     8     1    18
  1.3896381763308860E-01 a       159     0     8     1    19
  2.7769101503580813E-02 a       160     0     8     1    20
  1.0434025627048702E-02 a       161     0     9     1     1
  1.1125614803093549E-01 a       162     0     9     1     2
  2.1764877476366132E-01 a       163     0     9     1     3
  2.8489350205418884E-01 a       164     0     9     1     4
  7.6459421203458559E-04 a       165     0     9     1     5
 -7.2702843238991136E-02 a       166     0     9     1     6
  5.6073167834692333E-03 a       167     0     9     1     7
  2.2362039998483454E-01 a       168     0     9     1     8
  1.1642276336832522E-01 a       169     0     9     1     9
  1.5146283325803193E-02 a       170     0     9     1    10
  1.8825578810345903E-01 a       171     0     9     1    11
  1.0432633349086419E-01 a       172     0     9     1    12
 -1.2011811226695558E-01 a       173     0     9     1    13
  1.2527522382985176E-01 a       174     0     9     1    14
 -3.1333546300271194E-02 a       175     0     9     1    15
 -2.2331292745689318E-01 a       176     0     9     1    16
  1.4556748329679522E-01 a       177     0     9     1    17
  1.5611917143955781E-01 a       178     0     9     1    18
 -1.7767061924534235E-02 a       179     0     9     1    19
  3.6889445476257804E-02 a       180     0     9     1    20
  4.0491584512805448E-02 a       181     0    10     1     1
  1.0443875122532688E-01 a       182     0    10     1     2
 -5.6142709663296174E-02 a       183     0    10     1     3
 -1.8511931836611362E-02 a       184     0    10     1     4
  1.3444393126704249E-01 a       185     0    10     1     5
 -9.9197693984701296E-02 a       186     0    10     1     6
  6.0779833292892212E-03 a       187     0    10     1     7
  1.2106571757274458E-01 a       188     0    10     1     8
 -6.9051540484562478E-03 a       189     0    10     1     9
  9.8331842493294408E-02 a       190     0    10     1    10
  1.8842223330537725E-01 a       191     0    10     1    11
 -1.3586885382141722E-01 a       192     0    10     1    12
  2.1069555250050015E-01 a       193     0    10     1    13
  5.2058753608044572E-02 a       194     0    10     1    14
 -3.2700283779832945E-02 a       195     0    10     1    15
 -3.8256501893816020E-04 a       196     0    10     1    16
  1.1049717423975045E-01 a       197     0    10     1    17
  1.0405581493439564E-02 a       198     0    10     1    18
  2.3227429516105699E-01 a       199     0    10     1    19
 -1.9055341288029060E-01 a       200     0    10     1    20
  1.9119667523274855E-01 a       201     0    11     1     1
 -8.2380147947031288E-02 a       202     0    11     1     2
  1.6180833668205810E-01 a       203     0    11     1     3
  8.1027648403730786E-03 a       204     0    11     1     4
 -1.5925350077185860E-01 a       205     0    11     1     5
  8.6943807670659512E-02 a       206     0    11     1     6
 -5.7799139933333236E-02 a       207     0    11     1     7
 -1.0361278134692957E-01 a       208     0    11     1     8
  1.4459123097909218E-01 a       209     0    11     1     9
 -1.7658142769819798E-01 a       210     0    11     1    10
 -3.2338268224193931E-02 a       211     0    11     1    11
 -1.0556272553454367E-01 a       212     0    11     1    12
  7.2603439424173230E-02 a       213     0    11     1    13
 -2.6343684526183277E-02 a       214     0    11     1    14
 -1.0248505429714116E-01 a       215     0    11     1    15
 -1.2033734422206960E-01 a       216     0    11     1    16
 -9.4715979037685565E-03 a       217     0    11     1    17
 -4.0412955364329782E-02 a       218     0    11     1    18
  1.1003373323632856E-01 a       219     0    11     1    19
 -1.8385756808190420E-02 a       220     0    11     1    20
  2.0024017808250208E-01 a       221     0    12     1     1
  4.8738424633769220E-02 a       222     0    12     1     2
  5.7375067277200355E-02 a       223     0    12     1     3
 -1.7975589450013887E-01 a       224     0    12     1     4
 -1.8305326242728906E-01 a       225     0    12     1     5
 -2.0549924228854932E-01 a       226     0    12     1     6
  1.0650477287273059E-01 a       227     0    12     1     7
 -7.2265056217186763E-02 a       228     0    12     1     8
 -1.2450509424078703E-01 a       229     0    12     1     9
  1.6179827001008340E-01 a       230     0    12     1    10
 -2.1252906598917914E-01 a       231     0    12     1    11
  1.3803352169440168E-02 a       232     0    12     1    12
 -4.7462881537336764E-02 a       233     0    12     1    13
 -2.1101778957407452E-01 a       234     0    12     1    14
 -5.6066919965033518E-02 a       235     0    12     1    15
  6.1766056600390105E-02 a       236     0    12     1    16
  4.2302821669598619E-03 a       237     0    12     1    17
 -1.9502911102410522E-01 a       238     0    12     1    18
 -3.0119127781579458E-01 a       239     0    12     1    19
  1.1044333179257758E-01 a       240     0    12     1    20
  2.3619640552323590E-01 a       241     0    13     1     1
  1.0778679980459249E-01 a       242     0    13     1     2
  1.7660354268086537E-01 a       243     0    13     1     3
  1.5815315909102377E-02 a       244     0    13     1     4
 -3.0560402398323611E-01 a       245     0    13     1     5
 -1.2259507559445302E-02 a       246     0    13     1     6
 -2.5247257271460966E-01 a       247     0    13     1     7
  1.4393950059237609E-01 a       248     0    13     1     8
  2.6120881348699654E-01 a       249     0    13     1     9
  1.1692217403239635E-01 a       250     0    13     1    10
  1.1023721865688069E-01 a       251     0    13     1    11
 -2.8016005712211900E-01 a       252     0    13     1    12
  4.2613458533001893E-02 a       253     0    13     1    13
  1.1315312380639772E-01 a       254     0    13     1    14
  2.5791468870472128E-01 a       255     0    13     1    15
 -1.4404461701537291E-01 a       256     0    13     1    16
  1.1728254370142639E-01 a       257     0    13     1    17
  1.7256203873888523E-01 a       258     0    13     1    18
  5.8258692601504458E-02 a       259     0    13     1    19
  7.2672320194810860E-02 a       260     0    13     1    20
 -2.0601961768020874E-01 a       261     0    14     1     1
 -6.7589567597982389E-02 a       262     0    14     1     2
  5.9303566873732269E-02 a       263     0    14     1     3
  7.8780881706374623E-02 a       264     0    14     1     4
  1.2196101336664007E-01 a       265     0    14     1     5
  1.3931155298737236E-01 a       266     0    14     1     6
  1.2648137993122113E-01 a       267     0    14     1     7
 -2.0298918603935362E-01 a       268     0    14     1     8
 -2.9725635155274533E-02 a       269     0    14     1     9
 -2.1689417089565562E-02 a       270     0    14     1    10
  1.1805405956779765E-01 a       271     0    14     1    11
  8.9687213465494617E-02 a       272     0    14     1    12
  1.2772809430448773E-01 a       273     0    14     1    13
  3.0299429882576497E-02 a       274     0    14     1    14
  1.2853007315794690E-01 a       275     0    14     1    15
  4.0475442573302066E-02 a       276     0    14     1    16
 -1.4527899666898592E-01 a       277     0    14     1    17
 -1.6715699067099299E-02 a       278     0    14     1    18
 -5.6576903821711745E-02 a       279     0    14     1    19
  1.9858857402201777E-01 a       280     0    14     1    20
  2.0407685847470514E-01 a       281     0    15     1     1
 -7.0815707738798264E-02 a       282     0    15     1     2
 -4.7688829276134916E-02 a       283     0    15     1     3
 -6.9676288597588190E-02 a       284     0    15     1     4
 -1.7863895160635988E-02 a       285     0    15     1     5
 -4.8683216130981914E-02 a       286     0    15     1     6
  6.3419475194898184E-02 a       287     0    15     1     7
  1.6924923098495881E-01 a       288     0    15     1     8
 -1.2250262597590868E-01 a       289     0    15     1     9
 -1.1838840116161899E-01 a       290     0    15     1    10
 -1.0293306098207908E-01 a       291     0    15     1    11
  7.1278653152036103E-02 a       292     0    15     1    12
 -2.4348771757453855E-02 a       293     0    15     1    13
 -1.0915244359062480E-01 a       294     0    15     1    14
  2.6743081366518667E-01 a       295     0    15     1    15
 -3.2337688746837012E-02 a       296     0    15     1    16
  1.2130165309811039E-01 a       297     0    15     1    17
  2.1196272075968339E-01 a       298     0    15     1    18
 -6.0334789890325612E-02 a       299     0    15     1    19
  6.6400431123031969E-02 a       300     0    15     1    20
 -1.2652775720811640E-01 a       301     0    16     1     1
 -1.3741352238542262E-01 a       302     0    16     1     2
  1.9073914466120129E-01 a       303     0    16     1     3
  1.3453544608294649E-01 a       304     0    16     1     4
  1.7216598240891029E-01 a       305     0    16     1     5
  6.3942625529019068E-02 a       306     0    16     1     6
 -1.0782127521515079E-01 a       307     0    16     1     7
  5.1786014043447449E-03 a       308     0    16     1     8
 -2.1739529118892964E-01 a       309     0    16     1     9
 -7.5919476056537899E-02 a       310     0    16     1    10
  1.2735506080398273E-01 a       311     0    16     1    11
  5.0280799604475478E-02 a       312     0    16     1    12
  1.6405413475782318E-01 a       313     0    16     1    13
  1.1965560738989765E-02 a       314     0    16     1    14
  2.1869358280405185E-01 a       315     0    16     1    15
  1.4447652053604731E-01 a       316     0    16     1    16
  7.7391182873632072E-02 a       317     0    16     1    17
 -1.0117069242798166E-01 a       318     0    16     1    18
 -1.6909540579212667E-01 a       319     0    16     1    19
 -3.4131067889266412E-02 a       320     0    16     1    20
  7.4699466198960632E-02 a       321     0    17     1     1
 -7.2312301059077955E-03 a       322     0    17     1     2
  2.1104019444590655E-01 a       323     0    17     1     3
 -2.1520753608364480E-02 a       324     0    17     1     4
 -1.6915522534996036E-01 a       325     0    17     1     5
 -6.1750324643010515E-02 a       326     0    17     1     6
 -4.1693179318880010E-02 a       327     0    17     1     7
 -5.6394421639569883E-02 a       328     0    17     1     8
 -6.8294467743051993E-02 a       329     0    17     1     9
  3.8225446143795100E-01 a       330     0    17     1    10
  2.1954891796367113E-01 a       331     0    17     1    11
  4.4068195019750886E-02 a       332     0    17     1    12
  1.0162924551821625E-01 a       333     0    17     1    13
  2.2916830085203557E-01 a       334     0    17     1    14
  1.5798530652873918E-01 a       335     0    17     1    15
  3.6535119439873545E-02 a       336     0    17     1    16
  1.1377854269174208E-01 a       337     0    17     1    17
 -9.5650836310113313E-02 a       338     0    17     1    18
 -2.3659480905941235E-01 a       339     0    17     1    19
 -1.6980220497928752E-01 a       340     0    17     1    20
  8.4787826659997695E-04 a       341     0    18     1     1
 -2.1462846407894390E-01 a       342     0    18     1     2
  1.5506001045979352E-02 a       343     0    18     1     3
  1.3243921205249568E-01 a       344     0    18     1     4
  1.5915608400679640E-01 a       345     0    18     1     5
 -6.9230708470381708E-02 a       346     0    18     1     6
 -2.1469138030921681E-02 a       347     0    18     1     7
  3.3306584010325817E-02 a       348     0    18     1     8
 -1.9217392258409380E-01 a       349     0    18     1     9
 -1.0538029211009617E-02 a       350     0    18     1    10
 -8.7418453059908571E-02 a       351     0    18     1    11
 -1.9562725187639532E-01 a       352     0    18     1    12
 -2.1694202533051329E-01 a       353     0    18     1    13
 -9.1983813074221592E-03 a       354     0    18     1    14
 -1.2763231949013173E-01 a       355     0    18     1    15
  6.7847912703171698E-02 a       356     0    18     1    16
  2.7721253651754013E-01 a       357     0    18     1    17
  7.7033805971719771E-02 a       358     0    18     1    18
  1.4476587853656794E-01 a       359     0    18     1    19
 -2.0699888686461998E-02 a       360     0    18     1    20
 -1.1536880151752950E-01 a       361     0    19     1     1
 -1.2184449204087964E-02 a       362     0    19     1     2
 -9.2777311933752923E-02 a       363     0    19     1     3
 -8.5196660367470728E-02 a       364     0    19     1     4
 -2.2705163000585377E-01 a       365     0    19     1     5
  8.3586798197159543E-02 a       366     0    19     1     6
  1.8692848176169608E-02 a       367     0    19     1     7
  1.8798532215428115E-01 a       368     0    19     1     8
  1.0393708922796688E-01 a       369     0    19     1     9
  3.1807823456005285E-01 a       370     0    19     1    10
  5.2310539320093108E-02 a       371     0    19     1    11
 -5.4051503932354771E-02 a       372     0    19     1    12
 -8.4131235774999591E-02 a       373     0    19     1    13
  2.5330081983361643E-02 a       374     0    19     1    14
  3.1653445160001535E-02 a       375     0    19     1    15
  2.7660131591994430E-01 a       376     0    19     1    16
 -1.8018670103632969E-01 a       377     0    19     1    17
 -2.2572543891955407E-01 a       378     0    19     1    18
 -9.7319480567730779E-02 a       379     0    19     1    19
  1.1696134489907602E-01 a       380     0    19     1    20
 -8.6044817927727144E-03 a       381     0    20     1     1
  2.4911825345564129E-01 a       382     0    20     1     2
  1.6063262873263102E-02 a       383     0    20     1     3
  1.0313641221062882E-01 a       384     0    20     1     4
  1.7355700228078674E-01 a       385     0    20     1     5
  7.1701765169424350E-02 a       386     0    20     1     6
  1.4069619250795179E-01 a       387     0    20     1     7
 -1.7289059368435436E-01 a       388     0    20     1     8
 -8.5053329824211557E-02 a       389     0    20     1     9
 -1.1317757114206867E-01 a       390     0    20     1    10
 -1.1958648590945060E-01 a       391     0    20     1    11
  1.2772082833894099E-01 a       392     0    20     1    12
 -2.0422763208742359E-01 a       393     0    20     1    13
 -1.0608272389830978E-01 a       394     0    20     1    14
 -7.8014518935389951E-02 a       395     0    20     1    15
 -6.4541621741109667E-02 a       396     0    20     1    16
  7.4275514061857839E-02 a       397     0    20     1    17
  1.8331383712655638E-01 a       398     0    20     1    18
 -8.7814927592086270E-02 a       399     0    20     1    19
  1.3211564894601796E-01 a       400     0    20     1    20
 -1.4150346319959522E-02 a       401     0    21     1     1
  1.2232312243996546E-01 a       402     0    21     1     2
 -1.3557732808461467E-01 a       403     0    21     1     3
 -1.2432574816616811E-01 a       404     0    21     1     4
 -1.5734870244732388E-01 a       405     0    21     1     5
 -1.3448193755185667E-01 a       406     0    21     1     6
 -1.2002786976541423E-01 a       407     0    21     1     7
  1.2831759252484279E-01 a       408     0    21     1     8
  2.9904727035089684E-01 a       409     0    21     1     9
  3.2742017930647604E-01 a       410     0    21     1    10
  7.7090335617564204E-02 a       411     0    21     1    11
 -1.0964306021937897E-01 a       412     0    21     1    12
 -1.8279507049298035E-02 a       413     0    21     1    13
  2.2767071679079595E-01 a       414     0    21     1    14
  1.6609721713231832E-02 a       415     0    21     1    15
 -1.1074965243888021E-01 a       416     0    21     1    16
  2.2350606335053667E-03 a       417     0    21     1    17
  1.9341649512332453E-03 a       418     0    21     1    18
  9.3294069402590218E-03 a       419     0    21     1    19
  1.0435715866727779E-01 a       420     0    21     1    20
 -1.3054761192818534E-01 a       421     0    22     1     1
 -8.6175087235394968E-03 a       422     0    22     1     2
  1.2367570558481644E-01 a       423     0    22     1     3
  1.8797111413408088E-01 a       424     0    22     1     4
  2.0758487345470946E-02 a       425     0    22     1     5
  6.1147744615343683E-02 a       426     0    22     1     6
  6.6155664067577585E-02 a       427     0    22     1     7
 -1.0327971789688195E-01 a       428     0    22     1     8
  7.7504819642572859E-02 a       429     0    22     1     9
 -3.9101488057067108E-01 a       430     0    22     1    10
  2.7335109701353971E-01 a       431     0    22     1    11
 -1.4919225731369178E-02 a       432     0    22     1    12
  1.7469051343205394E-01 a       433     0    22     1    13
 -1.2696419337600595E-01 a       434     0    22     1    14
  2.2398501745948048E-02 a       435     0    22     1    15
 -2.8121422299621701E-01 a       436     0    22     1    16
 -7.2908960831855982E-02 a       437     0    22     1    17
 -7.8720093104895500E-02 a       438     0    22     1    18
  1.0328578370120389E-01 a       439     0    22     1    19
  4.0959929488078708E-02 a       440     0    22     1    20
  2.0457096101487471E-01 a       441     0    23     1     1
  9.8976748590826266E-02 a       442     0    23     1     2
 -3.9101942211860440E-03 a       443     0    23     1     3
 -2.7701132828384234E-01 a       444     0    23     1     4
  1.0619245389700532E-01 a       445     0    23     1     5
 -1.1662281613652928E-01 a       446     0    23     1     6
  1.4539574734453952E-03 a       447     0    23     1     7
 -1.5023478987425004E-01 a       448     0    23     1     8
  6.4128343735858101E-02 a       449     0    23     1     9
 -4.6862467803713934E-02 a       450     0    23     1    10
 -8.7847867510197228E-02 a       451     0    23     1    11
  1.6302501074828993E-01 a       452     0    23     1    12
  3.7719418917555834E-02 a       453     0    23     1    13
  1.9956496923641531E-01 a       454     0    23     1    14
  5.4959062260341141E-02 a       455     0    23     1    15
 -8.1560231057441895E-03 a       456     0    23     1    16
  6.5956213785449497E-02 a       457     0    23     1    17
  1.3157824093867351E-01 a       458     0    23     1    18
  1.0965523935119718E-01 a       459     0    23     1    19
 -1.0076539684693246E-01 a       460     0    23     1    20
  7.6208674564192364E-02 a       461     0    24     1     1
  1.2203308952258642E-01 a       462     0    24     1     2
 -1.8502634083966388E-01 a       463     0    24     1     3
 -1.2685492766853385E-01 a       464     0    24     1     4
 -9.5177063327656353E-02 a       465     0    24     1     5
 -1.8626542996617099E-01 a       466     0    24     1     6
 -3.0980277750608291E-02 a       467     0    24     1     7
  1.1182388837240767E-01 a       468     0    24     1     8
  1.1571712267846691E-01 a       469     0    24     1     9
 -1.8645136937987317E-01 a       470     0    24     1    10
  2.0946679496493781E-01 a       471     0    24     1    11
 -9.4308102394673243E-02 a       472     0    24     1    12
  1.6821554494868984E-01 a       473     0    24     1    13
  1.0875295196637393E-01 a       474     0    24     1    14
  8.5776172113228074E-03 a       475     0    24     1    15
  9.9247100134344859E-03 a       476     0    24     1    16
 -5.9579991225365829E-02 a       477     0    24     1    17
 -2.6427986084497212E-02 a       478     0    24     1    18
  1.8720042023713998E-01 a       479     0    24     1    19
 -4.8329773856835172E-02 a       480     0    24     1    20
  5.6299379380101468E-02 a       481     0    25     1     1
 -2.1799395123271541E-02 a       482     0    25     1     2
  1.0183040947115274E-01 a       483     0    25     1     3
 -2.0217538550127745E-01 a       484     0    25     1     4
 -2.5164061931115859E-02 a       485     0    25     1     5
  1.1434981904095094E-01 a       486     0    25     1     6
  1.1933801619746501E-01 a       487     0    25     1     7
 -7.0048325772199008E-02 a       488     0    25     1     8
  1.4962928487705432E-01 a       489     0    25     1     9
  8.5929966859499621E-02 a       490     0    25     1    10
 -1.9739248424012944E-02 a       491     0    25     1    11
  7.0309181994285999E-02 a       492     0    25     1    12
  8.2121828261446816E-02 a       493     0    25     1    13
  1.6170109923138054E-01 a       494     0    25     1    14
  2.4266829060193731E-01 a       495     0    25     1    15
  5.7731850216779637E-02 a       496     0    25     1    16
  1.0902949397868102E-01 a       497     0    25     1    17
  3.0633661456697082E-02 a       498     0    25     1    18
 -6.1839173903473918E-02 a       499     0    25     1    19
 -7.9424110222127711E-02 a       500     0    25     1    20
  5.1846306675303593E-02 a       501     0    26     1     1
 -1.9261090681530277E-01 a       502     0    26     1     2
  1.1672530838340707E-01 a       503     0    26     1     3
  1.3944915256909777E-02 a       504     0    26     1     4
 -2.2423790375806912E-02 a       505     0    26     1     5
 -2.9921482037633874E-02 a       506     0    26     1     6
  3.8916526000026638E-02 a       507     0    26     1     7
  1.9555517210193001E-03 a       508     0    26     1     8
 -1.1090469788701799E-02 a       509     0    26     1     9
 -2.1705278799897055E-03 a       510     0    26     1    10
  1.1521035983251063E-01 a       511     0    26     1    11
 -1.3864233594481258E-02 a       512     0    26     1    12
 -7.9972311849069458E-02 a       513     0    26     1    13
  1.6468533757251141E-01 a       514     0    26     1    14
 -1.1623843539904505E-01 a       515     0    26     1    15
  2.9778666913578583E-02 a       516     0    26     1    16
  2.0555111188035682E-01 a       517     0    26     1    17
 -8.4522843769105557E-02 a       518     0    26     1    18
  1.1759963035678546E-01 a       519     0    26     1    19
 -7.5393549244608268E-02 a       520     0    26     1    20
 -6.5077836511674911E-02 a       521     0    27     1     1
 -6.5263639035958762E-02 a       522     0    27     1     2
 -6.3340268999308391E-02 a       523     0    27     1     3
 -1.2632840203218294E-02 a       524     0    27     1     4
 -5.0014952511120335E-02 a       525     0    27     1     5
  1.1004091143325589E-01 a       526     0    27     1     6
  2.8439082156951942E-02 a       527     0    27     1     7
  1.0022998286653440E-01 a       528     0    27     1     8
  1.5087901992589078E-02 a       529     0    27     1     9
  1.8737252666428836E-01 a       530     0    27     1    10
 -3.2045214591992340E-02 a       531     0    27     1    11
 -1.0086898017571906E-01 a       532     0    27     1    12
  9.2687932620897751E-02 a       533     0    27     1    13
  1.1663464699422734E-03 a       534     0    27     1    14
  9.2914747082433261E-02 a       535     0    27     1    15
  1.0516457135168528E-01 a       536     0    27     1    16
 -4.3917693825478471E-02 a       537     0    27     1    17
 -5.6219496786317026E-02 a       538     0    27     1    18
 -5.6237194146243591E-02 a       539     0    27     1    19
  3.1538799969727106E-03 a       540     0    27     1    20
  6.3176626991601328E-02 a       541     0    28     1     1
 -8.0258099398311744E-02 a       542     0    28     1     2
  1.0451789579538759E-01 a       543     0    28     1     3
  7.2449122030707427E-02 a       544     0    28     1     4
  1.0026699791390524E-02 a       545     0    28     1     5
  7.5523886459595416E-02 a       546     0    28     1     6
  1.4264941613982118E-02 a       547     0    28     1     7
 -1.8646124683298751E-01 a       548     0    28     1     8
  2.4460566314830137E-02 a       549     0    28     1     9
  6.0731340707275740E-03 a       550     0    28     1    10
 -1.1156432391243398E-01 a       551     0    28     1    11
 -1.3065962152473415E-01 a       552     0    28     1    12
 -5.0153684417599827E-02 a       553     0    28     1    13
 -1.6903360195048702E-02 a       554     0    28     1    14
  8.6974677092867630E-02 a       555     0    28     1    15
 -5.8441332131853534E-02 a       556     0    28     1    16
  7.0250945435362158E-02 a       557     0    28     1    17
  2.0191445408137863E-02 a       558     0    28     1    18
  6.3747283282082540E-02 a       559     0    28     1    19
  5.3569249043018734E-02 a       560     0    28     1    20
  7.1165895266630502E-02 a       561     0    29     1     1
 -2.0555304360807020E-02 a       562     0    29     1     2
  5.0569082157845030E-02 a       563     0    29     1     3
  6.6964766164554646E-03 a       564     0    29     1     4
 -8.1948927323292078E-02 a       565     0    29     1     5
  6.8614158193929436E-02 a       566     0    29     1     6
 -1.0159008282809566E-01 a       567     0    29     1     7
 -1.0148149488277981E-01 a       568     0    29     1     8
  5.5529352889478266E-02 a       569     0    29     1     9
  9.8018342938823694E-02 a       570     0    29     1    10
  4.6248322611336747E-02 a       571     0    29     1    11
 -7.4848345547237224E-02 a       572     0    29     1    12
  6.9067535548846162E-02 a       573     0    29     1    13
  1.1582898722045522E-02 a       574     0    29     1    14
 -1.0993382275356278E-01 a       575     0    29     1    15
  3.1153436266901390E-02 a       576     0    29     1    16
  1.2021898592265985E-01 a       577     0    29     1    17
  4.8877739271142744E-02 a       578     0    29     1    18
  1.9839171341283790E-01 a       579     0    29     1    19
  9.2452866367949027E-02 a       580     0    29     1    20
 -1.9133924517163012E-01 a       581     0    30     1     1
  7.6238361008786074E-02 a       582     0    30     1     2
  2.8911309978011824E-02 a       583     0    30     1     3
  3.2208196620083268E-01 a       584     0    30     1     4
  1.6227076125015234E-02 a       585     0    30     1     5
 -1.3357008008893383E-02 a       586     0    30     1     6
  6.6306217319849628E-03 a       587     0    30     1     7
  5.7171006189817554E-02 a       588     0    30     1     8
 -1.5174730111867310E-01 a       589     0    30     1     9
  1.8536667058718086E-02 a       590     0    30     1    10
  1.5925253332519063E-01 a       591     0    30     1    11
 -9.2367468670761607E-02 a       592     0    30     1    12
  2.2239347233964929E-01 a       593     0    30     1    13
 -1.6140951146775923E-01 a       594     0    30     1    14
  5.8867406362977888E-02 a       595     0    30     1    15
 -3.6156173109278961E-02 a       596     0    30     1    16
 -7.8174606633668625E-02 a       597     0    30     1    17
 -4.5055381672896480E-02 a       598     0    30     1    18
 -1.5511113368683727E-01 a       599     0    30     1    19
  8.6825450291237574E-02 a       600     0    30     1    20
  2.7382548699739495E-02 a       601     0    31     1     1
  1.0550024687504221E-01 a       602     0    31     1     2
  1.1624215143752463E-02 a       603     0    31     1     3
 -1.0441688677141753E-01 a       604     0    31     1     4
 -9.5219873040278249E-02 a       605     0    31     1     5
 -1.9114324830947799E-01 a       606     0    31     1     6
 -6.9935842352537983E-02 a       607     0    31     1     7
 -5.1426056290550408E-02 a       608     0    31     1     8
  8.8510186148799436E-02 a       609     0    31     1     9
  1.9460149394081896E-01 a       610     0    31     1    10
  1.1431709550072293E-01 a       611     0    31     1    11
  4.9349656475811070E-02 a       612     0    31     1    12
 -1.2839514035409844E-01 a       613     0    31     1    13
  1.5338321249752687E-01 a       614     0    31     1    14
  1.1722598782256932E-01 a       615     0    31     1    15
 -1.0167428741672747E-01 a       616     0    31     1    16
 -6.9953750256693759E-02 a       617     0    31     1    17
 -4.2619229852034937E-02 a       618     0    31     1    18
  2.6144856766597207E-02 a       619     0    31     1    19
 -2.9841156005699761E-02 a       620     0    31     1    20
 -5.1746163247117352E-02 a       621     0    32     1     1
 -1.6850483439990765E-02 a       622     0    32     1     2
  6.1640920140021017E-02 a       623     0    32     1     3
  1.9022044249011630E-01 a       624     0    32     1     4
  3.3196401241757587E-02 a       625     0    32     1     5
 -4.8748837840473430E-02 a       626     0    32     1     6
 -9.0782816379171308E-02 a       627     0    32     1     7
  4.0927336833470728E-03 a       628     0    32     1     8
 -2.0927577301065553E-01 a       629     0    32     1     9
 -1.2252527915891283E-03 a       630     0    32     1    10
  9.7993711669165068E-02 a       631     0    32     1    11
  1.7879453683218852E-01 a       632     0    32     1    12
 -5.7613291250279655E-02 a       633     0    32     1    13
 -1.2274289596612592E-01 a       634     0    32     1    14
  3.2425291261013102E-02 a       635     0    32     1    15
 -6.2962205851139028E-02 a       636     0    32     1    16
 -1.3320205823229667E-02 a       637     0    32     1    17
  5.6790510901310785E-02 a       638     0    32     1    18
 -2.2248585384194569E-01 a       639     0    32     1    19
 -4.3777174284328473E-02 a       640     0    32     1    20
 -2.2134128218699339E-02 a       641     0    33     1     1
  4.2031859450027798E-02 a       642     0    33     1     2
 -3.4357510599584647E-02 a       643     0    33     1     3
 -1.1556537480942700E-01 a       644     0    33     1     4
 -3.5515374941202438E-02 a       645     0    33     1     5
 -2.6103638643417769E-02 a       646     0    33     1     6
  7.9230344969848571E-02 a       647     0    33     1     7
  5.1509462942660032E-02 a       648     0    33     1     8
  1.2629347079886091E-01 a       649     0    33     1     9
  9.3073400385982871E-02 a       650     0    33     1    10
 -6.8590127030469600E-02 a       651     0    33     1    11
  5.0288624513614440E-02 a       652     0    33     1    12
 -5.4854881706173732E-02 a       653     0    33     1    13
  2.5897527451922409E-02 a       654     0    33     1    14
  1.4541819791304086E-01 a       655     0    33     1    15
 -3.5288199601890231E-02 a       656     0    33     1    16
 -5.7238647331345014E-03 a       657     0    33     1    17
 -7.0557829378182377E-02 a       658     0    33     1    18
 -1.8488133969095816E-01 a       659     0    33     1    19
 -5.5681069851307691E-02 a       660     0    33     1    20
  1.0426397478808853E-01 a       661     0    34     1     1
 -8.0255715351151488E-02 a       662     0    34     1     2
  1.3330570257406441E-01 a       663     0    34     1     3
 -1.8245292379868269E-02 a       664     0    34     1     4
  1.3196291135668861E-01 a       665     0    34     1     5
 -2.1115656237760475E-02 a       666     0    34     1     6
 -1.2295378837414306E-01 a       667     0    34     1     7
 -1.9118537045172670E-01 a       668     0    34     1     8
  8.4139499532725301E-02 a       669     0    34     1     9
  7.7623221432872411E-02 a       670     0    34     1    10
  4.3047508905509325E-02 a       671     0    34     1    11
 -2.1587810635842627E-02 a       672     0    34     1    12
 -1.1399203000920860E-01 a       673     0    34     1    13
  2.1629399815213307E-01 a       674     0    34     1    14
 -3.0870142094829505E-02 a       675     0    34     1    15
 -5.4048007405528620E-02 a       676     0    34     1    16
  1.4345156945481466E-01 a       677     0    34     1    17
  3.6679859271540702E-02 a       678     0    34     1    18
  5.9253617934558529E-02 a       679     0    34     1    19
 -1.4493794576773905E-01 a       680     0    34     1    20
  1.1398158295470397E-02 a       681     0    35     1     1
 -1.1365081868061998E-02 a       682     0    35     1     2
 -3.8171808761851729E-02 a       683     0    35     1     3
  1.0360733155547050E-01 a       684     0    35     1     4
  1.2190736973639958E-01 a       685     0    35     1     5
  8.3087936239693710E-02 a       686     0    35     1     6
 -2.8318583445124092E-02 a       687     0    35     1     7
 -6.3978848753571946E-02 a       688     0    35     1     8
 -1.0273292644316426E-01 a       689     0    35     1     9
 -1.3784598104361087E-01 a       690     0    35     1    10
 -7.2463535682944892E-03 a       691     0    35     1    11
 -3.7464909017926727E-02 a       692     0    35     1    12
  1.1665487155881474E-01 a       693     0    35     1    13
  4.8146217463153826E-03 a       694     0    35     1    14
 -1.2443782373103007E-01 a       695     0    35     1    15
  2.3274350165087332E-02 a       696     0    35     1    16
  9.9558909265992590E-02 a       697     0    35     1    17
  1.3632782938304541E-01 a       698     0    35     1    18
  7.5415098624483215E-02 a       699     0    35     1    19
  1.3305032392628504E-02 a       700     0    35     1    20
 -1.2163340558028627E-02 a       701     0    36     1     1
  1.4457145558598777E-01 a       702     0    36     1     2
 -3.5677019188333603E-02 a       703     0    36     1     3
 -6.2543846051586069E-02 a       704     0    36     1     4
  2.0500711795637336E-01 a       705     0    36     1     5
  4.6680400186164865E-02 a       706     0    36     1     6
  1.3432947071395229E-01 a       707     0    36     1     7
  1.4816785760151845E-02 a       708     0    36     1     8
  1.7868467311058317E-01 a       709     0    36     1     9
  8.8654995759888361E-02 a       710     0    36     1    10
 -7.7564669054359173E-02 a       711     0    36     1    11
 -2.0516584780664851E-01 a       712     0    36     1    12
  5.7264219438635473E-02 a       713     0    36     1    13
  5.7829543154740100E-02 a       714     0    36     1    14
 -5.8509095513747660E-02 a       715     0    36     1    15
  1.9404200766933635E-01 a       716     0    36     1    16
  3.7943737582064714E-02 a       717     0    36     1    17
 -4.5379206953155851E-02 a       718     0    36     1    18
  8.4759683843386571E-02 a       719     0    36     1    19
  9.8872810561086516E-02 a       720     0    36     1    20
 -2.7242429115285821E-02 a       721     0    37     1     1
 -2.4838000549872764E-02 a       722     0    37     1     2
 -6.7369921801317831E-02 a       723     0    37     1     3
  7.1676912747750149E-02 a       724     0    37     1     4
 -4.0147185427581812E-02 a       725     0    37     1     5
 -5.2493032728007170E-02 a       726     0    37     1     6
 -7.8104842598794605E-02 a       727     0    37     1     7
  2.7656160783320269E-02 a       728     0    37     1     8
  3.4372621422962435E-02 a       729     0    37     1     9
  1.8679743368406035E-01 a       730     0    37     1    10
  1.8135774430761270E-01 a       731     0    37     1    11
 -4.3125452093802717E-02 a       732     0    37     1    12
  5.8166299274281685E-02 a       733     0    37     1    13
  1.6679986322112433E-01 a       734     0    37     1    14
  1.5157741941484599E-02 a       735     0    37     1    15
  2.6066677916254125E-02 a       736     0    37     1    16
 -7.7221276677519157E-02 a       737     0    37     1    17
  2.8513572266689411E-03 a       738     0    37     1    18
  2.7971926484459647E-02 a       739     0    37     1    19
  2.8489978639994352E-02 a       740     0    37     1    20
 -3.7343459365510326E-02 a       741     0    38     1     1
  4.8287644703738052E-02 a       742     0    38     1     2
 -7.3948888867573878E-02 a       743     0    38     1     3
 -7.4372714442886775E-03 a       744     0    38     1     4
 -1.1470090147599880E-01 a       745     0    38     1     5
 -3.3948404295187418E-02 a       746     0    38     1     6
  7.6622199094978957E-02 a       747     0    38     1     7
  5.7531888991171419E-02 a       748     0    38     1     8
 -3.5068893199415190E-02 a       749     0    38     1     9
 -1.3526369541521549E-01 a       750     0    38     1    10
  1.1103271674726911E-01 a       751     0    38     1    11
  2.1297319003544684E-02 a       752     0    38     1    12
  8.6406958753740867E-02 a       753     0    38     1    13
 -4.9207864884444176E-03 a       754     0    38     1    14
 -1.2586505584915140E-02 a       755     0    38     1    15
 -3.1273951117964612E-02 a       756     0    38     1    16
 -2.7147434623077463E-02 a       757     0    38     1    17
 -7.5026393180494852E-02 a       758     0    38     1    18
  1.1770691026509125E-02 a       759     0    38     1    19
  6.2511531928000741E-02 a       760     0    38     1    20
 -1.8865127859112419E-02 a       761     0    39     1     1
  4.1253761793498329E-02 a       762     0    39     1     2
 -1.3010854229223606E-02 a       763     0    39     1     3
 -1.5262363964666678E-01 a       764     0    39     1     4
 -1.1737291262871923E-01 a       765     0    39     1     5
 -7.3140501882720421E-02 a       766     0    39     1     6
  6.4354680785127932E-02 a       767     0    39     1     7
  5.8344068654303423E-02 a       768     0    39     1     8
  9.3164580453943144E-02 a       769     0    39     1     9
  1.2010670472125624E-01 a       770     0    39     1    10
 -2.2109704551596901E-02 a       771     0    39     1    11
  1.1092860143073794E-02 a       772     0    39     1    12
 -3.9160861910395327E-02 a       773     0    39     1    13
  3.6411459062607815E-02 a       774     0    39     1    14
  1.0806066285790399E-01 a       775     0    39     1    15
  2.8020102144653402E-02 a       776     0    39     1    16
 -7.3373743467266869E-02 a       777     0    39     1    17
 -8.1019154329511470E-02 a       778     0    39     1    18
 -3.2968740690180180E-02 a       779     0    39     1    19
 -9.0128136000118206E-05 a       780     0    39     1    20
  3.6114577165292636E-02 a       781     0    40     1     1
 -8.0573954604382034E-02 a       782     0    40     1     2
  5.7082985570641780E-02 a       783     0    40     1     3
 -4.1522561494113243E-02 a       784     0    40     1     4
 -9.6494884372573322E-02 a       785     0    40     1     5
 -7.8363922780198738E-03 a       786     0    40     1     6
  1.2362744962425808E-02 a       787     0    40     1     7
 -3.9572633276620042E-02 a       788     0    40     1     8
 -8.4633333875413261E-02 a       789     0    40     1     9
 -2.4322619205957063E-01 a       790     0    40     1    10
  2.8946529117022265E-02 a       791     0    40     1    11
  1.0619048646283925E-01 a       792     0    40     1    12
  1.5542342422423059E-02 a       793     0    40     1    13
 -1.4245759992407065E-02 a       794     0    40     1    14
 -7.1568811397374147E-03 a       795     0    40     1    15
 -1.3951714850740304E-01 a       796     0    40     1    16
  4.7753731268238453E-02 a       797     0    40     1    17
  7.2731661055039851E-02 a       798     0    40     1    18
  6.6350947735730761E-02 a       799     0    40     1    19
 -4.2226391000377020E-02 a       800     0    40     1    20
  1.0157639256817531E-01 a       801     0    41     1     1
 -3.1502653281567267E-01 a       802     0    41     1     2
 -1.9822813498547803E-01 a       803     0    41     1     3
  6.3579535794016415E-02 a       804     0    41     1     4
  8.5606212556163644E-02 a       805     0    41     1     5
  1.5664182660829046E-01 a       806     0    41     1     6
 -4.1685559241208252E-02 a       807     0    41     1     7
 -5.8736392117980367E-02 a       808     0    41     1     8
  2.4246888188905946E-01 a       809     0    41     1     9
 -6.3020914498569475E-02 a       810     0    41     1    10
  1.6229583129386377E-01 a       811     0    41     1    11
  4.8439436278608743E-02 a       812     0    41     1    12
 -8.3795786937530425E-02 a       813     0    41     1    13
  4.3799954793213712E-02 a       814     0    41     1    14
 -8.6935668043793449E-02 a       815     0    41     1    15
 -6.3272003438892221E-02 a       816     0    41     1    16
  9.5859032876930331E-02 a       817     0    41     1    17
 -9.4295381575346809E-02 a       818     0    41     1    18
  1.2997962313401121E-02 a       819     0    41     1    19
  7.7143363070113075E-02 a       820     0    41     1    20
 -4.6484435605030010E-02 a       821     0    42     1     1
  1.8762257955880168E-01 a       822     0    42     1     2
 -1.3993499640747131E-03 a       823     0    42     1     3
  1.0680487512194055E-02 a       824     0    42     1     4
  1.9482965301695082E-01 a       825     0    42     1     5
  8.6184414075246435E-02 a       826     0    42     1     6
 -1.1994432817974358E-01 a       827     0    42     1     7
  1.1716638941459762E-01 a       828     0    42     1     8
  1.1208409510364914E-01 a       829     0    42     1     9
  3.0297340261528499E-01 a       830     0    42     1    10
 -2.2963964838328862E-01 a       831     0    42     1    11
  1.0763549437520778E-01 a       832     0    42     1    12
  1.3944686217071045E-01 a       833     0    42     1    13
  1.1452785257925369E-01 a       834     0    42     1    14
 -1.4488246418980074E-02 a       835     0    42     1    15
  4.8350414719305831E-03 a       836     0    42     1    16
  5.0892014144191963E-02 a       837     0    42     1    17
  1.6018408706005491E-01 a       838     0    42     1    18
 -2.9571470370486086E-01 a       839     0    42     1    19
 -1.4117985063325297E-01 a       840     0    42     1    20
 -1.2978264039344217E-01 a       841     0    43     1     1
  3.1215062296154224E-02 a       842     0    43     1     2
 -1.1750618114030296E-01 a       843     0    43     1     3
  1.2192360454789192E-01 a       844     0    43     1     4
  7.1204906070693241E-02 a       845     0    43     1     5
 -1.8153312084782816E-01 a       846     0    43     1     6
 -6.8851635648322071E-02 a       847     0    43     1     7
  3.3471099400646007E-02 a       848     0    43     1     8
  1.1511352663047604E-01 a       849     0    43     1     9
  1.9235418646989386E-01 a       850     0    43     1    10
 -1.1358200019192254E-01 a       851     0    43     1    11
  1.1402657344008403E-02 a       852     0    43     1    12
 -1.1459316590768626E-02 a       853     0    43     1    13
  2.7998103420043552E-03 a       854     0    43     1    14
  8.8071307087456890E-02 a       855     0    43     1    15
 -1.1433095253953116E-02 a       856     0    43     1    16
 -1.0238107897747983E-01 a       857     0    43     1    17
  7.1347882037656315E-03 a       858     0    43     1    18
 -2.8843743347249812E-01 a       859     0    43     1    19
 -8.5671167266577183E-02 a       860     0    43     1    20
 -1.4331507312599923E-01 a       861     0    44     1     1
 -1.8541943001314132E-01 a       862     0    44     1     2
  1.3504059762745385E-01 a       863     0    44     1     3
  9.2262819980404379E-02 a       864     0    44     1     4
 -1.8537903065509678E-01 a       865     0    44     1     5
 -6.4739680002618608E-02 a       866     0    44     1     6
  6.1703136916779575E-02 a       867     0    44     1     7
  1.0259719570643393E-01 a       868     0    44     1     8
  1.2733541680632531E-02 a       869     0    44     1     9
  8.2531034371502970E-02 a       870     0    44     1    10
 -1.8618881819950822E-01 a       871     0    44     1    11
  6.2136245307415010E-02 a       872     0    44     1    12
 -9.4888071875916497E-02 a       873     0    44     1    13
 -2.5890505741751640E-01 a       874     0    44     1    14
 -7.2354928208242728E-02 a       875     0    44     1    15
 -1.7090961231511576E-01 a       876     0    44     1    16
  1.6672889163232684E-02 a       877     0    44     1    17
 -1.0525496322618709E-01 a       878     0    44     1    18
 -1.5988926906077897E-01 a       879     0    44     1    19
  8.9201964455952222E-03 a       880     0    44     1    20
  9.5209557489370586E-02 a       881     0    45     1     1
  3.7011893296750781E-02 a       882     0    45     1     2
 -2.7653746669335875E-02 a       883     0    45     1     3
  7.6226561282700042E-02 a       884     0    45     1     4
 -2.3857410676624011E-01 a       885     0    45     1     5
 -5.0817074279074503E-02 a       886     0    45     1     6
 -3.9207778680023384E-02 a       887     0    45     1     7
 -1.8025296205231214E-01 a       888     0    45     1     8
  1.5109010919753074E-01 a       889     0    45     1     9
 -2.7074237342805542E-02 a       890     0    45     1    10
  1.9795114315417406E-01 a       891     0    45     1    11
 -2.2017028775618886E-02 a       892     0    45     1    12
  8.8694047731553791E-03 a       893     0    45     1    13
  1.0829628206823046E-01 a       894     0    45     1    14
  6.7338525090636148E-02 a       895     0    45     1    15
 -6.2636605442990198E-02 a       896     0    45     1    16
  5.6256688913840898E-02 a       897     0    45     1    17
 -2.0266801123405739E-01 a       898     0    45     1    18
  1.2330298883029431E-01 a       899     0    45     1    19
  1.2713424953257666E-02 a       900     0    45     1    20
 -4.2418261658834520E-02 a       901     0    46     1     1
 -2.0570232943477236E-03 a       902     0    46     1     2
  8.7595745865277533E-02 a       903     0    46     1     3
 -9.6651779266060528E-02 a       904     0    46     1     4
  1.7081539413298902E-01 a       905     0    46     1     5
 -4.3771247583158410E-02 a       906     0    46     1     6
  2.0574135693569942E-01 a       907     0    46     1     7
  1.3927165106842340E-01 a       908     0    46     1     8
  4.1798892957709929E-02 a       909     0    46     1     9
 -1.8419921853521343E-01 a       910     0    46     1    10
 -2.0886900689959777E-02 a       911     0    46     1    11
 -1.7341909695325869E-02 a       912     0    46     1    12
 -1.5079077216054176E-01 a       913     0    46     1    13
 -8.4568602869615497E-02 a       914     0    46     1    14
 -6.5101212218446461E-02 a       915     0    46     1    15
  1.4317637825591506E-01 a       916     0    46     1    16
  1.5137836996097273E-01 a       917     0    46     1    17
  1.4304092927376616E-01 a       918     0    46     1    18
 -3.1286337198136609E-02 a       919     0    46     1    19
  7.1633417073711667E-02 a       920     0    46     1    20
  1.7668889674911741E-02 a       921     0    47     1     1
  1.4829657311410574E-01 a       922     0    47     1     2
  1.1493434414908906E-02 a       923     0    47     1     3
 -7.8604024723380836E-02 a       924     0    47     1     4
 -1.4047665207164262E-01 a       925     0    47     1     5
 -1.6976238274622615E-01 a       926     0    47     1     6
 -5.0683520238965933E-02 a       927     0    47     1     7
 -1.8913136598173183E-01 a       928     0    47     1     8
 -8.7101779842901170E-02 a       929     0    47     1     9
 -1.5559472586624454E-01 a       930     0    47     1    10
  1.1467920480667849E-01 a       931     0    47     1    11
 -1.1282806914837577E-01 a       932     0    47     1    12
  2.8281458882381594E-02 a       933     0    47     1    13
  1.9213516201467135E-01 a       934     0    47     1    14
  8.4980542058093550E-02 a       935     0    47     1    15
  1.3944471038115544E-01 a       936     0    47     1    16
  9.7055954915258577E-02 a       937     0    47     1    17
 -1.0249226362483864E-01 a       938     0    47     1    18
  2.0732178539100524E-01 a       939     0    47     1    19
 -6.9734783466645175E-02 a       940     0    47     1    20
  8.3795498302126820E-02 a       941     0    48     1     1
  1.3267308061634295E-01 a       942     0    48     1     2
  7.8626112711656856E-02 a       943     0    48     1     3
 -1.8269175266028165E-01 a       944     0    48     1     4
 -1.0054081783305457E-01 a       945     0    48     1     5
 -1.0144965688957758E-01 a       946     0    48     1     6
 -1.8043845116213441E-02 a       947     0    48     1     7
 -5.3899011614455705E-02 a       948     0    48     1     8
 -1.0446560374456701E-01 a       949     0    48     1     9
  1.0473297265843963E-01 a       950     0    48     1    10
  5.2060167525633812E-02 a       951     0    48     1    11
  1.2540914386446103E-01 a       952     0    48     1    12
  1.3802837761871128E-01 a       953     0    48     1    13
  1.7670656055612013E-01 a       954     0    48     1    14
  2.6167780730596727E-02 a       955     0    48     1    15
 -1.4191516916820437E-01 a       956     0    48     1    16
  6.4864920700044299E-04 a       957     0    48     1    17
 -3.5545422723149735E-03 a       958     0    48     1    18
  1.8668027136322891E-02 a       959     0    48     1    19
 -1.1830435434134282E-01 a       960     0    48     1    20
 -7.5130721875980688E-02 a       961     0    49     1     1
 -1.0613177371904658E-01 a       962     0    49     1     2
  6.8392694025931539E-02 a       963     0    49     1     3
  1.1263432359132912E-01 a       964     0    49     1     4
 -1.7579058421219172E-02 a       965     0    49     1     5
 -1.8379503762937785E-01 a       966     0    49     1     6
 -7.8543825819836585E-02 a       967     0    49     1     7
  4.8216428964546539E-02 a       968     0    49     1     8
 -1.3773429588349040E-01 a       969     0    49     1     9
  1.1110346120057254E-02 a       970     0    49     1    10
  4.8245531670436164E-03 a       971     0    49     1    11
 -1.1627097211313644E-01 a       972     0    49     1    12
  4.4276547327919281E-02 a       973     0    49     1    13
  1.0486211213786877E-01 a       974     0    49     1    14
  3.3261811762865315E-02 a       975     0    49     1    15
  1.4309623609843938E-01 a       976     0    49     1    16
  4.0236212392654814E-03 a       977     0    49     1    17
 -1.0977164693170068E-02 a       978     0    49     1    18
  1.2425007918519250E-01 a       979     0    49     1    19
 -1.2870452816095590E-01 a       980     0    49     1    20
 -1.0894012005901689E-01 a       981     0    50     1     1
  1.6641742328114820E-01 a       982     0    50     1     2
  1.9435052870002634E-01 a       983     0    50     1     3
  3.3755855044223161E-02 a       984     0    50     1     4
  7.5327625241329271E-02 a       985     0    50     1     5
 -1.8564383280266386E-01 a       986     0    50     1     6
  1.6568996424864924E-01 a       987     0    50     1     7
  9.5959768269067488E-03 a       988     0    50     1     8
  2.0006256040896686E-01 a       989     0    50     1     9
  1.4967342127523681E-01 a       990     0    50     1    10
  8.5098819899635816E-02 a       991     0    50     1    11
 -1.5846527141793210E-01 a       992     0    50     1    12
  9.8216082983565572E-02 a       993     0    50     1    13
 -7.7056688258604011E-02 a       994     0    50     1    14
  3.4829598933396050E-01 a       995     0    50     1    15
  3.8855466062879811E-02 a       996     0    50     1    16
  4.4413728351373846E-02 a       997     0    50     1    17
  1.2237287012204369E-01 a       998     0    50     1    18
 -4.5512242553459592E-02 a       999     0    50     1    19
  9.0847107485983000E-02 a      1000     0    50     1    20
 -5.2434863067186623E-02 a      1001     0    51     1     1
 -1.2255708100395110E-01 a      1002     0    51     1     2
  1.4305211252971951E-02 a      1003     0    51     1     3
  9.1588775218576154E-02 a      1004     0    51     1     4
  2.9231170845512890E-02 a      1005     0    51     1     5
  8.5506579634473570E-02 a      1006     0    51     1     6
  6.1994880776378776E-02 a      1007     0    51     1     7
  2.9753578032149397E-02 a      1008     0    51     1     8
  1.7926140000416826E-01 a      1009     0    51     1     9
 -1.1459116510333579E-01 a      1010     0    51     1    10
 -1.4677378632975449E-01 a      1011     0    51     1    11
 -2.5176305404978790E-02 a      1012     0    51     1    12
  9.3973363620369316E-02 a      1013     0    51     1    13
  2.4748127032742093E-01 a      1014     0    51     1    14
  1.8051901882727167E-01 a      1015     0    51     1    15
  6.2870946296577565E-02 a      1016     0    51     1    16
 -1.4908476357508302E-01 a      1017     0    51     1    17
 -1.0401345100641019E-03 a      1018     0    51     1    18
  9.6822369105100614E-02 a      1019     0    51     1    19
  8.4095836693744944E-02 a      1020     0    51     1    20
  7.5410372970046283E-02 a      1021     0    52     1     1
  2.3308095406758322E-02 a      1022     0    52     1     2
 -2.0451034111708667E-02 a      1023     0    52     1     3
  1.0566169186286521E-01 a      1024     0    52     1     4
 -1.6364200905346890E-01 a      1025     0    52     1     5
 -1.9001133065850781E-01 a      1026     0    52     1     6
 -3.8057442189487124E-02 a      1027     0    52     1     7
 -2.2031967858963861E-01 a      1028     0    52     1     8
 -9.7162229329612701E-02 a      1029     0    52     1     9
  1.3513931214397110E-01 a      1030     0    52     1    10
  1.0797316010263563E-01 a      1031     0    52     1    11
  9.6784043073680881E-02 a      1032     0    52     1    12
  6.4266953577422334E-02 a      1033     0    52     1    13
 -4.3443089305232996E-02 a      1034     0    52     1    14
 -3.2904912040837307E-02 a      1035     0    52     1    15
 -2.4250235955982147E-01 a      1036     0    52     1    16
 -1.1065246657711740E-02 a      1037     0    52     1    17
  1.1533740592548561E-01 a      1038     0    52     1    18
 -3.2856844213795415E-02 a      1039     0    52     1    19
  9.4874171598332807E-02 a      1040     0    52     1    20
  1.1066743074516647E-01 a      1041     0    53     1     1
  6.7308234994193708E-02 a      1042     0    53     1     2
  2.1151171052542742E-01 a      1043     0    53     1     3
 -1.2677344692344397E-01 a      1044     0    53     1     4
 -6.0121342251220462E-02 a      1045     0    53     1     5
  1.7905876449089267E-01 a      1046     0    53     1     6
  4.1949061031153374E-02 a      1047     0    53     1     7
 -6.4653920828184053E-02 a      1048     0    53     1     8
 -1.9440426819660038E-02 a      1049     0    53     1     9
  1.4330858593199206E-01 a      1050     0    53     1    10
  1.5079021408465321E-01 a      1051     0    53     1    11
 -2.0070035390322993E-01 a      1052     0    53     1    12
 -3.1002875221610601E-02 a      1053     0    53     1    13
  5.2257612409061446E-02 a      1054     0    53     1    14
 -4.6633757143144459E-02 a      1055     0    53     1    15
  3.3274685835044955E-02 a      1056     0    53     1    16
  9.8305823714696039E-02 a      1057     0    53     1    17
 -4.5553888017572479E-02 a      1058     0    53     1    18
  1.2535751576023996E-01 a      1059     0    53     1    19
  4.5734585067650407E-02 a      1060     0    53     1    20
  6.6453841863558835E-02 a      1061     0    54     1     1
 -2.2156930801264285E-01 a      1062     0    54     1     2
 -7.2929797338252261E-03 a      1063     0    54     1     3
 -1.5735078937900951E-01 a      1064     0    54     1     4
 -1.2817446819158265E-01 a      1065     0    54     1     5
  1.0413278475327963E-01 a      1066     0    54     1     6
 -2.0886953960591162E-01 a      1067     0    54     1     7
 -9.7142490088296951E-03 a      1068     0    54     1     8
 -1.8217381731719356E-02 a      1069     0    54     1     9
  8.5233153169469736E-02 a      1070     0    54     1    10
 -1.5892796789297624E-02 a      1071     0    54     1    11
 -2.1730754041190695E-01 a      1072     0    54     1    12
  3.1451307802972381E-02 a      1073     0    54     1    13
  1.7258808834075842E-01 a      1074     0    54     1    14
 -7.2612177446491399E-02 a      1075     0    54     1    15
  5.4390693602132938E-02 a      1076     0    54     1    16
  5.2318626625984431E-02 a      1077     0    54     1    17
  8.1340571073079154E-02 a      1078     0    54     1    18
  5.8007047418313022E-02 a      1079     0    54     1    19
  4.6628003570228727E-02 a      1080     0    54     1    20
 -4.1436502373487012E-02 a      1081     0    55     1     1
 -1.0630323254763442E-02 a      1082     0    55     1     2
  7.0507251484147299E-02 a      1083     0    55     1     3
  1.0884173270395160E-01 a      1084     0    55     1     4
 -3.6371684472985610E-02 a      1085     0    55     1     5
 -1.6492397478178078E-01 a      1086     0    55     1     6
 -1.8570323666243163E-01 a      1087     0    55     1     7
  7.5857275405474170E-02 a      1088     0    55     1     8
 -2.1330604021352181E-01 a      1089     0    55     1     9
 -9.6854655720056471E-02 a      1090     0    55     1    10
  2.7225310167076017E-01 a      1091     0    55     1    11
  3.6414259184078354E-02 a      1092     0    55     1    12
 -1.1001762397093059E-01 a      1093     0    55     1    13
  4.1872734437074836E-02 a      1094     0    55     1    14
 -1.0100376085856114E-01 a      1095     0    55     1    15
  4.4669801473544560E-02 a      1096     0    55     1    16
 -1.3893534026876433E-01 a      1097     0    55     1    17
  1.1933805912134196E-01 a      1098     0    55     1    18
 -1.6635754457376115E-02 a      1099     0    55     1    19
  3.5373284670746998E-02 a      1100     0    55     1    20
 -6.7145145443377435E-02 a      1101     0    56     1     1
  1.2312187383838087E-01 a      1102     0    56     1     2
 -7.6947953618205583E-02 a      1103     0    56     1     3
  3.0018918044615817E-01 a      1104     0    56     1     4
 -1.3671869385463339E-01 a      1105     0    56     1     5
 -1.0742857256086222E-01 a      1106     0    56     1     6
 -1.1361659371814353E-01 a      1107     0    56     1     7
 -3.9409842494015489E-02 a      1108     0    56     1     8
  7.6415068002647947E-03 a      1109     0    56     1     9
  1.7649294844088689E-01 a      1110     0    56     1    10
  8.7156626963132422E-02 a      1111     0    56     1    11
  1.1743246381084409E-01 a      1112     0    56     1    12
  7.7750560964261639E-02 a      1113     0    56     1    13
 -6.5415981733545583E-02 a      1114     0    56     1    14
  6.2548500086500383E-02 a      1115     0    56     1    15
  5.0195015082417837E-03 a      1116     0    56     1    16
  2.2822233375384967E-02 a      1117     0    56     1    17
 -1.1631013156234007E-01 a      1118     0    56     1    18
  6.3652422639066822E-03 a      1119     0    56     1    19
  5.9030306483375629E-02 a      1120     0    56     1    20
  1.7036371058979377E-01 a      1121     0    57     1     1
 -2.2415251538310721E-01 a      1122     0    57     1     2
 -6.9739622706752005E-02 a      1123     0    57     1     3
  4.6913762769214265E-03 a      1124     0    57     1     4
  2.6900602624001027E-03 a      1125     0    57     1     5
  2.3021687046960335E-01 a      1126     0    57     1     6
 -1.0731895984037887E-01 a      1127     0    57     1     7
  5.3069996955658789E-02 a      1128     0    57     1     8
  1.5251170481106041E-01 a      1129     0    57     1     9
  2.0540640134196500E-02 a      1130     0    57     1    10
  4.1789607357223736E-02 a      1131     0    57     1    11
  1.4806249323346873E-01 a      1132     0    57     1    12
 -1.5030825707404919E-02 a      1133     0    57     1    13
 -4.1881450296953643E-02 a      1134     0    57     1    14
 -1.7378467443775680E-01 a      1135     0    57     1    15
 -7.8994850834450500E-02 a      1136     0    57     1    16
 -1.8466823000933832E-01 a      1137     0    57     1    17
 -2.6431546854144713E-03 a      1138     0    57     1    18
  1.3839122768331593E-02 a      1139     0    57     1    19
 -1.8154864299590043E-02 a      1140     0    57     1    20
 -1.0429953120044266E-01 a      1141     0    58     1     1
 -2.0655743203622692E-01 a      1142     0    58     1     2
  4.5796431593274178E-02 a      1143     0    58     1     3
  1.9413716908611536E-01 a      1144     0    58     1     4
  9.3112759978328394E-02 a      1145     0    58     1     5
  1.5067101206600086E-01 a      1146     0    58     1     6
 -5.4047331823949517E-02 a      1147     0    58     1     7
  2.2936838835996565E-02 a      1148     0    58     1     8
  2.5676674113657116E-01 a      1149     0    58     1     9
 -9.8870101015556211E-02 a      1150     0    58     1    10
 -1.3135350399411716E-01 a      1151     0    58     1    11
 -1.6545630063134958E-01 a      1152     0    58     1    12
 -1.2215394794641141E-01 a      1153     0    58     1    13
 -1.5005143945330737E-01 a      1154     0    58     1    14
  1.0856275165551001E-01 a      1155     0    58     1    15
  8.1286188858585184E-02 a      1156     0    58     1    16
 -5.4200266010690900E-03 a      1157     0    58     1    17
  3.8791478257186013E-02 a      1158     0    58     1    18
 -5.9183620389301091E-02 a      1159     0    58     1    19
 -6.6606020396495727E-02 a      1160     0    58     1    20
 -3.4270378736531763E-02 a      1161     0    59     1     1
 -2.8170918356756164E-01 a      1162     0    59     1     2
  4.1579963633482743E-02 a      1163     0    59     1     3
 -1.4628054686485439E-01 a      1164     0    59     1     4
  4.4714112430216800E-02 a      1165     0    59     1     5
  2.1257248527327011E-01 a      1166     0    59     1     6
  1.8567168300738703E-02 a      1167     0    59     1     7
 -1.5556024009330352E-01 a      1168     0    59     1     8
  2.8179677133484343E-01 a      1169     0    59     1     9
 -3.1381755529666218E-02 a      1170     0    59     1    10
  1.9422376426255100E-01 a      1171     0    59     1    11
 -4.5949217732548148E-02 a      1172     0    59     1    12
 -1.6291325428286926E-01 a      1173     0    59     1    13
  1.1197721647449405E-01 a      1174     0    59     1    14
 -4.0727902098293120E-02 a      1175     0    59     1    15
  6.0688580662995907E-03 a      1176     0    59     1    16
 -7.8972991500551079E-02 a      1177     0    59     1    17
  6.0758686110790515E-02 a      1178     0    59     1    18
  1.2156531272791388E-01 a      1179     0    59     1    19
  1.3948508435392143E-01 a      1180     0    59     1    20
  8.8024062428428543E-02 a      1181     0    60     1     1
  2.9842668000746749E-02 a      1182     0    60     1     2
 -1.7915413204638880E-01 a      1183     0    60     1     3
  4.2855784838570173E-02 a      1184     0    60     1     4
 -1.1203932214514981E-01 a      1185     0    60     1     5
 -8.0180945192626404E-02 a      1186     0    60     1     6
 -1.1856717821175013E-02 a      1187     0    60     1     7
 -1.2836571390253754E-02 a      1188     0    60     1     8
 -2.5876221359406582E-01 a      1189     0    60     1     9
 -2.6091584829516679E-01 a      1190     0    60     1    10
 -1.4655349841798598E-01 a      1191     0    60     1    11
 -7.4545228873679870E-02 a      1192     0    60     1    12
 -8.3483793987465443E-02 a      1193     0    60     1    13
 -1.9467811175653627E-01 a      1194     0    60     1    14
 -1.9370644974986187E-01 a      1195     0    60     1    15
 -1.7923734351509638E-01 a      1196     0    60     1    16
  1.6012875424391915E-01 a      1197     0    60     1    17
  1.1731270583045166E-02 a      1198     0    60     1    18
  2.3191894506427568E-01 a      1199     0    60     1    19
  8.9546001005608826E-03 a      1200     0    60     1    20
  5.4113679206760780E-02 a      1201     0    61     1     1
  6.2584079561555234E-02 a      1202     0    61     1     2
 -2.2566566631942389E-01 a      1203     0    61     1     3
  5.6254700101974364E-02 a      1204     0    61     1     4
 -1.3756339378986965E-01 a      1205     0    61     1     5
  1.3043160280017384E-02 a      1206     0    61     1     6
 -1.3250356004494915E-01 a      1207     0    61     1     7
  6.3750630870057085E-02 a      1208     0    61     1     8
  1.8348300200434700E-01 a      1209     0    61     1     9
 -1.1169116003839967E-01 a      1210     0    61     1    10
 -5.7328846212332109E-04 a      1211     0    61     1    11
  1.3647247470159179E-01 a      1212     0    61     1    12
  1.2033824473855689E-01 a      1213     0    61     1    13
  1.4532673114753528E-01 a      1214     0    61     1    14
 -1.1739852381599260E-01 a      1215     0    61     1    15
 -2.2816073797313552E-01 a      1216     0    61     1    16
 -1.9144263896354669E-01 a      1217     0    61     1    17
  1.4107010774869366E-02 a      1218     0    61     1    18
  8.6821130693400027E-04 a      1219     0    61     1    19
 -2.3091245638436848E-02 a      1220     0    61     1    20
  8.6455520092286645E-02 a      1221     0    62     1     1
 -7.0155136721155378E-02 a      1222     0    62     1     2
  9.2353601273009470E-02 a      1223     0    62     1     3
  1.1732189725918744E-01 a      1224     0    62     1     4
 -1.4263132293463568E-01 a      1225     0    62     1     5
 -1.5609330017126111E-01 a      1226     0    62     1     6
 -1.1394822914211719E-01 a      1227     0    62     1     7
 -2.4828966444484981E-02 a      1228     0    62     1     8
 -4.3914133386467108E-03 a      1229     0    62     1     9
 -1.7913120404266575E-01 a      1230     0    62     1    10
 -9.1779527865307377E-03 a      1231     0    62     1    11
  6.9661479847025046E-02 a      1232     0    62     1    12
 -2.0253260502948855E-01 a      1233     0    62     1    13
  9.0938987604977043E-03 a      1234     0    62     1    14
  1.1318968500151320E-01 a      1235     0    62     1    15
 -1.4738330105937261E-01 a      1236     0    62     1    16
 -6.1174747888157868E-02 a      1237     0    62     1    17
  6.5028283185920938E-02 a      1238     0    62     1    18
  1.9715962056450814E-01 a      1239     0    62     1    19
 -5.4243936534684525E-02 a      1240     0    62     1    20
  2.0906649156638788E-02 a      1241     0    63     1     1
 -7.0744044609422324E-02 a      1242     0    63     1     2
 -2.8197846650369295E-02 a      1243     0    63     1     3
 -3.0192487624583399E-02 a      1244     0    63     1     4
 -6.6726009435700062E-02 a      1245     0    63     1     5
  2.5119953645933620E-02 a      1246     0    63     1     6
  3.1235610271690322E-03 a      1247     0    63     1     7
  7.0788190014804634E-03 a      1248     0    63     1     8
  8.3427087285562349E-02 a      1249     0    63     1     9
 -3.7765428708930850E-03 a      1250     0    63     1    10
  3.0517374994501450E-03 a      1251     0    63     1    11
 -6.6363561436725574E-02 a      1252     0    63     1    12
 -2.4912407033917398E-02 a      1253     0    63     1    13
  4.8236381146713435E-03 a      1254     0    63     1    14
 -2.4078494868189932E-02 a      1255     0    63     1    15
 -1.0561924514223228E-03 a      1256     0    63     1    16
 -5.7694816380250147E-03 a      1257     0    63     1    17
 -1.0146849986373779E-02 a      1258     0    63     1    18
  3.2549113187974869E-02 a      1259     0    63     1    19
  3.2509363331407509E-03 a      1260     0    63     1    20
  1.7963271534488585E-02 a      1261     0    64     1     1
 -4.8656492171261383E-02 a      1262     0    64     1     2
  1.3074945267796712E-01 a      1263     0    64     1     3
  1.2560994594372207E-01 a      1264     0    64     1     4
 -1.2150637637154371E-01 a      1265     0    64     1     5
 -1.9657666413426842E-02 a      1266     0    64     1     6
 -7.9228567394743335E-02 a      1267     0    64     1     7
  2.9543665578728121E-02 a      1268     0    64     1     8
 -9.7163523332762597E-02 a      1269     0    64     1     9
  3.6451305025494631E-02 a      1270     0    64     1    10
  6.6785919446882169E-02 a      1271     0    64     1    11
 -1.3207653686831450E-01 a      1272     0    64     1    12
  5.2551293814301014E-02 a      1273     0    64     1    13
 -8.1729124717643417E-02 a      1274     0    64     1    14
 -1.5155525243035300E-01 a      1275     0    64     1    15
 -7.5787408629240008E-02 a      1276     0    64     1    16
  2.6185557707366067E-02 a      1277     0    64     1    17
  2.8965689580700185E-02 a      1278     0    64     1    18
  3.0492001817990430E-02 a      1279     0    64     1    19
 -4.6235075270159354E-02 a      1280     0    64     1    20
  3.7428110998751617E-02 a      1281     0    65     1     1
  3.1654610154018464E-02 a      1282     0    65     1     2
 -1.3002471527127449E-01 a      1283     0    65     1     3
 -1.1577486220191142E-01 a      1284     0    65     1     4
 -2.6315210198513916E-01 a      1285     0    65     1     5
 -1.4674173706100180E-01 a      1286     0    65     1     6
 -9.4450243655577568E-02 a      1287     0    65     1     7
  3.8904844541508589E-02 a      1288     0    65     1     8
 -2.1481839164616209E-02 a      1289     0    65     1     9
 -7.0736727859669168E-02 a      1290     0    65     1    10
  1.6534912732739224E-01 a      1291     0    65     1    11
 -3.9272756718214306E-02 a      1292     0    65     1    12
  2.5077902540113238E-02 a      1293     0    65     1    13
  1.6729466572441776E-01 a      1294     0    65     1    14
 -5.4365130041850306E-02 a      1295     0    65     1    15
 -1.3714664884303038E-01 a      1296     0    65     1    16
 -1.3442861946737400E-01 a      1297     0    65     1    17
 -1.6158563817699922E-01 a      1298     0    65     1    18
  8.9536655766614445E-02 a      1299     0    65     1    19
 -5.4370837484442797E-02 a      1300     0    65     1    20
  1.2180002172379982E-01 a      1301     0    66     1     1
  7.8398184178321798E-02 a      1302     0    66     1     2
  1.8753169082055265E-02 a      1303     0    66     1     3
  8.9629981320066832E-02 a      1304     0    66     1     4
 -1.3680636471941424E-01 a      1305     0    66     1     5
  6.7087667710352281E-02 a      1306     0    66     1     6
 -1.4046507464128799E-01 a      1307     0    66     1     7
 -9.3609443739672948E-02 a      1308     0    66     1     8
 -5.0609577827926654E-02 a      1309     0    66     1     9
  8.0136452034050593E-02 a      1310     0    66     1    10
  2.4193710570081392E-02 a      1311     0    66     1    11
  8.0025266316743112E-03 a      1312     0    66     1    12
  4.2487446926596992E-02 a      1313     0    66     1    13
 -4.4495744626158081E-02 a      1314     0    66     1    14
 -1.1994772201957180E-01 a      1315     0    66     1    15
 -2.0747638598279325E-01 a      1316     0    66     1    16
  1.1640526054146763E-02 a      1317     0    66     1    17
 -3.6808076238976299E-02 a      1318     0    66     1    18
 -3.5978644158579300E-02 a      1319     0    66     1    19
  2.5264470923249266E-02 a      1320     0    66     1    20
  4.7807549234068575E-02 a      1321     0    67     1     1
  1.3993216236845610E-01 a      1322     0    67     1     2
  1.0287979841096782E-01 a      1323     0    67     1     3
  3.9251156801110333E-03 a      1324     0    67     1     4
  9.1357942444795170E-02 a      1325     0    67     1     5
  1.7161590193837391E-02 a      1326     0    67     1     6
  3.0201631344333863E-02 a      1327     0    67     1     7
  2.6828632199482432E-02 a      1328     0    67     1     8
  7.9163217133697311E-02 a      1329     0    67     1     9
 -1.2537496796373740E-01 a      1330     0    67     1    10
 -1.5248773172800172E-02 a      1331     0    67     1    11
  1.1020245303199915E-01 a      1332     0    67     1    12
 -4.6862351779826429E-02 a      1333     0    67     1    13
 -2.4829720920734277E-02 a      1334     0    67     1    14
 -6.6939339912856957E-02 a      1335     0    67     1    15
 -2.0821294126186951E-01 a      1336     0    67     1    16
  7.0658831259544336E-02 a      1337     0    67     1    17
  7.6437559522190848E-02 a      1338     0    67     1    18
  4.2883287244864739E-02 a      1339     0    67     1    19
 -8.8769546907185356E-03 a      1340     0    67     1    20
 -7.4940286772052413E-03 a      1341     0    68     1     1
  4.6457939382324259E-02 a      1342     0    68     1     2
 -5.2500759563368929E-02 a      1343     0    68     1     3
 -1.2743413554309596E-01 a      1344     0    68     1     4
  8.8165973146587931E-02 a      1345     0    68     1     5
 -6.3612388227787336E-02 a      1346     0    68     1     6
  1.3325700429585852E-01 a      1347     0    68     1     7
 -1.4538072751181041E-01 a      1348     0    68     1     8
 -2.3179359101729337E-02 a      1349     0    68     1     9
 -6.6985671066195823E-02 a      1350     0    68     1    10
 -2.0056872569159789E-01 a      1351     0    68     1    11
 -1.4844247247863915E-01 a      1352     0    68     1    12
  6.2852594660997964E-03 a      1353     0    68     1    13
 -9.8528844042414548E-02 a      1354     0    68     1    14
 -6.4101315482312224E-02 a      1355     0    68     1    15
  2.0564667608083032E-01 a      1356     0    68     1    16
  1.8877209461649669E-01 a      1357     0    68     1    17
 -3.7965055380306777E-02 a      1358     0    68     1    18
 -8.5589217279217894E-02 a      1359     0    68     1    19
  1.0042089886314357E-01 a      1360     0    68     1    20
 -4.1722738599839562E-02 a      1361     0    69     1     1
 -4.3894983483449959E-02 a      1362     0    69     1     2
  2.0826099079554534E-02 a      1363     0    69     1     3
  6.3186131286934746E-02 a      1364     0    69     1     4
 -3.6370523097144827E-04 a      1365     0    69     1     5
  3.3943388117887354E-03 a      1366     0    69     1     6
  2.9249606683202329E-02 a      1367     0    69     1     7
  9.2214421530324261E-02 a      1368     0    69     1     8
  4.4396284589025038E-02 a      1369     0    69     1     9
  1.1829982350922301E-01 a      1370     0    69     1    10
  8.8258742371524188E-02 a      1371     0    69     1    11
  1.0534150881143591E-02 a      1372     0    69     1    12
  6.6787400630551313E-03 a      1373     0    69     1    13
 -6.8891129000878584E-02 a      1374     0    69     1    14
 -8.1588090312337130E-02 a      1375     0    69     1    15
 -5.1430378575658832E-02 a      1376     0    69     1    16
 -2.0839529851058095E-02 a      1377     0    69     1    17
  3.4777209210901917E-02 a      1378     0    69     1    18
 -1.4050069854179409E-01 a      1379     0    69     1    19
 -2.0796064115535848E-02 a      1380     0    69     1    20
  2.2218781634992650E-03 a      1381     0    70     1     1
  1.2080418465944809E-01 a      1382     0    70     1     2
  1.9810438786304167E-02 a      1383     0    70     1     3
  2.1205055661381261E-01 a      1384     0    70     1     4
  9.7607807791140588E-02 a      1385     0    70     1     5
  1.1252480826013955E-01 a      1386     0    70     1     6
 -6.7054668851465868E-02 a      1387     0    70     1     7
  8.8899325378122646E-02 a      1388     0    70     1     8
 -3.8949040746412561E-02 a      1389     0    70     1     9
  1.3499589960090838E-01 a      1390     0    70     1    10
  1.8114217895821255E-01 a      1391     0    70     1    11
  6.9729558901672095E-02 a      1392     0    70     1    12
 -3.4920644356111288E-03 a      1393     0    70     1    13
  1.7041426015410310E-02 a      1394     0    70     1    14
 -8.5414021696516476E-02 a      1395     0    70     1    15
  2.3486758626456326E-03 a      1396     0    70     1    16
 -7.3771225551940267E-02 a      1397     0    70     1    17
 -3.0860491090762530E-02 a      1398     0    70     1    18
 -6.9570554288071115E-02 a      1399     0    70     1    19
 -1.0710222470222144E-02 a      1400     0    70     1    20
  1.8133841236382486E-01 a      1401     0    71     1     1
  9.8762449680788386E-02 a      1402     0    71     1     2
 -1.0085654938176596E-01 a      1403     0    71     1     3
 -9.8827034181876057E-03 a      1404     0    71     1     4
 -1.3126010971060906E-01 a      1405     0    71     1     5
 -1.0735286647693144E-01 a      1406     0    71     1     6
 -9.2389641045288420E-02 a      1407     0    71     1     7
 -8.6710318352052798E-02 a      1408     0    71     1     8
 -1.1697681301076672E-01 a      1409     0    71     1     9
 -1.2188126764814784E-01 a      1410     0    71     1    10
  1.3108692910400158E-01 a      1411     0    71     1    11
 -2.5733367596333611E-02 a      1412     0    71     1    12
 -9.6824790917662315E-02 a      1413     0    71     1    13
 -1.5011130287395891E-01 a      1414     0    71     1    14
 -4.9544193355162497E-02 a      1415     0    71     1    15
 -2.3524349419948395E-01 a      1416     0    71     1    16
  2.3381968353157770E-02 a      1417     0    71     1    17
  7.4524221324165391E-02 a      1418     0    71     1    18
  1.0956000827081445E-01 a      1419     0    71     1    19
 -1.3141172925498623E-02 a      1420     0    71     1    20
 -5.6773159754073721E-01 a      1421     0    72     1     1
 -6.4959107336583680E-02 a      1422     0    72     1     2
 -2.6932140612893635E-02 a      1423     0    72     1     3
  3.1546642713655350E-02 a      1424     0    72     1     4
  6.3128203209758182E-03 a      1425     0    72     1     5
  5.4636394307087395E-02 a      1426     0    72     1     6
  5.8236609269322399E-02 a      1427     0    72     1     7
  1.8672437017445134E-01 a      1428     0    72     1     8
  1.9023806910023225E-01 a      1429     0    72     1     9
  1.7797652486141524E-01 a      1430     0    72     1    10
  2.3516914035614725E-01 a      1431     0    72     1    11
  1.4196529908371469E-01 a      1432     0    72     1    12
  1.8586990455590441E-01 a      1433     0    72     1    13
  2.2851027299092308E-01 a      1434     0    72     1    14
 -1.7304154965777729E-01 a      1435     0    72     1    15
  1.3438959274959250E-01 a      1436     0    72     1    16
  1.2315055122797333E-01 a      1437     0    72     1    17
 -3.5861148584097134E-02 a      1438     0    72     1    18
 -5.7355375012024430E-02 a      1439     0    72     1    19
 -5.9125743547980503E-02 a      1440     0    72     1    20
 -4.1241854379318960E-02 a      1441     0    73     1     1
 -3.4488050601532198E-02 a      1442     0    73     1     2
 -1.5226070603859590E-01 a      1443     0    73     1     3
  2.5346598019336630E-01 a      1444     0    73     1     4
  1.3557117140978214E-01 a      1445     0    73     1     5
 -3.2859423066514799E-02 a      1446     0    73     1     6
 -1.4074312649417131E-01 a      1447     0    73     1     7
 -1.3797156459786899E-02 a      1448     0    73     1     8
 -5.5508291075418034E-02 a      1449     0    73     1     9
  2.3145588946864004E-01 a      1450     0    73     1    10
  6.0586498175338073E-03 a      1451     0    73     1    11
  1.5915936158726593E-02 a      1452     0    73     1    12
  8.5832112623426618E-02 a      1453     0    73     1    13
  2.5671000778484575E-02 a      1454     0    73     1    14
  1.5658733143830655E-01 a      1455     0    73     1    15
  1.4959352296468952E-02 a      1456     0    73     1    16
 -1.2570599300848762E-01 a      1457     0    73     1    17
 -3.8853582555085406E-02 a      1458     0    73     1    18
 -5.0859656100505392E-02 a      1459     0    73     1    19
 -4.9368548917313640E-02 a      1460     0    73     1    20
 -9.9204334803696628E-02 a      1461     0    74     1     1
  3.3989590595833147E-02 a      1462     0    74     1     2
 -2.5567916552908521E-02 a      1463     0    74     1     3
  2.6792303269893927E-02 a      1464     0    74     1     4
  1.4419923740013854E-01 a      1465     0    74     1     5
  1.4817464728657446E-02 a      1466     0    74     1     6
  1.0864798379380453E-01 a      1467     0    74     1     7
 -6.1439887220888306E-02 a      1468     0    74     1     8
  7.1433442130404215E-02 a      1469     0    74     1     9
  2.5878005055261269E-03 a      1470     0    74     1    10
 -4.0951942578869555E-02 a      1471     0    74     1    11
  1.2268035970584419E-01 a      1472     0    74     1    12
  4.2601437437282022E-02 a      1473     0    74     1    13
 -2.4532347482806309E-03 a      1474     0    74     1    14
 -4.8845437353935921E-02 a      1475     0    74     1    15
 -7.3329601329521557E-02 a      1476     0    74     1    16
  1.3265663405004954E-03 a      1477     0    74     1    17
  1.5866945969622567E-02 a      1478     0    74     1    18
  5.9878629813365190E-02 a      1479     0    74     1    19
 -4.4339967505704715E-02 a      1480     0    74     1    20
  1.2765555089227770E-01 a      1481     0    75     1     1
 -7.3401392988648687E-02 a      1482     0    75     1     2
 -9.1034033094790509E-02 a      1483     0    75     1     3
 -7.4518841078383427E-02 a      1484     0    75     1     4
 -4.7834135224085216E-02 a      1485     0    75     1     5
  6.3590482502177595E-02 a      1486     0    75     1     6
  6.0044852892411703E-02 a      1487     0    75     1     7
  5.3451762437522567E-02 a      1488     0    75     1     8
  1.1380794883516783E-01 a      1489     0    75     1     9
 -2.7122325578885781E-01 a      1490     0    75     1    10
 -1.5575167282951680E-01 a      1491     0    75     1    11
  1.5737862141168065E-02 a      1492     0    75     1    12
 -7.0088286877702438E-02 a      1493     0    75     1    13
 -4.9542952584874435E-02 a      1494     0    75     1    14
 -4.3589438375805636E-03 a      1495     0    75     1    15
 -8.0473379232284745E-02 a      1496     0    75     1    16
 -1.4872757969694252E-02 a      1497     0    75     1    17
 -5.3841932826248849E-02 a      1498     0    75     1    18
  7.5576313471086565E-02 a      1499     0    75     1    19
 -4.5212275266509776E-02 a      1500     0    75     1    20
  2.2019252091369627E-02 a      1501     0    76     1     1
 -9.3179558573934895E-02 a      1502     0    76     1     2
  4.7299446599866117E-02 a      1503     0    76     1     3
 -1.3718893528727455E-01 a      1504     0    76     1     4
 -8.2894906105068167E-02 a      1505     0    76     1     5
  7.7213372005213679E-02 a      1506     0    76     1     6
 -2.2754949652595717E-02 a      1507     0    76     1     7
 -3.8189549605281210E-02 a      1508     0    76     1     8
  5.1901083758633913E-02 a      1509     0    76     1     9
 -2.9764266202015877E-02 a      1510     0    76     1    10
 -8.2809094354252544E-02 a      1511     0    76     1    11
 -2.0136919407864440E-02 a      1512     0    76     1    12
  1.1193971062598222E-01 a      1513     0    76     1    13
  1.0752336950414364E-01 a      1514     0    76     1    14
 -1.1127722005196082E-01 a      1515     0    76     1    15
 -2.9416536930043868E-01 a      1516     0    76     1    16
  4.0515800972474550E-02 a      1517     0    76     1    17
  1.7463354223644498E-01 a      1518     0    76     1    18
 -1.0179077075423767E-01 a      1519     0    76     1    19
 -4.3389077090125190E-02 a      1520     0    76     1    20
 -1.1253434911980871E-01 a      1521     0    77     1     1
  1.8585999683984086E-01 a      1522     0    77     1     2
 -5.3986411879794860E-02 a      1523     0    77     1     3
 -2.8313152297411336E-02 a      1524     0    77     1     4
  1.6887071638994908E-01 a      1525     0    77     1     5
 -7.8605821663463762E-02 a      1526     0    77     1     6
  1.6152567183189956E-01 a      1527     0    77     1     7
  1.3192402564600855E-01 a      1528     0    77     1     8
 -1.3679943885850721E-01 a      1529     0    77     1     9
 -5.6585813020920708E-02 a      1530     0    77     1    10
 -6.8552723706271357E-02 a      1531     0    77     1    11
  5.3609897413448682E-02 a      1532     0    77     1    12
  4.9013060802344736E-02 a      1533     0    77     1    13
 -3.5825419345734697E-03 a      1534     0    77     1    14
  1.2720679947566357E-01 a      1535     0    77     1    15
  7.0661629280992721E-04 a      1536     0    77     1    16
 -1.1485520834247797E-02 a      1537     0    77     1    17
  7.3204979269404252E-02 a      1538     0    77     1    18
 -9.5106196631480594E-02 a      1539     0    77     1    19
  2.9940414822648997E-03 a      1540     0    77     1    20
  4.2276977522435075E-02 a      1541     0    78     1     1
  5.0805357682867709E-02 a      1542     0    78     1     2
 -1.3680599487701220E-02 a      1543     0    78     1     3
 -1.3315956822512687E-01 a      1544     0    78     1     4
  3.7456247144231264E-02 a      1545     0    78     1     5
 -3.5936347472428146E-03 a      1546     0    78     1     6
  1.0824808890978031E-01 a      1547     0    78     1     7
  2.8238771156021445E-02 a      1548     0    78     1     8
 -1.2988757107110854E-01 a      1549     0    78     1     9
  9.5729129304409924E-02 a      1550     0    78     1    10
  1.2295984799057422E-01 a      1551     0    78     1    11
  3.0701029956467021E-02 a      1552     0    78     1    12
  3.7579795537991512E-02 a      1553     0    78     1    13
  9.3612315032782376E-02 a      1554     0    78     1    14
 -3.8999261486593481E-02 a      1555     0    78     1    15
 -1.6395445004236602E-02 a      1556     0    78     1    16
 -1.6091059240953644E-02 a      1557     0    78     1    17
 -8.5797973800060504E-02 a      1558     0    78     1    18
 -3.7954547571387866E-02 a      1559     0    78     1    19
  7.1122611079130968E-02 a      1560     0    78     1    20
 -3.1403939738222694E-03 a      1561     0    79     1     1
  1.6403713586399937E-01 a      1562     0    79     1     2
 -7.7541465911362420E-02 a      1563     0    79     1     3
  6.3369695677464116E-02 a      1564     0    79     1     4
 -6.5357255153816504E-02 a      1565     0    79     1     5
 -3.0201083920498119E-02 a      1566     0    79     1     6
  6.0508464308952369E-02 a      1567     0    79     1     7
  2.0337427417288823E-01 a      1568     0    79     1     8
 -1.0392451617199047E-01 a      1569     0    79     1     9
  1.5671563175245637E-01 a      1570     0    79     1    10
 -1.1155626323207833E-01 a      1571     0    79     1    11
  1.0383835096833266E-01 a      1572     0    79     1    12
  1.4651817401303532E-01 a      1573     0    79     1    13
 -1.3455396758904628E-01 a      1574     0    79     1    14
 -3.2630465991825279E-02 a      1575     0    79     1    15
  5.2931279289469696E-02 a      1576     0    79     1    16
  5.0689646054139420E-02 a      1577     0    79     1    17
 -1.8816367882899318E-01 a      1578     0    79     1    18
 -2.4340966225812183E-01 a      1579     0    79     1    19
 -7.4444283820800317E-02 a      1580     0    79     1    20
 -1.1563580468223354E-03 a      1581     0    80     1     1
 -1.5094351019018659E-01 a      1582     0    80     1     2
  2.2116605728836269E-01 a      1583     0    80     1     3
  1.4363793089201723E-01 a      1584     0    80     1     4
  2.8389128169841604E-01 a      1585     0    80     1     5
  2.7968887466715608E-01 a      1586     0    80     1     6
 -1.1641750302510714E-01 a      1587     0    80     1     7
 -4.6252812064126986E-02 a      1588     0    80     1     8
 -1.1363007085112414E-01 a      1589     0    80     1     9
 -2.4155886126404824E-03 a      1590     0    80     1    10
 -9.5376113330296525E-02 a      1591     0    80     1    11
  1.2143369846084186E-01 a      1592     0    80     1    12
  1.2366967982573795E-01 a      1593     0    80     1    13
  8.6365993659097723E-02 a      1594     0    80     1    14
 -1.6369319462752524E-01 a      1595     0    80     1    15
  9.8116204915983898E-02 a      1596     0    80     1    16
 -1.0394649896595745E-01 a      1597     0    80     1    17
  4.3173153313424029E-02 a      1598     0    80     1    18
 -7.5027026317661324E-02 a      1599     0    80     1    19
 -3.5084829477232425E-02 a      1600     0    80     1    20
  4.4284070578420287E-01 b      1601     1     1
  1.0830648628459336E+00 b      1602     1     2
 -1.4868129273904580E+00 b      1603     1     3
  7.8246102274320717E-01 b      1604     1     4
 -5.0734251184522894E-01 b      1605     1     5
  7.4251416664548109E-01 b      1606     1     6
  2.2083296704634375E-01 b      1607     1     7
 -8.3192653239778341E-02 b      1608     1     8
 -3.3374539797274100E-01 b      1609     1     9
  1.1725456969677877E+00 b      1610     1    10
  9.2313406318705570E-03 b      1611     1    11
 -1.5617841062465305E+00 b      1612     1    12
 -1.0531164497676382E+00 b      1613     1    13
  6.1389746415737800E-01 b      1614     1    14
 -1.5760992006292844E+00 b      1615     1    15
 -3.7620622605983917E-01 b      1616     1    16
  3.5802923173979068E-01 b      1617     1    17
 -3.1100944055522317E-01 b      1618     1    18
 -1.0527396423702136E+00 b      1619     1    19
 -2.1216256575928066E-01 b      1620     1    20
  6.2361310793802575E-02 a      1621     1     1     2     1
  8.0785853008971320E-01 a      1622     1     1     2     2
 -2.8034657307610789E-01 a      1623     1     1     2     3
 -1.1425118560505375E-01 a      1624     1     1     2     4
 -5.8953661438168348E-01 a      1625     1     1     2     5
 -3.1025744656014931E-01 a      1626     1     1     2     6
 -1.7963383343794809E-01 a      1627     1     1     2     7
