################################################################################
# Neural network connection values (weights and biases).
################################################################################
# Col  Name       Description
################################################################################
# 1    connection Neural network connection value.
# 2    t          Connection type (a = weight, b = bias).
# 3    index      Index enumerating weights.
# 4    l_s        Starting point layer (end point layer for biases).
# 5    n_s        Starting point neuron in starting layer (end point neuron for biases).
# 6    l_e        End point layer.
# 7    n_e        End point neuron in end layer.
################################################################################
#                      1 2         3     4     5     6     7
#             connection t     index   l_s   n_s   l_e   n_e
############################################################
 -8.0385320969916477E-02 a         1     0     1     1     1
 -9.8374573827801723E-02 a         2     0     1     1     2
 -7.9052237921003243E-02 a         3     0     1     1     3
  8.3321449662628708E-02 a         4     0     1     1     4
  1.7939348782723966E-01 a         5     0     1     1     5
  4.2622934264093415E-02 a         6     0     1     1     6
  1.4818308119175813E-01 a         7     0     1     1     7
  1.3255257981172884E-02 a         8     0     1     1     8
 -1.8438623655948397E-01 a         9     0     1     1     9
  6.6428102032323147E-02 a        10     0     1     1    10
 -1.8490434107163550E-01 a        11     0     1     1    11
  4.3125028460008964E-02 a        12     0     1     1    12
  2.4999394290884047E-02 a        13     0     1     1    13
  1.4025652437576860E-01 a        14     0     1     1    14
  4.2935838749798158E-02 a        15     0     1     1    15
 -2.8284979633248195E-02 a        16     0     1     1    16
  8.9084160987825900E-02 a        17     0     1     1    17
 -6.5308176511229860E-02 a        18     0     1     1    18
  1.1988628019654496E-01 a        19     0     1     1    19
 -1.5466308326518397E-02 a        20     0     1     1    20
 -1.2669392235355681E-01 a        21     0     2     1     1
  3.9096270744227238E-02 a        22     0     2     1     2
  1.1064982620735631E-01 a        23     0     2     1     3
 -4.8543501200819404E-03 a        24     0     2     1     4
 -9.0847593683716199E-02 a        25     0     2     1     5
  1.1260022712137270E-01 a        26     0     2     1     6
 -7.4096539534087305E-02 a        27     0     2     1     7
  8.9449395348045149E-02 a        28     0     2     1     8
  1.3624293832145878E-01 a        29     0     2     1     9
 -4.2418946086791804E-03 a        30     0     2     1    10
 -1.6926168631493563E-01 a        31     0     2     1    11
 -1.0609547514196598E-01 a        32     0     2     1    12
  2.2110114217869989E-01 a        33     0     2     1    13
  3.8001960355468697E-02 a        34     0     2     1    14
  1.1707622527781084E-01 a        35     0     2     1    15
 -2.5389453168216003E-02 a        36     0     2     1    16
 -4.0728916841992348E-02 a        37     0     2     1    17
  1.4775475503046145E-01 a        38     0     2     1    18
 -1.9779941958835038E-02 a        39     0     2     1    19
  4.8605990259115640E-02 a        40     0     2     1    20
 -1.0564535106346927E-01 a        41     0     3     1     1
 -4.0114261915818780E-02 a        42     0     3     1     2
  3.2394868814503576E-02 a        43     0     3     1     3
 -1.1771687878119490E-01 a        44     0     3     1     4
  2.5425247279790253E-01 a        45     0     3     1     5
 -4.6376272059884004E-02 a        46     0     3     1     6
  1.6633213446472114E-01 a        47     0     3     1     7
  1.1897308090160104E-01 a        48     0     3     1     8
  5.4541594803494652E-02 a        49     0     3     1     9
  1.1384072958386232E-01 a        50     0     3     1    10
 -1.0575947951475538E-01 a        51     0     3     1    11
 -2.4545434345205844E-03 a        52     0     3     1    12
  1.6674438187503585E-01 a        53     0     3     1    13
 -7.3069174507402926E-02 a        54     0     3     1    14
  6.0080917899301568E-02 a        55     0     3     1    15
  3.9901378892299742E-02 a        56     0     3     1    16
 -8.9439068673310876E-02 a        57     0     3     1    17
  1.3880816084289976E-01 a        58     0     3     1    18
  2.4405406041320579E-01 a        59     0     3     1    19
  4.0618967405808767E-02 a        60     0     3     1    20
 -1.2853695013380700E-01 a        61     0     4     1     1
 -2.1832230308852996E-02 a        62     0     4     1     2
 -6.9148008414004175E-02 a        63     0     4     1     3
  6.7512067962872610E-02 a        64     0     4     1     4
 -4.6258293098095052E-02 a        65     0     4     1     5
  9.2652285857632508E-02 a        66     0     4     1     6
  1.1698435049729280E-01 a        67     0     4     1     7
 -1.0806573000946233E-01 a        68     0     4     1     8
  3.6853888218116790E-02 a        69     0     4     1     9
 -3.9630114773040473E-02 a        70     0     4     1    10
  1.1124663238421087E-01 a        71     0     4     1    11
 -2.9876621316260440E-02 a        72     0     4     1    12
 -1.0271346720007067E-01 a        73     0     4     1    13
 -2.1621168024045753E-01 a        74     0     4     1    14
  1.3062506194081773E-02 a        75     0     4     1    15
 -1.2751823758217479E-01 a        76     0     4     1    16
  1.5242536548780822E-01 a        77     0     4     1    17
  1.1685052809016994E-01 a        78     0     4     1    18
 -2.8256662046366836E-02 a        79     0     4     1    19
  1.4310558121377007E-01 a        80     0     4     1    20
  1.1923608360336309E-01 a        81     0     5     1     1
  6.3482692744600500E-02 a        82     0     5     1     2
  1.8386282339128972E-02 a        83     0     5     1     3
 -8.4401768567737803E-02 a        84     0     5     1     4
 -2.4967567015408299E-03 a        85     0     5     1     5
  4.2800736059705018E-02 a        86     0     5     1     6
  2.7847111560917185E-02 a        87     0     5     1     7
 -1.4833417684927816E-01 a        88     0     5     1     8
  1.5732647015404710E-01 a        89     0     5     1     9
 -1.6820599968725919E-01 a        90     0     5     1    10
  2.9102672767460615E-02 a        91     0     5     1    11
  5.3413973608641284E-05 a        92     0     5     1    12
  1.3681299707213646E-01 a        93     0     5     1    13
 -2.3494923052197531E-01 a        94     0     5     1    14
 -1.3486481285426752E-01 a        95     0     5     1    15
  6.5345013792114978E-02 a        96     0     5     1    16
 -2.7715726140705466E-01 a        97     0     5     1    17
 -5.3354879325854192E-02 a        98     0     5     1    18
  8.5608246275290845E-02 a        99     0     5     1    19
  1.6553252237032262E-01 a       100     0     5     1    20
  1.0927186779715028E-01 a       101     0     6     1     1
 -8.2291494796049941E-02 a       102     0     6     1     2
 -5.3558043246982913E-02 a       103     0     6     1     3
  3.1022521117886719E-02 a       104     0     6     1     4
  1.4900470369289567E-01 a       105     0     6     1     5
 -1.0564372311132955E-01 a       106     0     6     1     6
  1.6830318626501425E-01 a       107     0     6     1     7
 -9.9609121675436924E-02 a       108     0     6     1     8
 -2.1685322921621487E-02 a       109     0     6     1     9
 -5.4245755604707423E-02 a       110     0     6     1    10
  2.4478954868251021E-01 a       111     0     6     1    11
  1.2062883056736957E-01 a       112     0     6     1    12
 -1.9188677979988611E-01 a       113     0     6     1    13
  1.4845569739565609E-01 a       114     0     6     1    14
 -1.0185092595011140E-01 a       115     0     6     1    15
  4.7799278606212671E-02 a       116     0     6     1    16
  1.6045404827443671E-03 a       117     0     6     1    17
 -2.1654854619720268E-01 a       118     0     6     1    18
 -3.4932598076768302E-02 a       119     0     6     1    19
  2.5477480223823012E-01 a       120     0     6     1    20
  4.3544119265501842E-02 a       121     0     7     1     1
  1.9808814198913345E-02 a       122     0     7     1     2
 -9.3652358050395849E-03 a       123     0     7     1     3
 -2.2792030668950269E-01 a       124     0     7     1     4
  1.2626384567909332E-01 a       125     0     7     1     5
  1.4592015048585913E-01 a       126     0     7     1     6
 -2.0785496974245063E-01 a       127     0     7     1     7
 -1.7811804074220272E-01 a       128     0     7     1     8
 -7.9173565133979704E-02 a       129     0     7     1     9
  1.3853558110919647E-02 a       130     0     7     1    10
  3.6586127687600514E-02 a       131     0     7     1    11
 -1.9157201604017828E-02 a       132     0     7     1    12
  5.5865604902616750E-03 a       133     0     7     1    13
 -8.1977231144166454E-02 a       134     0     7     1    14
 -1.6455099604087903E-01 a       135     0     7     1    15
  2.4806156260768716E-01 a       136     0     7     1    16
  5.2382146960999680E-02 a       137     0     7     1    17
 -1.4931380818957327E-01 a       138     0     7     1    18
 -1.9006399452818973E-01 a       139     0     7     1    19
  2.0560438182777696E-01 a       140     0     7     1    20
 -7.3849485064121312E-02 a       141     0     8     1     1
  5.4192192586926986E-02 a       142     0     8     1     2
 -6.0754464091267939E-02 a       143     0     8     1     3
 -1.5544297459596240E-01 a       144     0     8     1     4
  6.8019880856859796E-02 a       145     0     8     1     5
 -1.3282129646701896E-01 a       146     0     8     1     6
  2.2373293432442501E-02 a       147     0     8     1     7
  2.3296237363244696E-01 a       148     0     8     1     8
  1.7621040182466133E-01 a       149     0     8     1     9
  6.0804185947441948E-02 a       150     0     8     1    10
 -1.5426637567057771E-02 a       151     0     8     1    11
 -1.0989157675001253E-01 a       152     0     8     1    12
  1.6043651326346289E-01 a       153     0     8     1    13
 -2.6354942910280860E-01 a       154     0     8     1    14
 -3.4206371628406021E-02 a       155     0     8     1    15
  1.2502710842677911E-01 a       156     0     8     1    16
  5.9812663367687438E-02 a       157     0     8     1    17
  1.8699661751259145E-01 a       158     0     8     1    18
  1.1392553589587960E-01 a       159     0     8     1    19
 -3.1189298791615533E-01 a       160     0     8     1    20
  3.9604999981395231E-02 a       161     0     9     1     1
  6.2448317332847114E-02 a       162     0     9     1     2
 -1.8985176930307754E-01 a       163     0     9     1     3
  5.3412108146263217E-02 a       164     0     9     1     4
 -1.1755506660611763E-01 a       165     0     9     1     5
  8.8553804376424683E-02 a       166     0     9     1     6
 -1.3076366410729068E-01 a       167     0     9     1     7
  1.3711166408605138E-01 a       168     0     9     1     8
 -1.8763327077655773E-01 a       169     0     9     1     9
  5.4188902483996215E-02 a       170     0     9     1    10
  2.8279583198520551E-02 a       171     0     9     1    11
 -1.3935351541185536E-04 a       172     0     9     1    12
 -1.4092947589544453E-03 a       173     0     9     1    13
  2.2764477117319409E-01 a       174     0     9     1    14
  2.0445582407338025E-01 a       175     0     9     1    15
  8.5866269656111410E-02 a       176     0     9     1    16
  2.2236830121497234E-01 a       177     0     9     1    17
 -1.3655324242245354E-01 a       178     0     9     1    18
 -3.2148570265248116E-02 a       179     0     9     1    19
 -2.6136229802451083E-01 a       180     0     9     1    20
  1.4320497981839767E-01 a       181     0    10     1     1
  9.0891902114589543E-02 a       182     0    10     1     2
  1.1482526607753274E-01 a       183     0    10     1     3
 -1.5178952384097208E-01 a       184     0    10     1     4
 -5.3485923357939821E-02 a       185     0    10     1     5
 -7.9432600248569435E-02 a       186     0    10     1     6
 -2.5521163633482086E-01 a       187     0    10     1     7
 -4.5389121755945686E-02 a       188     0    10     1     8
 -1.9679242608997685E-01 a       189     0    10     1     9
 -1.3861085595246836E-01 a       190     0    10     1    10
 -5.7869972731560901E-02 a       191     0    10     1    11
 -3.8897706991789419E-02 a       192     0    10     1    12
 -7.5690680532041699E-02 a       193     0    10     1    13
  9.4773368750660628E-02 a       194     0    10     1    14
 -2.1615776779384660E-01 a       195     0    10     1    15
 -8.9120049552885175E-02 a       196     0    10     1    16
  1.6425967575460301E-01 a       197     0    10     1    17
 -1.5098735361660812E-01 a       198     0    10     1    18
 -1.9740023341982274E-01 a       199     0    10     1    19
 -1.9006464941606038E-01 a       200     0    10     1    20
  1.8806241782064648E-01 a       201     0    11     1     1
  4.0754590248708701E-03 a       202     0    11     1     2
 -1.5749505896918584E-01 a       203     0    11     1     3
  2.2325200113679877E-01 a       204     0    11     1     4
 -4.5368056558933674E-02 a       205     0    11     1     5
  2.1671514062662398E-01 a       206     0    11     1     6
  1.3242609582759043E-01 a       207     0    11     1     7
  1.3780825592573007E-01 a       208     0    11     1     8
 -2.8076358058302432E-02 a       209     0    11     1     9
  9.4439518541799980E-02 a       210     0    11     1    10
  9.4739542880766525E-02 a       211     0    11     1    11
  6.4541489937371063E-02 a       212     0    11     1    12
  1.1316745119424851E-01 a       213     0    11     1    13
  2.0339010283227074E-01 a       214     0    11     1    14
 -1.6345873558524699E-02 a       215     0    11     1    15
 -2.7853374191133279E-01 a       216     0    11     1    16
 -1.4434034634722590E-01 a       217     0    11     1    17
  1.3749111968334146E-01 a       218     0    11     1    18
  8.8083310605546278E-02 a       219     0    11     1    19
  3.8216888438183938E-02 a       220     0    11     1    20
  2.0645494574979750E-01 a       221     0    12     1     1
  2.2704877053854568E-02 a       222     0    12     1     2
  1.6287747846640666E-01 a       223     0    12     1     3
  3.7746586682025497E-02 a       224     0    12     1     4
  2.2634089420261773E-02 a       225     0    12     1     5
  3.7215573187701571E-02 a       226     0    12     1     6
 -1.4091564993727766E-02 a       227     0    12     1     7
 -1.7723106574206676E-01 a       228     0    12     1     8
 -6.1485962589266314E-02 a       229     0    12     1     9
 -9.4970649701652282E-02 a       230     0    12     1    10
  2.5126457909675128E-02 a       231     0    12     1    11
  7.2663392314695638E-02 a       232     0    12     1    12
  6.3397853500167843E-03 a       233     0    12     1    13
  1.5944928639533562E-01 a       234     0    12     1    14
  1.7236354883349830E-01 a       235     0    12     1    15
  2.2589541083777087E-02 a       236     0    12     1    16
 -2.2817054070500670E-01 a       237     0    12     1    17
 -5.0658196420457158E-02 a       238     0    12     1    18
 -8.1204154163599676E-02 a       239     0    12     1    19
 -2.5961142165612686E-02 a       240     0    12     1    20
  2.7519901472817633E-03 a       241     0    13     1     1
  6.0302312508236151E-02 a       242     0    13     1     2
  2.6095655542087693E-02 a       243     0    13     1     3
 -1.4487630948903277E-01 a       244     0    13     1     4
 -6.7344724395532393E-02 a       245     0    13     1     5
 -8.0000964339726671E-02 a       246     0    13     1     6
 -1.1298837439066292E-01 a       247     0    13     1     7
 -3.1947567613904521E-02 a       248     0    13     1     8
  3.5025231031456855E-01 a       249     0    13     1     9
  4.8349664149661645E-02 a       250     0    13     1    10
  2.9601159468897579E-02 a       251     0    13     1    11
 -2.1066754809064056E-01 a       252     0    13     1    12
 -2.0019947422050394E-01 a       253     0    13     1    13
  9.9991025162243466E-02 a       254     0    13     1    14
 -1.3021492751878083E-01 a       255     0    13     1    15
 -1.3810323419665738E-01 a       256     0    13     1    16
 -4.4103000471508856E-02 a       257     0    13     1    17
  1.2264616237700196E-01 a       258     0    13     1    18
  1.0513925409303930E-01 a       259     0    13     1    19
 -1.2913987991383438E-01 a       260     0    13     1    20
  1.3143276301960241E-01 a       261     0    14     1     1
 -2.5485423775013594E-01 a       262     0    14     1     2
 -1.2044512744329500E-01 a       263     0    14     1     3
  2.0188954267874851E-01 a       264     0    14     1     4
 -2.0190111221187057E-01 a       265     0    14     1     5
  3.9615482255781757E-02 a       266     0    14     1     6
 -9.6780901773675793E-02 a       267     0    14     1     7
 -7.8799773504972553E-02 a       268     0    14     1     8
 -1.0208415267292367E-01 a       269     0    14     1     9
  4.7634453975563835E-03 a       270     0    14     1    10
 -4.7444244311217632E-02 a       271     0    14     1    11
  2.1795148784128971E-03 a       272     0    14     1    12
  3.0681309420354952E-01 a       273     0    14     1    13
 -7.7001630078467428E-02 a       274     0    14     1    14
 -1.3156305620106121E-01 a       275     0    14     1    15
 -3.2268680605540355E-02 a       276     0    14     1    16
 -1.9088786907839730E-01 a       277     0    14     1    17
 -7.7104188340660934E-02 a       278     0    14     1    18
  1.7837199833313857E-02 a       279     0    14     1    19
  9.3912394998804744E-02 a       280     0    14     1    20
 -2.6103936513133597E-01 a       281     0    15     1     1
 -1.5537175786927360E-01 a       282     0    15     1     2
  1.1751664720908298E-01 a       283     0    15     1     3
 -1.0244850829547320E-01 a       284     0    15     1     4
 -8.4901152450251718E-02 a       285     0    15     1     5
 -2.0888237284200500E-01 a       286     0    15     1     6
  4.1052552635529323E-02 a       287     0    15     1     7
  3.4018949601344398E-03 a       288     0    15     1     8
  1.5790678785568049E-01 a       289     0    15     1     9
 -7.5894714886907563E-02 a       290     0    15     1    10
  1.4280516554455547E-02 a       291     0    15     1    11
 -1.1389129843167388E-01 a       292     0    15     1    12
 -1.8470765691138705E-01 a       293     0    15     1    13
 -7.0002679078192936E-02 a       294     0    15     1    14
  1.1326501741992189E-03 a       295     0    15     1    15
  1.5253537350467378E-01 a       296     0    15     1    16
  2.8554634096132425E-01 a       297     0    15     1    17
 -6.8410200744174934E-02 a       298     0    15     1    18
  4.8687593381605406E-03 a       299     0    15     1    19
  1.4021221021377367E-01 a       300     0    15     1    20
 -1.6514616571023635E-01 a       301     0    16     1     1
  9.1711430377518818E-02 a       302     0    16     1     2
 -1.7545307223369530E-01 a       303     0    16     1     3
 -1.3389259769446704E-01 a       304     0    16     1     4
 -1.0879696967726699E-01 a       305     0    16     1     5
  1.2697772182777450E-01 a       306     0    16     1     6
  5.1941484418467104E-02 a       307     0    16     1     7
 -6.0459454666054450E-02 a       308     0    16     1     8
  1.0185523819140563E-01 a       309     0    16     1     9
 -1.9229593283226201E-01 a       310     0    16     1    10
  2.1904288812239409E-01 a       311     0    16     1    11
  1.1188367922886566E-01 a       312     0    16     1    12
  7.5830775865800365E-02 a       313     0    16     1    13
 -1.2310935974790368E-01 a       314     0    16     1    14
  4.5787998533663426E-03 a       315     0    16     1    15
 -1.6121363223901961E-01 a       316     0    16     1    16
  2.2651598295190992E-02 a       317     0    16     1    17
 -6.3566839944966841E-02 a       318     0    16     1    18
 -1.9986091263091527E-01 a       319     0    16     1    19
  1.1590616676646909E-01 a       320     0    16     1    20
  8.1192772938608035E-02 a       321     0    17     1     1
  1.7258962025575496E-02 a       322     0    17     1     2
 -1.7121430930092393E-01 a       323     0    17     1     3
 -1.6046009214851439E-02 a       324     0    17     1     4
 -1.4988334059786893E-02 a       325     0    17     1     5
  9.4232885877356232E-02 a       326     0    17     1     6
 -2.7454104647279765E-01 a       327     0    17     1     7
 -2.4123277236905905E-01 a       328     0    17     1     8
 -7.7827649942909416E-02 a       329     0    17     1     9
 -1.7610764642502907E-01 a       330     0    17     1    10
 -1.5756616566893769E-01 a       331     0    17     1    11
  1.5138043753802493E-02 a       332     0    17     1    12
  3.6434890439247969E-02 a       333     0    17     1    13
 -1.1799260247361325E-01 a       334     0    17     1    14
  3.2880554635015144E-02 a       335     0    17     1    15
  8.8675104309908423E-02 a       336     0    17     1    16
  2.8357927542790462E-01 a       337     0    17     1    17
 -2.2754495807967595E-01 a       338     0    17     1    18
  1.3569650648031896E-02 a       339     0    17     1    19
  1.4623752348532301E-01 a       340     0    17     1    20
 -7.0417593008934132E-02 a       341     0    18     1     1
  1.7940927593704428E-01 a       342     0    18     1     2
 -1.1189917897106327E-02 a       343     0    18     1     3
 -2.4032260823898954E-01 a       344     0    18     1     4
  2.2864695878456267E-02 a       345     0    18     1     5
  1.2130426681641303E-01 a       346     0    18     1     6
 -7.9362004663404082E-02 a       347     0    18     1     7
  1.5961021563761533E-02 a       348     0    18     1     8
 -1.2097450849542763E-02 a       349     0    18     1     9
 -1.4600357649935078E-01 a       350     0    18     1    10
  2.8502125631614625E-02 a       351     0    18     1    11
 -7.1298083243097480E-03 a       352     0    18     1    12
  1.0747218718956929E-01 a       353     0    18     1    13
 -1.7624793635484054E-01 a       354     0    18     1    14
 -5.2847635523138189E-02 a       355     0    18     1    15
 -5.0219910716926060E-02 a       356     0    18     1    16
 -1.3333119836875801E-01 a       357     0    18     1    17
  1.2250255103732610E-01 a       358     0    18     1    18
 -3.9667574065499839E-01 a       359     0    18     1    19
  9.2118010269949521E-02 a       360     0    18     1    20
  2.5920537598327698E-01 a       361     0    19     1     1
  8.3556214984040839E-02 a       362     0    19     1     2
  4.0878020236503075E-02 a       363     0    19     1     3
  2.3490393159766039E-02 a       364     0    19     1     4
 -1.6762638824006990E-01 a       365     0    19     1     5
  1.0289738875170798E-01 a       366     0    19     1     6
 -1.1638201089656550E-01 a       367     0    19     1     7
 -6.6357433386551992E-02 a       368     0    19     1     8
 -1.2226684637283439E-01 a       369     0    19     1     9
 -6.3257441242036763E-02 a       370     0    19     1    10
 -4.5026820819044994E-02 a       371     0    19     1    11
  8.2993122355632651E-02 a       372     0    19     1    12
 -7.7792942314725930E-02 a       373     0    19     1    13
 -4.1075581883750108E-02 a       374     0    19     1    14
 -1.2994739307351452E-02 a       375     0    19     1    15
  6.7987263554033214E-02 a       376     0    19     1    16
  5.9303294320960452E-02 a       377     0    19     1    17
  5.0751590008223317E-02 a       378     0    19     1    18
  8.1503346264909071E-02 a       379     0    19     1    19
 -1.4743937653658334E-01 a       380     0    19     1    20
  1.9670950022390721E-01 a       381     0    20     1     1
 -1.5245565797965467E-02 a       382     0    20     1     2
 -1.9625139661991897E-01 a       383     0    20     1     3
 -1.1169993989438452E-01 a       384     0    20     1     4
  2.9023327117790439E-02 a       385     0    20     1     5
  3.0274896533896260E-02 a       386     0    20     1     6
  3.4458868218422867E-02 a       387     0    20     1     7
 -7.5301474703264107E-02 a       388     0    20     1     8
 -1.5095967088159920E-01 a       389     0    20     1     9
  1.0294898270448490E-01 a       390     0    20     1    10
  9.3989886176565798E-02 a       391     0    20     1    11
 -5.7968182030215198E-02 a       392     0    20     1    12
 -1.0698206157435711E-01 a       393     0    20     1    13
 -1.0244850957088580E-01 a       394     0    20     1    14
 -9.6638523107884979E-03 a       395     0    20     1    15
  8.6381440397183193E-02 a       396     0    20     1    16
 -8.8101300907361554E-02 a       397     0    20     1    17
 -2.1759184682774749E-01 a       398     0    20     1    18
 -9.0448714002552971E-02 a       399     0    20     1    19
  2.4380373011721274E-02 a       400     0    20     1    20
 -1.6555245030889235E-01 a       401     0    21     1     1
 -4.3301716381060583E-02 a       402     0    21     1     2
  5.5443495450750710E-02 a       403     0    21     1     3
  4.0129461832576492E-02 a       404     0    21     1     4
  1.0868847530742803E-01 a       405     0    21     1     5
  1.9275021130663955E-02 a       406     0    21     1     6
  1.4310010555252289E-01 a       407     0    21     1     7
  1.6470091947693791E-01 a       408     0    21     1     8
  7.8068924875140028E-02 a       409     0    21     1     9
  4.0496972405911547E-02 a       410     0    21     1    10
 -2.9663831145111763E-01 a       411     0    21     1    11
 -1.0971430497802752E-01 a       412     0    21     1    12
 -2.5335907311806477E-01 a       413     0    21     1    13
  1.2015644768989062E-01 a       414     0    21     1    14
 -9.4367694498992561E-03 a       415     0    21     1    15
 -1.7785621073396482E-01 a       416     0    21     1    16
  2.5534854205016122E-01 a       417     0    21     1    17
  4.4232193546383143E-02 a       418     0    21     1    18
  1.0332180332275349E-01 a       419     0    21     1    19
  6.9542889937940791E-02 a       420     0    21     1    20
 -3.1288975763358193E-02 a       421     0    22     1     1
  3.0298373651750660E-02 a       422     0    22     1     2
  1.2693717768995937E-02 a       423     0    22     1     3
 -5.8254365835282512E-02 a       424     0    22     1     4
  7.4479254724283850E-02 a       425     0    22     1     5
  5.7306499876718181E-02 a       426     0    22     1     6
 -1.1031417197264320E-01 a       427     0    22     1     7
  1.1189629352771295E-01 a       428     0    22     1     8
 -9.3203710990076571E-02 a       429     0    22     1     9
  1.5500117011982054E-01 a       430     0    22     1    10
  6.9834361964214914E-02 a       431     0    22     1    11
  5.1066859904440026E-03 a       432     0    22     1    12
  6.2130047420092725E-02 a       433     0    22     1    13
 -7.3690865075689116E-02 a       434     0    22     1    14
 -1.6127868095888445E-01 a       435     0    22     1    15
 -2.6484921853208675E-02 a       436     0    22     1    16
 -7.1438227523221987E-03 a       437     0    22     1    17
  5.5804250787287013E-02 a       438     0    22     1    18
 -1.9431510738621191E-01 a       439     0    22     1    19
 -1.3962427328709112E-01 a       440     0    22     1    20
 -6.6725616024868095E-02 a       441     0    23     1     1
 -1.0891428336101194E-01 a       442     0    23     1     2
 -2.5536307182590173E-01 a       443     0    23     1     3
  4.5996674334011570E-02 a       444     0    23     1     4
 -7.2715219405623338E-02 a       445     0    23     1     5
 -1.2825247203235368E-01 a       446     0    23     1     6
  1.2544680241513892E-01 a       447     0    23     1     7
  1.2273544744616975E-01 a       448     0    23     1     8
  1.8783764564873859E-01 a       449     0    23     1     9
  1.7086122908105152E-02 a       450     0    23     1    10
  5.1245565297737557E-02 a       451     0    23     1    11
 -9.8159839656385153E-02 a       452     0    23     1    12
 -8.7178820228282813E-02 a       453     0    23     1    13
 -9.2047170929454483E-02 a       454     0    23     1    14
 -3.2550839151333902E-02 a       455     0    23     1    15
 -4.9651885336105227E-02 a       456     0    23     1    16
  9.1013084217110130E-02 a       457     0    23     1    17
 -1.6613960005604800E-01 a       458     0    23     1    18
  2.4357657850708944E-01 a       459     0    23     1    19
 -4.5863712727249845E-02 a       460     0    23     1    20
  2.6906726063333636E-02 a       461     0    24     1     1
 -1.6271433880331854E-01 a       462     0    24     1     2
 -4.6275161040024035E-02 a       463     0    24     1     3
 -1.0548935208369781E-01 a       464     0    24     1     4
 -5.8771052108980891E-02 a       465     0    24     1     5
  8.0794727284451612E-02 a       466     0    24     1     6
  8.5584105200951707E-02 a       467     0    24     1     7
  1.1049291378207002E-01 a       468     0    24     1     8
 -1.6567224077345855E-01 a       469     0    24     1     9
 -5.8759184094185235E-02 a       470     0    24     1    10
 -2.0701802861818570E-02 a       471     0    24     1    11
  1.4204346134910845E-01 a       472     0    24     1    12
  1.5629362645999514E-01 a       473     0    24     1    13
 -3.7864488781684295E-02 a       474     0    24     1    14
  1.2163577989563050E-02 a       475     0    24     1    15
 -5.8009839528527909E-02 a       476     0    24     1    16
 -3.0532135418688638E-02 a       477     0    24     1    17
 -6.0427662871647164E-02 a       478     0    24     1    18
  9.4731227340756757E-02 a       479     0    24     1    19
 -7.1494605655608209E-02 a       480     0    24     1    20
 -1.3739853024332019E-01 a       481     0    25     1     1
 -7.4484546647109434E-02 a       482     0    25     1     2
  1.1671304817726690E-01 a       483     0    25     1     3
 -3.2653840713366536E-02 a       484     0    25     1     4
  2.4822385074047639E-03 a       485     0    25     1     5
  1.4331987415121591E-01 a       486     0    25     1     6
 -2.7658108699619649E-01 a       487     0    25     1     7
 -2.3302642763385004E-01 a       488     0    25     1     8
 -2.1354686929768776E-01 a       489     0    25     1     9
  2.3017208526933232E-03 a       490     0    25     1    10
 -1.4131280651165531E-01 a       491     0    25     1    11
 -1.1738215477232722E-01 a       492     0    25     1    12
  5.4404219156131736E-02 a       493     0    25     1    13
 -1.6526813000219473E-01 a       494     0    25     1    14
 -4.9296142264539655E-02 a       495     0    25     1    15
  3.5682719500633578E-02 a       496     0    25     1    16
  1.6327614789699410E-01 a       497     0    25     1    17
 -9.3956092654820703E-02 a       498     0    25     1    18
  4.6921433475657921E-02 a       499     0    25     1    19
 -5.5728991025994955E-02 a       500     0    25     1    20
  1.2418219765206030E-01 a       501     0    26     1     1
  1.4672113806950993E-01 a       502     0    26     1     2
 -6.7924472974951064E-02 a       503     0    26     1     3
  1.2809379342912419E-01 a       504     0    26     1     4
 -1.0349116022142910E-01 a       505     0    26     1     5
  1.0676932175742546E-01 a       506     0    26     1     6
 -1.8059267992439737E-01 a       507     0    26     1     7
  5.2456448154394084E-02 a       508     0    26     1     8
 -5.5611957203556467E-02 a       509     0    26     1     9
 -3.3194617377931668E-02 a       510     0    26     1    10
  4.2909345716264584E-02 a       511     0    26     1    11
  5.3909612597551913E-02 a       512     0    26     1    12
  3.5429234195237513E-01 a       513     0    26     1    13
 -1.2970692595914254E-01 a       514     0    26     1    14
 -1.2789707999506680E-01 a       515     0    26     1    15
 -2.2020684721353177E-02 a       516     0    26     1    16
 -3.3474074625419757E-02 a       517     0    26     1    17
  1.4477307927503008E-01 a       518     0    26     1    18
 -2.1525394378735388E-01 a       519     0    26     1    19
  1.9847858728799281E-01 a       520     0    26     1    20
 -7.4727359970775703E-02 a       521     0    27     1     1
  1.0989455580665133E-02 a       522     0    27     1     2
  3.0352540797057809E-01 a       523     0    27     1     3
  1.3504579835546626E-01 a       524     0    27     1     4
 -9.5914534447913216E-02 a       525     0    27     1     5
  7.7210185660630537E-02 a       526     0    27     1     6
 -6.5719729790568671E-02 a       527     0    27     1     7
 -2.4526509766441468E-02 a       528     0    27     1     8
  8.9758899591401986E-02 a       529     0    27     1     9
 -4.0341031190551532E-02 a       530     0    27     1    10
 -9.9106241383195598E-02 a       531     0    27     1    11
  5.1629719555426966E-02 a       532     0    27     1    12
  1.6346180913450831E-01 a       533     0    27     1    13
  1.9582719369139195E-01 a       534     0    27     1    14
  4.8485941479377390E-02 a       535     0    27     1    15
  1.6681780788116329E-02 a       536     0    27     1    16
  1.4903029526143835E-01 a       537     0    27     1    17
  1.7321137884244686E-01 a       538     0    27     1    18
 -9.4201365011883323E-02 a       539     0    27     1    19
 -2.3947120697281560E-01 a       540     0    27     1    20
 -2.1699288812064993E-01 a       541     0    28     1     1
  1.2514441109436225E-01 a       542     0    28     1     2
  1.4185825087477469E-01 a       543     0    28     1     3
 -5.1565205294304910E-02 a       544     0    28     1     4
 -2.0152560633219560E-01 a       545     0    28     1     5
 -1.2473600291889127E-02 a       546     0    28     1     6
 -9.2063878899295057E-02 a       547     0    28     1     7
 -1.2945015852901967E-01 a       548     0    28     1     8
  1.0774604981501939E-02 a       549     0    28     1     9
 -4.4653981561348248E-02 a       550     0    28     1    10
 -1.1218260609428381E-01 a       551     0    28     1    11
 -5.6560856502829167E-02 a       552     0    28     1    12
  4.5548382161647638E-02 a       553     0    28     1    13
 -1.4971797570855971E-01 a       554     0    28     1    14
  4.5767102705849896E-02 a       555     0    28     1    15
 -3.6289164048731386E-02 a       556     0    28     1    16
 -3.0710628531360973E-01 a       557     0    28     1    17
  1.2842797359232999E-01 a       558     0    28     1    18
 -1.9535266261599940E-01 a       559     0    28     1    19
 -2.1758120870451502E-03 a       560     0    28     1    20
 -1.5849192270003587E-01 a       561     0    29     1     1
 -5.2505805184233055E-02 a       562     0    29     1     2
  1.0193717527359053E-01 a       563     0    29     1     3
 -2.7273039352619183E-02 a       564     0    29     1     4
  4.4585070442906882E-02 a       565     0    29     1     5
  5.4572593989660509E-02 a       566     0    29     1     6
 -1.2050320580906345E-02 a       567     0    29     1     7
  6.7717644812382988E-02 a       568     0    29     1     8
  3.4299456382711938E-02 a       569     0    29     1     9
 -4.4593509508998583E-02 a       570     0    29     1    10
 -2.8974724528163065E-01 a       571     0    29     1    11
 -8.1037475906201889E-02 a       572     0    29     1    12
 -3.8372562703166406E-02 a       573     0    29     1    13
  2.5496864941599856E-01 a       574     0    29     1    14
  7.5497084268056763E-02 a       575     0    29     1    15
 -1.5069310216604268E-01 a       576     0    29     1    16
 -1.2424800417422753E-01 a       577     0    29     1    17
 -4.9203831278311558E-02 a       578     0    29     1    18
  9.1436218128801233E-02 a       579     0    29     1    19
  9.5324500158335268E-03 a       580     0    29     1    20
  1.1671547792293742E-01 a       581     0    30     1     1
 -1.0681284327640748E-01 a       582     0    30     1     2
 -1.1629304601199819E-02 a       583     0    30     1     3
  1.6599113090994249E-02 a       584     0    30     1     4
 -5.5339602887027425E-02 a       585     0    30     1     5
 -1.1337545730304023E-01 a       586     0    30     1     6
  1.0107369597908633E-01 a       587     0    30     1     7
 -6.0349902222670310E-02 a       588     0    30     1     8
 -4.0549829834895114E-02 a       589     0    30     1     9
  4.4302995705191188E-02 a       590     0    30     1    10
 -5.4292844208982463E-02 a       591     0    30     1    11
 -3.9539407516278310E-02 a       592     0    30     1    12
 -1.6733532917544763E-01 a       593     0    30     1    13
  3.2501640645394354E-02 a       594     0    30     1    14
 -6.9830234610374284E-02 a       595     0    30     1    15
  1.3465267912966108E-01 a       596     0    30     1    16
  3.8207965940038655E-02 a       597     0    30     1    17
 -3.4970250261049288E-02 a       598     0    30     1    18
  1.3461058788023900E-01 a       599     0    30     1    19
  1.4621482426289358E-02 a       600     0    30     1    20
 -4.9020679956144543E-02 a       601     0    31     1     1
 -1.4632529520673751E-01 a       602     0    31     1     2
 -1.1593313546552808E-01 a       603     0    31     1     3
 -1.6468429458097766E-01 a       604     0    31     1     4
 -1.3200289337101692E-01 a       605     0    31     1     5
 -1.7232224729543281E-02 a       606     0    31     1     6
  2.1638614233627509E-01 a       607     0    31     1     7
  1.8885435304773608E-02 a       608     0    31     1     8
 -1.2186076614989574E-01 a       609     0    31     1     9
 -5.0086428430281535E-02 a       610     0    31     1    10
  9.7498568037799188E-03 a       611     0    31     1    11
 -1.1531756684145095E-01 a       612     0    31     1    12
 -1.8560257126593219E-01 a       613     0    31     1    13
 -1.4160122800886324E-01 a       614     0    31     1    14
 -2.1492239071741425E-02 a       615     0    31     1    15
  7.0309779272444292E-02 a       616     0    31     1    16
  8.7864615170866550E-02 a       617     0    31     1    17
 -1.7484452396994005E-01 a       618     0    31     1    18
  1.6746371693689671E-01 a       619     0    31     1    19
  1.4469340694449431E-01 a       620     0    31     1    20
 -7.1315411759959327E-02 a       621     0    32     1     1
  3.8239678696751413E-02 a       622     0    32     1     2
  6.5237045687352904E-02 a       623     0    32     1     3
 -4.4007650770787748E-02 a       624     0    32     1     4
  9.8819338562978476E-02 a       625     0    32     1     5
  7.4758879460303865E-03 a       626     0    32     1     6
  1.6134122503524140E-01 a       627     0    32     1     7
  2.5031250197005356E-01 a       628     0    32     1     8
  1.6211709960516502E-01 a       629     0    32     1     9
  6.4914197422522475E-03 a       630     0    32     1    10
 -1.2166066728981804E-01 a       631     0    32     1    11
  5.9901418065565919E-02 a       632     0    32     1    12
  1.4318932976111295E-01 a       633     0    32     1    13
  3.9739386185393785E-02 a       634     0    32     1    14
  1.3260162422217417E-01 a       635     0    32     1    15
  3.9863180223328881E-02 a       636     0    32     1    16
  3.1420297502432852E-02 a       637     0    32     1    17
  1.1126060651857202E-01 a       638     0    32     1    18
 -1.6351675812277606E-02 a       639     0    32     1    19
 -8.2402633655937571E-02 a       640     0    32     1    20
 -2.8432494601616015E-01 a       641     0    33     1     1
  1.8211140808551005E-01 a       642     0    33     1     2
 -1.5901305613809227E-02 a       643     0    33     1     3
 -7.6676801563007810E-02 a       644     0    33     1     4
  1.6687311516062842E-01 a       645     0    33     1     5
  2.9164582361976020E-02 a       646     0    33     1     6
  1.3587223784849861E-01 a       647     0    33     1     7
  6.0288941415329776E-02 a       648     0    33     1     8
  1.1534216785377024E-01 a       649     0    33     1     9
 -1.4421897142664031E-01 a       650     0    33     1    10
 -2.2011746900725168E-01 a       651     0    33     1    11
 -6.3882686311978423E-02 a       652     0    33     1    12
 -1.0351762900108634E-01 a       653     0    33     1    13
 -1.2977638922854495E-01 a       654     0    33     1    14
  1.1524483488546165E-01 a       655     0    33     1    15
  2.0839643956075835E-02 a       656     0    33     1    16
  1.9495484929769027E-01 a       657     0    33     1    17
  8.3319250713336734E-02 a       658     0    33     1    18
 -1.1999783034574077E-01 a       659     0    33     1    19
 -2.2255397686403619E-01 a       660     0    33     1    20
 -1.8312820005724337E-01 a       661     0    34     1     1
  3.7352744671738311E-02 a       662     0    34     1     2
 -1.2107885594480837E-02 a       663     0    34     1     3
 -1.1291882766580463E-01 a       664     0    34     1     4
  7.9285996095119382E-02 a       665     0    34     1     5
  5.7422808739304790E-02 a       666     0    34     1     6
 -1.0743525221430124E-01 a       667     0    34     1     7
  8.9370547517432786E-02 a       668     0    34     1     8
  3.6510627078914712E-02 a       669     0    34     1     9
  9.1435307322085740E-02 a       670     0    34     1    10
  8.0724341823016077E-02 a       671     0    34     1    11
  5.7650441560306125E-02 a       672     0    34     1    12
  8.5025925893114085E-02 a       673     0    34     1    13
 -1.6075870899601169E-01 a       674     0    34     1    14
 -1.4060685828424705E-02 a       675     0    34     1    15
 -1.3367373391694515E-01 a       676     0    34     1    16
 -6.8446354510925095E-02 a       677     0    34     1    17
  1.3610472364401169E-01 a       678     0    34     1    18
 -1.1503350518624686E-01 a       679     0    34     1    19
 -6.6182926392359689E-02 a       680     0    34     1    20
 -7.7558312867880702E-03 a       681     0    35     1     1
 -1.5518604881837850E-01 a       682     0    35     1     2
 -4.7572799072297133E-02 a       683     0    35     1     3
  9.2304919255407278E-02 a       684     0    35     1     4
  2.0490348480585494E-01 a       685     0    35     1     5
  1.4273911622746526E-02 a       686     0    35     1     6
 -1.3493645659983108E-01 a       687     0    35     1     7
 -1.0451528850215597E-01 a       688     0    35     1     8
 -1.5757955863717305E-01 a       689     0    35     1     9
  2.2592791568790241E-01 a       690     0    35     1    10
 -1.0956848748991659E-01 a       691     0    35     1    11
  5.7946810617200098E-02 a       692     0    35     1    12
 -2.1809656100355387E-02 a       693     0    35     1    13
 -3.4082431923979369E-02 a       694     0    35     1    14
 -3.1886905406232756E-02 a       695     0    35     1    15
 -1.1332061447711397E-01 a       696     0    35     1    16
 -6.7399771215220644E-02 a       697     0    35     1    17
  6.3267204497635079E-02 a       698     0    35     1    18
  1.9583415521227485E-01 a       699     0    35     1    19
 -2.8023883495301324E-02 a       700     0    35     1    20
  1.5602231340577108E-01 a       701     0    36     1     1
 -1.7042109384544206E-03 a       702     0    36     1     2
 -1.1502075731657864E-01 a       703     0    36     1     3
  6.0677546209296142E-02 a       704     0    36     1     4
  3.9264870228321938E-02 a       705     0    36     1     5
 -8.6534826001124013E-03 a       706     0    36     1     6
 -6.2876636919502751E-02 a       707     0    36     1     7
 -1.4561213296757838E-01 a       708     0    36     1     8
 -5.9652533360930494E-02 a       709     0    36     1     9
 -8.5494304967804568E-04 a       710     0    36     1    10
  1.7563022314873941E-01 a       711     0    36     1    11
 -2.8658444320418190E-02 a       712     0    36     1    12
 -8.0508481636951970E-02 a       713     0    36     1    13
  1.5785092937381026E-01 a       714     0    36     1    14
 -8.0390551335752999E-02 a       715     0    36     1    15
 -3.1334283507700126E-03 a       716     0    36     1    16
 -3.8513890100512094E-02 a       717     0    36     1    17
 -1.8300155726048800E-01 a       718     0    36     1    18
  5.7994582912450160E-02 a       719     0    36     1    19
  1.9945773599470057E-01 a       720     0    36     1    20
  1.9413594928548558E-01 a       721     0    37     1     1
  6.5302137388395286E-03 a       722     0    37     1     2
  5.4141101597951165E-02 a       723     0    37     1     3
  6.7052466639184703E-03 a       724     0    37     1     4
 -6.4812122406326625E-02 a       725     0    37     1     5
 -1.8035490468284975E-02 a       726     0    37     1     6
 -2.1811081438971552E-03 a       727     0    37     1     7
 -5.3830480780804697E-03 a       728     0    37     1     8
  6.8785054033111942E-02 a       729     0    37     1     9
 -4.9630580119526445E-02 a       730     0    37     1    10
  1.4854277676751587E-01 a       731     0    37     1    11
  1.4784659950109575E-02 a       732     0    37     1    12
  1.2481349165597952E-01 a       733     0    37     1    13
  7.2909175713383942E-02 a       734     0    37     1    14
  7.3391800069003005E-02 a       735     0    37     1    15
  3.4671883385849457E-02 a       736     0    37     1    16
 -8.4888168630632296E-02 a       737     0    37     1    17
 -9.5737908348731152E-02 a       738     0    37     1    18
 -6.5491397674265622E-02 a       739     0    37     1    19
  9.5774344637942876E-02 a       740     0    37     1    20
  3.5076168972694964E-02 a       741     0    38     1     1
 -3.3190152288065877E-02 a       742     0    38     1     2
  6.6140645514299407E-02 a       743     0    38     1     3
  1.1611591578617154E-01 a       744     0    38     1     4
 -3.4355490311669831E-02 a       745     0    38     1     5
  1.4190468001377549E-02 a       746     0    38     1     6
  2.4019692810222090E-02 a       747     0    38     1     7
 -2.1942444957036514E-02 a       748     0    38     1     8
 -9.5521857934263835E-02 a       749     0    38     1     9
 -5.2578408270701427E-02 a       750     0    38     1    10
 -2.1015615181963823E-01 a       751     0    38     1    11
 -6.5921510581933240E-02 a       752     0    38     1    12
  5.9963797002125431E-02 a       753     0    38     1    13
  5.7007974106724105E-02 a       754     0    38     1    14
 -7.5922481050423554E-02 a       755     0    38     1    15
  7.9818082090399950E-02 a       756     0    38     1    16
  9.5002365983921006E-02 a       757     0    38     1    17
 -3.4016303781573172E-02 a       758     0    38     1    18
  7.1296671417284838E-02 a       759     0    38     1    19
  5.9420984876758006E-03 a       760     0    38     1    20
  7.3872585938416321E-02 a       761     0    39     1     1
  5.2100553032496798E-02 a       762     0    39     1     2
  7.3359004712721679E-02 a       763     0    39     1     3
  4.4450395668217041E-02 a       764     0    39     1     4
 -7.3294776144335841E-02 a       765     0    39     1     5
 -2.2971273743416596E-02 a       766     0    39     1     6
  1.3308731998675902E-01 a       767     0    39     1     7
  1.0522786525331278E-01 a       768     0    39     1     8
  9.1872289994186229E-02 a       769     0    39     1     9
 -1.4687762982173222E-01 a       770     0    39     1    10
  7.4391494524971694E-02 a       771     0    39     1    11
 -2.0784973189949853E-02 a       772     0    39     1    12
  2.6746900842087654E-02 a       773     0    39     1    13
  1.5898012374425941E-01 a       774     0    39     1    14
 -3.3885194319207669E-03 a       775     0    39     1    15
  9.4787097823995262E-02 a       776     0    39     1    16
  2.1349109603204283E-01 a       777     0    39     1    17
 -8.6022647511164063E-02 a       778     0    39     1    18
 -1.4126136202719153E-01 a       779     0    39     1    19
  8.4059285503052542E-02 a       780     0    39     1    20
 -1.2963062609094489E-01 a       781     0    40     1     1
 -8.1913581074408534E-02 a       782     0    40     1     2
  1.1515350421532583E-01 a       783     0    40     1     3
 -6.8414072011980326E-02 a       784     0    40     1     4
 -1.9817243287777403E-01 a       785     0    40     1     5
  4.0412449387612924E-02 a       786     0    40     1     6
  6.0263586526205407E-02 a       787     0    40     1     7
  7.0092028621961011E-02 a       788     0    40     1     8
 -1.0185781665849475E-01 a       789     0    40     1     9
  3.9836821948081684E-02 a       790     0    40     1    10
 -8.4790204741407679E-02 a       791     0    40     1    11
  6.9481129354589943E-02 a       792     0    40     1    12
  1.0216300535314314E-01 a       793     0    40     1    13
 -2.1294506732276641E-01 a       794     0    40     1    14
  4.6471081872687073E-02 a       795     0    40     1    15
 -2.1230906507456938E-02 a       796     0    40     1    16
 -6.0654975368653295E-02 a       797     0    40     1    17
  1.2237882348974162E-01 a       798     0    40     1    18
 -1.2127031300522392E-01 a       799     0    40     1    19
  3.2322401267733537E-02 a       800     0    40     1    20
  1.8895186880379303E-01 a       801     0    41     1     1
 -8.7312642303422491E-02 a       802     0    41     1     2
 -1.0334495217830547E-01 a       803     0    41     1     3
  1.0987902605816170E-01 a       804     0    41     1     4
  1.7661035610455902E-01 a       805     0    41     1     5
 -2.4670978709334906E-01 a       806     0    41     1     6
  3.0001150305382057E-01 a       807     0    41     1     7
  1.7375903855153130E-01 a       808     0    41     1     8
 -8.5859534576573880E-03 a       809     0    41     1     9
  2.0300511325491541E-01 a       810     0    41     1    10
  1.3493194286691967E-01 a       811     0    41     1    11
  1.6235799911394941E-01 a       812     0    41     1    12
  1.1094984254837773E-01 a       813     0    41     1    13
  2.3452276493693475E-01 a       814     0    41     1    14
 -1.0281401885765365E-01 a       815     0    41     1    15
  7.1881619950477121E-02 a       816     0    41     1    16
  3.3423199666108322E-01 a       817     0    41     1    17
  9.0521839403350415E-02 a       818     0    41     1    18
 -7.5782504685479229E-02 a       819     0    41     1    19
 -2.0077767703732807E-01 a       820     0    41     1    20
  5.0302804402521321E-02 a       821     0    42     1     1
  1.8103555314230746E-02 a       822     0    42     1     2
 -2.1948070907406008E-02 a       823     0    42     1     3
  1.6400678913798308E-01 a       824     0    42     1     4
 -1.9885201476386308E-01 a       825     0    42     1     5
  1.0896937553980114E-01 a       826     0    42     1     6
 -4.1298454293300244E-02 a       827     0    42     1     7
 -1.4909588193162579E-01 a       828     0    42     1     8
  5.1960050078170422E-02 a       829     0    42     1     9
 -1.6576641699755656E-01 a       830     0    42     1    10
 -1.7986278828642197E-01 a       831     0    42     1    11
  9.3984659718663349E-02 a       832     0    42     1    12
 -3.7391206102308540E-02 a       833     0    42     1    13
 -1.0937975856816798E-01 a       834     0    42     1    14
  1.8289176823865307E-02 a       835     0    42     1    15
  6.3347701559335320E-02 a       836     0    42     1    16
 -8.2318777595784022E-03 a       837     0    42     1    17
  9.9285203535370029E-02 a       838     0    42     1    18
  2.4162681699690500E-01 a       839     0    42     1    19
  5.3830463276960103E-02 a       840     0    42     1    20
 -1.0477778816965971E-01 a       841     0    43     1     1
  9.8002626900950060E-02 a       842     0    43     1     2
  1.5513058059163914E-01 a       843     0    43     1     3
 -4.9174945925132205E-02 a       844     0    43     1     4
  1.9745682714212842E-02 a       845     0    43     1     5
  7.7889518604421157E-02 a       846     0    43     1     6
 -1.7477377846645176E-01 a       847     0    43     1     7
 -6.8479375631083264E-02 a       848     0    43     1     8
 -4.9799187075857648E-02 a       849     0    43     1     9
  1.5609460317512558E-01 a       850     0    43     1    10
 -1.5450413022330714E-01 a       851     0    43     1    11
 -1.4159032665475510E-01 a       852     0    43     1    12
  2.1565991156014933E-01 a       853     0    43     1    13
 -5.4797863385447079E-02 a       854     0    43     1    14
  7.2468464866604229E-02 a       855     0    43     1    15
 -6.6694334121553123E-02 a       856     0    43     1    16
  1.7326954807301422E-02 a       857     0    43     1    17
  2.0173613539427168E-01 a       858     0    43     1    18
 -7.7471744873498768E-02 a       859     0    43     1    19
 -8.5729707989753545E-02 a       860     0    43     1    20
  1.3162082438422495E-01 a       861     0    44     1     1
  1.4534497645583419E-01 a       862     0    44     1     2
  1.6426304058242480E-01 a       863     0    44     1     3
  1.1173351728128095E-01 a       864     0    44     1     4
 -1.5875170276747072E-01 a       865     0    44     1     5
 -1.2091387608316520E-01 a       866     0    44     1     6
  5.2749995841933961E-02 a       867     0    44     1     7
 -5.1273546210323824E-02 a       868     0    44     1     8
  3.0439131226548535E-02 a       869     0    44     1     9
 -1.6033082679388219E-01 a       870     0    44     1    10
  5.7421612951663085E-02 a       871     0    44     1    11
  2.7397128024502760E-03 a       872     0    44     1    12
  1.6079739472328672E-01 a       873     0    44     1    13
  1.1258173592567008E-01 a       874     0    44     1    14
 -3.4705929125805432E-02 a       875     0    44     1    15
  1.1570914979343520E-01 a       876     0    44     1    16
 -1.2399750175614001E-01 a       877     0    44     1    17
 -2.7221446936457661E-02 a       878     0    44     1    18
  7.7960175989994010E-02 a       879     0    44     1    19
 -2.0519468176453556E-01 a       880     0    44     1    20
 -1.6518366532943401E-02 a       881     0    45     1     1
  1.6100503230683408E-01 a       882     0    45     1     2
  1.5514514064500845E-01 a       883     0    45     1     3
 -6.5251355305983819E-02 a       884     0    45     1     4
  1.5216589423703730E-01 a       885     0    45     1     5
 -9.0180706105568983E-02 a       886     0    45     1     6
  1.2514868088650694E-01 a       887     0    45     1     7
 -1.4992604457706701E-01 a       888     0    45     1     8
  1.2699384732731883E-01 a       889     0    45     1     9
  8.2884224526377191E-03 a       890     0    45     1    10
  1.1633827354253701E-01 a       891     0    45     1    11
 -4.5830208834674951E-02 a       892     0    45     1    12
 -1.0918271187227671E-01 a       893     0    45     1    13
 -7.0620414448149524E-02 a       894     0    45     1    14
  2.5395881839302409E-01 a       895     0    45     1    15
  7.9381774778023967E-02 a       896     0    45     1    16
 -2.3085166045388761E-01 a       897     0    45     1    17
 -1.7636891182565759E-02 a       898     0    45     1    18
 -5.0192434160534212E-02 a       899     0    45     1    19
 -2.8356916486271139E-05 a       900     0    45     1    20
  1.7642714910859372E-01 a       901     0    46     1     1
  1.4771017540282283E-01 a       902     0    46     1     2
 -2.3044912252784253E-01 a       903     0    46     1     3
 -4.1871826522174631E-02 a       904     0    46     1     4
  2.7756922570950769E-02 a       905     0    46     1     5
 -1.3064106791904163E-02 a       906     0    46     1     6
  1.5199912126447673E-01 a       907     0    46     1     7
 -5.6433381290611435E-02 a       908     0    46     1     8
 -6.9008681404466338E-02 a       909     0    46     1     9
 -3.8525456830102715E-02 a       910     0    46     1    10
  1.0128850192964371E-01 a       911     0    46     1    11
  1.2355550367646817E-02 a       912     0    46     1    12
 -7.5395964309777588E-02 a       913     0    46     1    13
 -1.7550282117575938E-01 a       914     0    46     1    14
  1.4610837357223377E-01 a       915     0    46     1    15
  8.4404932525492082E-02 a       916     0    46     1    16
  8.7808516100983201E-03 a       917     0    46     1    17
 -8.6948919337180741E-02 a       918     0    46     1    18
  5.2364765714428767E-02 a       919     0    46     1    19
 -9.9923894676079844E-02 a       920     0    46     1    20
 -1.5739902956127719E-02 a       921     0    47     1     1
  1.0884198139684763E-01 a       922     0    47     1     2
 -5.3699498334020948E-02 a       923     0    47     1     3
  1.0984394485010207E-01 a       924     0    47     1     4
 -2.5685580642128336E-01 a       925     0    47     1     5
 -1.0099992325855611E-01 a       926     0    47     1     6
  7.4230130808495734E-02 a       927     0    47     1     7
  1.6785524275348981E-01 a       928     0    47     1     8
  6.5058907032310613E-03 a       929     0    47     1     9
 -1.6506391558548279E-02 a       930     0    47     1    10
 -5.0823864436014929E-02 a       931     0    47     1    11
  8.5522961654159513E-02 a       932     0    47     1    12
  1.1069683468700332E-01 a       933     0    47     1    13
 -1.4262938369342254E-01 a       934     0    47     1    14
  2.7523926236941290E-02 a       935     0    47     1    15
  4.1497232383223843E-02 a       936     0    47     1    16
 -1.0998407102172639E-01 a       937     0    47     1    17
  8.5526154104349925E-02 a       938     0    47     1    18
 -5.3306645149596613E-02 a       939     0    47     1    19
  9.3697538551455448E-02 a       940     0    47     1    20
  2.1913837684654197E-01 a       941     0    48     1     1
  3.9314340087116553E-02 a       942     0    48     1     2
  1.1474318825688395E-01 a       943     0    48     1     3
 -4.1599549145143376E-02 a       944     0    48     1     4
 -1.1008849992710837E-02 a       945     0    48     1     5
 -1.4332239131475721E-01 a       946     0    48     1     6
  5.0147525544237313E-02 a       947     0    48     1     7
  1.0582703235893862E-01 a       948     0    48     1     8
  4.8438675932792517E-02 a       949     0    48     1     9
  1.4316217626287159E-01 a       950     0    48     1    10
  1.8845517430148914E-01 a       951     0    48     1    11
  3.7716057758003747E-02 a       952     0    48     1    12
  2.6757958919172729E-02 a       953     0    48     1    13
 -7.4548924480910212E-03 a       954     0    48     1    14
 -1.2412647904015783E-01 a       955     0    48     1    15
  7.8171073687437045E-02 a       956     0    48     1    16
  2.4088067700388663E-01 a       957     0    48     1    17
  1.4067659535962407E-01 a       958     0    48     1    18
  1.1283531888292399E-01 a       959     0    48     1    19
  2.7382630932323116E-02 a       960     0    48     1    20
  2.9450846655864954E-01 a       961     0    49     1     1
 -1.2647441445074406E-01 a       962     0    49     1     2
  4.5239084269497111E-02 a       963     0    49     1     3
 -3.3163062749226202E-02 a       964     0    49     1     4
  1.6902001992426599E-01 a       965     0    49     1     5
 -1.6516944061919941E-01 a       966     0    49     1     6
  5.2527662426393924E-04 a       967     0    49     1     7
  4.6577770137708724E-02 a       968     0    49     1     8
 -1.5070849203904124E-01 a       969     0    49     1     9
  1.5261487758808148E-01 a       970     0    49     1    10
  1.9711817762976477E-01 a       971     0    49     1    11
 -7.1046383164126689E-02 a       972     0    49     1    12
  6.0967930188921583E-02 a       973     0    49     1    13
  1.2073317323849712E-01 a       974     0    49     1    14
 -1.0269206416800369E-01 a       975     0    49     1    15
  2.4326989585253558E-02 a       976     0    49     1    16
  1.9573794827803007E-01 a       977     0    49     1    17
 -3.6754682488345264E-02 a       978     0    49     1    18
  1.3838003430472184E-01 a       979     0    49     1    19
  3.0036831605679587E-01 a       980     0    49     1    20
 -1.2749927515196563E-01 a       981     0    50     1     1
 -2.2465619314818355E-01 a       982     0    50     1     2
  4.4462654522606851E-02 a       983     0    50     1     3
 -6.9653900658441084E-02 a       984     0    50     1     4
 -4.5098806586103227E-02 a       985     0    50     1     5
 -6.9586591672950379E-02 a       986     0    50     1     6
 -4.0821147762545952E-02 a       987     0    50     1     7
  2.8974762392731276E-02 a       988     0    50     1     8
 -1.3253505782911221E-01 a       989     0    50     1     9
  2.0785941972950611E-01 a       990     0    50     1    10
  5.3239403413132561E-02 a       991     0    50     1    11
 -4.4180087325532198E-02 a       992     0    50     1    12
 -1.5672571788423495E-01 a       993     0    50     1    13
  1.6147784233570478E-01 a       994     0    50     1    14
 -1.2986103156590625E-01 a       995     0    50     1    15
 -1.1836511527320608E-01 a       996     0    50     1    16
  3.2590801234877669E-02 a       997     0    50     1    17
  9.5977213814807838E-02 a       998     0    50     1    18
 -5.8642799317253698E-02 a       999     0    50     1    19
  3.3846851734420799E-02 a      1000     0    50     1    20
 -2.7580688775616724E-01 a      1001     0    51     1     1
  1.1917325843435625E-01 a      1002     0    51     1     2
  1.3569634613690723E-01 a      1003     0    51     1     3
  1.0689869180442751E-01 a      1004     0    51     1     4
 -3.5125552291655010E-02 a      1005     0    51     1     5
  3.9198909753236422E-02 a      1006     0    51     1     6
 -2.3681364322686516E-02 a      1007     0    51     1     7
  2.8888178824070804E-01 a      1008     0    51     1     8
  1.3205404489580239E-01 a      1009     0    51     1     9
  4.1274403100202875E-02 a      1010     0    51     1    10
  5.0572655429846167E-02 a      1011     0    51     1    11
  1.3338938083692226E-01 a      1012     0    51     1    12
  1.0913824247140730E-01 a      1013     0    51     1    13
 -1.7960737976038449E-01 a      1014     0    51     1    14
 -1.0939710503012003E-01 a      1015     0    51     1    15
  3.4698319164713790E-02 a      1016     0    51     1    16
  1.2896435885084731E-01 a      1017     0    51     1    17
  1.4048761398868417E-01 a      1018     0    51     1    18
  7.5377088377051905E-03 a      1019     0    51     1    19
 -1.6096284596979415E-01 a      1020     0    51     1    20
 -1.4025035220572626E-01 a      1021     0    52     1     1
 -7.3744793842409534E-02 a      1022     0    52     1     2
  7.2476282351657623E-02 a      1023     0    52     1     3
  1.3638892278391404E-01 a      1024     0    52     1     4
  1.2942695233364540E-01 a      1025     0    52     1     5
  1.6801730337686896E-01 a      1026     0    52     1     6
 -1.4606605425805969E-01 a      1027     0    52     1     7
  2.1087312072542488E-01 a      1028     0    52     1     8
 -9.8239184311999586E-02 a      1029     0    52     1     9
 -8.5432319042499011E-02 a      1030     0    52     1    10
 -7.3807036512242491E-02 a      1031     0    52     1    11
 -2.2915878622313948E-01 a      1032     0    52     1    12
 -1.7651765136179806E-01 a      1033     0    52     1    13
  2.8554658303973489E-02 a      1034     0    52     1    14
 -9.1723262588391696E-02 a      1035     0    52     1    15
 -1.4162113155631567E-01 a      1036     0    52     1    16
 -1.0605750129554019E-01 a      1037     0    52     1    17
  6.7816053891590886E-02 a      1038     0    52     1    18
  1.4984272149678363E-01 a      1039     0    52     1    19
 -1.8265672427098856E-02 a      1040     0    52     1    20
 -2.7495666726448498E-01 a      1041     0    53     1     1
 -1.3230865565284305E-01 a      1042     0    53     1     2
  1.4907885532768833E-01 a      1043     0    53     1     3
  9.3533525233255033E-02 a      1044     0    53     1     4
 -4.6477781119801734E-02 a      1045     0    53     1     5
  1.3141359836289744E-02 a      1046     0    53     1     6
  5.0002907638174972E-03 a      1047     0    53     1     7
 -6.2211436501099622E-02 a      1048     0    53     1     8
 -4.1138492287754111E-02 a      1049     0    53     1     9
 -9.5430351621374934E-02 a      1050     0    53     1    10
 -1.5111446354993963E-01 a      1051     0    53     1    11
  3.7086488383733726E-02 a      1052     0    53     1    12
  8.6758685949686443E-02 a      1053     0    53     1    13
 -5.8806445054046141E-02 a      1054     0    53     1    14
 -1.7144946139289530E-01 a      1055     0    53     1    15
 -5.2083397773575707E-02 a      1056     0    53     1    16
  3.2781131603154948E-02 a      1057     0    53     1    17
 -2.5347868938168056E-01 a      1058     0    53     1    18
  3.5123965877855004E-02 a      1059     0    53     1    19
  1.0967566190841710E-01 a      1060     0    53     1    20
  3.2919684515580062E-02 a      1061     0    54     1     1
 -1.1784745400564207E-01 a      1062     0    54     1     2
 -5.6772403184839606E-03 a      1063     0    54     1     3
  1.8788892403405733E-01 a      1064     0    54     1     4
  1.7055869628913931E-01 a      1065     0    54     1     5
  4.6208411085262073E-02 a      1066     0    54     1     6
 -3.9545679266140277E-02 a      1067     0    54     1     7
 -5.8081163548420987E-02 a      1068     0    54     1     8
  3.2624394451130512E-01 a      1069     0    54     1     9
 -4.5191764301391039E-02 a      1070     0    54     1    10
 -4.0599557434035420E-02 a      1071     0    54     1    11
  2.1684083945883034E-01 a      1072     0    54     1    12
 -1.9387933856988557E-01 a      1073     0    54     1    13
  4.3119461546179287E-02 a      1074     0    54     1    14
  1.3168614014094696E-01 a      1075     0    54     1    15
 -5.2582225314186701E-02 a      1076     0    54     1    16
 -6.3335052503192976E-02 a      1077     0    54     1    17
  3.3920903968093073E-02 a      1078     0    54     1    18
  3.4895232829349497E-02 a      1079     0    54     1    19
 -9.6151453861770597E-02 a      1080     0    54     1    20
  1.9808914293547245E-01 a      1081     0    55     1     1
  1.3719487353856688E-01 a      1082     0    55     1     2
 -1.4250917338967040E-01 a      1083     0    55     1     3
  1.7128673196328917E-01 a      1084     0    55     1     4
 -9.7113904845234841E-02 a      1085     0    55     1     5
  8.6411341763358795E-02 a      1086     0    55     1     6
 -9.2541131157166889E-02 a      1087     0    55     1     7
  5.0833057622609893E-03 a      1088     0    55     1     8
 -2.8837922716938541E-01 a      1089     0    55     1     9
  2.2691260626292417E-01 a      1090     0    55     1    10
 -1.1179198849481037E-01 a      1091     0    55     1    11
  8.3588736323112631E-02 a      1092     0    55     1    12
  2.4969546019371508E-01 a      1093     0    55     1    13
 -2.1904764490919412E-01 a      1094     0    55     1    14
 -2.0677263151962050E-01 a      1095     0    55     1    15
  2.9142154296885256E-02 a      1096     0    55     1    16
  1.7173400205422984E-01 a      1097     0    55     1    17
  7.0807452735616200E-02 a      1098     0    55     1    18
  8.0986546510457808E-02 a      1099     0    55     1    19
  4.2353129785452019E-02 a      1100     0    55     1    20
  1.9716565355388938E-01 a      1101     0    56     1     1
 -2.5847022321910895E-01 a      1102     0    56     1     2
 -2.1969967016231309E-01 a      1103     0    56     1     3
 -4.8996977300563384E-02 a      1104     0    56     1     4
  8.0770107927990539E-02 a      1105     0    56     1     5
 -1.7845846667860801E-01 a      1106     0    56     1     6
 -2.8615172266030870E-03 a      1107     0    56     1     7
 -1.4743763466325935E-01 a      1108     0    56     1     8
  9.4071235320975943E-02 a      1109     0    56     1     9
 -2.0865643156566475E-03 a      1110     0    56     1    10
  2.3241209946844732E-01 a      1111     0    56     1    11
  1.3875170126151512E-01 a      1112     0    56     1    12
 -1.0162509974277963E-01 a      1113     0    56     1    13
  9.9598050138480748E-02 a      1114     0    56     1    14
 -1.4389206763025375E-01 a      1115     0    56     1    15
 -1.0954975503043125E-01 a      1116     0    56     1    16
 -6.5774448792231377E-02 a      1117     0    56     1    17
  9.6315910296563348E-02 a      1118     0    56     1    18
 -1.1753772581441967E-01 a      1119     0    56     1    19
  9.9916369632761251E-02 a      1120     0    56     1    20
 -3.4236169010512324E-02 a      1121     0    57     1     1
 -2.0238806936075823E-01 a      1122     0    57     1     2
  1.2344351645921273E-01 a      1123     0    57     1     3
 -1.1670824960650958E-01 a      1124     0    57     1     4
  8.4051751798842403E-02 a      1125     0    57     1     5
  6.7529631877003657E-02 a      1126     0    57     1     6
  3.0752240955667042E-02 a      1127     0    57     1     7
 -4.5512195624102469E-02 a      1128     0    57     1     8
 -1.0773134735212536E-01 a      1129     0    57     1     9
  8.7350079069808739E-02 a      1130     0    57     1    10
 -1.0139118912231659E-01 a      1131     0    57     1    11
 -1.0678276983631309E-01 a      1132     0    57     1    12
 -1.7522123606611258E-02 a      1133     0    57     1    13
 -1.4019339686985288E-01 a      1134     0    57     1    14
  1.0770790999020737E-01 a      1135     0    57     1    15
 -3.7008015174531617E-02 a      1136     0    57     1    16
  6.1948703266717177E-02 a      1137     0    57     1    17
  4.5696025033022315E-02 a      1138     0    57     1    18
 -6.7950187015127145E-02 a      1139     0    57     1    19
 -1.7384196676729866E-01 a      1140     0    57     1    20
 -2.1153976525945128E-01 a      1141     0    58     1     1
 -1.2513798887582206E-01 a      1142     0    58     1     2
 -2.0257546242300745E-01 a      1143     0    58     1     3
  1.5298638495209743E-01 a      1144     0    58     1     4
  1.3876946400227347E-01 a      1145     0    58     1     5
  2.3368429960900419E-01 a      1146     0    58     1     6
 -7.3096175977798716E-03 a      1147     0    58     1     7
 -1.2057115385684408E-01 a      1148     0    58     1     8
  4.0102567519709566E-02 a      1149     0    58     1     9
  4.1799454167653703E-02 a      1150     0    58     1    10
  1.3934813766999957E-01 a      1151     0    58     1    11
 -1.5161411356196355E-01 a      1152     0    58     1    12
  8.8363559193207347E-02 a      1153     0    58     1    13
  7.6363086579379458E-02 a      1154     0    58     1    14
  8.8659845695143583E-02 a      1155     0    58     1    15
 -3.3412900783223953E-02 a      1156     0    58     1    16
  1.0783343246628957E-01 a      1157     0    58     1    17
  7.3104847766966199E-02 a      1158     0    58     1    18
 -4.0660889633187890E-02 a      1159     0    58     1    19
  8.1464493264284815E-03 a      1160     0    58     1    20
 -9.3515059183830133E-03 a      1161     0    59     1     1
 -1.0620654206638257E-01 a      1162     0    59     1     2
 -1.3770842557521831E-01 a      1163     0    59     1     3
  1.1257131715991281E-01 a      1164     0    59     1     4
  2.3586557999122132E-01 a      1165     0    59     1     5
  1.2987475118265190E-01 a      1166     0    59     1     6
 -1.0848911996801830E-01 a      1167     0    59     1     7
 -2.4539921407742393E-01 a      1168     0    59     1     8
  2.4954951895618455E-01 a      1169     0    59     1     9
 -2.0315733327804113E-02 a      1170     0    59     1    10
 -4.9742498071471727E-02 a      1171     0    59     1    11
 -3.5454560395868508E-02 a      1172     0    59     1    12
 -6.5243621228256582E-02 a      1173     0    59     1    13
  1.6761447765655646E-01 a      1174     0    59     1    14
 -1.5224275399823653E-01 a      1175     0    59     1    15
  8.9252646463575835E-02 a      1176     0    59     1    16
 -1.2908138567127667E-01 a      1177     0    59     1    17
  1.6001403941467765E-01 a      1178     0    59     1    18
  1.1550404045721631E-01 a      1179     0    59     1    19
 -1.1938477984701452E-02 a      1180     0    59     1    20
 -1.4880143220285846E-01 a      1181     0    60     1     1
  1.0524919213890685E-01 a      1182     0    60     1     2
 -5.3497866029602728E-02 a      1183     0    60     1     3
  3.1663567286503873E-02 a      1184     0    60     1     4
 -2.6665833012643653E-01 a      1185     0    60     1     5
  1.7406941317053898E-01 a      1186     0    60     1     6
 -8.5588280429396910E-02 a      1187     0    60     1     7
  7.6548444937652602E-02 a      1188     0    60     1     8
  7.4451463602514936E-02 a      1189     0    60     1     9
  9.0500463880447288E-02 a      1190     0    60     1    10
  1.4722924698987463E-01 a      1191     0    60     1    11
 -1.7217362418376880E-01 a      1192     0    60     1    12
  1.3639797691287001E-01 a      1193     0    60     1    13
 -5.1493127325545125E-02 a      1194     0    60     1    14
  1.4371249617626866E-01 a      1195     0    60     1    15
  8.2247243799091763E-02 a      1196     0    60     1    16
 -1.0412713728075118E-01 a      1197     0    60     1    17
 -1.5944324712262323E-01 a      1198     0    60     1    18
  1.8755005062076247E-01 a      1199     0    60     1    19
 -8.7894355632246624E-02 a      1200     0    60     1    20
 -7.0764224872894368E-02 a      1201     0    61     1     1
  8.5149757008766910E-02 a      1202     0    61     1     2
  2.0285316853545879E-01 a      1203     0    61     1     3
  6.6309443359623263E-03 a      1204     0    61     1     4
  1.5900430798290086E-01 a      1205     0    61     1     5
  6.8610155865021477E-02 a      1206     0    61     1     6
  5.6010742225819872E-02 a      1207     0    61     1     7
 -2.8955894305547306E-02 a      1208     0    61     1     8
  2.9949793993039844E-02 a      1209     0    61     1     9
  1.1916077989887862E-02 a      1210     0    61     1    10
 -1.3316459602229072E-01 a      1211     0    61     1    11
 -4.2860468376364654E-02 a      1212     0    61     1    12
  1.5180135183065838E-01 a      1213     0    61     1    13
  2.7305000803959339E-02 a      1214     0    61     1    14
 -1.7338896964110166E-02 a      1215     0    61     1    15
  9.1491945104055949E-02 a      1216     0    61     1    16
  1.4123324190496100E-01 a      1217     0    61     1    17
  3.8446662084229768E-02 a      1218     0    61     1    18
  8.3847650317979930E-02 a      1219     0    61     1    19
 -9.5663305806322513E-02 a      1220     0    61     1    20
 -2.4526757655320457E-02 a      1221     0    62     1     1
 -3.1565905798972826E-01 a      1222     0    62     1     2
 -1.8272428186892040E-01 a      1223     0    62     1     3
 -7.6624349411549718E-03 a      1224     0    62     1     4
 -5.8763649179938593E-02 a      1225     0    62     1     5
 -1.0440262262875444E-01 a      1226     0    62     1     6
  1.9658845444729661E-01 a      1227     0    62     1     7
  9.1811419422826959E-02 a      1228     0    62     1     8
 -5.7232866700424004E-02 a      1229     0    62     1     9
 -3.1905940966309956E-02 a      1230     0    62     1    10
 -1.6700587947366902E-01 a      1231     0    62     1    11
  1.1590546378343136E-01 a      1232     0    62     1    12
 -1.8558807533773392E-01 a      1233     0    62     1    13
 -1.7067295776023708E-01 a      1234     0    62     1    14
  8.6832313917852552E-02 a      1235     0    62     1    15
 -8.9888359255259093E-02 a      1236     0    62     1    16
 -1.8882263324810952E-01 a      1237     0    62     1    17
  5.9976981573866932E-02 a      1238     0    62     1    18
  1.1905239262772016E-01 a      1239     0    62     1    19
 -1.4236206232585136E-01 a      1240     0    62     1    20
  6.2496903515420706E-02 a      1241     0    63     1     1
  9.3270511528157254E-02 a      1242     0    63     1     2
 -2.4269111907311122E-01 a      1243     0    63     1     3
  2.9463237397990692E-02 a      1244     0    63     1     4
 -7.6350172371742353E-02 a      1245     0    63     1     5
 -5.4362160801498194E-02 a      1246     0    63     1     6
 -1.4182498427288016E-03 a      1247     0    63     1     7
 -2.9406927260918193E-02 a      1248     0    63     1     8
  2.4418953277598923E-01 a      1249     0    63     1     9
 -7.7822867597788822E-02 a      1250     0    63     1    10
  1.1413407685033083E-01 a      1251     0    63     1    11
  3.7310501409641866E-03 a      1252     0    63     1    12
 -6.5787085199629758E-04 a      1253     0    63     1    13
 -1.1369662645836404E-01 a      1254     0    63     1    14
 -3.5191609327066331E-02 a      1255     0    63     1    15
 -1.3012120925379217E-03 a      1256     0    63     1    16
  1.3547522850479346E-01 a      1257     0    63     1    17
  5.0386112506133320E-02 a      1258     0    63     1    18
  1.1998407012191968E-01 a      1259     0    63     1    19
 -1.9686784993953141E-01 a      1260     0    63     1    20
  8.2897328224716613E-02 a      1261     0    64     1     1
 -8.0109889388275415E-02 a      1262     0    64     1     2
 -8.4095064800061001E-02 a      1263     0    64     1     3
  1.1016579005731306E-02 a      1264     0    64     1     4
 -1.3195698351317414E-01 a      1265     0    64     1     5
 -7.9401267535151865E-02 a      1266     0    64     1     6
 -4.1977110696883757E-02 a      1267     0    64     1     7
  5.1874090285815369E-02 a      1268     0    64     1     8
  1.0738377623261351E-01 a      1269     0    64     1     9
  2.3329046712785486E-02 a      1270     0    64     1    10
  4.2514088898104749E-02 a      1271     0    64     1    11
  3.9372091681617705E-02 a      1272     0    64     1    12
 -3.6933014217446630E-02 a      1273     0    64     1    13
 -1.1752233543777044E-01 a      1274     0    64     1    14
 -1.3628336815933970E-01 a      1275     0    64     1    15
 -1.1856594376259408E-03 a      1276     0    64     1    16
  1.4394817197719670E-01 a      1277     0    64     1    17
  1.4891514899890651E-01 a      1278     0    64     1    18
 -5.0487977049697624E-02 a      1279     0    64     1    19
  7.6183915084753029E-02 a      1280     0    64     1    20
 -2.4419372881042133E-02 a      1281     0    65     1     1
  2.0405896760057149E-01 a      1282     0    65     1     2
 -2.9766341419170009E-02 a      1283     0    65     1     3
 -4.7124471643703710E-02 a      1284     0    65     1     4
  1.6729976551480297E-01 a      1285     0    65     1     5
  9.9874620707292916E-02 a      1286     0    65     1     6
 -1.6713557490814460E-01 a      1287     0    65     1     7
  1.2186305215920788E-03 a      1288     0    65     1     8
 -1.4369388011059858E-01 a      1289     0    65     1     9
  1.5303133637020705E-01 a      1290     0    65     1    10
  9.6470002227017571E-02 a      1291     0    65     1    11
 -7.3011083711985100E-02 a      1292     0    65     1    12
  8.9349704285261483E-02 a      1293     0    65     1    13
 -8.2349370636206568E-03 a      1294     0    65     1    14
 -8.5712838007126729E-02 a      1295     0    65     1    15
  2.2458332991242454E-02 a      1296     0    65     1    16
 -1.5489592044500922E-01 a      1297     0    65     1    17
 -3.9904380296802336E-02 a      1298     0    65     1    18
 -1.2839459688719917E-02 a      1299     0    65     1    19
 -1.8368934239483550E-01 a      1300     0    65     1    20
 -1.3361898556971777E-01 a      1301     0    66     1     1
  1.8939610396223390E-02 a      1302     0    66     1     2
  2.6292405378551054E-01 a      1303     0    66     1     3
 -5.9880934089758968E-02 a      1304     0    66     1     4
  1.6650604619272487E-02 a      1305     0    66     1     5
  2.2867299127752632E-02 a      1306     0    66     1     6
  1.3345821460209420E-01 a      1307     0    66     1     7
  2.5630681652714676E-02 a      1308     0    66     1     8
 -7.5197249069678354E-02 a      1309     0    66     1     9
 -1.5621005541641717E-01 a      1310     0    66     1    10
 -1.6569056063688950E-01 a      1311     0    66     1    11
  1.7477516718545669E-01 a      1312     0    66     1    12
  1.3486237395950765E-01 a      1313     0    66     1    13
  1.6110710050215987E-01 a      1314     0    66     1    14
  7.2109516034126769E-02 a      1315     0    66     1    15
  2.4532666067383555E-02 a      1316     0    66     1    16
 -2.9360842236600848E-01 a      1317     0    66     1    17
 -8.7859341931001866E-02 a      1318     0    66     1    18
 -2.3608056064268576E-01 a      1319     0    66     1    19
 -1.2210811562336803E-01 a      1320     0    66     1    20
 -5.4486314482724389E-03 a      1321     0    67     1     1
 -1.4057702925088453E-01 a      1322     0    67     1     2
  9.5962422770168143E-02 a      1323     0    67     1     3
  9.2989741013785931E-02 a      1324     0    67     1     4
  2.8278699145332292E-02 a      1325     0    67     1     5
  1.0969624402078967E-01 a      1326     0    67     1     6
  3.9510023307636893E-02 a      1327     0    67     1     7
  1.3701205592848242E-03 a      1328     0    67     1     8
 -2.3324848819174190E-01 a      1329     0    67     1     9
  8.8265265470634777E-02 a      1330     0    67     1    10
 -1.3275395912111163E-01 a      1331     0    67     1    11
  2.5734573044050579E-02 a      1332     0    67     1    12
  1.2526048567686754E-01 a      1333     0    67     1    13
  9.9550913206027686E-02 a      1334     0    67     1    14
  3.5688364386111164E-02 a      1335     0    67     1    15
  1.5660556958936447E-02 a      1336     0    67     1    16
 -8.7006588343762174E-03 a      1337     0    67     1    17
 -1.6361142565860334E-01 a      1338     0    67     1    18
  8.7024466975902798E-02 a      1339     0    67     1    19
  1.7968103756523807E-01 a      1340     0    67     1    20
  2.2146006084599212E-01 a      1341     0    68     1     1
 -3.5787152286647174E-02 a      1342     0    68     1     2
 -2.5555549719077741E-01 a      1343     0    68     1     3
  6.6500247602234190E-03 a      1344     0    68     1     4
 -1.1337239648585834E-01 a      1345     0    68     1     5
 -1.3772207008583889E-01 a      1346     0    68     1     6
 -3.7980058694444409E-02 a      1347     0    68     1     7
 -8.7588645444877017E-02 a      1348     0    68     1     8
  1.4016399647925726E-01 a      1349     0    68     1     9
 -1.4863598592602742E-01 a      1350     0    68     1    10
  1.0355552502028358E-01 a      1351     0    68     1    11
 -4.3762877322105091E-02 a      1352     0    68     1    12
 -1.4602928842159982E-01 a      1353     0    68     1    13
 -1.2592386855941159E-01 a      1354     0    68     1    14
  1.0120372042855212E-01 a      1355     0    68     1    15
  3.6903639905479763E-02 a      1356     0    68     1    16
 -7.5727528670299915E-02 a      1357     0    68     1    17
 -7.9345161314565649E-02 a      1358     0    68     1    18
  8.1006669044773577E-02 a      1359     0    68     1    19
 -1.3055293409806906E-01 a      1360     0    68     1    20
 -6.6572893665420144E-02 a      1361     0    69     1     1
 -2.1053953666145792E-02 a      1362     0    69     1     2
 -4.0615867099759777E-02 a      1363     0    69     1     3
  5.5051222672513021E-02 a      1364     0    69     1     4
  1.2637816913927127E-01 a      1365     0    69     1     5
  1.2405207390928988E-01 a      1366     0    69     1     6
 -3.9201455040059820E-02 a      1367     0    69     1     7
 -6.4505713351605196E-02 a      1368     0    69     1     8
 -1.3694735880919764E-01 a      1369     0    69     1     9
  1.0331354793645783E-01 a      1370     0    69     1    10
 -1.0961767783933170E-01 a      1371     0    69     1    11
 -1.5736446094651406E-02 a      1372     0    69     1    12
  1.1113229797801058E-01 a      1373     0    69     1    13
  1.1668600610103151E-01 a      1374     0    69     1    14
 -2.4291325971097052E-02 a      1375     0    69     1    15
 -5.0840256329084859E-03 a      1376     0    69     1    16
 -9.2412261504754997E-02 a      1377     0    69     1    17
 -8.0107535629800830E-02 a      1378     0    69     1    18
  1.1835565516640825E-01 a      1379     0    69     1    19
 -1.5486911885253635E-01 a      1380     0    69     1    20
  7.8349851885443175E-02 a      1381     0    70     1     1
  1.7576685034074866E-02 a      1382     0    70     1     2
 -1.5908229746338043E-02 a      1383     0    70     1     3
 -9.0859480489569627E-02 a      1384     0    70     1     4
  6.9949342380414031E-02 a      1385     0    70     1     5
 -1.0491678950476503E-01 a      1386     0    70     1     6
  4.1544088680591035E-02 a      1387     0    70     1     7
 -6.2600109204740476E-02 a      1388     0    70     1     8
 -1.2854662701657149E-01 a      1389     0    70     1     9
 -9.8916071738018210E-02 a      1390     0    70     1    10
 -2.5913752403563090E-01 a      1391     0    70     1    11
  1.6383038171448372E-01 a      1392     0    70     1    12
 -1.8795380240115947E-01 a      1393     0    70     1    13
 -2.1822680290247667E-01 a      1394     0    70     1    14
  1.3771041870628076E-01 a      1395     0    70     1    15
  4.3500079288110657E-03 a      1396     0    70     1    16
 -3.0107044501050706E-01 a      1397     0    70     1    17
 -1.9863922081611720E-02 a      1398     0    70     1    18
  5.7724688596820419E-04 a      1399     0    70     1    19
  2.2428449802275405E-01 a      1400     0    70     1    20
 -1.7867020907479353E-01 a      1401     0    71     1     1
  7.2978931176347392E-02 a      1402     0    71     1     2
  1.6800109279325606E-01 a      1403     0    71     1     3
 -1.8352362272946779E-01 a      1404     0    71     1     4
  1.3963278854556189E-03 a      1405     0    71     1     5
  1.5983247820035074E-01 a      1406     0    71     1     6
  1.5593790082864731E-01 a      1407     0    71     1     7
 -1.4129025232905720E-01 a      1408     0    71     1     8
 -1.1348943010768311E-01 a      1409     0    71     1     9
 -2.4364559898539792E-01 a      1410     0    71     1    10
 -1.0975370083102387E-01 a      1411     0    71     1    11
 -6.1577628380092571E-02 a      1412     0    71     1    12
  1.8368838738144416E-02 a      1413     0    71     1    13
  2.6071655561807588E-01 a      1414     0    71     1    14
  7.6317403063208542E-02 a      1415     0    71     1    15
 -2.2644269328454935E-02 a      1416     0    71     1    16
  1.8337224376381786E-01 a      1417     0    71     1    17
 -6.7275964057365550E-02 a      1418     0    71     1    18
 -2.3268952473058169E-01 a      1419     0    71     1    19
 -1.7423463045385065E-01 a      1420     0    71     1    20
 -2.3563517772605011E-01 a      1421     0    72     1     1
 -1.2875782611911671E-01 a      1422     0    72     1     2
  1.3471502286364237E-01 a      1423     0    72     1     3
 -8.2666251142283098E-02 a      1424     0    72     1     4
  3.6176491099522513E-02 a      1425     0    72     1     5
 -1.9883120331269410E-01 a      1426     0    72     1     6
 -1.5482839562357426E-01 a      1427     0    72     1     7
 -1.8266284475460406E-01 a      1428     0    72     1     8
  1.3353332540353369E-01 a      1429     0    72     1     9
  1.5485360996837122E-01 a      1430     0    72     1    10
 -2.5903949451063996E-01 a      1431     0    72     1    11
 -3.1031407839994096E-01 a      1432     0    72     1    12
 -1.6011473448798014E-01 a      1433     0    72     1    13
 -8.4631642370762733E-02 a      1434     0    72     1    14
  1.4648339517280556E-01 a      1435     0    72     1    15
 -1.5104264509658727E-01 a      1436     0    72     1    16
  1.7961127731980747E-01 a      1437     0    72     1    17
 -1.6284775546681979E-01 a      1438     0    72     1    18
  4.6279747003322311E-02 a      1439     0    72     1    19
  2.8209720582040737E-01 a      1440     0    72     1    20
 -1.6527462473488307E-02 a      1441     0    73     1     1
  1.0354824916161284E-01 a      1442     0    73     1     2
 -3.9629027032121546E-02 a      1443     0    73     1     3
 -1.6989412910267315E-01 a      1444     0    73     1     4
 -8.3058514061478877E-02 a      1445     0    73     1     5
 -4.1728649933314189E-02 a      1446     0    73     1     6
 -7.8811046195929560E-02 a      1447     0    73     1     7
  7.8390458228031062E-02 a      1448     0    73     1     8
 -2.2762127811809685E-01 a      1449     0    73     1     9
  1.3579068063549384E-03 a      1450     0    73     1    10
 -1.0358136907706397E-01 a      1451     0    73     1    11
  2.4080548103176041E-02 a      1452     0    73     1    12
 -1.7269454393820344E-01 a      1453     0    73     1    13
  1.2594937353039834E-01 a      1454     0    73     1    14
  1.4534912491755066E-02 a      1455     0    73     1    15
 -6.4181314202400516E-02 a      1456     0    73     1    16
 -7.2983363651707911E-03 a      1457     0    73     1    17
  9.8199420201505572E-02 a      1458     0    73     1    18
 -2.3433589644976374E-01 a      1459     0    73     1    19
  2.4997437322165361E-01 a      1460     0    73     1    20
 -5.1496468646079506E-02 a      1461     0    74     1     1
  3.8826681122954981E-02 a      1462     0    74     1     2
 -7.1819442287025081E-02 a      1463     0    74     1     3
 -1.8683628805019550E-01 a      1464     0    74     1     4
  1.4623383931051628E-01 a      1465     0    74     1     5
 -1.2444238812479104E-01 a      1466     0    74     1     6
  1.8411574919715329E-01 a      1467     0    74     1     7
  9.3124698245648729E-02 a      1468     0    74     1     8
 -9.7710878416300800E-02 a      1469     0    74     1     9
  1.7626886883551716E-02 a      1470     0    74     1    10
  4.8910188429699589E-02 a      1471     0    74     1    11
 -1.9068523369783064E-01 a      1472     0    74     1    12
 -6.1966209630671773E-02 a      1473     0    74     1    13
 -7.4481052961794206E-02 a      1474     0    74     1    14
 -7.2339000424620950E-02 a      1475     0    74     1    15
  6.9364619952272819E-02 a      1476     0    74     1    16
  1.0606038424856992E-01 a      1477     0    74     1    17
  4.5892743016396467E-02 a      1478     0    74     1    18
 -5.5362062861176869E-03 a      1479     0    74     1    19
  5.5719308212386742E-02 a      1480     0    74     1    20
 -8.1112350043320874E-02 a      1481     0    75     1     1
 -8.5865795011464380E-02 a      1482     0    75     1     2
 -2.8030662846927873E-02 a      1483     0    75     1     3
 -3.5584172135896951E-02 a      1484     0    75     1     4
 -9.0316521094449376E-02 a      1485     0    75     1     5
  6.0042655566534806E-02 a      1486     0    75     1     6
 -6.6007662197845915E-02 a      1487     0    75     1     7
  2.2287430701839601E-02 a      1488     0    75     1     8
 -7.4779774404125657E-02 a      1489     0    75     1     9
 -4.1338453904442830E-02 a      1490     0    75     1    10
 -1.2859323086244103E-02 a      1491     0    75     1    11
  5.8858311145768845E-02 a      1492     0    75     1    12
  9.2467376331710635E-02 a      1493     0    75     1    13
  1.2946390161725571E-01 a      1494     0    75     1    14
 -1.4867085597428192E-02 a      1495     0    75     1    15
 -3.6297778730657600E-02 a      1496     0    75     1    16
 -7.8913555512055186E-02 a      1497     0    75     1    17
 -1.4459598577717043E-02 a      1498     0    75     1    18
  2.9843038398746891E-03 a      1499     0    75     1    19
 -4.9287519727350217E-02 a      1500     0    75     1    20
 -5.5564090913772565E-03 a      1501     0    76     1     1
  4.5615762152311223E-02 a      1502     0    76     1     2
  5.5568183063274918E-03 a      1503     0    76     1     3
  7.1838299647899395E-02 a      1504     0    76     1     4
  1.8688157903369726E-01 a      1505     0    76     1     5
  1.4294127593035000E-01 a      1506     0    76     1     6
  1.4882722303367321E-01 a      1507     0    76     1     7
  1.3666516871392878E-01 a      1508     0    76     1     8
 -7.0367514484684618E-02 a      1509     0    76     1     9
 -1.8474297021256459E-02 a      1510     0    76     1    10
 -2.1702276502311624E-01 a      1511     0    76     1    11
 -1.4707280081166987E-01 a      1512     0    76     1    12
 -1.5405208192807801E-02 a      1513     0    76     1    13
 -2.9902025278006814E-02 a      1514     0    76     1    14
  1.4318239198655705E-01 a      1515     0    76     1    15
  1.2581648052556424E-01 a      1516     0    76     1    16
  1.4410023208938624E-01 a      1517     0    76     1    17
 -1.6284966135310583E-01 a      1518     0    76     1    18
  1.7453045372286086E-01 a      1519     0    76     1    19
  6.3322502558914168E-02 a      1520     0    76     1    20
  2.1188472413037337E-02 a      1521     0    77     1     1
  2.3092347181495085E-01 a      1522     0    77     1     2
  1.4333353735365506E-02 a      1523     0    77     1     3
  6.3682507226219917E-02 a      1524     0    77     1     4
  7.1504881647334817E-02 a      1525     0    77     1     5
  4.0050566537265311E-02 a      1526     0    77     1     6
 -1.7817170781594324E-01 a      1527     0    77     1     7
 -1.1975340558616732E-02 a      1528     0    77     1     8
  7.5850148751288898E-02 a      1529     0    77     1     9
  1.8752373042844020E-03 a      1530     0    77     1    10
  1.3900608619297000E-01 a      1531     0    77     1    11
  4.0628654557483067E-02 a      1532     0    77     1    12
  2.1068652773708490E-02 a      1533     0    77     1    13
  1.0498034127042294E-01 a      1534     0    77     1    14
 -1.1730660188919008E-01 a      1535     0    77     1    15
  1.1762344010232801E-03 a      1536     0    77     1    16
 -3.2440759850145579E-02 a      1537     0    77     1    17
  1.7382459755460787E-02 a      1538     0    77     1    18
 -1.0750492329609510E-01 a      1539     0    77     1    19
  2.1213561685921667E-01 a      1540     0    77     1    20
  3.7094578924137180E-02 a      1541     0    78     1     1
  1.0914907135723319E-01 a      1542     0    78     1     2
  7.6978847763342871E-03 a      1543     0    78     1     3
 -1.1006515751620786E-01 a      1544     0    78     1     4
 -2.8383713704125484E-03 a      1545     0    78     1     5
 -1.6621405699393982E-01 a      1546     0    78     1     6
 -7.5148119459610321E-02 a      1547     0    78     1     7
  1.2536371101350727E-01 a      1548     0    78     1     8
 -9.7566127067657254E-03 a      1549     0    78     1     9
 -4.4498679742332736E-03 a      1550     0    78     1    10
 -2.3626055163756315E-01 a      1551     0    78     1    11
  9.3029371703289190E-02 a      1552     0    78     1    12
 -7.2665007227800379E-02 a      1553     0    78     1    13
 -3.0313502785298851E-01 a      1554     0    78     1    14
 -1.2631696257833402E-01 a      1555     0    78     1    15
 -4.7911632309882102E-02 a      1556     0    78     1    16
  1.0590044025652503E-02 a      1557     0    78     1    17
  2.4036563234676424E-02 a      1558     0    78     1    18
  5.1173112795227703E-02 a      1559     0    78     1    19
 -2.0525180635970228E-01 a      1560     0    78     1    20
 -1.1051768408536694E-01 a      1561     0    79     1     1
  2.3237067783020866E-04 a      1562     0    79     1     2
  2.5283919287649833E-02 a      1563     0    79     1     3
 -1.1137418658671456E-02 a      1564     0    79     1     4
 -8.6940415280882741E-02 a      1565     0    79     1     5
 -7.9933390581197680E-03 a      1566     0    79     1     6
  1.3567475737706852E-01 a      1567     0    79     1     7
  2.1290324900629301E-01 a      1568     0    79     1     8
 -3.1858652815384120E-01 a      1569     0    79     1     9
  1.0104056381374927E-02 a      1570     0    79     1    10
 -2.1482186635532588E-01 a      1571     0    79     1    11
  7.7764035653701782E-02 a      1572     0    79     1    12
  3.1897945801849396E-02 a      1573     0    79     1    13
  2.0953282863816561E-04 a      1574     0    79     1    14
  6.7853091237618388E-02 a      1575     0    79     1    15
 -9.2916767864372446E-02 a      1576     0    79     1    16
  1.5691598916189523E-01 a      1577     0    79     1    17
 -2.4427690786392292E-01 a      1578     0    79     1    18
  3.6328752729052498E-02 a      1579     0    79     1    19
 -1.3109701188314299E-01 a      1580     0    79     1    20
  8.3557502937934375E-02 a      1581     0    80     1     1
  4.4960629200943895E-02 a      1582     0    80     1     2
  4.0359941045604003E-02 a      1583     0    80     1     3
  7.9682487603818020E-02 a      1584     0    80     1     4
  1.2851654117070063E-01 a      1585     0    80     1     5
 -1.0249275395280422E-01 a      1586     0    80     1     6
 -8.5428259530531542E-02 a      1587     0    80     1     7
 -1.4941774415499845E-01 a      1588     0    80     1     8
  4.7026410020486230E-03 a      1589     0    80     1     9
  4.6516617423619420E-02 a      1590     0    80     1    10
 -1.2439194764467386E-01 a      1591     0    80     1    11
  7.9509500601358793E-02 a      1592     0    80     1    12
  1.0041038135880791E-01 a      1593     0    80     1    13
  5.0240679820841933E-02 a      1594     0    80     1    14
 -1.7254595527213111E-02 a      1595     0    80     1    15
 -4.7179089923758112E-02 a      1596     0    80     1    16
 -1.9776624665282372E-01 a      1597     0    80     1    17
  1.2565554710856613E-01 a      1598     0    80     1    18
  8.5003874680105299E-02 a      1599     0    80     1    19
  2.2297605034839652E-01 a      1600     0    80     1    20
  5.5977223255071418E-01 b      1601     1     1
  1.3335806898006259E+00 b      1602     1     2
 -9.4040009693814375E-01 b      1603     1     3
  1.2523967210358371E+00 b      1604     1     4
  6.2993774240819356E-01 b      1605     1     5
 -1.3795414406696913E+00 b      1606     1     6
 -7.8295831685505168E-01 b      1607     1     7
 -9.3524224652965415E-01 b      1608     1     8
 -5.8265515221732056E-01 b      1609     1     9
 -1.4538324427925314E-01 b      1610     1    10
  4.6814473372167276E-01 b      1611     1    11
  1.5634152262544916E+00 b      1612     1    12
  9.1720337449008849E-01 b      1613     1    13
 -7.2083282181914898E-01 b      1614     1    14
  8.8194283699905973E-01 b      1615     1    15
  9.0347320779525808E-01 b      1616     1    16
  1.4376775148068233E+00 b      1617     1    17
 -3.1724125282770882E-01 b      1618     1    18
  8.9563140105965355E-01 b      1619     1    19
 -9.2869297702366405E-01 b      1620     1    20
  8.2471352817528501E-02 a      1621     1     1     2     1
  4.1369904673516733E-01 a      1622     1     1     2     2
  3.0614686827619408E-01 a      1623     1     1     2     3
  7.3145724258591671E-01 a      1624     1     1     2     4
 -4.4013294492430098E-02 a      1625     1     1     2     5
  7.1652137110273836E-02 a      1626     1     1     2     6
  2.6898030932225547E-01 a      1627     1     1     2     7
