################################################################################
# Neural network connection values (weights and biases).
################################################################################
# Col  Name       Description
################################################################################
# 1    connection Neural network connection value.
# 2    t          Connection type (a = weight, b = bias).
# 3    index      Index enumerating weights.
# 4    l_s        Starting point layer (end point layer for biases).
# 5    n_s        Starting point neuron in starting layer (end point neuron for biases).
# 6    l_e        End point layer.
# 7    n_e        End point neuron in end layer.
################################################################################
#                      1 2         3     4     5     6     7
#             connection t     index   l_s   n_s   l_e   n_e
############################################################
  1.1728763738155817E-01 a         1     0     1     1     1
  2.0341986407525373E-01 a         2     0     1     1     2
 -2.0382396376154013E-01 a         3     0     1     1     3
 -1.7637893633902543E-02 a         4     0     1     1     4
  1.0382719771687471E-01 a         5     0     1     1     5
  5.8030572845404547E-02 a         6     0     1     1     6
 -9.2669451969274466E-02 a         7     0     1     1     7
 -1.6168042271541691E-01 a         8     0     1     1     8
  1.5501254697443664E-01 a         9     0     1     1     9
 -4.3904410424924478E-01 a        10     0     1     1    10
 -6.1084617638894369E-03 a        11     0     1     1    11
  5.4023533263755953E-02 a        12     0     1     1    12
  1.7407377147536041E-01 a        13     0     1     1    13
  6.3615110213944157E-02 a        14     0     1     1    14
  3.0447941747930325E-02 a        15     0     1     1    15
  1.1710263842121496E-01 a        16     0     1     1    16
  2.2210109084424634E-01 a        17     0     1     1    17
  3.4505227904825492E-02 a        18     0     1     1    18
 -1.9782800064539332E-02 a        19     0     1     1    19
 -2.6975968894595248E-01 a        20     0     1     1    20
  4.2124187712869708E-02 a        21     0     2     1     1
  4.7302321753874367E-02 a        22     0     2     1     2
  2.5501627635730419E-03 a        23     0     2     1     3
  4.0742102950896445E-03 a        24     0     2     1     4
 -3.5896248525622410E-01 a        25     0     2     1     5
 -1.8381425049789360E-01 a        26     0     2     1     6
 -5.2561719675440800E-03 a        27     0     2     1     7
  4.8009876416500744E-02 a        28     0     2     1     8
 -3.6828006315345996E-02 a        29     0     2     1     9
  9.3857645245332064E-02 a        30     0     2     1    10
 -1.0292305642649327E-01 a        31     0     2     1    11
  7.0676817566807909E-02 a        32     0     2     1    12
  1.0463673837953309E-01 a        33     0     2     1    13
 -7.7493929298253245E-02 a        34     0     2     1    14
 -1.5449420478279015E-03 a        35     0     2     1    15
 -1.2718452882692685E-01 a        36     0     2     1    16
  6.4132760621382429E-02 a        37     0     2     1    17
  3.4779535843869044E-02 a        38     0     2     1    18
  7.6303518586986641E-02 a        39     0     2     1    19
 -5.3805532953243498E-03 a        40     0     2     1    20
  1.4893069178409582E-01 a        41     0     3     1     1
 -1.4575856583240959E-01 a        42     0     3     1     2
  6.0657073620236646E-02 a        43     0     3     1     3
  3.2507815102490463E-02 a        44     0     3     1     4
  1.2551779603607887E-02 a        45     0     3     1     5
  8.5730736808235591E-02 a        46     0     3     1     6
  2.0953643710974715E-01 a        47     0     3     1     7
  1.2031327794394474E-01 a        48     0     3     1     8
  3.2518585267127878E-02 a        49     0     3     1     9
 -4.0765099540931764E-02 a        50     0     3     1    10
  2.3341112406836001E-01 a        51     0     3     1    11
 -2.0366237747235481E-02 a        52     0     3     1    12
  7.8769515996578346E-02 a        53     0     3     1    13
 -1.6957005893187116E-01 a        54     0     3     1    14
 -1.1874456690666957E-01 a        55     0     3     1    15
  5.5238758365285898E-02 a        56     0     3     1    16
  1.1199034212981139E-01 a        57     0     3     1    17
  9.2205453561254022E-02 a        58     0     3     1    18
 -1.1493486501888366E-01 a        59     0     3     1    19
  4.3662858725641733E-02 a        60     0     3     1    20
  2.7638393184152801E-02 a        61     0     4     1     1
  4.5515442932393846E-02 a        62     0     4     1     2
 -7.9803410175159586E-02 a        63     0     4     1     3
  7.5708326791567526E-02 a        64     0     4     1     4
  5.7703920869807190E-02 a        65     0     4     1     5
  3.1050701058726416E-02 a        66     0     4     1     6
  7.3790603757321854E-02 a        67     0     4     1     7
  5.2734537126584394E-02 a        68     0     4     1     8
  8.0110235510302344E-02 a        69     0     4     1     9
  1.6611567716996434E-01 a        70     0     4     1    10
 -1.2189036522344186E-01 a        71     0     4     1    11
  1.9457838038622808E-02 a        72     0     4     1    12
 -1.4065646916920527E-01 a        73     0     4     1    13
  1.8413451158565824E-01 a        74     0     4     1    14
 -2.2989591118957681E-02 a        75     0     4     1    15
  1.0090260977494692E-01 a        76     0     4     1    16
 -3.0875832111634062E-02 a        77     0     4     1    17
 -6.3654404429217956E-03 a        78     0     4     1    18
  1.3040971609047403E-01 a        79     0     4     1    19
 -4.0286338996780899E-02 a        80     0     4     1    20
  6.8229513308940559E-02 a        81     0     5     1     1
 -1.2756657629968160E-01 a        82     0     5     1     2
  5.2178999632631207E-01 a        83     0     5     1     3
 -6.9744218632712934E-02 a        84     0     5     1     4
 -1.1011594078091357E-01 a        85     0     5     1     5
 -3.5554833072834136E-01 a        86     0     5     1     6
  4.0750995613931598E-02 a        87     0     5     1     7
  1.0637806454290144E-01 a        88     0     5     1     8
 -1.6561114680023303E-01 a        89     0     5     1     9
 -9.9349609247066331E-02 a        90     0     5     1    10
  1.5349416721257003E-01 a        91     0     5     1    11
  1.6383899862651596E-01 a        92     0     5     1    12
 -1.5528601984826765E-01 a        93     0     5     1    13
  2.4605008120841423E-01 a        94     0     5     1    14
 -7.1635783057700977E-02 a        95     0     5     1    15
 -1.4296535739734456E-01 a        96     0     5     1    16
  2.3640991520077327E-04 a        97     0     5     1    17
  9.8249172868643445E-02 a        98     0     5     1    18
  1.3358872423696738E-01 a        99     0     5     1    19
 -9.3819100550247267E-02 a       100     0     5     1    20
  7.6983992241694152E-02 a       101     0     6     1     1
 -5.0647511876238741E-02 a       102     0     6     1     2
 -6.1827800205865389E-02 a       103     0     6     1     3
  9.7674702325764140E-02 a       104     0     6     1     4
 -1.2379829946215251E-01 a       105     0     6     1     5
  7.0201852805339304E-02 a       106     0     6     1     6
  2.0891116193535281E-01 a       107     0     6     1     7
 -2.0657773751119565E-01 a       108     0     6     1     8
 -9.3071921029063975E-03 a       109     0     6     1     9
  1.7357103471773253E-01 a       110     0     6     1    10
  4.3370326277959427E-02 a       111     0     6     1    11
 -7.1820586163319879E-03 a       112     0     6     1    12
 -1.1820524471403088E-01 a       113     0     6     1    13
 -1.8041558217655837E-01 a       114     0     6     1    14
  2.4617506536835761E-02 a       115     0     6     1    15
  7.7221872932236174E-02 a       116     0     6     1    16
 -1.9734000013923328E-01 a       117     0     6     1    17
 -5.4304605326366419E-02 a       118     0     6     1    18
 -6.8493161500632491E-02 a       119     0     6     1    19
 -3.9253524201554861E-02 a       120     0     6     1    20
 -7.5198912559585902E-03 a       121     0     7     1     1
 -9.4729334582233978E-03 a       122     0     7     1     2
 -6.4262064342765199E-02 a       123     0     7     1     3
 -8.0131614510097579E-02 a       124     0     7     1     4
  1.6053229696127350E-01 a       125     0     7     1     5
  5.2972829746677504E-02 a       126     0     7     1     6
 -1.4775025614147561E-01 a       127     0     7     1     7
 -2.3413647581153277E-01 a       128     0     7     1     8
  2.3287635873280401E-03 a       129     0     7     1     9
  2.0414859925029560E-01 a       130     0     7     1    10
 -2.3752162888929909E-01 a       131     0     7     1    11
 -1.0891110313819466E-01 a       132     0     7     1    12
  8.2012191611516988E-02 a       133     0     7     1    13
 -1.3432281430684237E-01 a       134     0     7     1    14
  1.4091545483929405E-01 a       135     0     7     1    15
  6.9799092266513305E-02 a       136     0     7     1    16
 -6.9052490740363612E-02 a       137     0     7     1    17
  2.1175794947547607E-03 a       138     0     7     1    18
 -1.0700742200108281E-01 a       139     0     7     1    19
 -1.5367217838010749E-01 a       140     0     7     1    20
 -4.7219588715845140E-02 a       141     0     8     1     1
 -1.1162757191725878E-01 a       142     0     8     1     2
  2.9939616387455275E-02 a       143     0     8     1     3
 -1.9961896377524319E-01 a       144     0     8     1     4
 -2.0635137970058265E-01 a       145     0     8     1     5
 -1.8226222082756824E-01 a       146     0     8     1     6
 -5.8899299463140318E-03 a       147     0     8     1     7
  6.0181007202635216E-02 a       148     0     8     1     8
 -3.1209569271265498E-03 a       149     0     8     1     9
  6.0994246685587700E-02 a       150     0     8     1    10
 -1.2398351256945354E-02 a       151     0     8     1    11
  8.0124894171123354E-02 a       152     0     8     1    12
 -4.4790995207048337E-03 a       153     0     8     1    13
 -1.1917772024664251E-01 a       154     0     8     1    14
 -1.0615143874798942E-01 a       155     0     8     1    15
 -6.4099805614946645E-02 a       156     0     8     1    16
  8.4715646399116121E-02 a       157     0     8     1    17
 -3.4427382143012046E-02 a       158     0     8     1    18
 -2.3586071852599724E-01 a       159     0     8     1    19
  1.0459794718456160E-01 a       160     0     8     1    20
  2.4167816781476206E-01 a       161     0     9     1     1
  1.7049758229949971E-01 a       162     0     9     1     2
 -2.2947234146558260E-01 a       163     0     9     1     3
 -2.0523905377615606E-01 a       164     0     9     1     4
 -2.7504596947162169E-01 a       165     0     9     1     5
 -3.2087023864385189E-01 a       166     0     9     1     6
  1.8562155646241008E-01 a       167     0     9     1     7
 -2.0270126360006258E-01 a       168     0     9     1     8
  2.7704403196014799E-01 a       169     0     9     1     9
 -7.0404660315301279E-02 a       170     0     9     1    10
 -4.4141847239476083E-02 a       171     0     9     1    11
  7.4269301333619933E-02 a       172     0     9     1    12
  1.8045345401790847E-01 a       173     0     9     1    13
 -1.6178659000135101E-01 a       174     0     9     1    14
  1.9616462574118734E-01 a       175     0     9     1    15
  1.7584001792676424E-01 a       176     0     9     1    16
  1.9134178256075141E-01 a       177     0     9     1    17
  5.7779597578182094E-02 a       178     0     9     1    18
  4.2006301570498613E-03 a       179     0     9     1    19
  8.9409925026674997E-02 a       180     0     9     1    20
 -2.1237630953844797E-01 a       181     0    10     1     1
 -2.1584975944677204E-01 a       182     0    10     1     2
 -1.0887376410319533E-02 a       183     0    10     1     3
 -1.3157200185946216E-01 a       184     0    10     1     4
  4.0399128238532378E-01 a       185     0    10     1     5
  3.3126065862092643E-02 a       186     0    10     1     6
 -2.5497389573626236E-02 a       187     0    10     1     7
  8.1477893104278248E-02 a       188     0    10     1     8
 -1.9589060214022815E-02 a       189     0    10     1     9
  1.6534807173969315E-01 a       190     0    10     1    10
  1.6543615077487484E-01 a       191     0    10     1    11
 -6.0247343226731394E-03 a       192     0    10     1    12
 -9.8228173812770533E-02 a       193     0    10     1    13
  2.8807713957154535E-01 a       194     0    10     1    14
  6.7882271382901066E-02 a       195     0    10     1    15
 -3.0363974262007130E-02 a       196     0    10     1    16
  5.9819298424730084E-02 a       197     0    10     1    17
 -4.0581378226240174E-03 a       198     0    10     1    18
 -8.7988578001096437E-03 a       199     0    10     1    19
  1.9350807187549479E-01 a       200     0    10     1    20
  1.8536654534968576E-02 a       201     0    11     1     1
  6.6899177949343205E-02 a       202     0    11     1     2
  2.3838382681370307E-01 a       203     0    11     1     3
 -1.3411124654936613E-01 a       204     0    11     1     4
  1.1496038225486656E-01 a       205     0    11     1     5
 -2.2832588039005666E-01 a       206     0    11     1     6
 -1.9860097272668556E-01 a       207     0    11     1     7
  7.0200671858932348E-02 a       208     0    11     1     8
  1.5190098140904918E-03 a       209     0    11     1     9
 -1.8659330313063144E-01 a       210     0    11     1    10
 -7.6098887709783833E-02 a       211     0    11     1    11
  3.7355670011128606E-02 a       212     0    11     1    12
 -4.2316053638324733E-02 a       213     0    11     1    13
  1.6595124045660162E-01 a       214     0    11     1    14
  3.1350124898680817E-02 a       215     0    11     1    15
  3.1668025392089204E-02 a       216     0    11     1    16
 -5.1449157239710107E-03 a       217     0    11     1    17
  3.5580822148722970E-02 a       218     0    11     1    18
  1.0973852977285062E-01 a       219     0    11     1    19
 -4.1673127792035379E-03 a       220     0    11     1    20
 -3.4883565696809907E-02 a       221     0    12     1     1
  1.8068142019334188E-01 a       222     0    12     1     2
  4.8944121897775729E-02 a       223     0    12     1     3
  1.2085075359316712E-01 a       224     0    12     1     4
  1.3154856285644853E-01 a       225     0    12     1     5
 -2.9598766606680615E-01 a       226     0    12     1     6
 -1.7452512369628300E-02 a       227     0    12     1     7
 -2.2940948808928913E-01 a       228     0    12     1     8
  1.9210779859158028E-03 a       229     0    12     1     9
 -1.2286165104651444E-02 a       230     0    12     1    10
 -1.6360041978107184E-01 a       231     0    12     1    11
  4.0973850853945670E-02 a       232     0    12     1    12
  1.1790881982014108E-01 a       233     0    12     1    13
 -2.0585545047508749E-01 a       234     0    12     1    14
  1.1730662823862599E-01 a       235     0    12     1    15
 -8.8284471082445401E-02 a       236     0    12     1    16
 -9.9850658396796022E-02 a       237     0    12     1    17
 -1.2166429922162840E-01 a       238     0    12     1    18
  1.7032067152087946E-01 a       239     0    12     1    19
  1.0513866567758615E-01 a       240     0    12     1    20
  2.6177407955632409E-01 a       241     0    13     1     1
 -1.5259180192801571E-02 a       242     0    13     1     2
  3.8309830357520358E-01 a       243     0    13     1     3
 -2.8110003357993485E-01 a       244     0    13     1     4
 -7.6550706308597394E-02 a       245     0    13     1     5
 -1.6378680238388260E-01 a       246     0    13     1     6
  1.1820295485831019E-01 a       247     0    13     1     7
 -5.2433947451741458E-02 a       248     0    13     1     8
 -2.4689707072538450E-01 a       249     0    13     1     9
 -5.6272932786964464E-02 a       250     0    13     1    10
  1.2012858617594395E-01 a       251     0    13     1    11
  1.1947771442196835E-01 a       252     0    13     1    12
  3.3170985029909318E-02 a       253     0    13     1    13
  2.3489146866651145E-01 a       254     0    13     1    14
 -2.1233322026917301E-01 a       255     0    13     1    15
  1.3625092834134037E-01 a       256     0    13     1    16
  1.4599106709912641E-02 a       257     0    13     1    17
  2.9892266902081941E-02 a       258     0    13     1    18
  2.3741164831098874E-01 a       259     0    13     1    19
 -3.7518308204687517E-01 a       260     0    13     1    20
 -2.8650257773540529E-02 a       261     0    14     1     1
  2.8872497088658728E-03 a       262     0    14     1     2
  1.7939885717507653E-01 a       263     0    14     1     3
  8.8698683604392245E-02 a       264     0    14     1     4
  1.1877881836138288E-01 a       265     0    14     1     5
 -1.4190777335448244E-02 a       266     0    14     1     6
 -1.9774887377901232E-01 a       267     0    14     1     7
  1.4012838673456091E-02 a       268     0    14     1     8
 -1.7697547299718416E-01 a       269     0    14     1     9
 -2.4793463564606690E-03 a       270     0    14     1    10
  4.7179692903391142E-02 a       271     0    14     1    11
  4.0769510047282305E-02 a       272     0    14     1    12
 -4.0413006957721526E-01 a       273     0    14     1    13
 -2.0713164931338915E-01 a       274     0    14     1    14
 -1.5965172179074444E-01 a       275     0    14     1    15
  1.9269287501113525E-01 a       276     0    14     1    16
 -1.7327799563545347E-02 a       277     0    14     1    17
 -2.1070639075822345E-01 a       278     0    14     1    18
  1.0307923302846408E-02 a       279     0    14     1    19
 -1.0953723756910547E-01 a       280     0    14     1    20
  1.6037979349558831E-01 a       281     0    15     1     1
  7.4414087064190351E-02 a       282     0    15     1     2
  4.7747073640916682E-02 a       283     0    15     1     3
 -9.9914687338205341E-02 a       284     0    15     1     4
  1.1781238375486837E-01 a       285     0    15     1     5
 -3.5967659996571914E-02 a       286     0    15     1     6
 -8.3976123313809686E-02 a       287     0    15     1     7
 -3.2267092562193395E-01 a       288     0    15     1     8
  5.8864605647313668E-02 a       289     0    15     1     9
 -5.8697073243778146E-02 a       290     0    15     1    10
  1.5248534959082605E-01 a       291     0    15     1    11
 -2.0148074724738013E-01 a       292     0    15     1    12
 -4.3355697116359171E-02 a       293     0    15     1    13
 -2.4792816419668276E-01 a       294     0    15     1    14
 -1.7521055990404336E-01 a       295     0    15     1    15
 -5.3439743314268401E-02 a       296     0    15     1    16
  1.3237764356678408E-01 a       297     0    15     1    17
  2.3251062076339393E-01 a       298     0    15     1    18
 -1.1064720726935287E-01 a       299     0    15     1    19
 -1.0179039499523156E-01 a       300     0    15     1    20
 -3.4469190312763111E-02 a       301     0    16     1     1
 -2.6589853233194355E-01 a       302     0    16     1     2
 -1.6935812240760129E-02 a       303     0    16     1     3
  1.1929432751769171E-01 a       304     0    16     1     4
 -1.4673120805357878E-01 a       305     0    16     1     5
  3.0316578688791559E-02 a       306     0    16     1     6
  3.5678205228654086E-01 a       307     0    16     1     7
  9.1016353493327651E-02 a       308     0    16     1     8
  2.0718722734546995E-02 a       309     0    16     1     9
  1.2490820834924916E-01 a       310     0    16     1    10
  2.3022093422811674E-01 a       311     0    16     1    11
  1.5078262068915610E-01 a       312     0    16     1    12
 -1.8296326455892131E-01 a       313     0    16     1    13
  5.2268205607473840E-02 a       314     0    16     1    14
  8.6445622395690300E-02 a       315     0    16     1    15
 -2.2704957304667296E-02 a       316     0    16     1    16
 -4.4338158348692707E-03 a       317     0    16     1    17
 -2.9331626960973509E-02 a       318     0    16     1    18
  7.2841000430210356E-02 a       319     0    16     1    19
  6.8030111897141643E-02 a       320     0    16     1    20
  1.0393859201127222E-01 a       321     0    17     1     1
 -4.8640744084265906E-02 a       322     0    17     1     2
 -7.8728522867587358E-02 a       323     0    17     1     3
 -8.0751755955448590E-02 a       324     0    17     1     4
 -1.7648761826120662E-01 a       325     0    17     1     5
 -2.5280440767211854E-02 a       326     0    17     1     6
  1.3916511028165376E-01 a       327     0    17     1     7
  6.4093484440223877E-02 a       328     0    17     1     8
  1.8091365412839502E-01 a       329     0    17     1     9
 -1.4459385546864592E-01 a       330     0    17     1    10
  4.6617579461364668E-03 a       331     0    17     1    11
 -1.6330947592027548E-01 a       332     0    17     1    12
  5.5183648348500640E-02 a       333     0    17     1    13
  2.0782546266790247E-01 a       334     0    17     1    14
  1.1732972465766550E-01 a       335     0    17     1    15
  1.1082359594009047E-02 a       336     0    17     1    16
  1.7279333458111723E-01 a       337     0    17     1    17
  3.4194149254945122E-01 a       338     0    17     1    18
 -1.9113897394916878E-02 a       339     0    17     1    19
  9.9154399379146205E-02 a       340     0    17     1    20
 -1.1380171796418638E-01 a       341     0    18     1     1
 -1.7307438102116890E-01 a       342     0    18     1     2
 -7.9173158780218592E-02 a       343     0    18     1     3
  2.3274517828328914E-01 a       344     0    18     1     4
  2.2922949943764283E-02 a       345     0    18     1     5
  3.8787578760285039E-02 a       346     0    18     1     6
 -3.7757490608739203E-02 a       347     0    18     1     7
 -1.1859923356218438E-01 a       348     0    18     1     8
 -2.0186004777252844E-01 a       349     0    18     1     9
  1.3365751931869344E-01 a       350     0    18     1    10
  6.6244272381153643E-02 a       351     0    18     1    11
  6.5235450427737041E-02 a       352     0    18     1    12
  4.8055605012599020E-02 a       353     0    18     1    13
 -2.9366432668918063E-01 a       354     0    18     1    14
  1.6087645908767742E-01 a       355     0    18     1    15
 -1.1618780659870347E-01 a       356     0    18     1    16
 -1.5348015508840868E-01 a       357     0    18     1    17
 -1.1423984974561238E-01 a       358     0    18     1    18
 -1.1159747305501798E-01 a       359     0    18     1    19
  1.0296937342105515E-02 a       360     0    18     1    20
 -9.7795419911816214E-02 a       361     0    19     1     1
 -1.7008973833297636E-01 a       362     0    19     1     2
  1.5083635133623444E-01 a       363     0    19     1     3
 -1.2703764729606878E-01 a       364     0    19     1     4
 -4.4931078995075514E-02 a       365     0    19     1     5
  4.4947042997327061E-02 a       366     0    19     1     6
  1.6525766741028930E-01 a       367     0    19     1     7
 -1.7419953459571005E-01 a       368     0    19     1     8
 -4.9004137476786266E-02 a       369     0    19     1     9
  1.7830941326191194E-01 a       370     0    19     1    10
 -1.4198976912012481E-01 a       371     0    19     1    11
 -8.6384253351528342E-03 a       372     0    19     1    12
  8.5887191384751344E-02 a       373     0    19     1    13
  7.3414692428182660E-02 a       374     0    19     1    14
  1.8515613601406644E-01 a       375     0    19     1    15
  8.0687382675285926E-02 a       376     0    19     1    16
 -5.8556865537172473E-02 a       377     0    19     1    17
 -3.0677382976827417E-02 a       378     0    19     1    18
  6.4613038426354991E-02 a       379     0    19     1    19
 -2.0473586049607839E-01 a       380     0    19     1    20
 -1.0526279029441937E-01 a       381     0    20     1     1
 -1.0426103335571459E-01 a       382     0    20     1     2
 -8.2715439989555078E-02 a       383     0    20     1     3
 -9.2634515559143482E-02 a       384     0    20     1     4
 -4.7983785830503908E-03 a       385     0    20     1     5
 -8.8616548116683999E-02 a       386     0    20     1     6
 -1.4702557523067916E-01 a       387     0    20     1     7
 -4.7222884818073997E-02 a       388     0    20     1     8
  1.8518609406514459E-02 a       389     0    20     1     9
  7.7120089063009087E-02 a       390     0    20     1    10
  7.3595191075531391E-02 a       391     0    20     1    11
  2.0484979783507870E-01 a       392     0    20     1    12
  1.7630759719223013E-01 a       393     0    20     1    13
  1.7668175109202788E-01 a       394     0    20     1    14
 -1.7836759976618413E-01 a       395     0    20     1    15
  1.8348184551725630E-01 a       396     0    20     1    16
  1.2104599618727720E-01 a       397     0    20     1    17
 -2.3543897434710001E-01 a       398     0    20     1    18
 -1.1407480942595062E-01 a       399     0    20     1    19
  1.2407626220310945E-03 a       400     0    20     1    20
 -6.2519128775230609E-02 a       401     0    21     1     1
  6.3637663545301718E-02 a       402     0    21     1     2
  2.7827586437774371E-01 a       403     0    21     1     3
 -2.6590888397633355E-01 a       404     0    21     1     4
 -2.0880361902479674E-01 a       405     0    21     1     5
 -1.4081169487339151E-01 a       406     0    21     1     6
  8.5179863406155631E-02 a       407     0    21     1     7
 -2.5403441325078785E-01 a       408     0    21     1     8
 -1.6304029939559772E-01 a       409     0    21     1     9
  9.7433155810899737E-03 a       410     0    21     1    10
 -2.1151372109598107E-02 a       411     0    21     1    11
 -1.3849009968907111E-01 a       412     0    21     1    12
 -5.7807729161899753E-02 a       413     0    21     1    13
  3.7380021793109358E-01 a       414     0    21     1    14
 -2.5114522811557266E-01 a       415     0    21     1    15
  2.0182132356195914E-01 a       416     0    21     1    16
  1.7815173308910465E-01 a       417     0    21     1    17
 -2.1250939300160299E-01 a       418     0    21     1    18
 -6.8076259173986603E-02 a       419     0    21     1    19
 -3.2151823874654811E-01 a       420     0    21     1    20
  5.2661081402550582E-02 a       421     0    22     1     1
 -2.5706444472385910E-02 a       422     0    22     1     2
 -1.0119321637659123E-01 a       423     0    22     1     3
  2.0763637412341124E-01 a       424     0    22     1     4
  1.9810667461210840E-01 a       425     0    22     1     5
  1.5434073429378848E-02 a       426     0    22     1     6
 -2.1531734127468988E-01 a       427     0    22     1     7
 -5.6205762983148999E-02 a       428     0    22     1     8
  1.5143664835707718E-01 a       429     0    22     1     9
  2.2933483061844775E-01 a       430     0    22     1    10
  4.5754722220180566E-02 a       431     0    22     1    11
  2.5616680450856233E-01 a       432     0    22     1    12
 -2.0029939207052339E-01 a       433     0    22     1    13
 -2.9809770509263600E-01 a       434     0    22     1    14
 -1.7766129500295661E-02 a       435     0    22     1    15
  3.6902203074327916E-03 a       436     0    22     1    16
 -2.0181775629729312E-01 a       437     0    22     1    17
 -5.5081412053521371E-02 a       438     0    22     1    18
 -7.3535600405819773E-02 a       439     0    22     1    19
  1.1822349374081798E-01 a       440     0    22     1    20
  1.5811730969766563E-01 a       441     0    23     1     1
  1.9917275520619832E-01 a       442     0    23     1     2
  2.5011773442321528E-02 a       443     0    23     1     3
 -2.9787480181962697E-02 a       444     0    23     1     4
 -1.8882415694423368E-01 a       445     0    23     1     5
 -3.7921976240868252E-02 a       446     0    23     1     6
 -3.5347282034612196E-02 a       447     0    23     1     7
  3.6406968385321307E-02 a       448     0    23     1     8
 -4.5582223672433329E-02 a       449     0    23     1     9
 -8.8897496072167168E-02 a       450     0    23     1    10
  2.4592165072276274E-02 a       451     0    23     1    11
 -1.3926867586839836E-01 a       452     0    23     1    12
 -5.1312614084258107E-02 a       453     0    23     1    13
  9.3647042330989180E-02 a       454     0    23     1    14
 -2.0729443704715925E-01 a       455     0    23     1    15
  2.6985984444634202E-02 a       456     0    23     1    16
  1.0114358544775062E-01 a       457     0    23     1    17
  1.4260356606317262E-01 a       458     0    23     1    18
  1.8063964171979002E-02 a       459     0    23     1    19
  8.0830161610056211E-02 a       460     0    23     1    20
 -1.7535470827427685E-01 a       461     0    24     1     1
 -2.1966983142785113E-01 a       462     0    24     1     2
  4.7174311868341950E-02 a       463     0    24     1     3
 -7.7167948926907537E-03 a       464     0    24     1     4
  1.4711459562831938E-01 a       465     0    24     1     5
  4.3665647537256033E-02 a       466     0    24     1     6
  1.3474803306282118E-01 a       467     0    24     1     7
 -4.4019982828663380E-02 a       468     0    24     1     8
 -4.4892041689043038E-02 a       469     0    24     1     9
 -7.7817928581102175E-02 a       470     0    24     1    10
  4.1677338833797241E-02 a       471     0    24     1    11
  1.0179907492057261E-01 a       472     0    24     1    12
 -2.9409460557985345E-01 a       473     0    24     1    13
 -2.7712591138325610E-01 a       474     0    24     1    14
  2.9042941669220490E-01 a       475     0    24     1    15
 -4.3416954474197807E-02 a       476     0    24     1    16
  2.9826157574588019E-03 a       477     0    24     1    17
  1.5725772066800731E-02 a       478     0    24     1    18
  1.4913724449161314E-01 a       479     0    24     1    19
  8.4874322565935308E-03 a       480     0    24     1    20
  6.8946911794476443E-02 a       481     0    25     1     1
  2.2949680581354948E-01 a       482     0    25     1     2
 -2.3607345737229744E-02 a       483     0    25     1     3
 -5.4251938758946988E-02 a       484     0    25     1     4
 -1.9185145185788708E-02 a       485     0    25     1     5
  3.4588698320859329E-01 a       486     0    25     1     6
  5.6308007900177905E-02 a       487     0    25     1     7
  6.8960511735682933E-02 a       488     0    25     1     8
 -7.6425517224736852E-02 a       489     0    25     1     9
  1.1755873439250410E-01 a       490     0    25     1    10
  2.4901681703580369E-01 a       491     0    25     1    11
 -1.3404572550985827E-01 a       492     0    25     1    12
  8.8041423094959340E-02 a       493     0    25     1    13
 -3.0402479298911881E-02 a       494     0    25     1    14
 -1.7544833919545066E-01 a       495     0    25     1    15
  8.6042804359238917E-02 a       496     0    25     1    16
  5.1511557552462651E-02 a       497     0    25     1    17
  3.1865925310429150E-01 a       498     0    25     1    18
  8.0336681038629260E-02 a       499     0    25     1    19
  1.3322098722843745E-01 a       500     0    25     1    20
 -2.0273430696417950E-03 a       501     0    26     1     1
 -2.2734823439907628E-01 a       502     0    26     1     2
 -2.8933386703735735E-02 a       503     0    26     1     3
  9.8193291993313961E-02 a       504     0    26     1     4
  3.2952499205781909E-02 a       505     0    26     1     5
 -9.2077770597541769E-02 a       506     0    26     1     6
 -6.8960910001528861E-02 a       507     0    26     1     7
  2.1386146293233183E-01 a       508     0    26     1     8
 -1.1656820916831086E-01 a       509     0    26     1     9
 -3.1838374846086551E-02 a       510     0    26     1    10
 -2.7322411870954427E-03 a       511     0    26     1    11
 -1.7479100714996574E-03 a       512     0    26     1    12
  9.3508315022330007E-02 a       513     0    26     1    13
 -2.0775055281488777E-01 a       514     0    26     1    14
  1.0233733444475690E-01 a       515     0    26     1    15
  1.2015099200822130E-01 a       516     0    26     1    16
  1.3662725495323040E-03 a       517     0    26     1    17
  2.3136281556776064E-02 a       518     0    26     1    18
 -2.1475920113279739E-01 a       519     0    26     1    19
 -8.8629070001471563E-02 a       520     0    26     1    20
 -1.5738218774238780E-01 a       521     0    27     1     1
 -1.2963117582133258E-02 a       522     0    27     1     2
 -1.0281051123358231E-02 a       523     0    27     1     3
 -1.1716758349344919E-01 a       524     0    27     1     4
  1.7340028259545534E-01 a       525     0    27     1     5
 -6.1134004570501943E-02 a       526     0    27     1     6
  1.0503622511815371E-01 a       527     0    27     1     7
 -6.8670790449285146E-02 a       528     0    27     1     8
  5.7556339780020296E-02 a       529     0    27     1     9
 -8.9426668776747223E-02 a       530     0    27     1    10
  8.9283133401460699E-02 a       531     0    27     1    11
  1.0714787588780224E-01 a       532     0    27     1    12
 -1.0256320785418591E-01 a       533     0    27     1    13
  1.4002284018974540E-01 a       534     0    27     1    14
  1.3727700025783093E-01 a       535     0    27     1    15
 -1.2089219864965823E-02 a       536     0    27     1    16
  5.4951156361583445E-02 a       537     0    27     1    17
 -1.3034818675737758E-01 a       538     0    27     1    18
  1.0240407773590136E-01 a       539     0    27     1    19
 -7.6187229829060829E-02 a       540     0    27     1    20
 -7.1492855201363295E-02 a       541     0    28     1     1
 -2.9574033894261123E-02 a       542     0    28     1     2
 -2.3337984377657630E-02 a       543     0    28     1     3
  1.1043277035014942E-01 a       544     0    28     1     4
 -1.8882304901194347E-01 a       545     0    28     1     5
 -3.0264565858432596E-01 a       546     0    28     1     6
  6.1344529552825308E-02 a       547     0    28     1     7
 -1.4403390663087076E-01 a       548     0    28     1     8
  9.1371893871658921E-02 a       549     0    28     1     9
  1.7572288042557899E-01 a       550     0    28     1    10
  1.8455487798798448E-01 a       551     0    28     1    11
  5.8267507606966702E-02 a       552     0    28     1    12
  1.1414765319930467E-01 a       553     0    28     1    13
  6.0697020734932668E-02 a       554     0    28     1    14
 -4.1566025426801559E-02 a       555     0    28     1    15
  1.4752899845722531E-01 a       556     0    28     1    16
  6.7256780865576904E-02 a       557     0    28     1    17
 -8.4609045541817432E-02 a       558     0    28     1    18
 -3.0377522698460291E-01 a       559     0    28     1    19
  4.7235304410766149E-02 a       560     0    28     1    20
  1.9962975414458950E-01 a       561     0    29     1     1
  1.0162685979674967E-01 a       562     0    29     1     2
  9.4895057394195653E-02 a       563     0    29     1     3
 -1.8624807850999475E-01 a       564     0    29     1     4
 -2.3513724228392069E-01 a       565     0    29     1     5
 -1.6524894767962658E-01 a       566     0    29     1     6
 -3.3691419166004038E-04 a       567     0    29     1     7
 -1.9546736875686496E-01 a       568     0    29     1     8
 -7.7011739971729401E-02 a       569     0    29     1     9
  1.6541761514191719E-01 a       570     0    29     1    10
 -5.3602121946350979E-02 a       571     0    29     1    11
 -2.5182106969362228E-01 a       572     0    29     1    12
 -7.0969840501306142E-02 a       573     0    29     1    13
  9.2041029717576092E-02 a       574     0    29     1    14
 -7.1577114377597995E-03 a       575     0    29     1    15
  7.6273354132049387E-02 a       576     0    29     1    16
 -3.2862775061543302E-02 a       577     0    29     1    17
 -1.6641767904469432E-01 a       578     0    29     1    18
  9.4367886841357444E-03 a       579     0    29     1    19
 -1.1465986677384665E-01 a       580     0    29     1    20
  2.7883446775079028E-02 a       581     0    30     1     1
 -1.1837381845733529E-01 a       582     0    30     1     2
 -1.0713134671867150E-01 a       583     0    30     1     3
  7.0092949375182359E-02 a       584     0    30     1     4
  2.2298662431964625E-01 a       585     0    30     1     5
 -8.3849206740003266E-03 a       586     0    30     1     6
 -9.6319115002392180E-02 a       587     0    30     1     7
 -4.2057337053761093E-02 a       588     0    30     1     8
  1.3572093566254090E-01 a       589     0    30     1     9
 -1.2059965361004144E-01 a       590     0    30     1    10
  1.1855328635236979E-01 a       591     0    30     1    11
  2.1483373363514469E-01 a       592     0    30     1    12
 -7.5702226219630853E-02 a       593     0    30     1    13
  7.3421363676781412E-02 a       594     0    30     1    14
  1.6863266537278543E-01 a       595     0    30     1    15
 -7.4684402115780757E-02 a       596     0    30     1    16
 -6.1454101220698013E-02 a       597     0    30     1    17
  3.1219670413670995E-02 a       598     0    30     1    18
  6.7146991836267392E-02 a       599     0    30     1    19
 -3.2453461858246956E-02 a       600     0    30     1    20
 -2.7971691382170788E-02 a       601     0    31     1     1
 -8.3114229131555972E-02 a       602     0    31     1     2
  1.0980378533151848E-01 a       603     0    31     1     3
 -6.2211097930487715E-02 a       604     0    31     1     4
 -8.7764334706572647E-02 a       605     0    31     1     5
  1.4353387505020085E-02 a       606     0    31     1     6
 -1.5501750018806959E-02 a       607     0    31     1     7
  4.5552135497680071E-02 a       608     0    31     1     8
 -6.9215148439769527E-03 a       609     0    31     1     9
 -8.6250370927369466E-02 a       610     0    31     1    10
 -5.0914030110446214E-03 a       611     0    31     1    11
 -1.4618687811610576E-01 a       612     0    31     1    12
  1.9618270906731669E-01 a       613     0    31     1    13
  1.0993657093494573E-01 a       614     0    31     1    14
 -1.2229957554763684E-02 a       615     0    31     1    15
  2.1540506694378316E-02 a       616     0    31     1    16
  7.4291515086626916E-02 a       617     0    31     1    17
 -5.0623062416573439E-02 a       618     0    31     1    18
 -4.9539082041383464E-02 a       619     0    31     1    19
  1.2459227933575034E-01 a       620     0    31     1    20
 -1.3923039360662035E-01 a       621     0    32     1     1
 -3.1875032391035379E-01 a       622     0    32     1     2
  2.5627808271332466E-03 a       623     0    32     1     3
 -6.8656985181506591E-02 a       624     0    32     1     4
  3.5800718300092682E-02 a       625     0    32     1     5
  1.2540216471628662E-01 a       626     0    32     1     6
  4.5063675414644920E-02 a       627     0    32     1     7
 -3.8683814963087058E-02 a       628     0    32     1     8
  2.8842907066270608E-02 a       629     0    32     1     9
 -1.7003979173858708E-01 a       630     0    32     1    10
 -6.8445397914054504E-02 a       631     0    32     1    11
  2.1234557324216885E-01 a       632     0    32     1    12
 -2.4219547292947684E-02 a       633     0    32     1    13
 -1.2244963486785614E-01 a       634     0    32     1    14
  1.3952021340511100E-01 a       635     0    32     1    15
 -4.6353065324238267E-02 a       636     0    32     1    16
  9.2893996852573546E-02 a       637     0    32     1    17
 -9.2176202300500512E-02 a       638     0    32     1    18
  1.2042423262961954E-01 a       639     0    32     1    19
 -9.2924444271120614E-03 a       640     0    32     1    20
 -2.6833851027253519E-01 a       641     0    33     1     1
 -7.6668510654149577E-02 a       642     0    33     1     2
 -5.3951143591880669E-02 a       643     0    33     1     3
 -3.8955250167921243E-02 a       644     0    33     1     4
  1.0071292693240894E-01 a       645     0    33     1     5
  2.2798479538462389E-02 a       646     0    33     1     6
  5.8600662945966234E-02 a       647     0    33     1     7
  8.7135148963368617E-02 a       648     0    33     1     8
 -1.7921369121904181E-02 a       649     0    33     1     9
 -1.6821860307404951E-01 a       650     0    33     1    10
 -6.2993661303800519E-02 a       651     0    33     1    11
  1.4359993258782885E-01 a       652     0    33     1    12
  3.0433680143775697E-02 a       653     0    33     1    13
 -1.2640429280911742E-02 a       654     0    33     1    14
 -2.3104415644657914E-02 a       655     0    33     1    15
  8.4162983094109439E-02 a       656     0    33     1    16
  1.3126769404064723E-01 a       657     0    33     1    17
  3.2415018173973145E-02 a       658     0    33     1    18
  7.5839487483084708E-02 a       659     0    33     1    19
  4.7113259602223539E-02 a       660     0    33     1    20
  7.5500441907930926E-02 a       661     0    34     1     1
 -4.8981401154541734E-02 a       662     0    34     1     2
  8.7476386499432068E-02 a       663     0    34     1     3
 -5.3690060290785421E-02 a       664     0    34     1     4
  1.4191204802261431E-01 a       665     0    34     1     5
 -4.0299307443089655E-02 a       666     0    34     1     6
 -2.0623131990383384E-01 a       667     0    34     1     7
 -1.0683350734483088E-01 a       668     0    34     1     8
 -6.2574812000789487E-02 a       669     0    34     1     9
  1.3808883383712775E-01 a       670     0    34     1    10
  2.1561457894590766E-01 a       671     0    34     1    11
 -1.0554136061820862E-01 a       672     0    34     1    12
  1.7065021281698642E-01 a       673     0    34     1    13
 -1.6259251254647344E-01 a       674     0    34     1    14
 -7.1374484788349110E-02 a       675     0    34     1    15
  1.8451436611211952E-01 a       676     0    34     1    16
 -2.4983390750559931E-02 a       677     0    34     1    17
 -2.8469030631897551E-02 a       678     0    34     1    18
 -1.4682935751250972E-01 a       679     0    34     1    19
  1.0312886017609611E-01 a       680     0    34     1    20
 -7.9925198911224973E-02 a       681     0    35     1     1
 -1.7629287019942642E-02 a       682     0    35     1     2
 -2.4046674114521407E-02 a       683     0    35     1     3
 -1.5645228125311470E-02 a       684     0    35     1     4
  7.4567328968533478E-02 a       685     0    35     1     5
 -2.9546528838015916E-02 a       686     0    35     1     6
  1.1339248902708228E-01 a       687     0    35     1     7
 -2.9701099323288311E-02 a       688     0    35     1     8
  6.9099120481984884E-03 a       689     0    35     1     9
  8.9664211433283528E-02 a       690     0    35     1    10
  1.0545412380492621E-01 a       691     0    35     1    11
  7.5239006547616644E-02 a       692     0    35     1    12
 -1.2903330180758654E-01 a       693     0    35     1    13
 -7.1485820339239517E-02 a       694     0    35     1    14
 -1.1308722683393592E-02 a       695     0    35     1    15
  1.1471839406592546E-01 a       696     0    35     1    16
  5.4880734318413650E-02 a       697     0    35     1    17
  4.1497163367923487E-02 a       698     0    35     1    18
 -1.0460775516269402E-01 a       699     0    35     1    19
 -8.4601442440233099E-02 a       700     0    35     1    20
 -1.6092104939087731E-02 a       701     0    36     1     1
  4.0085220300867044E-02 a       702     0    36     1     2
  1.7922141895463383E-02 a       703     0    36     1     3
  1.3982950585551382E-01 a       704     0    36     1     4
 -1.3625673636960556E-01 a       705     0    36     1     5
 -5.6785642741809417E-02 a       706     0    36     1     6
  3.8941368068926806E-03 a       707     0    36     1     7
  1.3174685211062241E-02 a       708     0    36     1     8
  6.1019160940523821E-02 a       709     0    36     1     9
  6.6154304789743740E-02 a       710     0    36     1    10
  5.7007722276417476E-02 a       711     0    36     1    11
 -1.2863729720652131E-01 a       712     0    36     1    12
  3.6928585713008340E-02 a       713     0    36     1    13
  4.3262209605921829E-02 a       714     0    36     1    14
 -7.0747885906067925E-02 a       715     0    36     1    15
 -4.4224589931537656E-03 a       716     0    36     1    16
 -2.4203534168129554E-02 a       717     0    36     1    17
 -2.5159577574783435E-02 a       718     0    36     1    18
 -2.1119094524586521E-01 a       719     0    36     1    19
 -2.1197734003900615E-02 a       720     0    36     1    20
  2.3979722322138164E-01 a       721     0    37     1     1
  2.3952809284185667E-01 a       722     0    37     1     2
  5.6620290026677338E-02 a       723     0    37     1     3
 -2.0095168616547220E-02 a       724     0    37     1     4
 -7.8059122536732306E-02 a       725     0    37     1     5
  5.6220031328117877E-02 a       726     0    37     1     6
  9.6476347779997813E-03 a       727     0    37     1     7
 -1.4055825034039329E-01 a       728     0    37     1     8
 -2.0403075394581700E-02 a       729     0    37     1     9
  1.9556638167216003E-01 a       730     0    37     1    10
  1.6328582493690946E-01 a       731     0    37     1    11
 -1.6734402997582645E-01 a       732     0    37     1    12
 -1.1299800906761378E-02 a       733     0    37     1    13
 -3.7184369165640024E-02 a       734     0    37     1    14
 -5.5811546119109337E-02 a       735     0    37     1    15
  1.8417711105096889E-02 a       736     0    37     1    16
 -7.1518011844589086E-02 a       737     0    37     1    17
  3.5102184790103005E-02 a       738     0    37     1    18
 -3.8105523196502851E-02 a       739     0    37     1    19
  4.9227851638121142E-02 a       740     0    37     1    20
 -6.9436334285361195E-02 a       741     0    38     1     1
 -1.1307626983106010E-01 a       742     0    38     1     2
 -5.3247181190482357E-02 a       743     0    38     1     3
  3.7965258201748744E-02 a       744     0    38     1     4
  3.1859600048832454E-02 a       745     0    38     1     5
  3.0279336218322388E-04 a       746     0    38     1     6
  7.5261822443280391E-02 a       747     0    38     1     7
  1.2528721975723336E-01 a       748     0    38     1     8
  2.5879190297863532E-02 a       749     0    38     1     9
 -6.1481752688075861E-02 a       750     0    38     1    10
 -9.6728065659552914E-02 a       751     0    38     1    11
  8.8170917091706533E-02 a       752     0    38     1    12
 -5.4172015227872496E-02 a       753     0    38     1    13
  7.9566038887396912E-02 a       754     0    38     1    14
  1.1720233526659303E-01 a       755     0    38     1    15
 -6.9136684978617940E-02 a       756     0    38     1    16
 -7.9273724341841646E-03 a       757     0    38     1    17
  4.6102729661402449E-02 a       758     0    38     1    18
  2.3173963769245919E-02 a       759     0    38     1    19
 -1.0719100433614562E-01 a       760     0    38     1    20
  3.3834261884383501E-02 a       761     0    39     1     1
 -1.9534984315359444E-01 a       762     0    39     1     2
  8.8407527130852384E-02 a       763     0    39     1     3
 -1.5584496005423948E-01 a       764     0    39     1     4
  1.4727263482573602E-01 a       765     0    39     1     5
 -3.4196026376076337E-03 a       766     0    39     1     6
 -4.3263152282842235E-02 a       767     0    39     1     7
  6.2602156292509261E-03 a       768     0    39     1     8
 -2.9911955556291129E-03 a       769     0    39     1     9
 -1.5193037929832726E-01 a       770     0    39     1    10
  2.2666098982693950E-01 a       771     0    39     1    11
 -1.0762085755807885E-01 a       772     0    39     1    12
  2.0680470416429730E-01 a       773     0    39     1    13
  1.8951101434431645E-02 a       774     0    39     1    14
  1.1896337471177899E-01 a       775     0    39     1    15
  4.6083064652475705E-02 a       776     0    39     1    16
  6.9455796646109916E-02 a       777     0    39     1    17
 -1.2732885307301428E-01 a       778     0    39     1    18
  8.9974195599193158E-04 a       779     0    39     1    19
  2.2294291738301636E-02 a       780     0    39     1    20
 -5.4300132646180922E-02 a       781     0    40     1     1
 -2.0890233206344525E-01 a       782     0    40     1     2
  1.0821451051956525E-02 a       783     0    40     1     3
 -5.2834551591407583E-02 a       784     0    40     1     4
  7.4850647596445405E-03 a       785     0    40     1     5
 -3.8890519308055087E-02 a       786     0    40     1     6
  6.3236276697058322E-02 a       787     0    40     1     7
 -1.3257167883534351E-01 a       788     0    40     1     8
  1.1767333049221567E-02 a       789     0    40     1     9
  2.9573285997244621E-02 a       790     0    40     1    10
  5.8998586382463608E-02 a       791     0    40     1    11
  1.5156887513209719E-01 a       792     0    40     1    12
  7.4995860363079300E-02 a       793     0    40     1    13
 -7.7680071106731460E-02 a       794     0    40     1    14
  1.1523536067292600E-01 a       795     0    40     1    15
  3.8876829635769591E-02 a       796     0    40     1    16
  4.7386973753359832E-02 a       797     0    40     1    17
 -3.1589696276696395E-02 a       798     0    40     1    18
  2.0585035995872202E-02 a       799     0    40     1    19
  2.2923188918493653E-02 a       800     0    40     1    20
  1.6199632787523921E-01 a       801     0    41     1     1
  9.8910096244035600E-02 a       802     0    41     1     2
 -2.8735473446023374E-01 a       803     0    41     1     3
  1.3924417520761076E-01 a       804     0    41     1     4
  8.7192161518801561E-02 a       805     0    41     1     5
  1.2039647021235315E-01 a       806     0    41     1     6
 -2.6562286394680079E-01 a       807     0    41     1     7
 -4.6982580674752854E-02 a       808     0    41     1     8
 -5.3057068400949026E-01 a       809     0    41     1     9
 -5.8224579777313532E-02 a       810     0    41     1    10
  7.8944293700035431E-02 a       811     0    41     1    11
 -2.6523135530470809E-01 a       812     0    41     1    12
  4.9403766418056154E-02 a       813     0    41     1    13
 -5.0117738452761365E-02 a       814     0    41     1    14
  3.5714336232052585E-02 a       815     0    41     1    15
  3.3145392534841521E-02 a       816     0    41     1    16
 -7.1543949881212557E-02 a       817     0    41     1    17
 -1.1803296593772117E-01 a       818     0    41     1    18
  4.6953451254357020E-01 a       819     0    41     1    19
 -2.5805943849468721E-01 a       820     0    41     1    20
 -1.2890538964516399E-02 a       821     0    42     1     1
 -2.7600637080267187E-01 a       822     0    42     1     2
 -1.9711664084974417E-02 a       823     0    42     1     3
 -1.5770094830159658E-02 a       824     0    42     1     4
  1.1141149506314686E-01 a       825     0    42     1     5
 -2.5082974399154623E-01 a       826     0    42     1     6
  6.1368095114544538E-02 a       827     0    42     1     7
 -4.5903618122009682E-01 a       828     0    42     1     8
  7.5959018439513482E-01 a       829     0    42     1     9
 -9.3252330278267695E-02 a       830     0    42     1    10
  1.6703349118408256E-01 a       831     0    42     1    11
  4.2661048221291492E-01 a       832     0    42     1    12
 -4.8652389637234206E-01 a       833     0    42     1    13
  5.0442568141196228E-02 a       834     0    42     1    14
  1.3519590836923628E-01 a       835     0    42     1    15
 -1.7195442051218846E-01 a       836     0    42     1    16
  1.3942498989064939E-01 a       837     0    42     1    17
  2.2575559929985178E-01 a       838     0    42     1    18
 -7.7874907014857675E-01 a       839     0    42     1    19
 -4.0211054943420053E-02 a       840     0    42     1    20
 -7.5958919838312600E-02 a       841     0    43     1     1
  5.8800705418047224E-02 a       842     0    43     1     2
  2.3246431599892103E-01 a       843     0    43     1     3
 -1.4084797948095798E-01 a       844     0    43     1     4
  4.2400468618755731E-02 a       845     0    43     1     5
 -2.6162056572228646E-02 a       846     0    43     1     6
 -1.2757328745749139E-01 a       847     0    43     1     7
  1.4550602369774603E-02 a       848     0    43     1     8
 -1.3897848117600928E-03 a       849     0    43     1     9
  5.0258438488896662E-02 a       850     0    43     1    10
 -8.4538162956287782E-04 a       851     0    43     1    11
  6.2705587192771847E-02 a       852     0    43     1    12
  1.4672999738082437E-01 a       853     0    43     1    13
 -1.2635773989385596E-01 a       854     0    43     1    14
  1.5450520321134961E-01 a       855     0    43     1    15
  1.5263501969036494E-01 a       856     0    43     1    16
  1.7440704520684411E-01 a       857     0    43     1    17
 -4.0535777320717103E-01 a       858     0    43     1    18
  4.3999825797503514E-02 a       859     0    43     1    19
  1.6819943508724430E-01 a       860     0    43     1    20
 -7.1555070104698054E-02 a       861     0    44     1     1
 -1.6882791793056715E-01 a       862     0    44     1     2
 -5.5730101095487388E-03 a       863     0    44     1     3
  8.7726339934747266E-02 a       864     0    44     1     4
  7.0105439138945805E-02 a       865     0    44     1     5
  4.9733087446319414E-02 a       866     0    44     1     6
 -8.5737591916457148E-02 a       867     0    44     1     7
 -3.9622482517816162E-03 a       868     0    44     1     8
  8.4184860980027199E-02 a       869     0    44     1     9
 -1.3234840763339972E-01 a       870     0    44     1    10
  2.7551434092469313E-02 a       871     0    44     1    11
  3.8459443224853479E-02 a       872     0    44     1    12
  6.3605909008367434E-02 a       873     0    44     1    13
 -1.4890396640004031E-01 a       874     0    44     1    14
  6.7589204081051665E-02 a       875     0    44     1    15
 -1.0193840709946207E-01 a       876     0    44     1    16
 -7.7620695080201666E-03 a       877     0    44     1    17
  3.8417102741473377E-02 a       878     0    44     1    18
 -2.3368569550799934E-01 a       879     0    44     1    19
  1.7925601868475239E-02 a       880     0    44     1    20
 -2.6608419614256212E-01 a       881     0    45     1     1
  3.8566804455252707E-01 a       882     0    45     1     2
 -1.9607556235802764E-01 a       883     0    45     1     3
  7.4623142133157613E-02 a       884     0    45     1     4
  1.2529359073043955E-02 a       885     0    45     1     5
  2.3663806597068970E-01 a       886     0    45     1     6
 -3.2283097905117414E-01 a       887     0    45     1     7
  1.5492063384894372E-01 a       888     0    45     1     8
 -3.0240067686496275E-01 a       889     0    45     1     9
  7.5944572442821420E-02 a       890     0    45     1    10
 -2.1691582688969127E-01 a       891     0    45     1    11
 -3.2333385935039655E-01 a       892     0    45     1    12
  1.3250055887154796E-01 a       893     0    45     1    13
 -3.3425913488587068E-02 a       894     0    45     1    14
  8.9067751643753676E-02 a       895     0    45     1    15
  2.0967915516337235E-01 a       896     0    45     1    16
 -7.5989504197082308E-02 a       897     0    45     1    17
  1.8278366302950050E-01 a       898     0    45     1    18
  3.0334533408686026E-01 a       899     0    45     1    19
 -1.1897974534277547E-01 a       900     0    45     1    20
  1.0509157599947963E-01 a       901     0    46     1     1
  2.7718287728384255E-01 a       902     0    46     1     2
 -3.9947535833845235E-02 a       903     0    46     1     3
  9.2844703071468290E-02 a       904     0    46     1     4
 -9.6446910186329365E-02 a       905     0    46     1     5
 -4.0482035719356838E-02 a       906     0    46     1     6
  8.7503957432379528E-02 a       907     0    46     1     7
 -2.1016034473060974E-01 a       908     0    46     1     8
  1.1397534158383210E-01 a       909     0    46     1     9
  9.8703900754789093E-03 a       910     0    46     1    10
 -1.6612621963762680E-01 a       911     0    46     1    11
  1.0862891179365414E-01 a       912     0    46     1    12
 -1.1797430674251862E-02 a       913     0    46     1    13
 -5.0250844920634113E-02 a       914     0    46     1    14
 -6.9543581952256947E-02 a       915     0    46     1    15
 -1.8426746050856341E-01 a       916     0    46     1    16
 -1.5781087469558003E-02 a       917     0    46     1    17
  2.0991456871834482E-02 a       918     0    46     1    18
 -6.8826025486516992E-02 a       919     0    46     1    19
  9.6881077060315596E-02 a       920     0    46     1    20
 -1.2939650141959080E-01 a       921     0    47     1     1
  2.5647889010166564E-01 a       922     0    47     1     2
  8.4297092127355925E-04 a       923     0    47     1     3
 -2.3301289376536048E-02 a       924     0    47     1     4
  4.7677351267155603E-02 a       925     0    47     1     5
  7.7347731903969444E-02 a       926     0    47     1     6
 -1.0783977661839890E-01 a       927     0    47     1     7
 -9.8857627509698655E-03 a       928     0    47     1     8
 -5.4444497531192237E-02 a       929     0    47     1     9
  4.7873708127172600E-02 a       930     0    47     1    10
 -1.1312986014017100E-01 a       931     0    47     1    11
 -1.0834155692390866E-01 a       932     0    47     1    12
 -5.2016803138185637E-02 a       933     0    47     1    13
  1.1684785548518628E-01 a       934     0    47     1    14
 -1.5751128383391100E-02 a       935     0    47     1    15
  1.0096963770087047E-01 a       936     0    47     1    16
  2.4007913204836688E-02 a       937     0    47     1    17
  1.0910899177540245E-01 a       938     0    47     1    18
 -5.6954389270634627E-02 a       939     0    47     1    19
  6.8558226181446386E-02 a       940     0    47     1    20
  2.1045591818056836E-01 a       941     0    48     1     1
 -1.5137944005579557E-01 a       942     0    48     1     2
 -9.3256063509515111E-02 a       943     0    48     1     3
 -2.3616909282950141E-02 a       944     0    48     1     4
  2.2401136023504700E-02 a       945     0    48     1     5
 -1.0296861924264057E-01 a       946     0    48     1     6
 -5.0589511717226657E-02 a       947     0    48     1     7
  1.0496768792810858E-01 a       948     0    48     1     8
  1.9976092509471474E-01 a       949     0    48     1     9
  1.2996017907013395E-02 a       950     0    48     1    10
  3.1465442167547869E-01 a       951     0    48     1    11
 -3.5545059990977915E-02 a       952     0    48     1    12
 -3.5758614754163136E-02 a       953     0    48     1    13
  1.2699326095394534E-01 a       954     0    48     1    14
  9.6304456953655165E-02 a       955     0    48     1    15
  1.6804792492896858E-01 a       956     0    48     1    16
  1.4007684212673319E-01 a       957     0    48     1    17
 -2.3366264669385331E-01 a       958     0    48     1    18
 -1.7270906497287650E-01 a       959     0    48     1    19
 -5.3844404989360661E-02 a       960     0    48     1    20
  1.1528572785009546E-01 a       961     0    49     1     1
 -1.1359995561855437E-02 a       962     0    49     1     2
 -3.0581657126233085E-02 a       963     0    49     1     3
 -7.1726061914678674E-02 a       964     0    49     1     4
  4.9452926452369129E-02 a       965     0    49     1     5
 -7.8141894751414157E-02 a       966     0    49     1     6
 -2.0693704392571462E-02 a       967     0    49     1     7
  1.7705045731007574E-01 a       968     0    49     1     8
 -9.9603889811365545E-03 a       969     0    49     1     9
  1.1885111322932121E-01 a       970     0    49     1    10
  2.5414742580635497E-01 a       971     0    49     1    11
 -4.1591195495087808E-02 a       972     0    49     1    12
 -1.3269594521468947E-01 a       973     0    49     1    13
  1.8443684707440922E-01 a       974     0    49     1    14
  1.2992993489005067E-01 a       975     0    49     1    15
  1.0699658983249059E-01 a       976     0    49     1    16
 -2.5021928593393149E-03 a       977     0    49     1    17
  1.3983555578748472E-01 a       978     0    49     1    18
 -1.1305538439954388E-01 a       979     0    49     1    19
 -5.5774128296486460E-02 a       980     0    49     1    20
  1.3146565208306007E-01 a       981     0    50     1     1
  1.4011454361891909E-01 a       982     0    50     1     2
 -5.2557292916742132E-02 a       983     0    50     1     3
 -3.8219167020245658E-02 a       984     0    50     1     4
  9.1327999853825330E-03 a       985     0    50     1     5
 -1.2237256677777594E-01 a       986     0    50     1     6
 -4.0231067615236996E-02 a       987     0    50     1     7
  1.3302055515437763E-01 a       988     0    50     1     8
  1.2304594068712715E-01 a       989     0    50     1     9
 -1.8790609555097720E-01 a       990     0    50     1    10
  2.2008373840925258E-01 a       991     0    50     1    11
  3.3259605376109676E-02 a       992     0    50     1    12
  4.3079498880799844E-02 a       993     0    50     1    13
 -2.8509503738683366E-02 a       994     0    50     1    14
 -1.0524464531915909E-01 a       995     0    50     1    15
  1.2318888415098730E-01 a       996     0    50     1    16
  3.0062288380399756E-02 a       997     0    50     1    17
 -3.1110673544401106E-02 a       998     0    50     1    18
 -8.0988652632102573E-02 a       999     0    50     1    19
  2.5410743722346522E-02 a      1000     0    50     1    20
  8.0434413791484277E-02 a      1001     0    51     1     1
 -2.6061512205440805E-02 a      1002     0    51     1     2
  4.3516273324662752E-01 a      1003     0    51     1     3
 -1.3282247419123133E-01 a      1004     0    51     1     4
  2.5833039356659909E-01 a      1005     0    51     1     5
 -6.1491552849377233E-02 a      1006     0    51     1     6
  5.3980997720424979E-02 a      1007     0    51     1     7
 -6.1361278651276926E-02 a      1008     0    51     1     8
  2.2639817819649927E-02 a      1009     0    51     1     9
  1.3816210194328934E-02 a      1010     0    51     1    10
  5.3575709099384729E-02 a      1011     0    51     1    11
  2.7130524748707791E-01 a      1012     0    51     1    12
  3.4201713349470947E-02 a      1013     0    51     1    13
 -4.3597739868080479E-02 a      1014     0    51     1    14
 -5.2642692197774552E-02 a      1015     0    51     1    15
 -1.6825669102317031E-02 a      1016     0    51     1    16
 -5.5733570349656036E-02 a      1017     0    51     1    17
 -2.1099963001618430E-01 a      1018     0    51     1    18
 -1.4063327680361259E-01 a      1019     0    51     1    19
 -2.6674719139577385E-01 a      1020     0    51     1    20
 -1.3335744320512044E-01 a      1021     0    52     1     1
  4.4758961633835032E-01 a      1022     0    52     1     2
 -5.5812202437739689E-01 a      1023     0    52     1     3
  3.0239121594283158E-01 a      1024     0    52     1     4
  7.7609462176354241E-02 a      1025     0    52     1     5
 -1.9241152549814768E-02 a      1026     0    52     1     6
 -2.1212164053548901E-01 a      1027     0    52     1     7
  4.0457305455036618E-01 a      1028     0    52     1     8
  4.2225215534689907E-02 a      1029     0    52     1     9
  1.1767005433335197E-01 a      1030     0    52     1    10
 -1.3729035635000353E-01 a      1031     0    52     1    11
 -1.5025076251514563E-01 a      1032     0    52     1    12
  4.1661284858459058E-01 a      1033     0    52     1    13
 -1.1319160395313096E-01 a      1034     0    52     1    14
  1.2571204524966734E-01 a      1035     0    52     1    15
 -7.1920936813681849E-02 a      1036     0    52     1    16
  3.8803743870710639E-01 a      1037     0    52     1    17
  2.5738242081020213E-01 a      1038     0    52     1    18
  5.3162870490899727E-01 a      1039     0    52     1    19
  1.9011026933180006E-02 a      1040     0    52     1    20
  9.5189594278564743E-02 a      1041     0    53     1     1
 -8.7255175581210834E-02 a      1042     0    53     1     2
 -7.6449501260408503E-02 a      1043     0    53     1     3
 -6.2924964043171522E-02 a      1044     0    53     1     4
 -1.3277140330614107E-01 a      1045     0    53     1     5
  6.9146881223493856E-02 a      1046     0    53     1     6
  5.9103810088141411E-02 a      1047     0    53     1     7
 -1.8655257988877176E-02 a      1048     0    53     1     8
 -3.2642276903578619E-02 a      1049     0    53     1     9
 -1.5427514155368113E-01 a      1050     0    53     1    10
  1.0925932249022297E-01 a      1051     0    53     1    11
 -5.4195445159145102E-02 a      1052     0    53     1    12
  3.2078767535964992E-01 a      1053     0    53     1    13
  8.1820609814029596E-02 a      1054     0    53     1    14
 -2.2231258314169644E-01 a      1055     0    53     1    15
  6.3466646911110952E-02 a      1056     0    53     1    16
 -8.0744340182877644E-04 a      1057     0    53     1    17
 -1.9373431599304039E-01 a      1058     0    53     1    18
  1.3804958180914270E-01 a      1059     0    53     1    19
  1.5234015117765817E-01 a      1060     0    53     1    20
  2.1195950446640446E-01 a      1061     0    54     1     1
  1.2556985798822023E-01 a      1062     0    54     1     2
  4.3170398931776113E-02 a      1063     0    54     1     3
 -1.2391511069871053E-02 a      1064     0    54     1     4
 -1.0311507692366335E-01 a      1065     0    54     1     5
  5.9339917425068084E-02 a      1066     0    54     1     6
 -4.9020936889133795E-02 a      1067     0    54     1     7
 -1.8075501341821240E-01 a      1068     0    54     1     8
  1.0222403156089079E-01 a      1069     0    54     1     9
 -7.9459049580428834E-02 a      1070     0    54     1    10
  1.2172097314316221E-01 a      1071     0    54     1    11
 -2.6846538245854090E-01 a      1072     0    54     1    12
  2.1278185455602239E-01 a      1073     0    54     1    13
 -6.3948431256685534E-02 a      1074     0    54     1    14
  6.3241369321032415E-02 a      1075     0    54     1    15
  1.5884743667155762E-01 a      1076     0    54     1    16
  5.7305741504565189E-02 a      1077     0    54     1    17
  2.0215445137893742E-01 a      1078     0    54     1    18
  3.7877684655735436E-03 a      1079     0    54     1    19
  1.8923392415030552E-01 a      1080     0    54     1    20
 -3.2016332724380460E-02 a      1081     0    55     1     1
 -2.8307280075940333E-01 a      1082     0    55     1     2
  4.4512148181956346E-01 a      1083     0    55     1     3
 -3.3554661918917617E-01 a      1084     0    55     1     4
 -1.5397875516853254E-01 a      1085     0    55     1     5
 -1.9754197803652040E-01 a      1086     0    55     1     6
  4.9109123265491189E-01 a      1087     0    55     1     7
 -3.0284972849080355E-01 a      1088     0    55     1     8
 -1.4651292676136107E-01 a      1089     0    55     1     9
 -4.1121333836381051E-02 a      1090     0    55     1    10
  5.7911881345646321E-03 a      1091     0    55     1    11
  1.5179463649982614E-01 a      1092     0    55     1    12
 -2.0673817572496218E-02 a      1093     0    55     1    13
  8.6493884272912415E-03 a      1094     0    55     1    14
 -1.4883659369460139E-01 a      1095     0    55     1    15
 -1.9353197109431070E-01 a      1096     0    55     1    16
 -2.1992553265770953E-01 a      1097     0    55     1    17
  3.0650125899692977E-02 a      1098     0    55     1    18
 -1.5357807602443404E-02 a      1099     0    55     1    19
  6.0106436017088732E-02 a      1100     0    55     1    20
  1.4274163849707242E-01 a      1101     0    56     1     1
  5.2445071883847331E-02 a      1102     0    56     1     2
 -1.3079736083707122E-01 a      1103     0    56     1     3
  3.1632022119341352E-02 a      1104     0    56     1     4
  8.0480548376851258E-02 a      1105     0    56     1     5
  1.3383536777788155E-01 a      1106     0    56     1     6
  4.0970613757700829E-02 a      1107     0    56     1     7
 -1.3161836957576561E-01 a      1108     0    56     1     8
  5.9329721670949083E-02 a      1109     0    56     1     9
  6.6190780721713277E-02 a      1110     0    56     1    10
  1.4819011722471556E-01 a      1111     0    56     1    11
  7.4372474317613790E-02 a      1112     0    56     1    12
 -8.0940432502506057E-02 a      1113     0    56     1    13
  1.8333622358045765E-01 a      1114     0    56     1    14
  7.0662876165087998E-02 a      1115     0    56     1    15
  3.3533670833738338E-01 a      1116     0    56     1    16
  4.2282916324159182E-02 a      1117     0    56     1    17
  1.5319182546313484E-01 a      1118     0    56     1    18
  2.0788919265588231E-02 a      1119     0    56     1    19
 -1.0821381644395935E-01 a      1120     0    56     1    20
 -1.7883536686839055E-01 a      1121     0    57     1     1
 -2.2505906787396934E-01 a      1122     0    57     1     2
  2.0373648963087330E-02 a      1123     0    57     1     3
  6.9959048858710585E-02 a      1124     0    57     1     4
 -1.0078490883618864E-01 a      1125     0    57     1     5
  5.2997988350453364E-02 a      1126     0    57     1     6
  9.7003363793374126E-02 a      1127     0    57     1     7
  2.2963934140364465E-02 a      1128     0    57     1     8
 -6.5333629699449525E-03 a      1129     0    57     1     9
  1.1736281415064408E-01 a      1130     0    57     1    10
  1.4814311589029702E-01 a      1131     0    57     1    11
  1.3263293569142365E-01 a      1132     0    57     1    12
 -2.0415012722131992E-01 a      1133     0    57     1    13
  2.0126264691948587E-01 a      1134     0    57     1    14
 -6.1053086530631580E-02 a      1135     0    57     1    15
 -1.8682912203925195E-01 a      1136     0    57     1    16
 -8.1907018129212625E-02 a      1137     0    57     1    17
  9.0569090784412571E-03 a      1138     0    57     1    18
  1.5447696964320906E-01 a      1139     0    57     1    19
 -1.8973392507883990E-01 a      1140     0    57     1    20
 -2.9693213703755106E-01 a      1141     0    58     1     1
  2.7501580588935419E-02 a      1142     0    58     1     2
  8.5271817523836779E-02 a      1143     0    58     1     3
 -6.3655349357422232E-03 a      1144     0    58     1     4
  6.7792854853883297E-02 a      1145     0    58     1     5
 -3.4978731728201450E-02 a      1146     0    58     1     6
 -5.2120500858250464E-02 a      1147     0    58     1     7
  5.3925785644525125E-02 a      1148     0    58     1     8
 -2.1069639697198844E-01 a      1149     0    58     1     9
 -2.0138023212236453E-01 a      1150     0    58     1    10
 -4.6014819457300474E-02 a      1151     0    58     1    11
  1.3000049622935447E-01 a      1152     0    58     1    12
  1.2966802499651847E-01 a      1153     0    58     1    13
 -4.0038984686619657E-02 a      1154     0    58     1    14
 -1.0998404026123430E-01 a      1155     0    58     1    15
 -1.4343003701782502E-02 a      1156     0    58     1    16
 -1.2764415803247465E-03 a      1157     0    58     1    17
  9.7716935843396316E-02 a      1158     0    58     1    18
  9.4421910721037644E-02 a      1159     0    58     1    19
 -1.2797022413951718E-02 a      1160     0    58     1    20
 -4.1481861732535999E-02 a      1161     0    59     1     1
  1.1785002538020992E-01 a      1162     0    59     1     2
  1.4914104084312315E-02 a      1163     0    59     1     3
 -6.3917325738929248E-02 a      1164     0    59     1     4
 -8.2785934866103139E-02 a      1165     0    59     1     5
  8.7182460894170782E-02 a      1166     0    59     1     6
  1.6627138852367168E-01 a      1167     0    59     1     7
 -2.5609280335352774E-01 a      1168     0    59     1     8
  5.2670785273636098E-02 a      1169     0    59     1     9
 -1.1980407148491906E-01 a      1170     0    59     1    10
 -2.2748263865370177E-01 a      1171     0    59     1    11
  9.2266579341931512E-02 a      1172     0    59     1    12
 -1.0941651199564062E-02 a      1173     0    59     1    13
 -1.3072428993187132E-01 a      1174     0    59     1    14
  3.2234182965174815E-02 a      1175     0    59     1    15
 -9.1686478338382629E-02 a      1176     0    59     1    16
  8.7787734224453642E-02 a      1177     0    59     1    17
 -9.3419216459128651E-02 a      1178     0    59     1    18
  2.0577945315987653E-01 a      1179     0    59     1    19
  2.1685537547292830E-02 a      1180     0    59     1    20
  8.7913117552873288E-02 a      1181     0    60     1     1
 -4.1512528752267068E-02 a      1182     0    60     1     2
  4.0289068763827839E-02 a      1183     0    60     1     3
  1.6194728476243500E-01 a      1184     0    60     1     4
  2.4629968768079083E-01 a      1185     0    60     1     5
 -2.1331085829520126E-02 a      1186     0    60     1     6
  1.4642336965307728E-01 a      1187     0    60     1     7
  2.5892464549302269E-01 a      1188     0    60     1     8
 -1.0847387689087400E-01 a      1189     0    60     1     9
 -2.0103880541915886E-01 a      1190     0    60     1    10
  4.7654698933845697E-02 a      1191     0    60     1    11
 -1.6314853672645563E-01 a      1192     0    60     1    12
 -1.0383954907549334E-01 a      1193     0    60     1    13
  5.9119732697567380E-02 a      1194     0    60     1    14
 -4.9507492550335389E-02 a      1195     0    60     1    15
 -4.0135752159079163E-02 a      1196     0    60     1    16
  1.5955737795638783E-01 a      1197     0    60     1    17
 -4.1102731369221802E-02 a      1198     0    60     1    18
 -6.9773366133513204E-02 a      1199     0    60     1    19
  2.8705314988966970E-02 a      1200     0    60     1    20
 -1.0434434000399244E-01 a      1201     0    61     1     1
  2.0628703957970143E-01 a      1202     0    61     1     2
  2.4146301144742194E-01 a      1203     0    61     1     3
 -1.0855951955909141E-01 a      1204     0    61     1     4
  1.2413902633132645E-01 a      1205     0    61     1     5
  2.7769382047694691E-01 a      1206     0    61     1     6
 -1.0088188647943019E-01 a      1207     0    61     1     7
  2.1032139664423260E-03 a      1208     0    61     1     8
 -1.8575370408427541E-01 a      1209     0    61     1     9
  1.9190427912748523E-01 a      1210     0    61     1    10
 -1.7497769702690732E-03 a      1211     0    61     1    11
 -1.6581252733766810E-01 a      1212     0    61     1    12
  2.2417274460172454E-01 a      1213     0    61     1    13
  5.3093597798596744E-02 a      1214     0    61     1    14
 -1.4816587214921434E-01 a      1215     0    61     1    15
 -2.3598311149641272E-02 a      1216     0    61     1    16
 -2.2200798405276742E-01 a      1217     0    61     1    17
  4.8712357287497660E-01 a      1218     0    61     1    18
 -1.5479481761748348E-01 a      1219     0    61     1    19
  3.3142315637877728E-01 a      1220     0    61     1    20
 -8.2237832839126918E-02 a      1221     0    62     1     1
 -5.6190797260647171E-02 a      1222     0    62     1     2
 -1.7792746677177840E-02 a      1223     0    62     1     3
  3.2709906051555843E-01 a      1224     0    62     1     4
  7.1621317683553176E-02 a      1225     0    62     1     5
  1.8360934585776936E-01 a      1226     0    62     1     6
  1.2690098078485170E-02 a      1227     0    62     1     7
  3.8831229405713602E-01 a      1228     0    62     1     8
  7.8436951521332440E-02 a      1229     0    62     1     9
  2.1276361631102297E-01 a      1230     0    62     1    10
  2.9290593754659837E-03 a      1231     0    62     1    11
 -4.5254811461351505E-03 a      1232     0    62     1    12
 -1.8745419394937204E-02 a      1233     0    62     1    13
 -2.7014263312820913E-01 a      1234     0    62     1    14
  1.1180916943094676E-01 a      1235     0    62     1    15
 -7.3206902301436977E-02 a      1236     0    62     1    16
  1.8642005634591483E-01 a      1237     0    62     1    17
  2.1041388983901847E-02 a      1238     0    62     1    18
 -1.3941485005241872E-01 a      1239     0    62     1    19
 -2.1640918629166261E-01 a      1240     0    62     1    20
 -7.4404342215413338E-02 a      1241     0    63     1     1
 -2.0730225569597455E-01 a      1242     0    63     1     2
 -9.3457549430451155E-03 a      1243     0    63     1     3
  1.0356320973551096E-01 a      1244     0    63     1     4
 -2.1721935014771196E-01 a      1245     0    63     1     5
 -9.8507174491620025E-02 a      1246     0    63     1     6
  5.4405060676441172E-02 a      1247     0    63     1     7
 -2.8163004090071891E-01 a      1248     0    63     1     8
 -1.3754656539847299E-01 a      1249     0    63     1     9
  1.7932722430440282E-01 a      1250     0    63     1    10
  1.9450862106517092E-01 a      1251     0    63     1    11
 -3.9721611758508586E-04 a      1252     0    63     1    12
 -7.5237419846284445E-02 a      1253     0    63     1    13
  1.2739196168885650E-01 a      1254     0    63     1    14
  1.1111551037394236E-02 a      1255     0    63     1    15
 -3.2889667007021985E-02 a      1256     0    63     1    16
 -3.2688662065796084E-02 a      1257     0    63     1    17
  2.5665047227312410E-01 a      1258     0    63     1    18
 -7.2705542519528071E-02 a      1259     0    63     1    19
  1.1487627200815557E-01 a      1260     0    63     1    20
  2.0420581731032745E-02 a      1261     0    64     1     1
  7.7632256724973842E-02 a      1262     0    64     1     2
  1.2501162321689270E-02 a      1263     0    64     1     3
  6.8641736948984577E-03 a      1264     0    64     1     4
  1.2346190599933162E-02 a      1265     0    64     1     5
  1.8146677699096889E-01 a      1266     0    64     1     6
 -1.2152206533301639E-02 a      1267     0    64     1     7
 -2.5624987671731016E-02 a      1268     0    64     1     8
  2.8563916886933802E-02 a      1269     0    64     1     9
 -8.5512487434113021E-03 a      1270     0    64     1    10
  1.0015911746928835E-01 a      1271     0    64     1    11
 -6.1774045256741739E-02 a      1272     0    64     1    12
 -1.2339870416435442E-01 a      1273     0    64     1    13
 -4.4480438755574191E-02 a      1274     0    64     1    14
 -2.3325423847295475E-02 a      1275     0    64     1    15
  5.1426056885064485E-02 a      1276     0    64     1    16
  8.4760707709728406E-02 a      1277     0    64     1    17
  8.5657094783874038E-03 a      1278     0    64     1    18
 -1.2324717288121137E-02 a      1279     0    64     1    19
  4.4184915405930170E-02 a      1280     0    64     1    20
  3.7648458122915694E-02 a      1281     0    65     1     1
  1.5742006765584002E-01 a      1282     0    65     1     2
  8.5122864649469207E-02 a      1283     0    65     1     3
 -3.0837568555118522E-01 a      1284     0    65     1     4
  6.4602443512629962E-02 a      1285     0    65     1     5
 -3.0003092423140594E-02 a      1286     0    65     1     6
  8.1692421920979280E-02 a      1287     0    65     1     7
  3.8022335224080113E-02 a      1288     0    65     1     8
 -1.7799308882792114E-02 a      1289     0    65     1     9
 -5.0107434711206884E-02 a      1290     0    65     1    10
 -5.0380791737650206E-02 a      1291     0    65     1    11
  2.1994150015935993E-02 a      1292     0    65     1    12
 -4.1983715794217488E-02 a      1293     0    65     1    13
  4.2608933689193454E-02 a      1294     0    65     1    14
 -4.1260884682938946E-02 a      1295     0    65     1    15
  2.2049301228983322E-02 a      1296     0    65     1    16
 -3.3027265164047540E-02 a      1297     0    65     1    17
 -9.6055385832444204E-02 a      1298     0    65     1    18
  2.2553390977064802E-01 a      1299     0    65     1    19
  1.5018007421120846E-01 a      1300     0    65     1    20
  1.3664379125524292E-01 a      1301     0    66     1     1
  3.3527038035224575E-02 a      1302     0    66     1     2
 -2.4209575527339999E-02 a      1303     0    66     1     3
  6.5694594390340588E-02 a      1304     0    66     1     4
 -3.2116671370182780E-02 a      1305     0    66     1     5
  1.7824360506910056E-01 a      1306     0    66     1     6
  4.5554989211610858E-02 a      1307     0    66     1     7
 -1.2603690113489279E-02 a      1308     0    66     1     8
  1.7337641292988103E-02 a      1309     0    66     1     9
 -3.9278632887198142E-02 a      1310     0    66     1    10
  2.5942774508018102E-02 a      1311     0    66     1    11
  5.3347423600097355E-03 a      1312     0    66     1    12
  2.9348791395191958E-02 a      1313     0    66     1    13
 -4.4830196017826437E-02 a      1314     0    66     1    14
 -1.0891230206180480E-01 a      1315     0    66     1    15
  7.4061636150989305E-02 a      1316     0    66     1    16
  4.1791230050542548E-02 a      1317     0    66     1    17
  5.8281701398932899E-02 a      1318     0    66     1    18
 -4.3187028816116420E-02 a      1319     0    66     1    19
 -4.8440373622912351E-04 a      1320     0    66     1    20
  1.0548750364393997E-01 a      1321     0    67     1     1
 -5.2046344060583394E-02 a      1322     0    67     1     2
  2.4107438750019534E-02 a      1323     0    67     1     3
 -1.4381995407254847E-01 a      1324     0    67     1     4
  5.9661916311490336E-02 a      1325     0    67     1     5
 -5.3060930466815114E-02 a      1326     0    67     1     6
  7.2081011527962868E-02 a      1327     0    67     1     7
  1.7320562552189642E-01 a      1328     0    67     1     8
  1.4821843833873406E-02 a      1329     0    67     1     9
 -1.0306460233444308E-01 a      1330     0    67     1    10
  5.1591673374434800E-02 a      1331     0    67     1    11
  2.9440437930466152E-02 a      1332     0    67     1    12
  6.5834847350574516E-02 a      1333     0    67     1    13
  3.7964648573392941E-02 a      1334     0    67     1    14
  1.5888983143969308E-02 a      1335     0    67     1    15
 -3.2842458935758788E-02 a      1336     0    67     1    16
  1.2037183148190078E-02 a      1337     0    67     1    17
 -1.5442111189378560E-01 a      1338     0    67     1    18
  1.2981539979761766E-01 a      1339     0    67     1    19
  4.0603284450460185E-03 a      1340     0    67     1    20
 -1.1021564268086545E-01 a      1341     0    68     1     1
 -1.1533310319197658E-01 a      1342     0    68     1     2
  2.4104329727360721E-02 a      1343     0    68     1     3
 -4.5859318708740181E-02 a      1344     0    68     1     4
  7.0656055482468524E-03 a      1345     0    68     1     5
 -2.2658951496929047E-01 a      1346     0    68     1     6
  1.6332491059576038E-01 a      1347     0    68     1     7
  2.6033270298825067E-01 a      1348     0    68     1     8
 -8.1214748074382906E-02 a      1349     0    68     1     9
 -2.8280033941826283E-02 a      1350     0    68     1    10
 -1.5348100783870486E-01 a      1351     0    68     1    11
  7.7483065909717402E-02 a      1352     0    68     1    12
  7.1237231879647658E-02 a      1353     0    68     1    13
 -7.5613116847417228E-02 a      1354     0    68     1    14
  9.7571373590296315E-02 a      1355     0    68     1    15
  4.0561117967914714E-02 a      1356     0    68     1    16
  4.2229482314148879E-03 a      1357     0    68     1    17
  6.8412331435141549E-03 a      1358     0    68     1    18
  9.1174459529580948E-02 a      1359     0    68     1    19
  1.1475014167459748E-01 a      1360     0    68     1    20
 -1.1929645058986545E-01 a      1361     0    69     1     1
  2.6342359533804142E-02 a      1362     0    69     1     2
  3.3551821453628221E-02 a      1363     0    69     1     3
  7.4760610236390889E-03 a      1364     0    69     1     4
  1.4646973854948175E-01 a      1365     0    69     1     5
  8.6342181369382584E-02 a      1366     0    69     1     6
 -8.3395226316245727E-02 a      1367     0    69     1     7
 -9.4313660162160959E-02 a      1368     0    69     1     8
 -1.4211376469268901E-02 a      1369     0    69     1     9
  3.9222269884456665E-02 a      1370     0    69     1    10
 -3.1188744142195437E-02 a      1371     0    69     1    11
 -7.1386362289788965E-02 a      1372     0    69     1    12
 -3.1108022352982413E-02 a      1373     0    69     1    13
  6.6168816221578566E-02 a      1374     0    69     1    14
 -8.0886899154913611E-03 a      1375     0    69     1    15
  7.2120532524807324E-02 a      1376     0    69     1    16
 -2.6721830407747955E-02 a      1377     0    69     1    17
  3.5726445947800306E-02 a      1378     0    69     1    18
 -8.7846668640461631E-02 a      1379     0    69     1    19
 -5.3670290088725092E-02 a      1380     0    69     1    20
 -2.8179244707142743E-02 a      1381     0    70     1     1
 -1.8921721962015176E-01 a      1382     0    70     1     2
  2.8500886649247832E-02 a      1383     0    70     1     3
 -1.4328304875217515E-01 a      1384     0    70     1     4
 -5.0663030025234774E-03 a      1385     0    70     1     5
  3.1540206444766600E-02 a      1386     0    70     1     6
  2.4880413395510746E-02 a      1387     0    70     1     7
 -4.3384970831796030E-02 a      1388     0    70     1     8
 -9.0476533505656251E-02 a      1389     0    70     1     9
  8.0181769420024487E-02 a      1390     0    70     1    10
  2.5175705936571025E-01 a      1391     0    70     1    11
  5.6362529320897026E-02 a      1392     0    70     1    12
  5.4536306174018799E-02 a      1393     0    70     1    13
  1.9593989631443065E-01 a      1394     0    70     1    14
  1.9955306361219083E-01 a      1395     0    70     1    15
  4.4265656324815980E-02 a      1396     0    70     1    16
  1.4280089056975790E-02 a      1397     0    70     1    17
 -5.1376140355554019E-03 a      1398     0    70     1    18
  9.9706317332023592E-02 a      1399     0    70     1    19
 -8.9691644322740335E-02 a      1400     0    70     1    20
 -3.2299085056530891E-01 a      1401     0    71     1     1
  4.6666366524835048E-03 a      1402     0    71     1     2
 -1.5709787156696346E-02 a      1403     0    71     1     3
  6.3284580484531658E-02 a      1404     0    71     1     4
 -2.0987229582718231E-02 a      1405     0    71     1     5
  1.1391265431975972E-01 a      1406     0    71     1     6
 -7.7114766728104064E-02 a      1407     0    71     1     7
  9.7100259390954846E-02 a      1408     0    71     1     8
  1.4604764692750979E-01 a      1409     0    71     1     9
 -6.4491357179189288E-02 a      1410     0    71     1    10
 -8.6168747846704974E-02 a      1411     0    71     1    11
 -7.1786568917632881E-02 a      1412     0    71     1    12
 -1.4610940092033732E-02 a      1413     0    71     1    13
  1.2534529689515059E-01 a      1414     0    71     1    14
 -9.1598821824629265E-02 a      1415     0    71     1    15
 -1.2337299513617850E-01 a      1416     0    71     1    16
  1.2726834155029054E-01 a      1417     0    71     1    17
 -2.6245147295406906E-01 a      1418     0    71     1    18
  2.6675836286103267E-02 a      1419     0    71     1    19
  3.3293665163514718E-01 a      1420     0    71     1    20
  1.8211174546756478E-01 a      1421     0    72     1     1
 -2.5943361583682694E-02 a      1422     0    72     1     2
 -4.3300825799707154E-01 a      1423     0    72     1     3
 -9.0770826097891055E-02 a      1424     0    72     1     4
 -1.2037821653963396E-01 a      1425     0    72     1     5
  4.0975778169964928E-02 a      1426     0    72     1     6
 -5.1322337908102526E-02 a      1427     0    72     1     7
  1.0262679820494498E-01 a      1428     0    72     1     8
 -1.0070231676478585E-01 a      1429     0    72     1     9
 -5.0066916689604779E-02 a      1430     0    72     1    10
  1.4123830424745037E-01 a      1431     0    72     1    11
 -3.9415006218085513E-01 a      1432     0    72     1    12
  3.0211137729742704E-01 a      1433     0    72     1    13
 -2.0872007608380727E-03 a      1434     0    72     1    14
  5.5701231531966357E-02 a      1435     0    72     1    15
  2.1959983541852243E-01 a      1436     0    72     1    16
 -7.7174832775410296E-01 a      1437     0    72     1    17
  8.4014124947863922E-02 a      1438     0    72     1    18
 -3.2129352472552197E-01 a      1439     0    72     1    19
  6.8301398837175076E-01 a      1440     0    72     1    20
  2.5710293740110776E-03 a      1441     0    73     1     1
 -6.3022952808276314E-02 a      1442     0    73     1     2
 -3.8335446687171116E-03 a      1443     0    73     1     3
  1.4770827131981068E-01 a      1444     0    73     1     4
 -4.1337312190276154E-03 a      1445     0    73     1     5
 -1.7453090756818462E-03 a      1446     0    73     1     6
 -1.7606253820127912E-01 a      1447     0    73     1     7
 -1.8148959114000957E-01 a      1448     0    73     1     8
 -4.4286099758291800E-02 a      1449     0    73     1     9
 -3.0873861820659997E-02 a      1450     0    73     1    10
  1.3554463797082450E-01 a      1451     0    73     1    11
 -3.0766223053730630E-02 a      1452     0    73     1    12
 -1.4252096118970456E-01 a      1453     0    73     1    13
 -2.4704865206243119E-03 a      1454     0    73     1    14
  4.8979533170318182E-02 a      1455     0    73     1    15
  8.0544588456033780E-02 a      1456     0    73     1    16
  9.1859047904213984E-03 a      1457     0    73     1    17
  5.7998759630260084E-02 a      1458     0    73     1    18
 -1.3066506953604340E-01 a      1459     0    73     1    19
 -1.7564763373920655E-01 a      1460     0    73     1    20
  5.9605408928157223E-02 a      1461     0    74     1     1
  7.2629930654625599E-02 a      1462     0    74     1     2
 -1.7520035693936586E-01 a      1463     0    74     1     3
 -1.9628682350614393E-01 a      1464     0    74     1     4
  1.8128316604504607E-01 a      1465     0    74     1     5
 -9.2092735888359950E-02 a      1466     0    74     1     6
 -7.4882822721065237E-02 a      1467     0    74     1     7
  1.1326826132365403E-02 a      1468     0    74     1     8
 -3.0965280071210438E-02 a      1469     0    74     1     9
  8.9468688511359674E-03 a      1470     0    74     1    10
  1.0148969945837265E-01 a      1471     0    74     1    11
 -4.6352830032626004E-02 a      1472     0    74     1    12
 -7.0013618634862454E-04 a      1473     0    74     1    13
 -6.9393012335063953E-02 a      1474     0    74     1    14
  5.6022260181673667E-02 a      1475     0    74     1    15
 -1.1700214695805846E-02 a      1476     0    74     1    16
 -6.8522153587912360E-02 a      1477     0    74     1    17
 -1.5544692782452116E-01 a      1478     0    74     1    18
 -5.4082712905147809E-02 a      1479     0    74     1    19
  2.9320489542133506E-02 a      1480     0    74     1    20
  5.4371322132657713E-03 a      1481     0    75     1     1
 -9.8423371941925672E-02 a      1482     0    75     1     2
 -3.8497244799832256E-02 a      1483     0    75     1     3
  1.5210455394652987E-02 a      1484     0    75     1     4
  1.8438457511136658E-01 a      1485     0    75     1     5
 -6.3434999361589112E-02 a      1486     0    75     1     6
 -1.3773924076730751E-01 a      1487     0    75     1     7
 -5.4926012543247311E-02 a      1488     0    75     1     8
  1.8544417585408884E-01 a      1489     0    75     1     9
 -1.9124195341460454E-01 a      1490     0    75     1    10
  6.8859119628228108E-03 a      1491     0    75     1    11
  1.1508619829593961E-01 a      1492     0    75     1    12
 -1.6087703803185660E-01 a      1493     0    75     1    13
  6.2988359151933029E-02 a      1494     0    75     1    14
  2.9424872031827970E-01 a      1495     0    75     1    15
  1.2514020905418619E-02 a      1496     0    75     1    16
  3.3079621797928793E-01 a      1497     0    75     1    17
 -1.5611836680456176E-01 a      1498     0    75     1    18
  8.7558004074953413E-02 a      1499     0    75     1    19
 -1.4215004871316961E-01 a      1500     0    75     1    20
  9.0644249221337736E-02 a      1501     0    76     1     1
  6.4505583239201414E-02 a      1502     0    76     1     2
  6.8026309991993786E-02 a      1503     0    76     1     3
 -2.4908289633897493E-01 a      1504     0    76     1     4
  1.0828284053453874E-01 a      1505     0    76     1     5
 -1.1816804331604311E-01 a      1506     0    76     1     6
 -4.0299809265551191E-02 a      1507     0    76     1     7
 -1.7398685529697297E-01 a      1508     0    76     1     8
  9.9828243791785592E-04 a      1509     0    76     1     9
  1.3021303093784617E-01 a      1510     0    76     1    10
  1.8505279896583290E-02 a      1511     0    76     1    11
 -1.0120913555900797E-01 a      1512     0    76     1    12
  9.8287176055865733E-02 a      1513     0    76     1    13
 -1.7172543625704326E-01 a      1514     0    76     1    14
  1.1001463933197787E-01 a      1515     0    76     1    15
 -1.4464724769939449E-01 a      1516     0    76     1    16
 -6.3089998946984110E-02 a      1517     0    76     1    17
 -7.2622284532186152E-02 a      1518     0    76     1    18
  2.2747928946527426E-02 a      1519     0    76     1    19
  2.3128855445041055E-01 a      1520     0    76     1    20
  1.0783789932018630E-01 a      1521     0    77     1     1
 -5.6835341199631545E-02 a      1522     0    77     1     2
  2.4539971515543130E-02 a      1523     0    77     1     3
 -3.1114819520294434E-02 a      1524     0    77     1     4
  3.1783507368971377E-02 a      1525     0    77     1     5
 -5.6562300159857318E-02 a      1526     0    77     1     6
  3.9350147278909529E-02 a      1527     0    77     1     7
 -1.4554561961503636E-02 a      1528     0    77     1     8
 -6.1782744107769126E-03 a      1529     0    77     1     9
 -1.3436333098281733E-01 a      1530     0    77     1    10
 -1.6924077814502478E-01 a      1531     0    77     1    11
 -3.3109415323221481E-02 a      1532     0    77     1    12
  2.7464411342883371E-01 a      1533     0    77     1    13
 -2.9080223356263118E-01 a      1534     0    77     1    14
  9.7364829538238995E-02 a      1535     0    77     1    15
  4.3705312608535191E-02 a      1536     0    77     1    16
  2.9926614649887707E-02 a      1537     0    77     1    17
 -5.8619550153790945E-02 a      1538     0    77     1    18
 -5.5598527491189056E-02 a      1539     0    77     1    19
  2.4958663231748657E-02 a      1540     0    77     1    20
  1.7861341927836605E-01 a      1541     0    78     1     1
 -7.6151560873223459E-02 a      1542     0    78     1     2
 -3.8318146242532658E-02 a      1543     0    78     1     3
 -3.0912722864885344E-02 a      1544     0    78     1     4
 -1.2321428122987267E-02 a      1545     0    78     1     5
  2.0889267472219673E-02 a      1546     0    78     1     6
  1.5427674905521310E-02 a      1547     0    78     1     7
  3.6125241325445727E-03 a      1548     0    78     1     8
  9.1725641785873696E-02 a      1549     0    78     1     9
  3.2473524969170671E-02 a      1550     0    78     1    10
 -4.6958040071789192E-02 a      1551     0    78     1    11
 -5.1799795611299805E-02 a      1552     0    78     1    12
  7.9158327232596356E-03 a      1553     0    78     1    13
 -1.0629446650560116E-01 a      1554     0    78     1    14
  3.1333912317101531E-02 a      1555     0    78     1    15
 -3.3762870106435051E-03 a      1556     0    78     1    16
  1.4504463192018015E-03 a      1557     0    78     1    17
 -1.1308065609798600E-01 a      1558     0    78     1    18
  5.2552196431822204E-03 a      1559     0    78     1    19
  2.3960730014064621E-02 a      1560     0    78     1    20
 -1.6141813077055023E-02 a      1561     0    79     1     1
  2.0409809920121310E-02 a      1562     0    79     1     2
 -3.5842278959362997E-02 a      1563     0    79     1     3
  7.9751771007877614E-02 a      1564     0    79     1     4
 -1.6624280329731147E-02 a      1565     0    79     1     5
  9.1573026740606443E-04 a      1566     0    79     1     6
 -9.3516092137126944E-02 a      1567     0    79     1     7
 -2.1200321998888882E-02 a      1568     0    79     1     8
  3.5518219348354710E-02 a      1569     0    79     1     9
  2.9539863363574120E-03 a      1570     0    79     1    10
 -8.3024569050211466E-02 a      1571     0    79     1    11
 -4.0821264192218085E-02 a      1572     0    79     1    12
  1.0147660321073282E-01 a      1573     0    79     1    13
 -4.3942523616984829E-02 a      1574     0    79     1    14
 -6.5680754855428167E-02 a      1575     0    79     1    15
 -6.0985602489686000E-02 a      1576     0    79     1    16
 -7.1371787723160079E-02 a      1577     0    79     1    17
 -9.8831641958893063E-03 a      1578     0    79     1    18
 -9.1511377492325394E-02 a      1579     0    79     1    19
  1.6687805178557627E-02 a      1580     0    79     1    20
 -1.5054237146478219E-01 a      1581     0    80     1     1
 -1.0540977651743405E-01 a      1582     0    80     1     2
  6.9768935605944793E-03 a      1583     0    80     1     3
 -3.3761236150167836E-03 a      1584     0    80     1     4
 -1.5187470891398322E-01 a      1585     0    80     1     5
  7.7086879096446043E-02 a      1586     0    80     1     6
 -8.9267943381078338E-02 a      1587     0    80     1     7
 -2.2145931017048326E-01 a      1588     0    80     1     8
  4.1878349775303650E-02 a      1589     0    80     1     9
  1.3161756767460805E-01 a      1590     0    80     1    10
 -2.0422235317322587E-01 a      1591     0    80     1    11
  1.1919021214519486E-01 a      1592     0    80     1    12
  8.6820632315140631E-02 a      1593     0    80     1    13
  4.1179290711776249E-02 a      1594     0    80     1    14
  1.1593661685765877E-01 a      1595     0    80     1    15
 -2.0793122333620984E-01 a      1596     0    80     1    16
 -1.7503331954258733E-01 a      1597     0    80     1    17
  3.8222732912701472E-02 a      1598     0    80     1    18
  1.4080409451981094E-01 a      1599     0    80     1    19
 -7.7062675388040222E-02 a      1600     0    80     1    20
 -1.1581297060464797E+00 b      1601     1     1
  2.7113772502507449E-01 b      1602     1     2
  3.6876806170474635E-01 b      1603     1     3
 -2.0915592957762985E-01 b      1604     1     4
 -4.2822953879177200E-01 b      1605     1     5
 -1.0061636658116833E+00 b      1606     1     6
  1.1027771600991267E+00 b      1607     1     7
  1.3503906056963024E+00 b      1608     1     8
  1.0115407331698554E+00 b      1609     1     9
 -4.9413898375764403E-02 b      1610     1    10
  1.0325308496806755E+00 b      1611     1    11
 -9.3687677814370285E-01 b      1612     1    12
  1.1641613655701160E+00 b      1613     1    13
 -1.1852805730947233E+00 b      1614     1    14
  2.4639426310757878E-01 b      1615     1    15
  6.4283487744105083E-01 b      1616     1    16
  1.2209697477175198E-01 b      1617     1    17
  9.8146983185165526E-01 b      1618     1    18
  2.0867830867053644E-01 b      1619     1    19
 -8.4057583066274355E-01 b      1620     1    20
  1.7680507953198997E-02 a      1621     1     1     2     1
 -3.3537737832509240E-02 a      1622     1     1     2     2
 -1.2180323504229990E-01 a      1623     1     1     2     3
 -2.1869342145329088E-01 a      1624     1     1     2     4
  2.2432930553951683E-01 a      1625     1     1     2     5
  4.4890301194853360E-01 a      1626     1     1     2     6
 -2.9216184302070763E-01 a      1627     1     1     2     7
