################################################################################
# Neural network connection values (weights and biases).
################################################################################
# Col  Name       Description
################################################################################
# 1    connection Neural network connection value.
# 2    t          Connection type (a = weight, b = bias).
# 3    index      Index enumerating weights.
# 4    l_s        Starting point layer (end point layer for biases).
# 5    n_s        Starting point neuron in starting layer (end point neuron for biases).
# 6    l_e        End point layer.
# 7    n_e        End point neuron in end layer.
################################################################################
#                      1 2         3     4     5     6     7
#             connection t     index   l_s   n_s   l_e   n_e
############################################################
  7.3974119646784187E-02 a         1     0     1     1     1
 -1.3372587993174115E-01 a         2     0     1     1     2
 -2.0356941755462540E-01 a         3     0     1     1     3
  8.7422737752443788E-02 a         4     0     1     1     4
 -5.4718695580475922E-02 a         5     0     1     1     5
  6.5901684366926797E-02 a         6     0     1     1     6
  3.0024188531276380E-01 a         7     0     1     1     7
  1.8715077201286007E-01 a         8     0     1     1     8
  2.7386947306739667E-02 a         9     0     1     1     9
 -1.0835944401912813E-01 a        10     0     1     1    10
 -8.5321971283372947E-02 a        11     0     1     1    11
  1.8540169497020842E-01 a        12     0     1     1    12
 -1.9445701380968847E-01 a        13     0     1     1    13
 -2.0639229914686030E-01 a        14     0     1     1    14
  6.5074634904440168E-02 a        15     0     1     1    15
 -6.4325055346030766E-02 a        16     0     1     1    16
 -4.3225242442374981E-02 a        17     0     1     1    17
  7.0941224021003765E-02 a        18     0     1     1    18
 -6.5934631533748215E-03 a        19     0     1     1    19
 -5.4158030820931763E-02 a        20     0     1     1    20
 -2.3991972212480511E-01 a        21     0     2     1     1
 -5.1781711995028672E-02 a        22     0     2     1     2
  1.5823280152110198E-02 a        23     0     2     1     3
 -1.4218317874317865E-01 a        24     0     2     1     4
  2.1930307391189385E-01 a        25     0     2     1     5
  5.3795331486344196E-02 a        26     0     2     1     6
 -2.1527648780018868E-01 a        27     0     2     1     7
  8.8550798930882829E-02 a        28     0     2     1     8
  1.3278747715732236E-01 a        29     0     2     1     9
  2.0289094188201934E-02 a        30     0     2     1    10
 -1.1556524986605841E-01 a        31     0     2     1    11
 -2.1987829127952782E-01 a        32     0     2     1    12
  8.8019355107852928E-02 a        33     0     2     1    13
 -1.4685058214784136E-01 a        34     0     2     1    14
  1.7636274798482884E-02 a        35     0     2     1    15
  2.2120647194412058E-01 a        36     0     2     1    16
 -5.9275881753413417E-02 a        37     0     2     1    17
 -6.6728798520816104E-02 a        38     0     2     1    18
 -1.6235321685331985E-01 a        39     0     2     1    19
 -4.4349320196197348E-02 a        40     0     2     1    20
  1.8634015342027240E-02 a        41     0     3     1     1
  2.3744173129077357E-02 a        42     0     3     1     2
 -1.0870634589515174E-01 a        43     0     3     1     3
 -1.5499075072602040E-02 a        44     0     3     1     4
 -1.4630130146187281E-02 a        45     0     3     1     5
 -3.5953566334976220E-02 a        46     0     3     1     6
  1.4070522979659897E-01 a        47     0     3     1     7
  3.2130774478033378E-02 a        48     0     3     1     8
 -4.2526251134723647E-01 a        49     0     3     1     9
  1.8004934520333904E-01 a        50     0     3     1    10
 -3.3474258537792109E-02 a        51     0     3     1    11
 -5.2906557680878312E-03 a        52     0     3     1    12
  4.7969852188107592E-02 a        53     0     3     1    13
  1.1468798795521890E-01 a        54     0     3     1    14
  4.7037807681834243E-02 a        55     0     3     1    15
  1.8845534150093795E-03 a        56     0     3     1    16
  1.7976321292873795E-01 a        57     0     3     1    17
 -6.3013501980534015E-02 a        58     0     3     1    18
 -1.2814533280361401E-01 a        59     0     3     1    19
 -5.2005415608807407E-02 a        60     0     3     1    20
 -3.4814621043860662E-02 a        61     0     4     1     1
 -1.4171860132626979E-01 a        62     0     4     1     2
 -1.0224748604764791E-01 a        63     0     4     1     3
 -9.1281829711007036E-03 a        64     0     4     1     4
 -9.6186575539524949E-02 a        65     0     4     1     5
  9.8244982669501019E-02 a        66     0     4     1     6
 -1.3695372823756626E-02 a        67     0     4     1     7
  2.0435379436397408E-02 a        68     0     4     1     8
 -4.9512263700214193E-02 a        69     0     4     1     9
  1.2940849930151171E-01 a        70     0     4     1    10
 -8.5516483997912826E-02 a        71     0     4     1    11
 -2.7318083280582894E-01 a        72     0     4     1    12
 -7.6716209843556191E-02 a        73     0     4     1    13
  9.4569792522462226E-02 a        74     0     4     1    14
 -6.6374988430853529E-02 a        75     0     4     1    15
  3.2117565905462019E-02 a        76     0     4     1    16
 -1.5275622926803112E-01 a        77     0     4     1    17
 -6.4913820341406414E-02 a        78     0     4     1    18
  2.2080943380578913E-01 a        79     0     4     1    19
  6.0742576295138483E-02 a        80     0     4     1    20
  9.3692312288277665E-02 a        81     0     5     1     1
  2.0899545888683660E-01 a        82     0     5     1     2
  7.0497139909634665E-01 a        83     0     5     1     3
 -1.6584267425465735E-01 a        84     0     5     1     4
  2.7833747566653422E-01 a        85     0     5     1     5
  2.1824098554295496E-01 a        86     0     5     1     6
 -3.2567170741490725E-01 a        87     0     5     1     7
  1.3816445530266010E-02 a        88     0     5     1     8
 -5.8730769436107937E-02 a        89     0     5     1     9
  2.7767044464291038E-03 a        90     0     5     1    10
 -5.8563746101374159E-02 a        91     0     5     1    11
 -1.3491899175028629E-01 a        92     0     5     1    12
 -8.2237192184769978E-02 a        93     0     5     1    13
 -2.1244539034493506E-01 a        94     0     5     1    14
 -5.8391302415977087E-01 a        95     0     5     1    15
  2.1000097353140684E-01 a        96     0     5     1    16
  1.3967664714606184E-01 a        97     0     5     1    17
 -1.6898638364894962E-03 a        98     0     5     1    18
  2.8298774927702480E-01 a        99     0     5     1    19
  4.7164097246247622E-01 a       100     0     5     1    20
  1.0104793340847530E-01 a       101     0     6     1     1
  1.0732442987323136E-01 a       102     0     6     1     2
  7.2156564659001762E-02 a       103     0     6     1     3
  5.1335844554166836E-03 a       104     0     6     1     4
 -2.5620991148252048E-01 a       105     0     6     1     5
 -8.1789900335097393E-02 a       106     0     6     1     6
  2.7983776047552550E-01 a       107     0     6     1     7
 -5.0397984816362394E-02 a       108     0     6     1     8
 -1.1916586994531618E-02 a       109     0     6     1     9
 -2.4071709789480894E-01 a       110     0     6     1    10
  1.6933537666072296E-01 a       111     0     6     1    11
  1.6349983460858067E-01 a       112     0     6     1    12
 -1.6131238340313295E-01 a       113     0     6     1    13
  1.0142871247556363E-01 a       114     0     6     1    14
 -7.1321595380560709E-02 a       115     0     6     1    15
 -1.8880905016814697E-01 a       116     0     6     1    16
 -7.6846868507077448E-02 a       117     0     6     1    17
  2.1284233213524442E-05 a       118     0     6     1    18
  1.1342553984011390E-02 a       119     0     6     1    19
  1.0095427020489854E-01 a       120     0     6     1    20
  1.7880312380376413E-02 a       121     0     7     1     1
  1.9574131802123912E-01 a       122     0     7     1     2
  5.9970692547989660E-02 a       123     0     7     1     3
  1.2538785063178798E-01 a       124     0     7     1     4
 -9.9496839046934391E-02 a       125     0     7     1     5
  3.9849807732779553E-02 a       126     0     7     1     6
 -1.2855354115583789E-01 a       127     0     7     1     7
 -5.7842460144693936E-02 a       128     0     7     1     8
 -1.1701595179918255E-01 a       129     0     7     1     9
 -1.5169329370038853E-01 a       130     0     7     1    10
 -5.5151807211227283E-02 a       131     0     7     1    11
 -5.5086116701260873E-02 a       132     0     7     1    12
 -1.3224719358417295E-01 a       133     0     7     1    13
 -2.8290277330327109E-03 a       134     0     7     1    14
 -6.4084469221946827E-02 a       135     0     7     1    15
  5.4154335199127435E-02 a       136     0     7     1    16
 -1.8621315710861955E-01 a       137     0     7     1    17
  2.2243237091922546E-01 a       138     0     7     1    18
  1.1269513284883191E-01 a       139     0     7     1    19
  2.0021655672485117E-01 a       140     0     7     1    20
 -1.6865994886626423E-01 a       141     0     8     1     1
  5.8037540451200395E-02 a       142     0     8     1     2
  3.8127298714220282E-03 a       143     0     8     1     3
  1.8594631872981426E-01 a       144     0     8     1     4
  3.6046653320006068E-02 a       145     0     8     1     5
 -1.0356579853375136E-01 a       146     0     8     1     6
 -2.0360768037656112E-02 a       147     0     8     1     7
 -1.1215415491873389E-01 a       148     0     8     1     8
  1.0974135787105822E-01 a       149     0     8     1     9
  7.1057534783541473E-02 a       150     0     8     1    10
  1.0530439807186669E-02 a       151     0     8     1    11
  1.3196191954428022E-01 a       152     0     8     1    12
  9.9753668285936209E-02 a       153     0     8     1    13
  2.4207181249591131E-01 a       154     0     8     1    14
  6.9589754282105273E-02 a       155     0     8     1    15
  8.2800574839563018E-02 a       156     0     8     1    16
  1.5152297062787343E-01 a       157     0     8     1    17
  7.5944866745341053E-02 a       158     0     8     1    18
  1.3894124866545459E-02 a       159     0     8     1    19
  3.6869318266602322E-02 a       160     0     8     1    20
  2.7566446485130636E-01 a       161     0     9     1     1
 -2.3504745529534582E-01 a       162     0     9     1     2
 -1.3596616244463880E-01 a       163     0     9     1     3
  2.0507585335810749E-01 a       164     0     9     1     4
 -2.8139907984628424E-03 a       165     0     9     1     5
 -4.9645321580236858E-02 a       166     0     9     1     6
 -2.8541464483702920E-02 a       167     0     9     1     7
 -1.6668329954774797E-02 a       168     0     9     1     8
  1.9230444814140585E-01 a       169     0     9     1     9
 -1.3849708855573495E-01 a       170     0     9     1    10
 -4.4199333115274062E-02 a       171     0     9     1    11
  1.8511015987402454E-01 a       172     0     9     1    12
 -1.1902211010954832E-01 a       173     0     9     1    13
 -4.2527407429029544E-02 a       174     0     9     1    14
  1.6313691641993547E-01 a       175     0     9     1    15
  1.6408098885339055E-03 a       176     0     9     1    16
  3.5568656380467877E-02 a       177     0     9     1    17
 -6.5110103943452832E-02 a       178     0     9     1    18
  1.3786633324297601E-01 a       179     0     9     1    19
  1.9987811123582172E-01 a       180     0     9     1    20
  1.6253820657289633E-01 a       181     0    10     1     1
  2.6979733107894883E-02 a       182     0    10     1     2
 -1.5529554792437358E-01 a       183     0    10     1     3
  1.5947053921925894E-01 a       184     0    10     1     4
  5.4307740796219715E-02 a       185     0    10     1     5
  1.8875828713993788E-02 a       186     0    10     1     6
  2.1881748736231518E-01 a       187     0    10     1     7
 -2.1653480110474668E-01 a       188     0    10     1     8
 -1.8900721078598132E-01 a       189     0    10     1     9
  3.2333998412798742E-01 a       190     0    10     1    10
 -1.5622502384911821E-01 a       191     0    10     1    11
  5.6701737793817104E-02 a       192     0    10     1    12
  2.7411145098849821E-01 a       193     0    10     1    13
 -9.2746824086779353E-02 a       194     0    10     1    14
  4.0924062638680325E-01 a       195     0    10     1    15
 -9.2471370822701660E-04 a       196     0    10     1    16
  3.5629093945446511E-01 a       197     0    10     1    17
  8.1552306855392567E-02 a       198     0    10     1    18
 -1.2982404494782007E-01 a       199     0    10     1    19
 -2.6493780975624753E-02 a       200     0    10     1    20
  2.2738630209257432E-01 a       201     0    11     1     1
  4.2449790440536490E-03 a       202     0    11     1     2
  1.5788564424309457E-02 a       203     0    11     1     3
  5.0097794897907597E-02 a       204     0    11     1     4
  1.0235357518149267E-01 a       205     0    11     1     5
 -5.7926388877289139E-02 a       206     0    11     1     6
  2.0022939867602471E-01 a       207     0    11     1     7
  1.9358759154650201E-01 a       208     0    11     1     8
 -2.7807822024538248E-01 a       209     0    11     1     9
  1.6880290492650191E-01 a       210     0    11     1    10
 -1.2029792022497594E-01 a       211     0    11     1    11
  1.0789728664638568E-01 a       212     0    11     1    12
 -1.1987516112709118E-01 a       213     0    11     1    13
  1.2805212715751840E-01 a       214     0    11     1    14
 -1.9447535285687753E-01 a       215     0    11     1    15
 -3.1581959632525927E-02 a       216     0    11     1    16
  1.5274798001185161E-01 a       217     0    11     1    17
 -1.4211377156242192E-03 a       218     0    11     1    18
  1.6326169126947132E-01 a       219     0    11     1    19
 -7.3607454677575054E-02 a       220     0    11     1    20
  1.0571743553507901E-01 a       221     0    12     1     1
  1.3640181697476200E-01 a       222     0    12     1     2
  1.3664405758272874E-01 a       223     0    12     1     3
 -1.3838601027992911E-01 a       224     0    12     1     4
  1.0414047011029641E-01 a       225     0    12     1     5
  5.7593666290937567E-02 a       226     0    12     1     6
 -4.3920243348371531E-02 a       227     0    12     1     7
 -1.1365939283811630E-01 a       228     0    12     1     8
 -1.7886275275202324E-01 a       229     0    12     1     9
 -8.7241951209333535E-02 a       230     0    12     1    10
 -7.0625648572294544E-02 a       231     0    12     1    11
  3.9238051948075746E-02 a       232     0    12     1    12
 -7.2519822723572089E-02 a       233     0    12     1    13
 -2.9049680494361407E-01 a       234     0    12     1    14
  6.5477816303764605E-02 a       235     0    12     1    15
  1.3316347904495546E-01 a       236     0    12     1    16
 -7.7563865126846513E-03 a       237     0    12     1    17
 -7.4177115824089812E-02 a       238     0    12     1    18
 -1.7635206457680683E-01 a       239     0    12     1    19
 -2.5328970044586164E-02 a       240     0    12     1    20
  1.9527428187838711E-01 a       241     0    13     1     1
  3.4442039687909827E-02 a       242     0    13     1     2
  5.2525604435137641E-01 a       243     0    13     1     3
 -9.7154497538889800E-02 a       244     0    13     1     4
  2.9555976126106870E-01 a       245     0    13     1     5
 -3.8937208849521877E-02 a       246     0    13     1     6
  2.7384164987013626E-02 a       247     0    13     1     7
  3.2438956068758890E-01 a       248     0    13     1     8
 -9.1563660526316440E-02 a       249     0    13     1     9
 -4.4604292108804094E-02 a       250     0    13     1    10
  2.6630351444028166E-01 a       251     0    13     1    11
 -3.4773649552201406E-02 a       252     0    13     1    12
 -1.6837709784081833E-02 a       253     0    13     1    13
 -1.9275664623109692E-01 a       254     0    13     1    14
 -5.4059554400530985E-01 a       255     0    13     1    15
 -2.8926450911405077E-01 a       256     0    13     1    16
 -3.7673159247061133E-02 a       257     0    13     1    17
  2.8055814362127346E-01 a       258     0    13     1    18
 -2.6531130897975205E-02 a       259     0    13     1    19
  3.4208728017208673E-01 a       260     0    13     1    20
 -1.7462129654408573E-01 a       261     0    14     1     1
  9.0790615699549396E-02 a       262     0    14     1     2
  7.9973527504107189E-02 a       263     0    14     1     3
  1.9315498578997663E-02 a       264     0    14     1     4
 -9.0927561876237392E-02 a       265     0    14     1     5
 -1.9424752436184592E-01 a       266     0    14     1     6
 -3.1977044067838887E-03 a       267     0    14     1     7
 -1.9392436272549882E-01 a       268     0    14     1     8
  4.5434251376903136E-02 a       269     0    14     1     9
 -6.5953691191368985E-02 a       270     0    14     1    10
  1.6222603091576135E-01 a       271     0    14     1    11
 -2.1217267991082017E-01 a       272     0    14     1    12
 -1.9987559917139228E-02 a       273     0    14     1    13
 -1.3018482509200183E-01 a       274     0    14     1    14
 -2.0761848088538346E-01 a       275     0    14     1    15
 -6.9337400633277507E-02 a       276     0    14     1    16
  7.0672843674944308E-02 a       277     0    14     1    17
  1.9103315979065011E-01 a       278     0    14     1    18
  2.2925444151294866E-01 a       279     0    14     1    19
 -1.8477828234894003E-01 a       280     0    14     1    20
 -5.9306179207568997E-02 a       281     0    15     1     1
  7.1695307940401451E-02 a       282     0    15     1     2
  5.7200183725722983E-02 a       283     0    15     1     3
 -7.6410086876085664E-02 a       284     0    15     1     4
 -5.6019716922850051E-02 a       285     0    15     1     5
  1.1516609872235020E-01 a       286     0    15     1     6
  3.8460303171755633E-01 a       287     0    15     1     7
  1.2069406122532107E-01 a       288     0    15     1     8
 -4.5737564865406435E-02 a       289     0    15     1     9
 -2.1994964451307755E-01 a       290     0    15     1    10
  5.3483002443531685E-02 a       291     0    15     1    11
 -1.6058634666113350E-01 a       292     0    15     1    12
 -1.7985890576098038E-01 a       293     0    15     1    13
  1.6260566392864229E-01 a       294     0    15     1    14
 -1.9799296388574511E-01 a       295     0    15     1    15
 -4.0642719080813086E-02 a       296     0    15     1    16
 -1.5440482116069782E-02 a       297     0    15     1    17
  6.4321603515761841E-02 a       298     0    15     1    18
 -2.0920532737490855E-01 a       299     0    15     1    19
  3.5228174452630440E-01 a       300     0    15     1    20
 -3.7431858425435338E-02 a       301     0    16     1     1
  3.5125306539072816E-02 a       302     0    16     1     2
 -1.7793555005221290E-01 a       303     0    16     1     3
  1.5866042375669556E-01 a       304     0    16     1     4
 -1.4063074592877209E-01 a       305     0    16     1     5
 -1.4311939740837906E-01 a       306     0    16     1     6
 -2.1858448404898794E-02 a       307     0    16     1     7
  3.5274735153951263E-02 a       308     0    16     1     8
 -1.5783461557512879E-01 a       309     0    16     1     9
  1.0621132793651984E-01 a       310     0    16     1    10
  3.2488703003502095E-02 a       311     0    16     1    11
  1.1355955287773799E-01 a       312     0    16     1    12
  3.0011887244947067E-02 a       313     0    16     1    13
 -1.6984834742998742E-01 a       314     0    16     1    14
  3.3267892569862900E-02 a       315     0    16     1    15
 -6.8379378566127927E-02 a       316     0    16     1    16
 -2.2440600435649532E-02 a       317     0    16     1    17
  1.7435071754907375E-01 a       318     0    16     1    18
  1.6471475852521553E-01 a       319     0    16     1    19
  4.9979354777891893E-02 a       320     0    16     1    20
  3.0705769797419979E-01 a       321     0    17     1     1
  6.0427404633850643E-02 a       322     0    17     1     2
 -7.5515930675396317E-02 a       323     0    17     1     3
 -1.0097597083021161E-01 a       324     0    17     1     4
 -3.7991126691767417E-03 a       325     0    17     1     5
 -3.7967011983202910E-02 a       326     0    17     1     6
 -6.8613724239620005E-02 a       327     0    17     1     7
  1.7973256206652194E-01 a       328     0    17     1     8
  9.4733393341628627E-02 a       329     0    17     1     9
  1.7944723022176045E-02 a       330     0    17     1    10
 -1.3252495265839356E-01 a       331     0    17     1    11
  4.1073683595484675E-02 a       332     0    17     1    12
 -4.8450297834141030E-02 a       333     0    17     1    13
 -4.9147680914181570E-02 a       334     0    17     1    14
  2.8286777258611267E-02 a       335     0    17     1    15
 -2.7659588589687412E-01 a       336     0    17     1    16
 -3.0223255175022906E-01 a       337     0    17     1    17
  2.1636648800751123E-02 a       338     0    17     1    18
  1.6887955678789540E-01 a       339     0    17     1    19
  2.3198975793926230E-01 a       340     0    17     1    20
 -1.7617286862121928E-01 a       341     0    18     1     1
 -5.9860013208123931E-02 a       342     0    18     1     2
 -3.6288039795875493E-01 a       343     0    18     1     3
  2.5272298210715438E-01 a       344     0    18     1     4
 -3.2011471203475556E-02 a       345     0    18     1     5
  2.7114402937145593E-01 a       346     0    18     1     6
  2.9020023742760620E-01 a       347     0    18     1     7
 -4.1474879023234834E-01 a       348     0    18     1     8
  2.4755225482932422E-01 a       349     0    18     1     9
  6.6684804494766339E-02 a       350     0    18     1    10
 -1.6916274778206009E-01 a       351     0    18     1    11
 -9.2093659364216110E-02 a       352     0    18     1    12
 -2.8272575386048802E-02 a       353     0    18     1    13
  2.6135832304596829E-01 a       354     0    18     1    14
  1.8644634457661788E-01 a       355     0    18     1    15
  2.5830249191701588E-01 a       356     0    18     1    16
  2.4552288907255815E-01 a       357     0    18     1    17
 -3.0852266911668872E-02 a       358     0    18     1    18
 -8.5099413626475981E-02 a       359     0    18     1    19
  3.5607660669904104E-02 a       360     0    18     1    20
  2.1513096076182961E-01 a       361     0    19     1     1
 -1.9941844204893491E-02 a       362     0    19     1     2
  3.2153331792943704E-02 a       363     0    19     1     3
  1.9206331756678102E-01 a       364     0    19     1     4
  6.3262402925733166E-02 a       365     0    19     1     5
 -1.5475438259528734E-01 a       366     0    19     1     6
 -1.9178122640060408E-01 a       367     0    19     1     7
  1.9397017988960535E-01 a       368     0    19     1     8
 -4.3396672809333126E-01 a       369     0    19     1     9
  1.8962262793916895E-01 a       370     0    19     1    10
  8.5428299391528503E-02 a       371     0    19     1    11
  5.4360773922844635E-02 a       372     0    19     1    12
  4.3074633113185871E-02 a       373     0    19     1    13
 -9.6510278988666154E-02 a       374     0    19     1    14
 -1.2067851591347116E-01 a       375     0    19     1    15
  3.0479874025542995E-02 a       376     0    19     1    16
 -3.3357021808437602E-02 a       377     0    19     1    17
  2.0469260892671776E-01 a       378     0    19     1    18
  2.0967975654979062E-01 a       379     0    19     1    19
  1.2585076989093278E-02 a       380     0    19     1    20
 -7.4385321152317760E-02 a       381     0    20     1     1
  1.3791936397774107E-01 a       382     0    20     1     2
  1.4007456924955453E-01 a       383     0    20     1     3
 -5.1650413390942118E-02 a       384     0    20     1     4
  8.5623234549220328E-02 a       385     0    20     1     5
  2.5348779734928062E-01 a       386     0    20     1     6
  7.4178417594683535E-02 a       387     0    20     1     7
 -2.2464814210466401E-02 a       388     0    20     1     8
  1.8726506545851310E-01 a       389     0    20     1     9
 -1.0119694709407008E-01 a       390     0    20     1    10
  3.9281979884520535E-02 a       391     0    20     1    11
 -1.0684035651578735E-01 a       392     0    20     1    12
  4.5139955781303781E-02 a       393     0    20     1    13
  1.9929747240036455E-01 a       394     0    20     1    14
  1.6629956282076713E-01 a       395     0    20     1    15
 -7.3834352774790488E-02 a       396     0    20     1    16
 -1.4302352913435484E-01 a       397     0    20     1    17
  2.4739879521149588E-01 a       398     0    20     1    18
 -3.8823487665437008E-02 a       399     0    20     1    19
 -7.7730559612179367E-02 a       400     0    20     1    20
 -1.1359946369824202E-01 a       401     0    21     1     1
 -1.9264662399070837E-01 a       402     0    21     1     2
  2.8469386823207676E-01 a       403     0    21     1     3
 -6.9843789668517994E-02 a       404     0    21     1     4
  1.5473378899335996E-01 a       405     0    21     1     5
 -2.5719836837281423E-01 a       406     0    21     1     6
 -1.7252343654650962E-01 a       407     0    21     1     7
  2.8333897066874048E-01 a       408     0    21     1     8
 -3.5660025691026320E-01 a       409     0    21     1     9
  2.3770202649111762E-02 a       410     0    21     1    10
  4.2898360743337444E-02 a       411     0    21     1    11
 -1.1188653673262133E-01 a       412     0    21     1    12
  3.4036095242040057E-02 a       413     0    21     1    13
  4.1006739841028463E-02 a       414     0    21     1    14
 -5.2273361593763135E-01 a       415     0    21     1    15
  2.3707394386205199E-02 a       416     0    21     1    16
 -1.2384311097876460E-01 a       417     0    21     1    17
 -9.2348075297552911E-03 a       418     0    21     1    18
  7.3855000383814789E-02 a       419     0    21     1    19
  1.5825728967768180E-01 a       420     0    21     1    20
 -9.3143333758632901E-02 a       421     0    22     1     1
  1.3749623712664716E-01 a       422     0    22     1     2
 -8.9900898184308603E-02 a       423     0    22     1     3
  3.1430990562571676E-02 a       424     0    22     1     4
 -7.9279093656600977E-02 a       425     0    22     1     5
  2.0140752889322244E-01 a       426     0    22     1     6
  1.3894141396210519E-01 a       427     0    22     1     7
 -2.3506403927057140E-01 a       428     0    22     1     8
  1.4268798696232385E-02 a       429     0    22     1     9
  9.1463126848710441E-02 a       430     0    22     1    10
  1.8744696526293794E-01 a       431     0    22     1    11
 -8.0843052437718887E-02 a       432     0    22     1    12
 -5.6613661430433650E-02 a       433     0    22     1    13
  1.1111625295558121E-01 a       434     0    22     1    14
  2.7584807247469645E-01 a       435     0    22     1    15
  1.6193520729125160E-01 a       436     0    22     1    16
 -6.3905541429311707E-02 a       437     0    22     1    17
  1.5791852542660215E-01 a       438     0    22     1    18
  3.3966024392670033E-02 a       439     0    22     1    19
 -2.4367933949844361E-01 a       440     0    22     1    20
  7.6685222180314727E-03 a       441     0    23     1     1
  1.0526118629543582E-01 a       442     0    23     1     2
 -6.5267836503767981E-02 a       443     0    23     1     3
 -1.2110464582220450E-01 a       444     0    23     1     4
  1.0713969968531883E-02 a       445     0    23     1     5
  3.8040139030243191E-03 a       446     0    23     1     6
  2.6374870051884828E-02 a       447     0    23     1     7
  9.9360414252577953E-02 a       448     0    23     1     8
 -1.4540233099505323E-01 a       449     0    23     1     9
 -1.1902713693452141E-01 a       450     0    23     1    10
 -8.7523174835578532E-02 a       451     0    23     1    11
  4.1653433706123948E-02 a       452     0    23     1    12
 -2.7079841719787768E-02 a       453     0    23     1    13
 -1.2506672203772076E-01 a       454     0    23     1    14
 -2.1287717417445606E-01 a       455     0    23     1    15
 -3.6461415900200550E-02 a       456     0    23     1    16
  1.6631563820401721E-01 a       457     0    23     1    17
 -1.2736435842075366E-01 a       458     0    23     1    18
 -1.2511383936886036E-01 a       459     0    23     1    19
  2.2790695509749084E-01 a       460     0    23     1    20
 -5.9603953679034172E-03 a       461     0    24     1     1
  3.5131575213761514E-02 a       462     0    24     1     2
 -1.9336798082713183E-01 a       463     0    24     1     3
  1.9507600104161341E-01 a       464     0    24     1     4
 -5.0875475480857607E-02 a       465     0    24     1     5
 -8.4818941688127140E-03 a       466     0    24     1     6
  4.1044728674521962E-02 a       467     0    24     1     7
 -1.1426629529108163E-01 a       468     0    24     1     8
  7.0746228211220383E-02 a       469     0    24     1     9
 -2.1302749683747339E-02 a       470     0    24     1    10
 -1.8033611864676398E-02 a       471     0    24     1    11
  1.3144891654205851E-01 a       472     0    24     1    12
 -7.1490639919753449E-02 a       473     0    24     1    13
 -1.2603525585841666E-01 a       474     0    24     1    14
  2.3105226374978537E-02 a       475     0    24     1    15
  1.8753408660886908E-01 a       476     0    24     1    16
  1.6863582612643890E-01 a       477     0    24     1    17
 -1.6166683002822511E-02 a       478     0    24     1    18
  8.2833745034358794E-02 a       479     0    24     1    19
  1.2240374023382903E-02 a       480     0    24     1    20
 -1.0288772625646861E-01 a       481     0    25     1     1
  1.8284476962269927E-01 a       482     0    25     1     2
  1.9712959714316877E-01 a       483     0    25     1     3
 -1.4041019447576999E-01 a       484     0    25     1     4
  8.0385303864285079E-02 a       485     0    25     1     5
 -1.7847179825507251E-02 a       486     0    25     1     6
 -1.9685186495079266E-02 a       487     0    25     1     7
  2.4133405712121703E-01 a       488     0    25     1     8
  1.0586170738515623E-01 a       489     0    25     1     9
 -1.1368118792948902E-01 a       490     0    25     1    10
 -7.0637196863667512E-02 a       491     0    25     1    11
 -1.5659324456953883E-01 a       492     0    25     1    12
  8.2563212269015807E-02 a       493     0    25     1    13
 -3.2674891221480273E-01 a       494     0    25     1    14
  8.2254446171160137E-02 a       495     0    25     1    15
  2.5179343713032491E-02 a       496     0    25     1    16
  7.3802160141326539E-02 a       497     0    25     1    17
 -4.9714543541977643E-02 a       498     0    25     1    18
 -2.5214015818439878E-01 a       499     0    25     1    19
  1.2580554746588143E-01 a       500     0    25     1    20
  1.8358527983441994E-01 a       501     0    26     1     1
 -4.9460654327060725E-02 a       502     0    26     1     2
 -1.8199272600418459E-01 a       503     0    26     1     3
  2.0862389793486327E-01 a       504     0    26     1     4
 -3.5727726136635156E-02 a       505     0    26     1     5
  1.2573659107746663E-01 a       506     0    26     1     6
 -6.6669586876985043E-02 a       507     0    26     1     7
 -2.1250364085316417E-01 a       508     0    26     1     8
  2.8439134538231603E-01 a       509     0    26     1     9
 -2.9913854721367959E-02 a       510     0    26     1    10
 -7.4443232147266822E-02 a       511     0    26     1    11
  1.9267105406935692E-01 a       512     0    26     1    12
 -1.5280430366028962E-02 a       513     0    26     1    13
  2.2182283561446231E-01 a       514     0    26     1    14
  4.5392585987251120E-02 a       515     0    26     1    15
 -3.4604767723662104E-02 a       516     0    26     1    16
  7.7334628638087544E-02 a       517     0    26     1    17
  5.6184648038157627E-02 a       518     0    26     1    18
  1.7620815630629538E-01 a       519     0    26     1    19
 -1.1945071289880434E-01 a       520     0    26     1    20
  5.4588107064659587E-02 a       521     0    27     1     1
 -2.3883698703423659E-01 a       522     0    27     1     2
  2.7301572014946440E-01 a       523     0    27     1     3
  1.5842848248116514E-01 a       524     0    27     1     4
  4.3183622023366355E-02 a       525     0    27     1     5
 -1.2639545667079152E-01 a       526     0    27     1     6
 -1.9038044343835662E-02 a       527     0    27     1     7
 -9.0344948865933625E-02 a       528     0    27     1     8
  6.6026271915017093E-03 a       529     0    27     1     9
  3.8383356776455914E-02 a       530     0    27     1    10
  4.4227409354653323E-02 a       531     0    27     1    11
 -3.1123526139721840E-02 a       532     0    27     1    12
  1.7827426042624644E-02 a       533     0    27     1    13
 -1.5496520685546692E-02 a       534     0    27     1    14
  4.4203767539586353E-02 a       535     0    27     1    15
  9.7882483663497652E-02 a       536     0    27     1    16
 -1.0573754418447939E-01 a       537     0    27     1    17
 -1.0948265723326311E-02 a       538     0    27     1    18
  1.7096099254897057E-01 a       539     0    27     1    19
 -1.6599178925235009E-01 a       540     0    27     1    20
 -1.2419210104348127E-01 a       541     0    28     1     1
 -2.8725410906874298E-02 a       542     0    28     1     2
  6.9786507773685807E-02 a       543     0    28     1     3
 -8.3186952742108550E-02 a       544     0    28     1     4
  3.7894394513280034E-02 a       545     0    28     1     5
  8.5237229907068029E-02 a       546     0    28     1     6
 -3.6355649215482046E-02 a       547     0    28     1     7
 -5.5032304830595676E-03 a       548     0    28     1     8
 -2.5378185572469437E-02 a       549     0    28     1     9
  5.2165104773369227E-02 a       550     0    28     1    10
  4.5192573072912870E-02 a       551     0    28     1    11
 -7.2506297842640566E-02 a       552     0    28     1    12
 -1.4899990710032199E-03 a       553     0    28     1    13
  1.3322735377504361E-01 a       554     0    28     1    14
  3.8590147548527298E-02 a       555     0    28     1    15
  5.5363408267096743E-02 a       556     0    28     1    16
 -2.1414722270560838E-01 a       557     0    28     1    17
  1.4844340857090079E-02 a       558     0    28     1    18
  3.1580566429182409E-02 a       559     0    28     1    19
 -1.0845848799330322E-01 a       560     0    28     1    20
 -5.7752806262952303E-02 a       561     0    29     1     1
 -2.6357710513752158E-01 a       562     0    29     1     2
  1.2915423887503169E-01 a       563     0    29     1     3
 -4.1037749099183590E-02 a       564     0    29     1     4
 -4.0771668490377035E-02 a       565     0    29     1     5
 -2.0354693198351129E-01 a       566     0    29     1     6
  1.8253206794974042E-02 a       567     0    29     1     7
  1.0824323858936770E-01 a       568     0    29     1     8
 -1.3939357132932845E-01 a       569     0    29     1     9
  8.1051632995533127E-02 a       570     0    29     1    10
  3.7315409842169529E-02 a       571     0    29     1    11
 -1.0420222955626585E-01 a       572     0    29     1    12
 -1.5411309963382979E-02 a       573     0    29     1    13
  1.9158928618674584E-01 a       574     0    29     1    14
 -1.7662993780049624E-01 a       575     0    29     1    15
 -6.0035658165918541E-02 a       576     0    29     1    16
 -2.3478548637477906E-01 a       577     0    29     1    17
 -6.9891371879839881E-03 a       578     0    29     1    18
  2.0273545897940745E-01 a       579     0    29     1    19
  3.7105350605992682E-02 a       580     0    29     1    20
 -7.3926508013410525E-02 a       581     0    30     1     1
  5.1852200142801355E-02 a       582     0    30     1     2
 -2.4593462816572342E-01 a       583     0    30     1     3
 -2.4927293063442560E-02 a       584     0    30     1     4
 -2.7205497259398328E-02 a       585     0    30     1     5
  2.1585473606379282E-01 a       586     0    30     1     6
  1.2875856947871972E-01 a       587     0    30     1     7
 -1.7206608099257942E-01 a       588     0    30     1     8
 -7.3035288523440253E-02 a       589     0    30     1     9
  4.2419363850123570E-02 a       590     0    30     1    10
  3.3425018911521089E-02 a       591     0    30     1    11
 -5.0561806527785920E-02 a       592     0    30     1    12
 -1.1666598033101924E-01 a       593     0    30     1    13
 -2.1774582590756665E-03 a       594     0    30     1    14
  1.6434248600767140E-01 a       595     0    30     1    15
  3.3830527385336685E-02 a       596     0    30     1    16
 -1.8908273212233477E-02 a       597     0    30     1    17
 -9.9985222570341554E-03 a       598     0    30     1    18
 -3.5293919139022063E-03 a       599     0    30     1    19
  9.8974942203515891E-03 a       600     0    30     1    20
 -2.6570078798013031E-02 a       601     0    31     1     1
  9.0568988182449614E-02 a       602     0    31     1     2
 -1.6562359784041111E-01 a       603     0    31     1     3
 -1.2289886336753261E-01 a       604     0    31     1     4
 -4.6462467781656774E-02 a       605     0    31     1     5
 -1.1187994186152095E-01 a       606     0    31     1     6
 -9.0752136575950257E-02 a       607     0    31     1     7
  1.4270195418867995E-01 a       608     0    31     1     8
 -1.1635489419585379E-01 a       609     0    31     1     9
 -7.8125414504073454E-02 a       610     0    31     1    10
 -9.6913385286757345E-02 a       611     0    31     1    11
 -2.7931313953657329E-02 a       612     0    31     1    12
  2.2224234262859927E-02 a       613     0    31     1    13
 -7.9891076225035412E-02 a       614     0    31     1    14
  7.4492619885700826E-04 a       615     0    31     1    15
  3.7445498046072515E-02 a       616     0    31     1    16
  1.1637067267477595E-01 a       617     0    31     1    17
  1.3335012361101116E-02 a       618     0    31     1    18
 -1.9806421786310238E-01 a       619     0    31     1    19
  2.3347925924422536E-01 a       620     0    31     1    20
  1.6011354877784292E-02 a       621     0    32     1     1
  3.2071846724415549E-02 a       622     0    32     1     2
 -6.5775563365410489E-02 a       623     0    32     1     3
  7.0380975994389014E-02 a       624     0    32     1     4
 -4.7371840445497729E-03 a       625     0    32     1     5
  8.8323625569960762E-02 a       626     0    32     1     6
  4.0503131158432036E-02 a       627     0    32     1     7
 -9.4909011464427762E-02 a       628     0    32     1     8
  1.9357544633235976E-01 a       629     0    32     1     9
 -8.6386676995776832E-02 a       630     0    32     1    10
 -2.3037847833890499E-02 a       631     0    32     1    11
  2.0387101244930334E-02 a       632     0    32     1    12
 -3.7556941503716322E-02 a       633     0    32     1    13
 -7.3235831135953028E-02 a       634     0    32     1    14
  9.5784587757964681E-02 a       635     0    32     1    15
 -1.4888372168862038E-01 a       636     0    32     1    16
  1.3561907343436272E-01 a       637     0    32     1    17
  1.9228669823472332E-02 a       638     0    32     1    18
 -1.1857113919673949E-02 a       639     0    32     1    19
  4.3113405269545324E-02 a       640     0    32     1    20
 -1.9616024885353026E-02 a       641     0    33     1     1
  1.0701086346267683E-01 a       642     0    33     1     2
  8.5714194565945118E-02 a       643     0    33     1     3
 -1.9914407359117113E-02 a       644     0    33     1     4
  9.1147929937974631E-02 a       645     0    33     1     5
 -3.5709846237839543E-02 a       646     0    33     1     6
 -2.0019331697557050E-01 a       647     0    33     1     7
 -3.9452047791379181E-03 a       648     0    33     1     8
  1.4936224220919685E-02 a       649     0    33     1     9
 -1.4128150854545007E-01 a       650     0    33     1    10
 -1.3216231247727434E-01 a       651     0    33     1    11
  1.8311032867999885E-02 a       652     0    33     1    12
  6.4768139896466959E-02 a       653     0    33     1    13
 -2.1758551541355753E-01 a       654     0    33     1    14
  1.2337109834664578E-01 a       655     0    33     1    15
  6.8589158818970375E-02 a       656     0    33     1    16
  1.4444835802168737E-01 a       657     0    33     1    17
 -1.0365207133910445E-02 a       658     0    33     1    18
 -8.6904055811688308E-02 a       659     0    33     1    19
 -6.4437523833836705E-02 a       660     0    33     1    20
  1.2524407458825584E-01 a       661     0    34     1     1
  9.2698113305020965E-02 a       662     0    34     1     2
 -5.3708677509898536E-02 a       663     0    34     1     3
  6.8369721388664914E-02 a       664     0    34     1     4
  2.9567599924913614E-03 a       665     0    34     1     5
 -3.0981315113850289E-02 a       666     0    34     1     6
 -5.8975853356846193E-02 a       667     0    34     1     7
  1.8618308858223676E-02 a       668     0    34     1     8
  1.2039688639544938E-02 a       669     0    34     1     9
  4.3203388043763537E-02 a       670     0    34     1    10
  3.8604623973855327E-02 a       671     0    34     1    11
  1.5286641296219475E-01 a       672     0    34     1    12
  7.1667146976207866E-02 a       673     0    34     1    13
  5.7887540266458957E-03 a       674     0    34     1    14
 -9.8235665733370905E-02 a       675     0    34     1    15
 -6.3845378913192696E-02 a       676     0    34     1    16
  8.0890573095979745E-02 a       677     0    34     1    17
  5.0510202791474286E-02 a       678     0    34     1    18
 -1.9294934533638383E-02 a       679     0    34     1    19
 -4.1325733415887356E-02 a       680     0    34     1    20
  3.1334060778355904E-02 a       681     0    35     1     1
 -9.4537313176153659E-02 a       682     0    35     1     2
  4.8810163594808477E-02 a       683     0    35     1     3
  1.9099244621716818E-01 a       684     0    35     1     4
  3.3464357553304708E-02 a       685     0    35     1     5
  8.2748385946929001E-02 a       686     0    35     1     6
  8.3985001414779978E-02 a       687     0    35     1     7
 -8.4115939050482896E-02 a       688     0    35     1     8
 -7.6833974914625583E-02 a       689     0    35     1     9
  1.4194727487065989E-01 a       690     0    35     1    10
  6.0787067247883915E-02 a       691     0    35     1    11
 -2.7306429211773207E-02 a       692     0    35     1    12
 -1.0491573616904755E-02 a       693     0    35     1    13
 -5.1504489080192364E-03 a       694     0    35     1    14
 -8.8207895398923514E-02 a       695     0    35     1    15
 -7.4768464995410774E-02 a       696     0    35     1    16
 -3.7102244138609110E-02 a       697     0    35     1    17
  3.0182578859384271E-03 a       698     0    35     1    18
  1.8047788573860182E-01 a       699     0    35     1    19
 -1.3665411419781767E-01 a       700     0    35     1    20
  1.3325711613284943E-01 a       701     0    36     1     1
 -3.8466580444257770E-02 a       702     0    36     1     2
 -1.1536175574011287E-02 a       703     0    36     1     3
  8.2473673262699471E-03 a       704     0    36     1     4
 -1.6474087426462395E-02 a       705     0    36     1     5
 -1.1197575792058845E-01 a       706     0    36     1     6
  2.6572789477732794E-02 a       707     0    36     1     7
 -3.1592776208727298E-04 a       708     0    36     1     8
 -2.1583667808227253E-01 a       709     0    36     1     9
  1.2255939059349441E-01 a       710     0    36     1    10
  8.8631572996548946E-02 a       711     0    36     1    11
  1.2942381592384605E-01 a       712     0    36     1    12
  2.5460485059608105E-02 a       713     0    36     1    13
  1.0871317163137705E-01 a       714     0    36     1    14
 -1.1056786426031269E-01 a       715     0    36     1    15
  1.4784329648162842E-01 a       716     0    36     1    16
 -5.0645937355188811E-02 a       717     0    36     1    17
 -2.1053804035290533E-02 a       718     0    36     1    18
  2.7571712857802050E-02 a       719     0    36     1    19
 -9.1700157500917173E-02 a       720     0    36     1    20
 -7.3879663105091350E-02 a       721     0    37     1     1
 -1.2660063248547454E-01 a       722     0    37     1     2
 -1.4034813047232536E-01 a       723     0    37     1     3
  3.1215062615151130E-02 a       724     0    37     1     4
 -2.7554041825356687E-02 a       725     0    37     1     5
 -1.0276910807659630E-02 a       726     0    37     1     6
  4.9180685019273404E-02 a       727     0    37     1     7
  3.7617992532388567E-02 a       728     0    37     1     8
 -1.1956051992133568E-01 a       729     0    37     1     9
  1.2487574889251427E-01 a       730     0    37     1    10
 -2.0370343569081437E-02 a       731     0    37     1    11
 -2.2258713081861867E-01 a       732     0    37     1    12
 -7.7317127006834348E-03 a       733     0    37     1    13
 -3.7456383233473937E-02 a       734     0    37     1    14
 -1.2189460817998370E-01 a       735     0    37     1    15
 -9.1230067827037726E-04 a       736     0    37     1    16
 -5.4277154932046798E-03 a       737     0    37     1    17
 -1.7207209404602124E-02 a       738     0    37     1    18
  9.0388906196548005E-02 a       739     0    37     1    19
  7.3454712636393651E-02 a       740     0    37     1    20
 -2.9584516021524076E-02 a       741     0    38     1     1
 -2.4726539149370473E-02 a       742     0    38     1     2
 -8.4156471186002363E-02 a       743     0    38     1     3
 -2.9239152098741034E-03 a       744     0    38     1     4
 -2.4084407131683572E-03 a       745     0    38     1     5
  1.2544442853103979E-01 a       746     0    38     1     6
  1.2748297983314375E-02 a       747     0    38     1     7
 -1.0930789320807920E-01 a       748     0    38     1     8
  1.8695398984531989E-02 a       749     0    38     1     9
  5.3560580615443082E-03 a       750     0    38     1    10
 -1.7897026564490003E-02 a       751     0    38     1    11
 -3.8995314237686894E-02 a       752     0    38     1    12
 -6.8365823717575824E-02 a       753     0    38     1    13
  1.5332512355852463E-02 a       754     0    38     1    14
  2.9190716689780658E-02 a       755     0    38     1    15
 -1.9769042781956378E-03 a       756     0    38     1    16
 -2.5534250265127446E-02 a       757     0    38     1    17
 -5.3594632678719119E-02 a       758     0    38     1    18
  3.2187915374187623E-02 a       759     0    38     1    19
  2.1719567643794232E-02 a       760     0    38     1    20
 -4.9103152576215933E-02 a       761     0    39     1     1
 -1.0119472791348147E-01 a       762     0    39     1     2
  4.2500118542616656E-02 a       763     0    39     1     3
 -1.0449939117060644E-01 a       764     0    39     1     4
 -1.2922071807447614E-02 a       765     0    39     1     5
 -1.6763662885226827E-01 a       766     0    39     1     6
 -9.8904398968757939E-02 a       767     0    39     1     7
  2.7645270119261708E-02 a       768     0    39     1     8
  8.0358118511281024E-02 a       769     0    39     1     9
 -6.3772325230083401E-02 a       770     0    39     1    10
 -5.9054688368404093E-02 a       771     0    39     1    11
 -4.4468939077467767E-02 a       772     0    39     1    12
  2.0586537795607575E-02 a       773     0    39     1    13
 -6.6588823121608312E-02 a       774     0    39     1    14
  5.0273700351775613E-02 a       775     0    39     1    15
 -8.5282192814673159E-04 a       776     0    39     1    16
 -1.1521748419607191E-02 a       777     0    39     1    17
 -3.8306291009183840E-02 a       778     0    39     1    18
 -8.8283174102524842E-02 a       779     0    39     1    19
  5.0262142170706840E-02 a       780     0    39     1    20
 -3.9001938442349629E-02 a       781     0    40     1     1
  9.0744126167433992E-02 a       782     0    40     1     2
 -3.7358660477285671E-02 a       783     0    40     1     3
  9.2680281177843327E-02 a       784     0    40     1     4
  4.9571325475785508E-02 a       785     0    40     1     5
  1.3449985270390280E-01 a       786     0    40     1     6
 -4.3665456106512450E-02 a       787     0    40     1     7
 -3.9385039087513916E-02 a       788     0    40     1     8
 -6.5810309177355541E-03 a       789     0    40     1     9
 -4.7727558372624226E-02 a       790     0    40     1    10
 -2.1518119705948201E-02 a       791     0    40     1    11
 -3.8667411318274107E-02 a       792     0    40     1    12
 -2.5304250365081739E-02 a       793     0    40     1    13
 -2.3835201185142826E-04 a       794     0    40     1    14
  3.7459740827760754E-02 a       795     0    40     1    15
  5.3300955733250180E-02 a       796     0    40     1    16
  2.9751628566481468E-02 a       797     0    40     1    17
  1.9735263898082871E-02 a       798     0    40     1    18
  1.1116050240324062E-02 a       799     0    40     1    19
  2.6773277322128811E-02 a       800     0    40     1    20
 -6.0520288665335087E-01 a       801     0    41     1     1
 -4.5199691607400776E-02 a       802     0    41     1     2
 -2.3614221625260411E-02 a       803     0    41     1     3
 -3.8627629143358277E-01 a       804     0    41     1     4
 -2.9703244731178458E-01 a       805     0    41     1     5
  2.9505100116948108E-01 a       806     0    41     1     6
  2.8019825616239347E-01 a       807     0    41     1     7
  1.1652819658754909E-01 a       808     0    41     1     8
 -4.4445337877866137E-01 a       809     0    41     1     9
 -1.7836353169090668E-02 a       810     0    41     1    10
 -9.8383059520519109E-02 a       811     0    41     1    11
  1.9160368820393106E-01 a       812     0    41     1    12
  4.9129570567464094E-02 a       813     0    41     1    13
  1.7625087530272468E-01 a       814     0    41     1    14
 -5.7628979898768057E-02 a       815     0    41     1    15
 -1.6495539497053549E-01 a       816     0    41     1    16
  2.4995791902229977E-01 a       817     0    41     1    17
 -3.6121197134238986E-01 a       818     0    41     1    18
  1.6411654556531572E-02 a       819     0    41     1    19
  3.7469418165983384E-02 a       820     0    41     1    20
  3.2687926382974325E-01 a       821     0    42     1     1
 -2.8033262551447663E-01 a       822     0    42     1     2
 -4.2549491777504789E-01 a       823     0    42     1     3
  1.1147028366151897E-01 a       824     0    42     1     4
  3.1714658122854616E-01 a       825     0    42     1     5
  2.2155244096759075E-01 a       826     0    42     1     6
 -2.3869210852774250E-01 a       827     0    42     1     7
 -5.3374167214843982E-01 a       828     0    42     1     8
 -2.2354000612928110E-01 a       829     0    42     1     9
 -2.6798284235528558E-01 a       830     0    42     1    10
  1.8555428310399899E-01 a       831     0    42     1    11
 -5.0305367751469203E-02 a       832     0    42     1    12
 -3.5249613266957064E-01 a       833     0    42     1    13
 -4.3394139570385265E-02 a       834     0    42     1    14
  1.5782423694263004E-01 a       835     0    42     1    15
 -7.9163289184165223E-02 a       836     0    42     1    16
 -1.6432731111675555E-01 a       837     0    42     1    17
 -7.6735714899157800E-02 a       838     0    42     1    18
  5.8962946788659133E-02 a       839     0    42     1    19
 -1.0895879362647479E-01 a       840     0    42     1    20
  8.6473522429021468E-02 a       841     0    43     1     1
 -1.5586380228746199E-01 a       842     0    43     1     2
 -2.0416415174254454E-01 a       843     0    43     1     3
 -2.3336255398438012E-02 a       844     0    43     1     4
  3.2970020846209647E-02 a       845     0    43     1     5
 -1.6334364594558501E-01 a       846     0    43     1     6
 -1.2001283512204397E-01 a       847     0    43     1     7
  1.5034793533596403E-02 a       848     0    43     1     8
 -3.5508131860935970E-03 a       849     0    43     1     9
  3.1253579925350089E-01 a       850     0    43     1    10
  3.2518106138505026E-01 a       851     0    43     1    11
 -1.0088110508798209E-01 a       852     0    43     1    12
  1.7149311587478169E-01 a       853     0    43     1    13
  1.3122597034436206E-01 a       854     0    43     1    14
  3.1902277404976442E-01 a       855     0    43     1    15
 -5.5607535340222655E-02 a       856     0    43     1    16
  2.3793159210833401E-01 a       857     0    43     1    17
  1.8814634220112089E-01 a       858     0    43     1    18
 -2.4562152499705878E-01 a       859     0    43     1    19
  2.9048446305293376E-02 a       860     0    43     1    20
  9.2486530458126950E-02 a       861     0    44     1     1
  2.4190915374243623E-02 a       862     0    44     1     2
 -1.1737277347280912E-01 a       863     0    44     1     3
  4.8284851156046645E-02 a       864     0    44     1     4
 -3.5448133848185640E-02 a       865     0    44     1     5
  1.3339505971515289E-01 a       866     0    44     1     6
  1.2579537270263147E-01 a       867     0    44     1     7
 -5.5338519150185880E-02 a       868     0    44     1     8
 -4.5006152951840392E-02 a       869     0    44     1     9
  1.7855086697781961E-01 a       870     0    44     1    10
  1.9310180523526824E-01 a       871     0    44     1    11
 -5.8911855577799488E-02 a       872     0    44     1    12
 -7.6439478256933903E-04 a       873     0    44     1    13
 -1.3935851532431834E-01 a       874     0    44     1    14
 -4.6177364290167486E-02 a       875     0    44     1    15
  1.1007254640566291E-01 a       876     0    44     1    16
 -7.9305241506945567E-02 a       877     0    44     1    17
 -9.0574078012437102E-03 a       878     0    44     1    18
 -1.8977084745398048E-01 a       879     0    44     1    19
 -1.1545246694881399E-01 a       880     0    44     1    20
  1.0219791096118441E-01 a       881     0    45     1     1
  2.5232908759168998E-01 a       882     0    45     1     2
  2.3240590919302356E-01 a       883     0    45     1     3
  1.5278598328954870E-01 a       884     0    45     1     4
 -2.5568753981757875E-01 a       885     0    45     1     5
 -4.6735689434027686E-02 a       886     0    45     1     6
 -4.0053898348678250E-02 a       887     0    45     1     7
  2.4811177689925237E-01 a       888     0    45     1     8
 -3.2259813763503356E-02 a       889     0    45     1     9
 -5.7333423336343822E-02 a       890     0    45     1    10
 -2.6219631803885296E-01 a       891     0    45     1    11
 -1.5785172750550727E-01 a       892     0    45     1    12
  6.8175770441476144E-02 a       893     0    45     1    13
  2.1864652401865528E-01 a       894     0    45     1    14
  1.6659866187827588E-01 a       895     0    45     1    15
 -2.8984771122820158E-01 a       896     0    45     1    16
  1.9533516010244717E-01 a       897     0    45     1    17
  2.6724396221899108E-02 a       898     0    45     1    18
 -4.6704473571222926E-02 a       899     0    45     1    19
 -1.5205390374990627E-01 a       900     0    45     1    20
  1.1937419352131014E-01 a       901     0    46     1     1
  1.2738035323137692E-01 a       902     0    46     1     2
 -2.6705159177131503E-02 a       903     0    46     1     3
 -4.4598160071447054E-04 a       904     0    46     1     4
 -4.7970876634898255E-02 a       905     0    46     1     5
 -6.7141289455657449E-02 a       906     0    46     1     6
  1.2063646322870000E-01 a       907     0    46     1     7
 -3.8616512950240848E-03 a       908     0    46     1     8
 -7.4595854315963273E-02 a       909     0    46     1     9
  8.7085981931620069E-03 a       910     0    46     1    10
 -1.5288210893634327E-01 a       911     0    46     1    11
 -8.8786976123438735E-02 a       912     0    46     1    12
 -4.5781625782721776E-02 a       913     0    46     1    13
  4.4264855299625885E-02 a       914     0    46     1    14
  2.8182803478660243E-02 a       915     0    46     1    15
  1.8673921793828321E-01 a       916     0    46     1    16
 -1.0683720961286049E-01 a       917     0    46     1    17
 -2.2817763088801766E-02 a       918     0    46     1    18
  5.0099218972834581E-03 a       919     0    46     1    19
 -1.8599152524887086E-01 a       920     0    46     1    20
  1.2273007011963298E-01 a       921     0    47     1     1
  1.1097765698044337E-01 a       922     0    47     1     2
 -6.8665668662269599E-02 a       923     0    47     1     3
  5.1855275551656664E-02 a       924     0    47     1     4
 -8.0474033675519266E-02 a       925     0    47     1     5
 -9.1876282976699641E-02 a       926     0    47     1     6
 -1.6956464848266192E-01 a       927     0    47     1     7
 -5.8482725729451575E-02 a       928     0    47     1     8
 -1.5371920995158744E-01 a       929     0    47     1     9
  1.2628066450887669E-03 a       930     0    47     1    10
 -5.3626175215576470E-03 a       931     0    47     1    11
  1.1316902999350405E-01 a       932     0    47     1    12
  2.2573143312015424E-02 a       933     0    47     1    13
  7.6232028583524777E-02 a       934     0    47     1    14
  1.2717078029701403E-02 a       935     0    47     1    15
  1.7027322502514594E-01 a       936     0    47     1    16
  6.6845364322073136E-02 a       937     0    47     1    17
  1.3777121130866682E-03 a       938     0    47     1    18
 -2.0857392117658594E-01 a       939     0    47     1    19
 -4.3908081413676234E-02 a       940     0    47     1    20
 -1.1917864677868938E-01 a       941     0    48     1     1
 -6.4786457390299285E-02 a       942     0    48     1     2
 -7.6549333967861760E-02 a       943     0    48     1     3
  3.4078482688109698E-03 a       944     0    48     1     4
  8.3639584878672193E-02 a       945     0    48     1     5
  1.1540032742512507E-01 a       946     0    48     1     6
 -1.9056064606301221E-01 a       947     0    48     1     7
 -8.4237108856106482E-02 a       948     0    48     1     8
 -1.1992582869805088E-01 a       949     0    48     1     9
  2.3179213561386525E-01 a       950     0    48     1    10
  6.6968555934704285E-02 a       951     0    48     1    11
  4.9754832180663205E-02 a       952     0    48     1    12
 -5.1132684650353651E-02 a       953     0    48     1    13
  2.2150542440304240E-02 a       954     0    48     1    14
 -9.9670843290531608E-02 a       955     0    48     1    15
 -4.6565412364412438E-02 a       956     0    48     1    16
 -6.9323314038986991E-02 a       957     0    48     1    17
 -9.9048785559112187E-02 a       958     0    48     1    18
  2.4789321743994112E-02 a       959     0    48     1    19
  1.3829007188952097E-01 a       960     0    48     1    20
  1.5517899124445023E-01 a       961     0    49     1     1
 -1.8900657038140749E-02 a       962     0    49     1     2
 -1.9412543351509787E-02 a       963     0    49     1     3
 -1.5194108778700435E-01 a       964     0    49     1     4
  6.2098385076566787E-02 a       965     0    49     1     5
  8.9303537160548216E-02 a       966     0    49     1     6
  3.1751915831340297E-03 a       967     0    49     1     7
  7.7993569533041124E-02 a       968     0    49     1     8
  3.1616213910692220E-02 a       969     0    49     1     9
  4.9918020888446012E-02 a       970     0    49     1    10
  1.8088528076073567E-02 a       971     0    49     1    11
 -1.4721078213759509E-01 a       972     0    49     1    12
  7.3567590604765795E-02 a       973     0    49     1    13
 -7.1090722829101997E-03 a       974     0    49     1    14
 -3.1328322521972998E-02 a       975     0    49     1    15
 -2.5876099130856595E-01 a       976     0    49     1    16
 -1.2839274911536205E-01 a       977     0    49     1    17
 -5.6430890310049326E-03 a       978     0    49     1    18
 -1.5343856845235052E-01 a       979     0    49     1    19
 -6.9292474626153649E-02 a       980     0    49     1    20
 -2.5673318774966973E-02 a       981     0    50     1     1
 -5.7272560030772239E-02 a       982     0    50     1     2
 -3.7711451710640075E-02 a       983     0    50     1     3
 -5.6882656855038495E-02 a       984     0    50     1     4
 -1.0784070607692818E-02 a       985     0    50     1     5
 -1.4945153996697591E-01 a       986     0    50     1     6
  8.5267661831898975E-02 a       987     0    50     1     7
 -1.6472074757582328E-01 a       988     0    50     1     8
 -8.9386032507424232E-02 a       989     0    50     1     9
 -7.3269370222220326E-02 a       990     0    50     1    10
 -1.7194035735330607E-01 a       991     0    50     1    11
  8.4597009280325021E-03 a       992     0    50     1    12
 -1.4190831167967488E-01 a       993     0    50     1    13
 -9.8363431861485107E-02 a       994     0    50     1    14
  2.4402846607707206E-02 a       995     0    50     1    15
 -1.9131340956179463E-01 a       996     0    50     1    16
  3.5446379390012432E-02 a       997     0    50     1    17
 -1.4300594131894218E-01 a       998     0    50     1    18
  1.4744133046220845E-01 a       999     0    50     1    19
 -3.8781729687735909E-03 a      1000     0    50     1    20
 -9.8186761071913431E-02 a      1001     0    51     1     1
  8.2855097618354565E-02 a      1002     0    51     1     2
 -2.5526562892334320E-02 a      1003     0    51     1     3
 -4.8907233606751033E-02 a      1004     0    51     1     4
  2.5677223023100298E-01 a      1005     0    51     1     5
  1.2665020266933752E-01 a      1006     0    51     1     6
  6.2789183879539037E-02 a      1007     0    51     1     7
 -4.1408420736137314E-01 a      1008     0    51     1     8
  2.0912600629917646E-01 a      1009     0    51     1     9
  2.1585646291963448E-01 a      1010     0    51     1    10
  2.4073181221551548E-01 a      1011     0    51     1    11
 -2.0176783920958505E-01 a      1012     0    51     1    12
 -4.3300860928395801E-02 a      1013     0    51     1    13
 -7.2106538191198791E-02 a      1014     0    51     1    14
 -2.3585515688592981E-01 a      1015     0    51     1    15
 -4.9218185149129866E-02 a      1016     0    51     1    16
  2.9317036697725469E-02 a      1017     0    51     1    17
 -6.1112966992499566E-02 a      1018     0    51     1    18
 -5.1835247346457454E-02 a      1019     0    51     1    19
  1.3905761257067031E-01 a      1020     0    51     1    20
 -1.4944416038249669E-01 a      1021     0    52     1     1
  4.5014568724528782E-02 a      1022     0    52     1     2
  2.5945359225272770E-02 a      1023     0    52     1     3
  1.7173793879719651E-01 a      1024     0    52     1     4
 -3.1356894163631244E-01 a      1025     0    52     1     5
 -1.7198236520586793E-01 a      1026     0    52     1     6
 -3.2172581889344999E-02 a      1027     0    52     1     7
  8.0132251171766611E-01 a      1028     0    52     1     8
  7.1752606060376085E-04 a      1029     0    52     1     9
 -6.1927710867592911E-02 a      1030     0    52     1    10
 -3.4388595249872622E-01 a      1031     0    52     1    11
  3.7437957211781009E-01 a      1032     0    52     1    12
 -4.2423780626866231E-01 a      1033     0    52     1    13
 -1.1906383356676331E-01 a      1034     0    52     1    14
  3.3241348821661248E-01 a      1035     0    52     1    15
 -1.1182153091454865E-01 a      1036     0    52     1    16
 -3.4163504838719855E-02 a      1037     0    52     1    17
  1.3762859236709152E-01 a      1038     0    52     1    18
  7.5011236874432050E-02 a      1039     0    52     1    19
 -5.2729361624500859E-01 a      1040     0    52     1    20
 -3.8482303676078675E-02 a      1041     0    53     1     1
  1.1191398815480014E-01 a      1042     0    53     1     2
  1.1014783540941073E-01 a      1043     0    53     1     3
 -5.8067751455167405E-02 a      1044     0    53     1     4
  1.0409315711711949E-01 a      1045     0    53     1     5
  8.7415881507998505E-02 a      1046     0    53     1     6
 -9.7295377473159056E-02 a      1047     0    53     1     7
 -1.1623522256350129E-02 a      1048     0    53     1     8
  6.7675770573409719E-02 a      1049     0    53     1     9
 -7.6279266346103644E-02 a      1050     0    53     1    10
 -9.5363669301792645E-02 a      1051     0    53     1    11
 -1.8853117528397408E-03 a      1052     0    53     1    12
  7.4324600507594072E-03 a      1053     0    53     1    13
 -5.6312156606310976E-02 a      1054     0    53     1    14
 -1.4885602208822477E-01 a      1055     0    53     1    15
 -4.5680069519685486E-02 a      1056     0    53     1    16
 -1.9287046782442069E-01 a      1057     0    53     1    17
 -1.1516225519957166E-01 a      1058     0    53     1    18
 -1.6806295303345820E-02 a      1059     0    53     1    19
  1.2515273869967128E-01 a      1060     0    53     1    20
  5.8769865091048416E-02 a      1061     0    54     1     1
  3.8579381663959314E-02 a      1062     0    54     1     2
 -1.8783771190536822E-01 a      1063     0    54     1     3
  1.0189402616239024E-01 a      1064     0    54     1     4
  9.8149536834271314E-02 a      1065     0    54     1     5
 -1.6583611543767990E-01 a      1066     0    54     1     6
 -2.7455285042969631E-02 a      1067     0    54     1     7
  1.5718445379145951E-01 a      1068     0    54     1     8
 -1.9762370273348484E-01 a      1069     0    54     1     9
 -1.7663032382963955E-03 a      1070     0    54     1    10
 -1.2976774050725878E-01 a      1071     0    54     1    11
  1.3102866890409784E-01 a      1072     0    54     1    12
 -4.0068504270367421E-02 a      1073     0    54     1    13
  1.3517737930928958E-01 a      1074     0    54     1    14
 -1.1781894575504144E-01 a      1075     0    54     1    15
 -1.2370323704894705E-01 a      1076     0    54     1    16
 -6.5003236665551925E-02 a      1077     0    54     1    17
 -1.1984189017155904E-01 a      1078     0    54     1    18
  2.3404863972609724E-01 a      1079     0    54     1    19
  1.2223117850980865E-01 a      1080     0    54     1    20
 -1.3049213915611754E-02 a      1081     0    55     1     1
 -2.1631584913594035E-01 a      1082     0    55     1     2
  1.4779415175697752E-01 a      1083     0    55     1     3
 -2.3549697107431414E-01 a      1084     0    55     1     4
  2.6655720532095117E-01 a      1085     0    55     1     5
 -1.5206431922564717E-01 a      1086     0    55     1     6
  5.9181435281694408E-02 a      1087     0    55     1     7
 -1.7156217279414987E-01 a      1088     0    55     1     8
  1.8075627385449261E-01 a      1089     0    55     1     9
  2.6080058321853383E-01 a      1090     0    55     1    10
  6.9270253061223502E-02 a      1091     0    55     1    11
  1.3665004135215178E-01 a      1092     0    55     1    12
  3.9214762996315722E-01 a      1093     0    55     1    13
  5.6404830625374353E-02 a      1094     0    55     1    14
 -2.7234956212691958E-01 a      1095     0    55     1    15
 -8.9328385233102506E-02 a      1096     0    55     1    16
  5.5559436572329271E-02 a      1097     0    55     1    17
  8.4965498221153471E-02 a      1098     0    55     1    18
 -9.4519286764000135E-02 a      1099     0    55     1    19
  2.3884441355602498E-01 a      1100     0    55     1    20
 -3.0585256959587387E-01 a      1101     0    56     1     1
  1.2175746806082008E-01 a      1102     0    56     1     2
 -2.9085068859954481E-02 a      1103     0    56     1     3
 -1.8765273797395055E-02 a      1104     0    56     1     4
 -7.7305977262370054E-02 a      1105     0    56     1     5
  2.5814555068978288E-02 a      1106     0    56     1     6
  1.4718246326341666E-01 a      1107     0    56     1     7
 -1.0817170226874204E-02 a      1108     0    56     1     8
 -7.5191646168979998E-02 a      1109     0    56     1     9
  1.8198626613066105E-01 a      1110     0    56     1    10
  5.3632933240425285E-02 a      1111     0    56     1    11
 -4.8264230048128839E-02 a      1112     0    56     1    12
 -1.6372409909457441E-02 a      1113     0    56     1    13
 -1.6781843937920985E-02 a      1114     0    56     1    14
  8.2405846855981277E-02 a      1115     0    56     1    15
  1.2891675744683057E-01 a      1116     0    56     1    16
 -9.8336300080014372E-02 a      1117     0    56     1    17
  1.0438534313269836E-01 a      1118     0    56     1    18
 -1.2640823938107004E-01 a      1119     0    56     1    19
  9.9167198152287320E-02 a      1120     0    56     1    20
  2.2182217803389165E-02 a      1121     0    57     1     1
 -5.3213200642497913E-03 a      1122     0    57     1     2
  1.5396429971781919E-01 a      1123     0    57     1     3
  1.3217548924490678E-02 a      1124     0    57     1     4
  1.6504074480902930E-01 a      1125     0    57     1     5
  8.4046787050808591E-02 a      1126     0    57     1     6
  1.0023801023414951E-01 a      1127     0    57     1     7
  1.1460439624920707E-01 a      1128     0    57     1     8
  4.9071192353179777E-02 a      1129     0    57     1     9
 -1.7229628897613675E-02 a      1130     0    57     1    10
 -3.7883903206782012E-02 a      1131     0    57     1    11
 -2.3349164854879023E-03 a      1132     0    57     1    12
  2.2129135783209145E-02 a      1133     0    57     1    13
  2.4500933908641134E-01 a      1134     0    57     1    14
 -1.0052932922519849E-01 a      1135     0    57     1    15
 -1.6559068912738323E-01 a      1136     0    57     1    16
  3.3428382749852305E-02 a      1137     0    57     1    17
  6.1615624286850926E-02 a      1138     0    57     1    18
  1.7602267250619644E-01 a      1139     0    57     1    19
  6.1540403590717004E-02 a      1140     0    57     1    20
  4.1174790924881459E-02 a      1141     0    58     1     1
  9.4993672775211493E-02 a      1142     0    58     1     2
 -1.6630365800943830E-01 a      1143     0    58     1     3
 -6.0978860954573777E-02 a      1144     0    58     1     4
 -9.9258205407389399E-03 a      1145     0    58     1     5
 -1.0499518914536053E-01 a      1146     0    58     1     6
  1.8938174220983284E-01 a      1147     0    58     1     7
  8.0821401298071055E-02 a      1148     0    58     1     8
 -2.0477135408393087E-02 a      1149     0    58     1     9
 -3.7786582798409248E-02 a      1150     0    58     1    10
 -1.3324774604015956E-02 a      1151     0    58     1    11
 -1.2281596329271728E-02 a      1152     0    58     1    12
  7.4292211894677010E-02 a      1153     0    58     1    13
  1.4774339504375603E-02 a      1154     0    58     1    14
 -1.1775951403987486E-02 a      1155     0    58     1    15
 -2.1571942874738376E-01 a      1156     0    58     1    16
 -8.4993215761659691E-02 a      1157     0    58     1    17
  1.1038173615915384E-01 a      1158     0    58     1    18
  3.9837751259709293E-02 a      1159     0    58     1    19
 -4.6950918098664675E-02 a      1160     0    58     1    20
 -1.9789836697095364E-01 a      1161     0    59     1     1
  4.9709263183089762E-02 a      1162     0    59     1     2
 -1.4659758637904519E-01 a      1163     0    59     1     3
  3.2718613564078119E-01 a      1164     0    59     1     4
 -2.0411848954382372E-01 a      1165     0    59     1     5
 -1.0690665391059653E-01 a      1166     0    59     1     6
  2.5177071905812753E-02 a      1167     0    59     1     7
 -1.3395442519200648E-01 a      1168     0    59     1     8
  4.2725691587534129E-02 a      1169     0    59     1     9
  7.1248020057751230E-02 a      1170     0    59     1    10
 -1.5023949693547397E-02 a      1171     0    59     1    11
  7.8518426248894838E-02 a      1172     0    59     1    12
 -1.6182902008966568E-01 a      1173     0    59     1    13
  2.2365400986220016E-02 a      1174     0    59     1    14
 -5.1183952222485077E-02 a      1175     0    59     1    15
  4.6212917929400542E-02 a      1176     0    59     1    16
  1.3176102703959516E-01 a      1177     0    59     1    17
  3.5030620006733744E-02 a      1178     0    59     1    18
  8.1996196219461082E-02 a      1179     0    59     1    19
  1.6619190886847046E-01 a      1180     0    59     1    20
 -1.4014203528790206E-01 a      1181     0    60     1     1
 -9.5714853723020979E-02 a      1182     0    60     1     2
  1.1663697357063610E-01 a      1183     0    60     1     3
 -3.1677019359277032E-02 a      1184     0    60     1     4
  2.3754735585130443E-02 a      1185     0    60     1     5
  8.1810604711844911E-02 a      1186     0    60     1     6
 -2.3704907165940486E-01 a      1187     0    60     1     7
 -7.8825994203784774E-03 a      1188     0    60     1     8
  3.3613288152955244E-02 a      1189     0    60     1     9
  1.1694735244133324E-01 a      1190     0    60     1    10
  1.2413807347712538E-01 a      1191     0    60     1    11
  4.6146582108866817E-02 a      1192     0    60     1    12
  1.3806681237855270E-01 a      1193     0    60     1    13
  9.0331063753644122E-02 a      1194     0    60     1    14
  2.8158445574449908E-02 a      1195     0    60     1    15
  9.9823729299487643E-02 a      1196     0    60     1    16
  1.0178496649956875E-01 a      1197     0    60     1    17
 -3.6509059583156998E-02 a      1198     0    60     1    18
  4.4385955132221953E-02 a      1199     0    60     1    19
  1.1772733366954102E-01 a      1200     0    60     1    20
  6.8321805981725311E-02 a      1201     0    61     1     1
  2.1843099087971671E-01 a      1202     0    61     1     2
  2.7278096052583089E-02 a      1203     0    61     1     3
  7.9161118561926563E-02 a      1204     0    61     1     4
 -4.1120931935925378E-02 a      1205     0    61     1     5
 -3.3028270039929621E-02 a      1206     0    61     1     6
  8.1594974131311365E-02 a      1207     0    61     1     7
  2.3119764875424825E-01 a      1208     0    61     1     8
  5.5082950513953934E-02 a      1209     0    61     1     9
  1.0727212567758578E-01 a      1210     0    61     1    10
 -5.5958745450861623E-02 a      1211     0    61     1    11
  9.3816047267323177E-02 a      1212     0    61     1    12
  3.1115911497284282E-01 a      1213     0    61     1    13
 -2.2934882972068704E-01 a      1214     0    61     1    14
 -9.9150117397441753E-03 a      1215     0    61     1    15
 -2.3700191246753730E-01 a      1216     0    61     1    16
 -8.8509609694619878E-02 a      1217     0    61     1    17
  2.2485684818423843E-01 a      1218     0    61     1    18
 -2.0538040191627113E-01 a      1219     0    61     1    19
  1.6609295154551568E-01 a      1220     0    61     1    20
 -1.5206607286098664E-01 a      1221     0    62     1     1
  8.9266627094187229E-02 a      1222     0    62     1     2
 -4.3943641333113792E-01 a      1223     0    62     1     3
 -3.9890139610091788E-02 a      1224     0    62     1     4
 -1.4423793518928477E-01 a      1225     0    62     1     5
  2.7661527683788090E-02 a      1226     0    62     1     6
 -3.5955586677053847E-01 a      1227     0    62     1     7
  1.4924293876180547E-01 a      1228     0    62     1     8
 -6.3880275775509754E-02 a      1229     0    62     1     9
  9.9352486607353838E-02 a      1230     0    62     1    10
  3.0778410378081217E-01 a      1231     0    62     1    11
 -2.6636173635626082E-02 a      1232     0    62     1    12
 -2.7531977718168116E-01 a      1233     0    62     1    13
 -1.2548436746590824E-01 a      1234     0    62     1    14
  1.4598957104024718E-01 a      1235     0    62     1    15
  3.8319040380741820E-01 a      1236     0    62     1    16
 -7.5332602532559509E-02 a      1237     0    62     1    17
  2.0327665205190146E-01 a      1238     0    62     1    18
 -1.4519362202071101E-01 a      1239     0    62     1    19
 -2.5602749778794565E-01 a      1240     0    62     1    20
  2.8333680254522080E-02 a      1241     0    63     1     1
  1.6402684772334825E-01 a      1242     0    63     1     2
  1.9084615813387006E-02 a      1243     0    63     1     3
  7.8286430956225634E-03 a      1244     0    63     1     4
  9.5769039601602074E-02 a      1245     0    63     1     5
  5.7951861259795553E-02 a      1246     0    63     1     6
  6.5773528026034964E-02 a      1247     0    63     1     7
  7.2678515828802123E-02 a      1248     0    63     1     8
 -3.5742131280752171E-01 a      1249     0    63     1     9
 -8.2986899217584481E-02 a      1250     0    63     1    10
 -1.2240060700398686E-01 a      1251     0    63     1    11
 -4.8722299356719741E-02 a      1252     0    63     1    12
  6.7840967898126353E-02 a      1253     0    63     1    13
 -1.9611354123448227E-01 a      1254     0    63     1    14
 -1.3552658331615111E-01 a      1255     0    63     1    15
 -3.4530824453439340E-01 a      1256     0    63     1    16
 -2.2055362410833909E-01 a      1257     0    63     1    17
  1.1486389452275633E-02 a      1258     0    63     1    18
 -2.1254250075085555E-02 a      1259     0    63     1    19
  1.3254705365445807E-01 a      1260     0    63     1    20
  3.4052764770772855E-02 a      1261     0    64     1     1
 -3.9642164229858272E-02 a      1262     0    64     1     2
 -7.1862887875934436E-02 a      1263     0    64     1     3
  4.5239151363434739E-02 a      1264     0    64     1     4
  5.1481269618922722E-02 a      1265     0    64     1     5
 -6.6131545746697332E-03 a      1266     0    64     1     6
 -1.5543539516743918E-01 a      1267     0    64     1     7
 -1.1476397450629697E-01 a      1268     0    64     1     8
 -1.5588043812514413E-01 a      1269     0    64     1     9
  1.1735778450902659E-02 a      1270     0    64     1    10
  5.6273678304708107E-02 a      1271     0    64     1    11
  1.2151549031770853E-01 a      1272     0    64     1    12
 -3.0921278082309555E-02 a      1273     0    64     1    13
 -5.0899459399933865E-02 a      1274     0    64     1    14
 -1.0230451241276507E-01 a      1275     0    64     1    15
 -3.2791634708141476E-02 a      1276     0    64     1    16
  2.3892473186980767E-01 a      1277     0    64     1    17
 -1.6439531650214012E-01 a      1278     0    64     1    18
  7.3040724171042001E-02 a      1279     0    64     1    19
 -1.3585903213674344E-01 a      1280     0    64     1    20
 -5.2308518592283026E-02 a      1281     0    65     1     1
 -7.7705016937256538E-02 a      1282     0    65     1     2
  1.3979343527122853E-01 a      1283     0    65     1     3
 -1.8990050408322944E-03 a      1284     0    65     1     4
  1.0056453277005523E-01 a      1285     0    65     1     5
 -1.0595537770814021E-02 a      1286     0    65     1     6
  4.8326894921059363E-02 a      1287     0    65     1     7
 -6.9795970577513893E-03 a      1288     0    65     1     8
  1.0319621653561654E-01 a      1289     0    65     1     9
  8.8229908502102883E-02 a      1290     0    65     1    10
 -8.3726663394440987E-03 a      1291     0    65     1    11
  3.9419161799721540E-02 a      1292     0    65     1    12
  1.2970059092738281E-01 a      1293     0    65     1    13
  1.6277858438189266E-01 a      1294     0    65     1    14
 -1.8007562705653782E-01 a      1295     0    65     1    15
  1.4270622026700671E-02 a      1296     0    65     1    16
 -3.1392379065499972E-02 a      1297     0    65     1    17
 -6.8812139314283025E-02 a      1298     0    65     1    18
  5.8477556413439040E-02 a      1299     0    65     1    19
 -3.7764339799046406E-02 a      1300     0    65     1    20
  6.9280487175389691E-02 a      1301     0    66     1     1
  3.0261219873925573E-02 a      1302     0    66     1     2
  8.6166339050223861E-02 a      1303     0    66     1     3
  9.2531749192791696E-03 a      1304     0    66     1     4
  4.7704719071944759E-03 a      1305     0    66     1     5
  6.3917340484547391E-02 a      1306     0    66     1     6
 -5.1467438452759785E-02 a      1307     0    66     1     7
  1.6791298865536184E-02 a      1308     0    66     1     8
  2.3526973527232969E-02 a      1309     0    66     1     9
 -1.1428029951228005E-01 a      1310     0    66     1    10
  6.6957479730868658E-02 a      1311     0    66     1    11
  1.1982052811421050E-01 a      1312     0    66     1    12
 -2.5620149373808986E-03 a      1313     0    66     1    13
 -1.0923631203879329E-01 a      1314     0    66     1    14
 -5.4333131378505373E-02 a      1315     0    66     1    15
  1.4166055606214531E-01 a      1316     0    66     1    16
 -1.1447719988608579E-02 a      1317     0    66     1    17
 -2.7617575470344376E-02 a      1318     0    66     1    18
  3.3333923954201351E-02 a      1319     0    66     1    19
 -2.4208241967573905E-02 a      1320     0    66     1    20
  3.7868300488622351E-02 a      1321     0    67     1     1
 -1.1574259788449486E-02 a      1322     0    67     1     2
 -8.1288350550435567E-02 a      1323     0    67     1     3
  8.0705799060384192E-02 a      1324     0    67     1     4
  4.5321382466411674E-03 a      1325     0    67     1     5
 -2.9178196665725274E-02 a      1326     0    67     1     6
 -6.1516488181796881E-03 a      1327     0    67     1     7
  3.4212036623902840E-02 a      1328     0    67     1     8
 -1.3021688806976445E-01 a      1329     0    67     1     9
 -1.2942941062752527E-02 a      1330     0    67     1    10
 -1.0292517163178361E-01 a      1331     0    67     1    11
 -9.6429978200183508E-02 a      1332     0    67     1    12
  4.3645089507866323E-02 a      1333     0    67     1    13
  2.0779023289765965E-02 a      1334     0    67     1    14
  4.0343717246866979E-02 a      1335     0    67     1    15
  6.7935137490773942E-02 a      1336     0    67     1    16
  7.6456593565619693E-02 a      1337     0    67     1    17
  9.1944150115421092E-02 a      1338     0    67     1    18
  1.0683661814940673E-01 a      1339     0    67     1    19
  6.8904248597363882E-02 a      1340     0    67     1    20
 -4.3662234925654335E-04 a      1341     0    68     1     1
  3.8712570250763835E-02 a      1342     0    68     1     2
 -1.0734841377015580E-01 a      1343     0    68     1     3
  2.8725566497084441E-02 a      1344     0    68     1     4
  2.3735546100910512E-02 a      1345     0    68     1     5
  1.6516391584392885E-03 a      1346     0    68     1     6
 -2.3169949511594271E-01 a      1347     0    68     1     7
  7.7944086660884215E-03 a      1348     0    68     1     8
 -9.0662162757996462E-02 a      1349     0    68     1     9
 -6.4353160481477781E-02 a      1350     0    68     1    10
 -1.2800350354027987E-01 a      1351     0    68     1    11
 -6.4110474468125928E-02 a      1352     0    68     1    12
 -3.4969320020275065E-02 a      1353     0    68     1    13
  1.0390513774456356E-01 a      1354     0    68     1    14
 -2.7150855548060446E-02 a      1355     0    68     1    15
  1.2533631889590130E-01 a      1356     0    68     1    16
 -1.6438356597929621E-01 a      1357     0    68     1    17
  5.2201216864505171E-02 a      1358     0    68     1    18
 -1.7766798446171139E-03 a      1359     0    68     1    19
 -3.6232723454044616E-02 a      1360     0    68     1    20
  8.3719086066556800E-02 a      1361     0    69     1     1
 -5.0465061446319043E-02 a      1362     0    69     1     2
  5.4858516774398861E-02 a      1363     0    69     1     3
  1.1750642871591245E-01 a      1364     0    69     1     4
 -9.2101757040478127E-02 a      1365     0    69     1     5
 -7.5296514488650546E-02 a      1366     0    69     1     6
 -6.8646585481494146E-02 a      1367     0    69     1     7
  4.1588290868624346E-02 a      1368     0    69     1     8
  1.7144468575664453E-02 a      1369     0    69     1     9
 -9.4196246322365645E-02 a      1370     0    69     1    10
  4.4680036660028684E-02 a      1371     0    69     1    11
  1.9702175750208942E-01 a      1372     0    69     1    12
  4.5420348771252672E-02 a      1373     0    69     1    13
  2.8566792779143872E-02 a      1374     0    69     1    14
  6.3997115774141175E-02 a      1375     0    69     1    15
 -1.2033094077219167E-01 a      1376     0    69     1    16
  1.9988982882801887E-01 a      1377     0    69     1    17
  1.0298693105294408E-01 a      1378     0    69     1    18
 -1.3681256549041335E-01 a      1379     0    69     1    19
 -4.2643147486580303E-02 a      1380     0    69     1    20
  7.8452207601343207E-02 a      1381     0    70     1     1
  3.2020599435931163E-02 a      1382     0    70     1     2
  4.1262663115231350E-02 a      1383     0    70     1     3
  1.1648576202138610E-02 a      1384     0    70     1     4
 -9.0351490444887670E-04 a      1385     0    70     1     5
  4.2371507711551820E-02 a      1386     0    70     1     6
 -1.0128513077942597E-01 a      1387     0    70     1     7
 -7.0273807095290255E-03 a      1388     0    70     1     8
 -1.4946172797192755E-01 a      1389     0    70     1     9
  2.4349641514205569E-02 a      1390     0    70     1    10
 -1.8281901986452635E-02 a      1391     0    70     1    11
 -3.4022732195745926E-02 a      1392     0    70     1    12
  2.2354734888619023E-03 a      1393     0    70     1    13
  4.5510265658719143E-02 a      1394     0    70     1    14
  7.9062318610691892E-02 a      1395     0    70     1    15
  2.5549821604251427E-01 a      1396     0    70     1    16
 -8.7259447096712420E-02 a      1397     0    70     1    17
  2.3460853466165613E-03 a      1398     0    70     1    18
  1.4042704017367734E-02 a      1399     0    70     1    19
 -2.2019717051254571E-02 a      1400     0    70     1    20
 -6.7686637972325214E-02 a      1401     0    71     1     1
 -1.1585663328810661E-01 a      1402     0    71     1     2
 -7.1127655530677500E-02 a      1403     0    71     1     3
 -3.7776170444753510E-02 a      1404     0    71     1     4
 -9.9442232766427663E-02 a      1405     0    71     1     5
 -1.7653811637454944E-01 a      1406     0    71     1     6
 -4.8178229352831732E-02 a      1407     0    71     1     7
  5.2054109075661929E-02 a      1408     0    71     1     8
 -1.6946694213283364E-01 a      1409     0    71     1     9
  4.7830523307208016E-02 a      1410     0    71     1    10
  1.2813042147857848E-01 a      1411     0    71     1    11
 -2.0939941359043293E-01 a      1412     0    71     1    12
  1.7271794163387276E-02 a      1413     0    71     1    13
  2.7737526726672342E-02 a      1414     0    71     1    14
  1.7213029676957781E-01 a      1415     0    71     1    15
  3.6613110475631067E-01 a      1416     0    71     1    16
 -3.5973338679656283E-02 a      1417     0    71     1    17
  1.3781581164572640E-01 a      1418     0    71     1    18
 -1.3645257184060672E-01 a      1419     0    71     1    19
 -4.4725783544889396E-02 a      1420     0    71     1    20
 -8.4686834186523910E-02 a      1421     0    72     1     1
 -2.3665899805723137E-01 a      1422     0    72     1     2
 -2.2413584045415513E-01 a      1423     0    72     1     3
  2.1034702734695282E-01 a      1424     0    72     1     4
 -2.5373193861298288E-01 a      1425     0    72     1     5
 -1.6367603033752221E-02 a      1426     0    72     1     6
  1.6328064736007286E-01 a      1427     0    72     1     7
  3.6801127689534426E-02 a      1428     0    72     1     8
  3.0859017405015410E-01 a      1429     0    72     1     9
 -2.7696123704887521E-01 a      1430     0    72     1    10
 -3.0825730074927077E-01 a      1431     0    72     1    11
  2.8904752108065240E-01 a      1432     0    72     1    12
  7.9062683274243650E-01 a      1433     0    72     1    13
 -2.7098511403434034E-01 a      1434     0    72     1    14
  2.9195596511178945E-01 a      1435     0    72     1    15
  1.0336277228245877E-01 a      1436     0    72     1    16
  4.1458476978600889E-02 a      1437     0    72     1    17
 -6.0961534340455270E-01 a      1438     0    72     1    18
 -3.0186147701616910E-02 a      1439     0    72     1    19
  1.1938702980289009E-01 a      1440     0    72     1    20
 -6.0442431554550334E-02 a      1441     0    73     1     1
 -1.4718621077179894E-01 a      1442     0    73     1     2
 -6.3124328317656797E-02 a      1443     0    73     1     3
 -3.4769851626191936E-02 a      1444     0    73     1     4
 -9.1956322368543286E-02 a      1445     0    73     1     5
 -1.2224052207928215E-01 a      1446     0    73     1     6
 -6.4415060000523092E-02 a      1447     0    73     1     7
 -4.2222371270750222E-02 a      1448     0    73     1     8
 -2.8403318458925974E-02 a      1449     0    73     1     9
  3.9824673052705192E-02 a      1450     0    73     1    10
 -2.6394456770497923E-02 a      1451     0    73     1    11
 -1.8545730850825545E-01 a      1452     0    73     1    12
 -4.5585803930792396E-02 a      1453     0    73     1    13
  3.5663891254711505E-02 a      1454     0    73     1    14
  2.1161525866806866E-01 a      1455     0    73     1    15
  3.8151780816096388E-02 a      1456     0    73     1    16
 -6.0556307446945762E-02 a      1457     0    73     1    17
  1.2946752766261968E-01 a      1458     0    73     1    18
  6.8602851603282167E-02 a      1459     0    73     1    19
 -6.2666866163394716E-02 a      1460     0    73     1    20
 -1.1716690332675098E-01 a      1461     0    74     1     1
 -3.0817451327089751E-01 a      1462     0    74     1     2
 -1.4594476895441033E-01 a      1463     0    74     1     3
  5.7797991536345648E-02 a      1464     0    74     1     4
 -2.2058244679886807E-01 a      1465     0    74     1     5
  6.6744002068078688E-04 a      1466     0    74     1     6
  2.5379823411704422E-01 a      1467     0    74     1     7
 -2.1462646426905808E-02 a      1468     0    74     1     8
  1.3450595483436095E-01 a      1469     0    74     1     9
  1.2443185443790916E-01 a      1470     0    74     1    10
 -2.5607278606799504E-02 a      1471     0    74     1    11
 -1.6430138827492144E-01 a      1472     0    74     1    12
  1.0943253931813066E-01 a      1473     0    74     1    13
  7.3592390613153688E-02 a      1474     0    74     1    14
  1.0396602921595433E-01 a      1475     0    74     1    15
  2.5486202318989398E-01 a      1476     0    74     1    16
 -8.0392939638117902E-03 a      1477     0    74     1    17
 -9.1742693918700602E-02 a      1478     0    74     1    18
 -2.7980970610345272E-02 a      1479     0    74     1    19
 -2.6968747259140127E-02 a      1480     0    74     1    20
  1.5801893844618864E-01 a      1481     0    75     1     1
 -4.1972268303279311E-02 a      1482     0    75     1     2
  1.4722397986680069E-01 a      1483     0    75     1     3
  1.1195150317513704E-01 a      1484     0    75     1     4
 -7.3617722270566356E-03 a      1485     0    75     1     5
 -1.9376211646288844E-03 a      1486     0    75     1     6
 -9.9835872422654140E-02 a      1487     0    75     1     7
 -2.4103571618776118E-01 a      1488     0    75     1     8
 -1.7870132237757635E-01 a      1489     0    75     1     9
 -1.3877404824991238E-01 a      1490     0    75     1    10
 -1.3351556757010200E-02 a      1491     0    75     1    11
 -1.3215816272818193E-01 a      1492     0    75     1    12
 -3.5910702713654513E-01 a      1493     0    75     1    13
 -1.4003036013483550E-01 a      1494     0    75     1    14
  5.9001568014973756E-02 a      1495     0    75     1    15
 -1.8233948112444762E-01 a      1496     0    75     1    16
  1.8176263471797859E-02 a      1497     0    75     1    17
 -9.8632057350693261E-02 a      1498     0    75     1    18
  9.5965179963876185E-02 a      1499     0    75     1    19
 -7.4536591069032362E-02 a      1500     0    75     1    20
  2.0638825685838560E-01 a      1501     0    76     1     1
 -8.6973919437297806E-03 a      1502     0    76     1     2
  3.1780726914829811E-02 a      1503     0    76     1     3
  7.2348348176868194E-02 a      1504     0    76     1     4
  6.8226297544196249E-02 a      1505     0    76     1     5
 -3.5774624347934943E-02 a      1506     0    76     1     6
  1.2752041981056131E-01 a      1507     0    76     1     7
  8.9253246788822890E-02 a      1508     0    76     1     8
 -2.6273466177936071E-02 a      1509     0    76     1     9
 -1.2279090325419026E-01 a      1510     0    76     1    10
  6.6926286568756446E-02 a      1511     0    76     1    11
  7.4108615002401651E-02 a      1512     0    76     1    12
  7.1338556268916969E-02 a      1513     0    76     1    13
  1.1668531287033346E-01 a      1514     0    76     1    14
  3.5122643598631147E-02 a      1515     0    76     1    15
  1.0724705421319392E-01 a      1516     0    76     1    16
 -1.1945796585998158E-03 a      1517     0    76     1    17
 -1.0079018620167086E-01 a      1518     0    76     1    18
 -4.5610445482575195E-03 a      1519     0    76     1    19
 -1.2849250885986974E-01 a      1520     0    76     1    20
  2.1203188018748355E-02 a      1521     0    77     1     1
 -7.4278786548613265E-02 a      1522     0    77     1     2
 -1.0327078597706407E-01 a      1523     0    77     1     3
  2.8435049708005432E-02 a      1524     0    77     1     4
 -9.6999556554403329E-02 a      1525     0    77     1     5
 -7.4053665134459351E-02 a      1526     0    77     1     6
 -1.2720013974329106E-01 a      1527     0    77     1     7
 -1.2476453102772070E-01 a      1528     0    77     1     8
 -6.0956276158229100E-02 a      1529     0    77     1     9
  5.3754459432322717E-02 a      1530     0    77     1    10
 -3.1636401673740454E-02 a      1531     0    77     1    11
 -9.0412200302750420E-02 a      1532     0    77     1    12
 -2.1884377480002611E-02 a      1533     0    77     1    13
 -2.5369479954888402E-01 a      1534     0    77     1    14
  7.7822572898261902E-02 a      1535     0    77     1    15
 -4.8062165331336448E-02 a      1536     0    77     1    16
 -3.9030504376220805E-02 a      1537     0    77     1    17
  5.3188009134362016E-02 a      1538     0    77     1    18
 -2.2763483666951804E-02 a      1539     0    77     1    19
 -3.8012932765363258E-02 a      1540     0    77     1    20
 -7.3051072879641308E-03 a      1541     0    78     1     1
  9.6540501327879613E-02 a      1542     0    78     1     2
 -5.4445209830493273E-02 a      1543     0    78     1     3
 -1.4999518100559212E-02 a      1544     0    78     1     4
  1.8031244118567331E-02 a      1545     0    78     1     5
  1.5019174708923327E-01 a      1546     0    78     1     6
  5.1925792108141041E-03 a      1547     0    78     1     7
  2.0736488289509771E-02 a      1548     0    78     1     8
 -6.6634113672943945E-02 a      1549     0    78     1     9
  8.4467628728610938E-02 a      1550     0    78     1    10
  1.5629307586820934E-01 a      1551     0    78     1    11
  1.0759156280547671E-01 a      1552     0    78     1    12
 -4.2217582555406821E-02 a      1553     0    78     1    13
 -1.0479782532910027E-01 a      1554     0    78     1    14
 -1.0973121845931695E-01 a      1555     0    78     1    15
  7.4028882989724321E-02 a      1556     0    78     1    16
  8.6948150010594014E-02 a      1557     0    78     1    17
 -6.1443739883673999E-02 a      1558     0    78     1    18
 -1.0640953046725382E-01 a      1559     0    78     1    19
  3.8124320751631170E-02 a      1560     0    78     1    20
  1.9832064917408440E-01 a      1561     0    79     1     1
 -9.4366231118899468E-02 a      1562     0    79     1     2
 -1.3674185477867487E-01 a      1563     0    79     1     3
 -1.6429725183528079E-01 a      1564     0    79     1     4
  7.7654806286551734E-02 a      1565     0    79     1     5
  4.5535962797848273E-02 a      1566     0    79     1     6
  8.3483994390274860E-02 a      1567     0    79     1     7
  1.1497008964646395E-01 a      1568     0    79     1     8
 -4.9570811595049558E-02 a      1569     0    79     1     9
  1.8181162348692808E-02 a      1570     0    79     1    10
  6.3530084017268632E-02 a      1571     0    79     1    11
  9.2291621313415020E-02 a      1572     0    79     1    12
  1.3447699303593716E-01 a      1573     0    79     1    13
  7.1091854204778759E-02 a      1574     0    79     1    14
 -3.5798978434864785E-02 a      1575     0    79     1    15
 -1.4616519008265005E-01 a      1576     0    79     1    16
  1.7840117974314278E-03 a      1577     0    79     1    17
  1.4199392959283692E-02 a      1578     0    79     1    18
  4.5316062232699161E-03 a      1579     0    79     1    19
 -9.2363661927313698E-02 a      1580     0    79     1    20
  1.2282263012003673E-01 a      1581     0    80     1     1
  1.2505406051664181E-01 a      1582     0    80     1     2
  4.5941982660866687E-02 a      1583     0    80     1     3
  3.7507604069628567E-02 a      1584     0    80     1     4
 -5.2467025333134002E-03 a      1585     0    80     1     5
 -4.5426295576752516E-04 a      1586     0    80     1     6
  1.0419917895123872E-01 a      1587     0    80     1     7
  7.6473596247537023E-02 a      1588     0    80     1     8
  1.1271925781491400E-01 a      1589     0    80     1     9
 -1.1173413023986366E-01 a      1590     0    80     1    10
 -1.2579651615606388E-01 a      1591     0    80     1    11
 -8.1096716813235672E-02 a      1592     0    80     1    12
 -5.6851835000900117E-02 a      1593     0    80     1    13
  1.3047960922232768E-01 a      1594     0    80     1    14
 -1.3404770125847834E-02 a      1595     0    80     1    15
 -2.7841488305668906E-03 a      1596     0    80     1    16
 -1.5908714885007605E-01 a      1597     0    80     1    17
  1.2881442606386354E-01 a      1598     0    80     1    18
 -1.2106427443170645E-01 a      1599     0    80     1    19
 -7.5635535072079763E-02 a      1600     0    80     1    20
  1.1354464415891696E+00 b      1601     1     1
  5.8617238928909454E-01 b      1602     1     2
 -7.6997218305753889E-01 b      1603     1     3
  5.7497455309494250E-01 b      1604     1     4
  1.3534690794437043E+00 b      1605     1     5
  1.2918409768709478E+00 b      1606     1     6
  7.5343831531495964E-01 b      1607     1     7
  1.6530984839180068E-01 b      1608     1     8
 -4.8517710048606449E-01 b      1609     1     9
  4.9762901643217022E-01 b      1610     1    10
 -1.0244259792526494E-01 b      1611     1    11
  6.8934296013231555E-01 b      1612     1    12
 -1.4861922754276802E+00 b      1613     1    13
  1.0993982401085887E+00 b      1614     1    14
  3.9343880454054198E-01 b      1615     1    15
  1.2428408397010591E+00 b      1616     1    16
  6.7954324435685387E-01 b      1617     1    17
 -3.8568085287947945E-01 b      1618     1    18
 -1.3086070139472210E+00 b      1619     1    19
  1.3800041372619305E+00 b      1620     1    20
  4.8304594988668931E-01 a      1621     1     1     2     1
  1.1052727240889783E-01 a      1622     1     1     2     2
  5.3878322554976973E-02 a      1623     1     1     2     3
 -4.6192304235176129E-01 a      1624     1     1     2     4
  4.0555649603013853E-02 a      1625     1     1     2     5
  5.5078800690480900E-01 a      1626     1     1     2     6
 -4.1615849241820846E-01 a      1627     1     1     2     7
