################################################################################
# Neural network connection values (weights and biases).
################################################################################
# Col  Name       Description
################################################################################
# 1    connection Neural network connection value.
# 2    t          Connection type (a = weight, b = bias).
# 3    index      Index enumerating weights.
# 4    l_s        Starting point layer (end point layer for biases).
# 5    n_s        Starting point neuron in starting layer (end point neuron for biases).
# 6    l_e        End point layer.
# 7    n_e        End point neuron in end layer.
################################################################################
#                      1 2         3     4     5     6     7
#             connection t     index   l_s   n_s   l_e   n_e
############################################################
 -2.8436642809598678E-01 a         1     0     1     1     1
  9.7354959154574247E-02 a         2     0     1     1     2
 -7.5372733544542814E-01 a         3     0     1     1     3
  9.3074409661236188E-02 a         4     0     1     1     4
  2.3280649154182054E-01 a         5     0     1     1     5
 -1.6094812740746869E-01 a         6     0     1     1     6
 -3.0850532968753099E-02 a         7     0     1     1     7
  1.3615195010644857E-01 a         8     0     1     1     8
  1.3563810438092944E-01 a         9     0     1     1     9
  1.2587681742997367E-01 a        10     0     1     1    10
  7.0745426925139604E-02 a        11     0     1     1    11
  7.8893652158960898E-03 a        12     0     1     1    12
 -1.7368628189589924E-01 a        13     0     1     1    13
 -2.3196785981016133E-01 a        14     0     1     1    14
 -2.1055421659866327E-01 a        15     0     1     1    15
 -3.0618603641451421E-02 a        16     0     1     1    16
 -7.9400298553448170E-02 a        17     0     1     1    17
  1.9645052025241755E-01 a        18     0     1     1    18
  1.2502179538601121E-01 a        19     0     1     1    19
 -3.8584179043271244E-01 a        20     0     1     1    20
 -6.1154589212185285E-02 a        21     0     2     1     1
  3.1934202599114297E-01 a        22     0     2     1     2
 -4.7863612864386652E-02 a        23     0     2     1     3
  1.7777809101140846E-01 a        24     0     2     1     4
 -3.7669771536089292E-01 a        25     0     2     1     5
 -5.7253626992713358E-01 a        26     0     2     1     6
 -1.6027846457943815E-01 a        27     0     2     1     7
  2.2413459852997317E-01 a        28     0     2     1     8
 -3.7999748920865321E-02 a        29     0     2     1     9
  3.5783961547313681E-01 a        30     0     2     1    10
 -2.7342981917842790E-01 a        31     0     2     1    11
  1.6088219428666561E-01 a        32     0     2     1    12
  4.0465311559582268E-01 a        33     0     2     1    13
 -1.3466863078040678E-01 a        34     0     2     1    14
 -4.7270176560106808E-01 a        35     0     2     1    15
  1.7149012276083123E-01 a        36     0     2     1    16
  1.0775919769158451E-01 a        37     0     2     1    17
  1.8298910168371657E-01 a        38     0     2     1    18
  2.6874143810710399E-01 a        39     0     2     1    19
  3.8123706939104263E-01 a        40     0     2     1    20
  1.2852101857305204E-01 a        41     0     3     1     1
  6.0028579879840803E-02 a        42     0     3     1     2
 -1.5724493218169786E-01 a        43     0     3     1     3
  2.2151001960433125E-02 a        44     0     3     1     4
 -1.4935383747016551E-01 a        45     0     3     1     5
 -1.0875660394694002E-01 a        46     0     3     1     6
 -1.7628148846120240E-02 a        47     0     3     1     7
  8.6528618933171181E-02 a        48     0     3     1     8
 -4.1480792808409543E-02 a        49     0     3     1     9
  1.4025053074596980E-01 a        50     0     3     1    10
  1.0733435403128715E-01 a        51     0     3     1    11
 -9.6880818607199715E-02 a        52     0     3     1    12
  2.8105595414905569E-02 a        53     0     3     1    13
 -6.6541542035293708E-02 a        54     0     3     1    14
 -1.1028352646146515E-01 a        55     0     3     1    15
 -2.5725544773586965E-02 a        56     0     3     1    16
 -1.5124505680304060E-01 a        57     0     3     1    17
 -7.6774513688639190E-02 a        58     0     3     1    18
  1.2194953776150877E-01 a        59     0     3     1    19
  6.2231384405787307E-02 a        60     0     3     1    20
  9.2366362430010687E-02 a        61     0     4     1     1
  1.9675376596211536E-01 a        62     0     4     1     2
 -7.4914727857430119E-01 a        63     0     4     1     3
 -1.0202753934302866E-01 a        64     0     4     1     4
 -8.0838448494597454E-02 a        65     0     4     1     5
  1.4441691180072996E-01 a        66     0     4     1     6
 -5.3868756223943948E-01 a        67     0     4     1     7
 -6.3057680392837297E-03 a        68     0     4     1     8
 -7.3429519374750812E-02 a        69     0     4     1     9
 -3.1561585640685591E-02 a        70     0     4     1    10
 -1.7264521282541664E-01 a        71     0     4     1    11
  1.9200922481660818E-01 a        72     0     4     1    12
 -1.9850324227114199E-01 a        73     0     4     1    13
  2.9880039372289507E-01 a        74     0     4     1    14
 -5.5827267975576064E-03 a        75     0     4     1    15
 -2.5452304788256336E-01 a        76     0     4     1    16
  1.5761838328895816E-01 a        77     0     4     1    17
 -2.2148162267813148E-01 a        78     0     4     1    18
 -2.1813948765815733E-01 a        79     0     4     1    19
  3.8496774709502104E-03 a        80     0     4     1    20
  2.1565852182051776E-01 a        81     0     5     1     1
 -1.7447699371683992E-01 a        82     0     5     1     2
  1.3905717040508597E-01 a        83     0     5     1     3
  2.4515274873111455E-02 a        84     0     5     1     4
 -3.7217243353531665E-01 a        85     0     5     1     5
  5.7709751738292336E-01 a        86     0     5     1     6
  8.5079513712294730E-01 a        87     0     5     1     7
 -3.1083302006287693E-02 a        88     0     5     1     8
 -9.3094412703974824E-02 a        89     0     5     1     9
 -9.5143482299857152E-01 a        90     0     5     1    10
  1.3226343345289890E-01 a        91     0     5     1    11
 -2.7615943076311579E-02 a        92     0     5     1    12
  2.5236395414856849E-02 a        93     0     5     1    13
 -1.5180965859146597E-01 a        94     0     5     1    14
  2.2795250570306499E-01 a        95     0     5     1    15
  8.3968592306372006E-02 a        96     0     5     1    16
  5.8650281873392363E-01 a        97     0     5     1    17
 -1.6984082931320391E-01 a        98     0     5     1    18
 -1.6443615821736113E-01 a        99     0     5     1    19
 -1.8339821742257684E-01 a       100     0     5     1    20
 -1.1796443562754959E-01 a       101     0     6     1     1
  9.8671101191304011E-02 a       102     0     6     1     2
 -7.4087771951547301E-03 a       103     0     6     1     3
  2.0423431750650339E-01 a       104     0     6     1     4
  5.2618163696448010E-04 a       105     0     6     1     5
 -7.4490227865999532E-03 a       106     0     6     1     6
  3.2113227821289864E-04 a       107     0     6     1     7
 -6.8102012243002677E-02 a       108     0     6     1     8
 -6.2212677010926011E-02 a       109     0     6     1     9
  1.2770033167629208E-01 a       110     0     6     1    10
  3.2967031933062531E-02 a       111     0     6     1    11
 -1.0042900068833144E-01 a       112     0     6     1    12
  4.0479693153752043E-02 a       113     0     6     1    13
 -1.3003447236526799E-01 a       114     0     6     1    14
  5.8582534636280249E-02 a       115     0     6     1    15
  1.1000132347624240E-01 a       116     0     6     1    16
  6.7208747765792110E-02 a       117     0     6     1    17
 -1.0512075283611357E-01 a       118     0     6     1    18
 -6.3748130003925083E-02 a       119     0     6     1    19
  4.2889039921322862E-02 a       120     0     6     1    20
 -1.3681888762708458E-01 a       121     0     7     1     1
 -8.8382752209466675E-02 a       122     0     7     1     2
  9.7242120155832765E-02 a       123     0     7     1     3
 -4.9911694209166038E-02 a       124     0     7     1     4
 -2.2256031723610889E-01 a       125     0     7     1     5
  1.8502688890922819E-01 a       126     0     7     1     6
  1.9557853055453620E-01 a       127     0     7     1     7
  2.6961729648829014E-01 a       128     0     7     1     8
 -3.5746176990429132E-02 a       129     0     7     1     9
 -3.8406671493462718E-01 a       130     0     7     1    10
  6.5263221745731582E-03 a       131     0     7     1    11
  2.1127857314462983E-01 a       132     0     7     1    12
 -1.7745353667361158E-01 a       133     0     7     1    13
  6.9621917825460206E-02 a       134     0     7     1    14
 -1.6807349901870680E-01 a       135     0     7     1    15
  3.5274944330090464E-02 a       136     0     7     1    16
  1.0533652445391449E-01 a       137     0     7     1    17
 -5.1362610449900731E-02 a       138     0     7     1    18
  6.2304923536543426E-02 a       139     0     7     1    19
 -3.9181483700003857E-02 a       140     0     7     1    20
  1.3812151284367198E-02 a       141     0     8     1     1
 -1.7249524780228898E-01 a       142     0     8     1     2
  1.0507317390115285E+00 a       143     0     8     1     3
  9.1083028691096565E-02 a       144     0     8     1     4
  7.8637586392074812E-02 a       145     0     8     1     5
  3.1459034491151749E-01 a       146     0     8     1     6
  1.7604496503484363E-01 a       147     0     8     1     7
 -1.7463769569423224E-01 a       148     0     8     1     8
 -7.9855442837610986E-03 a       149     0     8     1     9
  1.8683897464370017E-01 a       150     0     8     1    10
  2.6305762904773450E-01 a       151     0     8     1    11
 -4.5723536396940923E-03 a       152     0     8     1    12
 -2.0297628112724503E-01 a       153     0     8     1    13
  3.0022332934321705E-01 a       154     0     8     1    14
  1.3317538146892308E-01 a       155     0     8     1    15
 -1.1611399618598120E-01 a       156     0     8     1    16
 -2.0532829247223153E-01 a       157     0     8     1    17
  1.5296156954343590E-01 a       158     0     8     1    18
 -7.4400049607050017E-02 a       159     0     8     1    19
  1.4528870535494307E-01 a       160     0     8     1    20
 -2.0265963241939658E-01 a       161     0     9     1     1
 -1.7101960985220641E-02 a       162     0     9     1     2
 -8.3258353105686803E-03 a       163     0     9     1     3
  1.3116875027172969E-01 a       164     0     9     1     4
  1.4038437934125841E-01 a       165     0     9     1     5
 -2.6018101238486613E-01 a       166     0     9     1     6
 -3.8906774562380753E-01 a       167     0     9     1     7
  5.1503719686661301E-02 a       168     0     9     1     8
 -6.0897491550932284E-03 a       169     0     9     1     9
  2.7045775244807568E-01 a       170     0     9     1    10
 -2.3094672117188150E-01 a       171     0     9     1    11
 -1.2374238679632101E-01 a       172     0     9     1    12
 -5.1513287047197161E-02 a       173     0     9     1    13
 -2.8382018312163648E-01 a       174     0     9     1    14
 -2.2160784810381792E-02 a       175     0     9     1    15
 -2.1141870788023887E-01 a       176     0     9     1    16
 -7.2987239450007166E-02 a       177     0     9     1    17
  8.1672114636377718E-02 a       178     0     9     1    18
  2.6219506693314087E-01 a       179     0     9     1    19
 -1.4595081776192739E-01 a       180     0     9     1    20
  7.7469688586194088E-02 a       181     0    10     1     1
 -9.9773672335727551E-02 a       182     0    10     1     2
  9.7511796454480715E-04 a       183     0    10     1     3
 -1.2060071586676194E-01 a       184     0    10     1     4
  1.1503419309113678E-02 a       185     0    10     1     5
 -2.4591986735151308E-02 a       186     0    10     1     6
  9.0854020932347960E-03 a       187     0    10     1     7
 -1.0115114597576443E-01 a       188     0    10     1     8
  1.6538673800533657E-01 a       189     0    10     1     9
 -1.9577383382312425E-02 a       190     0    10     1    10
 -8.0721562419343154E-02 a       191     0    10     1    11
 -5.3239825349481310E-02 a       192     0    10     1    12
  1.3684742375369813E-01 a       193     0    10     1    13
  2.1999087050399810E-01 a       194     0    10     1    14
 -7.1602313194675693E-02 a       195     0    10     1    15
 -1.1236612638801666E-01 a       196     0    10     1    16
 -1.5547569709918133E-01 a       197     0    10     1    17
  1.3506658206865521E-01 a       198     0    10     1    18
  1.3661484886742253E-01 a       199     0    10     1    19
  1.0074142244725452E-01 a       200     0    10     1    20
 -2.4887767147865537E-02 a       201     0    11     1     1
  1.8014719138408686E-01 a       202     0    11     1     2
 -4.1648682189205435E-02 a       203     0    11     1     3
  5.1627105671172915E-03 a       204     0    11     1     4
  1.1560560585308547E-02 a       205     0    11     1     5
 -1.0254112761412860E-01 a       206     0    11     1     6
  8.5116483020935801E-02 a       207     0    11     1     7
  1.5921371665894490E-01 a       208     0    11     1     8
  2.6291611087927602E-01 a       209     0    11     1     9
 -1.4983943510826761E-01 a       210     0    11     1    10
  2.0575679636394503E-02 a       211     0    11     1    11
 -3.1535842089285876E-01 a       212     0    11     1    12
 -4.5494244900192472E-02 a       213     0    11     1    13
  1.2570354587891960E-01 a       214     0    11     1    14
  7.3745681566722801E-02 a       215     0    11     1    15
 -1.4328561181770919E-01 a       216     0    11     1    16
  9.4290991852091430E-02 a       217     0    11     1    17
 -1.5174220617697201E-01 a       218     0    11     1    18
  2.6188453969725134E-01 a       219     0    11     1    19
  8.3288712223068079E-02 a       220     0    11     1    20
  5.8961227932644723E-02 a       221     0    12     1     1
  3.3559729695931600E-01 a       222     0    12     1     2
 -1.0947962742993642E+00 a       223     0    12     1     3
  1.2635982917184849E-01 a       224     0    12     1     4
  8.0530917615930467E-02 a       225     0    12     1     5
 -1.7033262617818393E-01 a       226     0    12     1     6
 -1.6569294727590914E-01 a       227     0    12     1     7
 -3.2660173360382377E-01 a       228     0    12     1     8
  3.7339013105868631E-02 a       229     0    12     1     9
  2.5582768363052399E-01 a       230     0    12     1    10
 -1.9555059726792026E-01 a       231     0    12     1    11
  2.6409810719892752E-02 a       232     0    12     1    12
 -9.1356894438701181E-02 a       233     0    12     1    13
  1.1598605608026490E-01 a       234     0    12     1    14
 -1.7711596495365528E-01 a       235     0    12     1    15
  6.2868535141365228E-02 a       236     0    12     1    16
  1.1796542565461483E-01 a       237     0    12     1    17
 -8.8724442901012571E-02 a       238     0    12     1    18
  8.4304610937045762E-02 a       239     0    12     1    19
  1.9221415768765984E-02 a       240     0    12     1    20
 -4.4037892757384928E-02 a       241     0    13     1     1
 -3.1797226974772497E-02 a       242     0    13     1     2
 -1.0632585629131686E-01 a       243     0    13     1     3
 -1.8731950599361982E-01 a       244     0    13     1     4
 -3.1801829352973066E-01 a       245     0    13     1     5
 -1.4076475991530341E-01 a       246     0    13     1     6
  3.7164784840499149E-01 a       247     0    13     1     7
  3.6454421372383711E-01 a       248     0    13     1     8
  2.8930681780251583E-01 a       249     0    13     1     9
 -3.0584944803629766E-01 a       250     0    13     1    10
  2.7532227261733605E-01 a       251     0    13     1    11
  2.8735586237640186E-02 a       252     0    13     1    12
  7.2277217968391358E-02 a       253     0    13     1    13
  1.2037085620749273E-01 a       254     0    13     1    14
  7.1823560214872434E-02 a       255     0    13     1    15
  5.6749406321019082E-02 a       256     0    13     1    16
  2.5919999577263203E-01 a       257     0    13     1    17
 -1.4798502121281754E-01 a       258     0    13     1    18
  2.4193870803877221E-01 a       259     0    13     1    19
 -1.5314979311419796E-01 a       260     0    13     1    20
 -1.7370974017801205E-01 a       261     0    14     1     1
  5.1350409036871603E-02 a       262     0    14     1     2
 -1.5958421764363728E-01 a       263     0    14     1     3
  1.2376273257991427E-01 a       264     0    14     1     4
  1.0451357994718243E-01 a       265     0    14     1     5
  2.4477977582394408E-01 a       266     0    14     1     6
 -9.7168127245322061E-02 a       267     0    14     1     7
 -8.2874610337662302E-02 a       268     0    14     1     8
 -2.9990063335851577E-02 a       269     0    14     1     9
  3.8249048077289273E-02 a       270     0    14     1    10
 -1.5375084705424602E-01 a       271     0    14     1    11
  6.8339607637109626E-02 a       272     0    14     1    12
 -6.5689570099648514E-02 a       273     0    14     1    13
 -5.8303295013413499E-03 a       274     0    14     1    14
 -3.5858346120353435E-02 a       275     0    14     1    15
  8.6360007679432610E-02 a       276     0    14     1    16
 -4.6402739520822474E-02 a       277     0    14     1    17
 -5.0857544528147398E-02 a       278     0    14     1    18
  6.6342125402986701E-02 a       279     0    14     1    19
 -7.9793362007609780E-02 a       280     0    14     1    20
 -1.1768306229367101E-01 a       281     0    15     1     1
 -1.4276415928317385E-01 a       282     0    15     1     2
 -3.3496334448445804E-02 a       283     0    15     1     3
  1.0632363254379253E-01 a       284     0    15     1     4
 -9.6669284221349086E-03 a       285     0    15     1     5
 -5.0942162878728173E-02 a       286     0    15     1     6
  3.6487518076545676E-02 a       287     0    15     1     7
  6.7474106467838371E-02 a       288     0    15     1     8
  1.7676013609708591E-01 a       289     0    15     1     9
 -6.6051342253087841E-02 a       290     0    15     1    10
 -1.1737274433698376E-01 a       291     0    15     1    11
  1.1207293729710878E-01 a       292     0    15     1    12
  1.8972377712988354E-02 a       293     0    15     1    13
 -6.2459231859878860E-02 a       294     0    15     1    14
 -2.0341594121558778E-02 a       295     0    15     1    15
  1.4515695543912261E-03 a       296     0    15     1    16
 -2.0825940736340767E-02 a       297     0    15     1    17
  6.3976951471037919E-03 a       298     0    15     1    18
  5.7833632333915599E-02 a       299     0    15     1    19
 -1.7666229439278217E-01 a       300     0    15     1    20
  1.7613667117257422E-02 a       301     0    16     1     1
 -2.0593998919285500E-01 a       302     0    16     1     2
  2.1539008898075382E-01 a       303     0    16     1     3
 -1.4348285954779560E-01 a       304     0    16     1     4
  7.9903348478981007E-02 a       305     0    16     1     5
  3.3912654399009207E-01 a       306     0    16     1     6
 -2.0521776199447839E-01 a       307     0    16     1     7
 -4.3134127693682850E-01 a       308     0    16     1     8
 -2.3702377531780844E-01 a       309     0    16     1     9
 -8.2183500983519411E-02 a       310     0    16     1    10
  3.6860654139219885E-02 a       311     0    16     1    11
  5.0389031466501172E-02 a       312     0    16     1    12
 -8.6953854561809762E-02 a       313     0    16     1    13
  3.3854535671197167E-01 a       314     0    16     1    14
  9.2820601868865718E-02 a       315     0    16     1    15
 -1.8872520830316941E-01 a       316     0    16     1    16
 -8.6535331002431132E-02 a       317     0    16     1    17
  1.6132873421891522E-01 a       318     0    16     1    18
  3.2286385458734704E-02 a       319     0    16     1    19
 -2.2228657511747608E-02 a       320     0    16     1    20
 -2.2561051048935107E-01 a       321     0    17     1     1
  1.4150680623260875E-01 a       322     0    17     1     2
  2.7090791340777765E-01 a       323     0    17     1     3
 -5.2216384572314430E-02 a       324     0    17     1     4
  9.3808857666913392E-03 a       325     0    17     1     5
 -2.5621885622950014E-01 a       326     0    17     1     6
 -9.6140689478905902E-02 a       327     0    17     1     7
  4.5579514274609217E-01 a       328     0    17     1     8
  5.3324512741973466E-02 a       329     0    17     1     9
 -9.7236225319079245E-02 a       330     0    17     1    10
 -1.4311178202749475E-01 a       331     0    17     1    11
 -1.9982527135621594E-02 a       332     0    17     1    12
 -1.1294994627492443E-02 a       333     0    17     1    13
 -4.6217655517233397E-01 a       334     0    17     1    14
  1.3250939476217766E-01 a       335     0    17     1    15
  1.4415721211686555E-01 a       336     0    17     1    16
  1.4860076362120009E-01 a       337     0    17     1    17
 -1.1352458165677350E-01 a       338     0    17     1    18
  8.0584837018110825E-02 a       339     0    17     1    19
 -1.4772343685872488E-01 a       340     0    17     1    20
  1.4650711904891053E-01 a       341     0    18     1     1
 -2.4866476159882855E-02 a       342     0    18     1     2
 -2.0659106376595387E-02 a       343     0    18     1     3
 -5.3707919704886205E-02 a       344     0    18     1     4
 -2.6338750684187881E-02 a       345     0    18     1     5
 -2.2007160613936338E-01 a       346     0    18     1     6
  2.0362904477462251E-02 a       347     0    18     1     7
 -3.4059235194511150E-02 a       348     0    18     1     8
 -6.6514936785190645E-02 a       349     0    18     1     9
  1.6273154955291230E-02 a       350     0    18     1    10
  7.6478176252358407E-02 a       351     0    18     1    11
 -1.9824062955880253E-01 a       352     0    18     1    12
 -5.4293445143259511E-02 a       353     0    18     1    13
  1.4740466590375897E-01 a       354     0    18     1    14
 -1.2913551150476087E-02 a       355     0    18     1    15
  6.9172255528192533E-02 a       356     0    18     1    16
 -8.3895996925081970E-02 a       357     0    18     1    17
  4.8105493491927076E-03 a       358     0    18     1    18
 -1.2897525816198015E-02 a       359     0    18     1    19
  1.6646015779047199E-01 a       360     0    18     1    20
 -8.9354853685845878E-02 a       361     0    19     1     1
  1.1822433319998350E-01 a       362     0    19     1     2
  2.4905741681918244E-03 a       363     0    19     1     3
 -1.9752259404834768E-01 a       364     0    19     1     4
 -8.0669514966015737E-02 a       365     0    19     1     5
 -1.7552358622491565E-01 a       366     0    19     1     6
 -8.2227402158600971E-02 a       367     0    19     1     7
  3.3363012496296296E-01 a       368     0    19     1     8
  8.8454264879329253E-02 a       369     0    19     1     9
 -1.3647288139632166E-01 a       370     0    19     1    10
  2.0874586251581156E-01 a       371     0    19     1    11
 -6.2996315140469708E-03 a       372     0    19     1    12
 -6.3725198848605294E-02 a       373     0    19     1    13
  5.4663193465111039E-02 a       374     0    19     1    14
  1.4100853479662216E-02 a       375     0    19     1    15
 -2.6356979026618085E-02 a       376     0    19     1    16
  2.5025466668942419E-02 a       377     0    19     1    17
 -1.3994981585295826E-01 a       378     0    19     1    18
  1.1546832405726479E-01 a       379     0    19     1    19
 -3.7659260952119217E-02 a       380     0    19     1    20
  6.8653493835731327E-02 a       381     0    20     1     1
  1.3285941050722777E-01 a       382     0    20     1     2
 -2.0111304796724955E-01 a       383     0    20     1     3
  4.8204417441912159E-02 a       384     0    20     1     4
  5.2224781301270028E-02 a       385     0    20     1     5
  5.2426155760681263E-02 a       386     0    20     1     6
 -1.3715242356638460E-01 a       387     0    20     1     7
 -3.3235418425349944E-01 a       388     0    20     1     8
 -2.1058489592262847E-01 a       389     0    20     1     9
  1.6898527693319651E-01 a       390     0    20     1    10
  1.1202385474150506E-01 a       391     0    20     1    11
 -1.1735662155049995E-02 a       392     0    20     1    12
  1.0984525267062636E-01 a       393     0    20     1    13
  3.0072460914716437E-01 a       394     0    20     1    14
 -3.8318923153213912E-02 a       395     0    20     1    15
 -1.2882067862336524E-01 a       396     0    20     1    16
  1.1946140861961750E-01 a       397     0    20     1    17
  3.8113490705755232E-03 a       398     0    20     1    18
 -2.2735515993609948E-01 a       399     0    20     1    19
  1.5595932628064064E-02 a       400     0    20     1    20
 -1.0782784767112001E-02 a       401     0    21     1     1
 -1.5399412546693683E-01 a       402     0    21     1     2
 -6.7259580114937878E-02 a       403     0    21     1     3
 -5.4526589835037984E-02 a       404     0    21     1     4
 -8.3127647111532713E-02 a       405     0    21     1     5
 -4.2120531347625043E-02 a       406     0    21     1     6
  2.1970436682825165E-01 a       407     0    21     1     7
  4.0375591461298743E-01 a       408     0    21     1     8
  3.9273156231138417E-01 a       409     0    21     1     9
 -4.0049520190567067E-02 a       410     0    21     1    10
 -3.9553573635375941E-02 a       411     0    21     1    11
  5.7713045361572395E-02 a       412     0    21     1    12
 -8.1239388831710738E-02 a       413     0    21     1    13
 -1.7118193927804651E-01 a       414     0    21     1    14
 -7.9539526185482573E-02 a       415     0    21     1    15
  2.5905382675852188E-02 a       416     0    21     1    16
 -1.2798102333815856E-01 a       417     0    21     1    17
 -2.7411091519820130E-02 a       418     0    21     1    18
  1.5268497354011037E-01 a       419     0    21     1    19
 -1.6293251119649940E-01 a       420     0    21     1    20
 -3.9694578565039475E-02 a       421     0    22     1     1
 -3.3463488785178318E-02 a       422     0    22     1     2
 -3.6407240446869535E-02 a       423     0    22     1     3
 -1.9114612014175365E-02 a       424     0    22     1     4
  6.6545152339718527E-02 a       425     0    22     1     5
  2.0318069411862860E-01 a       426     0    22     1     6
 -7.8501724826423216E-02 a       427     0    22     1     7
 -1.8135028025246486E-01 a       428     0    22     1     8
 -9.5827111999810435E-02 a       429     0    22     1     9
 -3.8991792562940108E-03 a       430     0    22     1    10
 -3.6774872257265480E-02 a       431     0    22     1    11
  7.6935102856205972E-02 a       432     0    22     1    12
  1.0156267964466938E-01 a       433     0    22     1    13
  1.2090031287251846E-01 a       434     0    22     1    14
 -7.7101393175141877E-02 a       435     0    22     1    15
 -6.6042727660605025E-02 a       436     0    22     1    16
 -6.2527221308314049E-02 a       437     0    22     1    17
  9.4769565936276903E-02 a       438     0    22     1    18
  3.4206361955843839E-02 a       439     0    22     1    19
  7.8605059537591504E-02 a       440     0    22     1    20
  3.5078483899106769E-02 a       441     0    23     1     1
 -4.5034952391039022E-03 a       442     0    23     1     2
  1.1345550794384146E-01 a       443     0    23     1     3
  4.6467453883894907E-02 a       444     0    23     1     4
  5.8673826223329749E-02 a       445     0    23     1     5
 -1.4580055221954628E-02 a       446     0    23     1     6
  1.2025840553336573E-01 a       447     0    23     1     7
  1.5425010951997933E-01 a       448     0    23     1     8
  1.6320066731398714E-01 a       449     0    23     1     9
 -4.2207676848503975E-02 a       450     0    23     1    10
 -9.5496867354940826E-02 a       451     0    23     1    11
 -5.3675069874026655E-02 a       452     0    23     1    12
  3.6043498381303628E-02 a       453     0    23     1    13
 -8.0564066653810579E-02 a       454     0    23     1    14
  1.4110180347880292E-02 a       455     0    23     1    15
  2.7131794946671440E-02 a       456     0    23     1    16
 -4.0788873001902537E-02 a       457     0    23     1    17
  3.7748946954284201E-03 a       458     0    23     1    18
 -5.8365321026786609E-03 a       459     0    23     1    19
  6.1486095449171253E-02 a       460     0    23     1    20
  4.6775263351596763E-02 a       461     0    24     1     1
  9.8483512082115678E-03 a       462     0    24     1     2
 -2.0734154532666765E-01 a       463     0    24     1     3
  4.6987424432356463E-02 a       464     0    24     1     4
  5.2935938279752875E-02 a       465     0    24     1     5
  1.0308189893917716E-02 a       466     0    24     1     6
 -1.2221851199086897E-01 a       467     0    24     1     7
 -3.6658280872480503E-01 a       468     0    24     1     8
 -1.1365580499652272E-01 a       469     0    24     1     9
 -2.4587927346504234E-02 a       470     0    24     1    10
  4.2677115488988004E-02 a       471     0    24     1    11
 -1.1862767901350525E-01 a       472     0    24     1    12
  1.2583113213672556E-01 a       473     0    24     1    13
  1.4414182063677092E-01 a       474     0    24     1    14
  4.8778128602866462E-02 a       475     0    24     1    15
 -9.3480392122181705E-02 a       476     0    24     1    16
  2.3634391545746380E-02 a       477     0    24     1    17
  1.2324236277133704E-02 a       478     0    24     1    18
  1.2072747409648865E-01 a       479     0    24     1    19
  6.4990728166775438E-02 a       480     0    24     1    20
 -4.9108031140934878E-02 a       481     0    25     1     1
  6.6274052955190288E-02 a       482     0    25     1     2
  2.9614817311752001E-01 a       483     0    25     1     3
  1.1336871986304115E-01 a       484     0    25     1     4
 -2.5541160493154413E-02 a       485     0    25     1     5
 -6.3315601739271962E-02 a       486     0    25     1     6
  4.9787177120838910E-02 a       487     0    25     1     7
  4.4940137550826920E-01 a       488     0    25     1     8
 -1.0353023472305963E-02 a       489     0    25     1     9
 -2.6927302298245838E-02 a       490     0    25     1    10
 -3.6052677691293548E-02 a       491     0    25     1    11
  6.9034305935259332E-02 a       492     0    25     1    12
 -1.5442147460067268E-01 a       493     0    25     1    13
 -2.3779402966344784E-01 a       494     0    25     1    14
  2.7681400549104479E-02 a       495     0    25     1    15
  1.2008126119679201E-01 a       496     0    25     1    16
  2.8429135536696359E-02 a       497     0    25     1    17
 -5.5396529238255630E-02 a       498     0    25     1    18
 -1.2002983938793932E-01 a       499     0    25     1    19
  6.4001328600613777E-02 a       500     0    25     1    20
  1.3758782490996413E-01 a       501     0    26     1     1
 -5.3520759528617817E-02 a       502     0    26     1     2
 -6.9517637974591637E-02 a       503     0    26     1     3
  2.6131133329857864E-02 a       504     0    26     1     4
  5.4376301149663249E-02 a       505     0    26     1     5
 -9.9462722626184372E-02 a       506     0    26     1     6
 -4.0948104850096208E-02 a       507     0    26     1     7
 -2.8132074870034537E-02 a       508     0    26     1     8
 -8.2757722981573051E-02 a       509     0    26     1     9
 -3.7381251790650181E-02 a       510     0    26     1    10
 -2.2228681589390894E-02 a       511     0    26     1    11
 -9.8644872021726962E-02 a       512     0    26     1    12
  2.3163439882266157E-02 a       513     0    26     1    13
  1.1885411723451318E-01 a       514     0    26     1    14
  1.1759681981846326E-02 a       515     0    26     1    15
  1.4453071343531703E-02 a       516     0    26     1    16
 -3.9223760673081962E-02 a       517     0    26     1    17
 -5.5959448509968625E-02 a       518     0    26     1    18
  6.3030103607307399E-03 a       519     0    26     1    19
 -5.9445122702851516E-02 a       520     0    26     1    20
 -1.5174442853069420E-01 a       521     0    27     1     1
 -1.4288529998767278E-02 a       522     0    27     1     2
 -6.0791309446277773E-02 a       523     0    27     1     3
  5.8099358949875661E-02 a       524     0    27     1     4
 -5.4551317438197314E-02 a       525     0    27     1     5
 -2.5315713902466005E-02 a       526     0    27     1     6
 -1.1924837126568841E-01 a       527     0    27     1     7
  1.5886156634484239E-01 a       528     0    27     1     8
  2.9029349270311804E-02 a       529     0    27     1     9
 -1.3036441665180825E-02 a       530     0    27     1    10
  7.4216274705902127E-02 a       531     0    27     1    11
  1.3978316346738565E-01 a       532     0    27     1    12
 -9.0794598118720107E-02 a       533     0    27     1    13
 -2.5132798132106338E-02 a       534     0    27     1    14
 -2.5131856990398410E-02 a       535     0    27     1    15
 -2.6612621798572399E-02 a       536     0    27     1    16
  1.2619374916829384E-02 a       537     0    27     1    17
 -1.2169439759042458E-02 a       538     0    27     1    18
 -5.1730424142803162E-02 a       539     0    27     1    19
 -1.1527592905278557E-01 a       540     0    27     1    20
 -4.5988271926596831E-02 a       541     0    28     1     1
  4.3344618582950266E-02 a       542     0    28     1     2
  6.9552303703426785E-02 a       543     0    28     1     3
  7.3422877987247125E-03 a       544     0    28     1     4
  3.3898627346197280E-02 a       545     0    28     1     5
  5.6667266864181214E-02 a       546     0    28     1     6
 -1.2011301342481577E-01 a       547     0    28     1     7
 -1.1007556763004993E-01 a       548     0    28     1     8
 -1.5042129003556079E-01 a       549     0    28     1     9
  2.2938052993420447E-02 a       550     0    28     1    10
  9.7246859318508599E-02 a       551     0    28     1    11
  2.6144436481845022E-02 a       552     0    28     1    12
  1.1802583975759331E-01 a       553     0    28     1    13
  2.6278743136789379E-01 a       554     0    28     1    14
  3.1289888538334337E-02 a       555     0    28     1    15
 -1.6323701996500128E-01 a       556     0    28     1    16
  5.8908321949777229E-02 a       557     0    28     1    17
 -2.7252993964642709E-02 a       558     0    28     1    18
 -3.0733887934178472E-02 a       559     0    28     1    19
 -8.3556492119770384E-02 a       560     0    28     1    20
 -1.8101223041727624E-02 a       561     0    29     1     1
 -6.4290449171511527E-02 a       562     0    29     1     2
 -2.2985320784733247E-02 a       563     0    29     1     3
 -1.1847023950999128E-02 a       564     0    29     1     4
 -6.0417424445934918E-02 a       565     0    29     1     5
 -1.0249608138135023E-01 a       566     0    29     1     6
 -2.6202670153717685E-02 a       567     0    29     1     7
  3.4974112350153153E-01 a       568     0    29     1     8
  1.2722584893450598E-01 a       569     0    29     1     9
 -6.4224599305371194E-02 a       570     0    29     1    10
  9.8400528516732672E-02 a       571     0    29     1    11
  1.2346784206484213E-01 a       572     0    29     1    12
 -1.2463716687473482E-01 a       573     0    29     1    13
 -1.0121631886819821E-01 a       574     0    29     1    14
 -5.6249539777309149E-02 a       575     0    29     1    15
 -1.0599859457596977E-02 a       576     0    29     1    16
 -8.2308859157692843E-02 a       577     0    29     1    17
 -5.0794463843546807E-02 a       578     0    29     1    18
 -1.1699207074105880E-01 a       579     0    29     1    19
 -1.2819464833973959E-01 a       580     0    29     1    20
 -2.9949739512951816E-02 a       581     0    30     1     1
  5.7411948872263946E-02 a       582     0    30     1     2
  3.3848080185509395E-02 a       583     0    30     1     3
 -1.2787524332243508E-01 a       584     0    30     1     4
 -4.4790158075977624E-02 a       585     0    30     1     5
  1.3654379085931832E-02 a       586     0    30     1     6
  1.4875208661016102E-02 a       587     0    30     1     7
 -1.4141974215247100E-01 a       588     0    30     1     8
 -1.2823941954651069E-01 a       589     0    30     1     9
  5.7053311653383083E-03 a       590     0    30     1    10
  8.6468564038573073E-02 a       591     0    30     1    11
 -1.8049097022836243E-02 a       592     0    30     1    12
  1.6218320387843467E-02 a       593     0    30     1    13
  6.0033792160939556E-02 a       594     0    30     1    14
 -4.8266497392171455E-03 a       595     0    30     1    15
  3.9729990850114666E-02 a       596     0    30     1    16
  4.0329321186886827E-02 a       597     0    30     1    17
  2.3142513261293712E-02 a       598     0    30     1    18
  3.1690734824221495E-02 a       599     0    30     1    19
  1.3918587273773672E-01 a       600     0    30     1    20
  1.0697939263268291E-01 a       601     0    31     1     1
  3.0601038591895040E-02 a       602     0    31     1     2
  1.2233242655785438E-01 a       603     0    31     1     3
 -1.3787093937638001E-01 a       604     0    31     1     4
  5.5762011819915580E-02 a       605     0    31     1     5
 -8.1063851042845071E-03 a       606     0    31     1     6
  1.5604473355885665E-01 a       607     0    31     1     7
  1.4831723252111209E-01 a       608     0    31     1     8
  1.2145180975664301E-01 a       609     0    31     1     9
 -2.4711473404073815E-03 a       610     0    31     1    10
 -7.8705702222978291E-02 a       611     0    31     1    11
 -8.9325863939778288E-02 a       612     0    31     1    12
  4.3198808873141668E-02 a       613     0    31     1    13
 -5.0634353341227706E-02 a       614     0    31     1    14
  2.8543073482123163E-02 a       615     0    31     1    15
  5.3177219301955451E-02 a       616     0    31     1    16
 -2.5493620555121631E-02 a       617     0    31     1    17
  8.9478988192139685E-03 a       618     0    31     1    18
  9.2582260504571363E-03 a       619     0    31     1    19
  1.0424345879287669E-01 a       620     0    31     1    20
  1.5895632323627112E-01 a       621     0    32     1     1
  2.8994786642247153E-02 a       622     0    32     1     2
 -5.7073756857018966E-02 a       623     0    32     1     3
 -7.5483604367061682E-02 a       624     0    32     1     4
 -4.0696732206248892E-02 a       625     0    32     1     5
 -4.1937672065480214E-02 a       626     0    32     1     6
  7.3888644894890318E-02 a       627     0    32     1     7
 -2.4661792792414253E-01 a       628     0    32     1     8
 -5.5830902380502076E-02 a       629     0    32     1     9
  1.3397019586817868E-02 a       630     0    32     1    10
  1.5239027736316501E-02 a       631     0    32     1    11
 -4.7792067564961814E-02 a       632     0    32     1    12
 -3.6927757837602944E-02 a       633     0    32     1    13
 -9.7359283600270075E-02 a       634     0    32     1    14
  5.9701278263204803E-03 a       635     0    32     1    15
  1.0851238269480924E-01 a       636     0    32     1    16
  3.8278114704139624E-02 a       637     0    32     1    17
 -6.2737797270974146E-03 a       638     0    32     1    18
 -2.9007941111865714E-02 a       639     0    32     1    19
  9.3748972335098477E-02 a       640     0    32     1    20
  1.2287924380572223E-02 a       641     0    33     1     1
 -5.1242406343480824E-02 a       642     0    33     1     2
  1.6603284509682657E-02 a       643     0    33     1     3
 -4.8695332253496461E-02 a       644     0    33     1     4
  3.3391586646881494E-02 a       645     0    33     1     5
  1.4705068748961395E-01 a       646     0    33     1     6
  8.3662509747260513E-02 a       647     0    33     1     7
 -8.1062176591544716E-02 a       648     0    33     1     8
 -1.3519151058426958E-02 a       649     0    33     1     9
  6.6725110392036990E-02 a       650     0    33     1    10
 -1.7779206517587523E-01 a       651     0    33     1    11
 -3.7801861627520791E-02 a       652     0    33     1    12
  3.1816528371114423E-03 a       653     0    33     1    13
 -5.9501217833176863E-02 a       654     0    33     1    14
 -8.0930219212587817E-03 a       655     0    33     1    15
  8.1375461594305878E-02 a       656     0    33     1    16
  3.0213728761722307E-03 a       657     0    33     1    17
  1.0810954037978653E-01 a       658     0    33     1    18
  7.8682247498525329E-02 a       659     0    33     1    19
  4.8681816258006397E-02 a       660     0    33     1    20
 -1.8501164614512434E-02 a       661     0    34     1     1
 -2.6721521552553799E-02 a       662     0    34     1     2
 -7.6737768379138940E-02 a       663     0    34     1     3
  1.0242446608159259E-01 a       664     0    34     1     4
  5.3586385994672650E-02 a       665     0    34     1     5
  4.6303318890838028E-03 a       666     0    34     1     6
 -1.0132915315899668E-01 a       667     0    34     1     7
  1.3471545891150691E-01 a       668     0    34     1     8
  9.8937823492007512E-02 a       669     0    34     1     9
 -1.9647065091569726E-02 a       670     0    34     1    10
 -2.9350730197874778E-02 a       671     0    34     1    11
  9.7784867518084198E-02 a       672     0    34     1    12
  3.8204804765504259E-02 a       673     0    34     1    13
  3.2875150090210220E-02 a       674     0    34     1    14
  1.0333776028574493E-02 a       675     0    34     1    15
 -9.4473568415584366E-02 a       676     0    34     1    16
 -1.2543295137439410E-02 a       677     0    34     1    17
 -1.4599105356907378E-02 a       678     0    34     1    18
 -6.0943449024999360E-02 a       679     0    34     1    19
 -1.6332543743050237E-01 a       680     0    34     1    20
 -3.3732093993626699E-02 a       681     0    35     1     1
 -1.9416990028044888E-02 a       682     0    35     1     2
 -4.9326299956826268E-02 a       683     0    35     1     3
  8.8391313782791636E-02 a       684     0    35     1     4
 -4.8554704189654581E-02 a       685     0    35     1     5
 -1.6780258683944198E-03 a       686     0    35     1     6
 -1.1625305191876406E-01 a       687     0    35     1     7
  3.0917713219241111E-02 a       688     0    35     1     8
 -1.1054839904195457E-01 a       689     0    35     1     9
 -3.4622404672159747E-02 a       690     0    35     1    10
  9.1560210955757490E-02 a       691     0    35     1    11
  9.9888629899064024E-02 a       692     0    35     1    12
 -9.3973597227214822E-02 a       693     0    35     1    13
  6.2535679620304308E-03 a       694     0    35     1    14
 -3.2761817442198485E-02 a       695     0    35     1    15
 -3.5448598673664733E-02 a       696     0    35     1    16
  3.4452143156991264E-03 a       697     0    35     1    17
 -1.3586832656059188E-02 a       698     0    35     1    18
 -8.7454897381417332E-02 a       699     0    35     1    19
 -7.1645661848067574E-02 a       700     0    35     1    20
 -4.3743384130976420E-02 a       701     0    36     1     1
  4.1069229600438184E-02 a       702     0    36     1     2
  5.6726778125271949E-03 a       703     0    36     1     3
  8.2215028714433092E-02 a       704     0    36     1     4
  2.6841075072903824E-02 a       705     0    36     1     5
 -2.1363976519133854E-02 a       706     0    36     1     6
 -6.6638341972530934E-02 a       707     0    36     1     7
  1.8901206461557660E-04 a       708     0    36     1     8
 -7.1415070844125225E-02 a       709     0    36     1     9
 -1.1284293661832770E-02 a       710     0    36     1    10
  7.2828455159967789E-02 a       711     0    36     1    11
 -3.3234272734331972E-02 a       712     0    36     1    12
  5.3126155745922811E-02 a       713     0    36     1    13
  1.6186595247019286E-01 a       714     0    36     1    14
  2.9529183330649619E-02 a       715     0    36     1    15
 -1.3565177235402223E-01 a       716     0    36     1    16
  2.0243718294074488E-02 a       717     0    36     1    17
 -4.5583146913093973E-02 a       718     0    36     1    18
  6.2489379606989325E-02 a       719     0    36     1    19
 -8.5129715001486719E-03 a       720     0    36     1    20
  9.7860642998497324E-03 a       721     0    37     1     1
 -6.8285667384625952E-03 a       722     0    37     1     2
  2.8659818224390732E-02 a       723     0    37     1     3
  3.7666397374440407E-02 a       724     0    37     1     4
 -2.0039928957146378E-02 a       725     0    37     1     5
 -8.3918335112959153E-02 a       726     0    37     1     6
 -5.6004456764457505E-02 a       727     0    37     1     7
  3.0202804109238574E-01 a       728     0    37     1     8
  7.8013858590935336E-04 a       729     0    37     1     9
 -1.1846836456331219E-02 a       730     0    37     1    10
  9.9609041702285059E-02 a       731     0    37     1    11
  1.3149586842205063E-01 a       732     0    37     1    12
 -3.8090206883695743E-02 a       733     0    37     1    13
 -3.3952513246821275E-02 a       734     0    37     1    14
 -2.4866610161499589E-02 a       735     0    37     1    15
 -3.3287386320316595E-02 a       736     0    37     1    16
 -2.8983252265897375E-02 a       737     0    37     1    17
 -3.7029101233776091E-02 a       738     0    37     1    18
 -1.0247517067786498E-01 a       739     0    37     1    19
 -6.5319485158976009E-02 a       740     0    37     1    20
  8.5818447146394694E-02 a       741     0    38     1     1
 -2.1643283273125951E-03 a       742     0    38     1     2
  1.0300181989766238E-02 a       743     0    38     1     3
 -7.9416850254647953E-02 a       744     0    38     1     4
 -1.5199318636509087E-02 a       745     0    38     1     5
  2.1115470981090206E-03 a       746     0    38     1     6
  2.7474351877167184E-02 a       747     0    38     1     7
 -1.9243399969586467E-01 a       748     0    38     1     8
 -1.5769609506426785E-01 a       749     0    38     1     9
  5.9582501272517014E-03 a       750     0    38     1    10
  2.3764362575208510E-02 a       751     0    38     1    11
 -8.4460656555292113E-02 a       752     0    38     1    12
 -1.7829461593999001E-02 a       753     0    38     1    13
  6.2927682243212227E-02 a       754     0    38     1    14
 -2.0139795998360552E-04 a       755     0    38     1    15
  2.3346296227078490E-02 a       756     0    38     1    16
  6.4133664395355481E-04 a       757     0    38     1    17
 -9.2340992290737296E-03 a       758     0    38     1    18
  6.6274492262412013E-02 a       759     0    38     1    19
  6.5473549971346717E-02 a       760     0    38     1    20
 -2.1207476794771439E-02 a       761     0    39     1     1
 -5.9586995152303901E-03 a       762     0    39     1     2
  4.9114002361961610E-02 a       763     0    39     1     3
  5.4153419895079880E-02 a       764     0    39     1     4
  3.2264408400150844E-02 a       765     0    39     1     5
 -1.7656585343660228E-02 a       766     0    39     1     6
  5.7118324583401242E-02 a       767     0    39     1     7
  1.2282594151690680E-01 a       768     0    39     1     8
  1.2128492591177666E-01 a       769     0    39     1     9
  1.1998523323637465E-02 a       770     0    39     1    10
 -4.1951202634935611E-02 a       771     0    39     1    11
 -2.6353603457910324E-02 a       772     0    39     1    12
  6.4662392622961112E-02 a       773     0    39     1    13
 -3.0508976537815913E-02 a       774     0    39     1    14
 -1.7666058944843005E-03 a       775     0    39     1    15
  8.2284938194867700E-03 a       776     0    39     1    16
 -1.8722423875881900E-02 a       777     0    39     1    17
  2.6804979752959247E-02 a       778     0    39     1    18
  1.3186820691135019E-03 a       779     0    39     1    19
  6.0947569041517387E-02 a       780     0    39     1    20
  2.1548592246804615E-01 a       781     0    40     1     1
  4.7686714849704465E-02 a       782     0    40     1     2
  1.0742621308005615E-01 a       783     0    40     1     3
  1.9646475479049651E-02 a       784     0    40     1     4
  1.9135140929121558E-01 a       785     0    40     1     5
 -1.4383687103833334E-01 a       786     0    40     1     6
 -9.8991682810252363E-02 a       787     0    40     1     7
  1.8364779669078998E-01 a       788     0    40     1     8
 -5.2349901887637856E-02 a       789     0    40     1     9
 -2.0466969888714462E-01 a       790     0    40     1    10
  1.1846069526877843E-01 a       791     0    40     1    11
 -3.5125534628283644E-01 a       792     0    40     1    12
  6.9396849096166571E-02 a       793     0    40     1    13
 -1.9375360347393392E-01 a       794     0    40     1    14
 -3.3069832013259075E-02 a       795     0    40     1    15
  3.1877860710554047E-02 a       796     0    40     1    16
 -1.8614667460032011E-01 a       797     0    40     1    17
 -1.3507685515437342E-02 a       798     0    40     1    18
 -9.2197165845119194E-02 a       799     0    40     1    19
  1.5407898958276404E-02 a       800     0    40     1    20
 -4.6344710953519913E-02 a       801     0    41     1     1
 -3.2342792246751390E-01 a       802     0    41     1     2
  6.7005703207107969E-02 a       803     0    41     1     3
 -1.3941129022380896E-01 a       804     0    41     1     4
 -3.2938443107235493E-01 a       805     0    41     1     5
 -3.4053125983040902E-02 a       806     0    41     1     6
  4.0742431639819154E-01 a       807     0    41     1     7
 -1.9674000434705238E-01 a       808     0    41     1     8
 -2.4235245627321197E-01 a       809     0    41     1     9
 -2.0254913110550832E-01 a       810     0    41     1    10
 -1.4266384779774202E-01 a       811     0    41     1    11
  4.9483662555905000E-02 a       812     0    41     1    12
 -3.8024726350179727E-01 a       813     0    41     1    13
  3.5167837326043094E-01 a       814     0    41     1    14
  1.2532744918936706E-01 a       815     0    41     1    15
 -2.0745982420664288E-01 a       816     0    41     1    16
  4.9110137584318059E-01 a       817     0    41     1    17
 -7.8114669862189068E-02 a       818     0    41     1    18
 -2.7157162541094688E-02 a       819     0    41     1    19
 -7.6210800727129366E-02 a       820     0    41     1    20
  2.3458919934196698E-01 a       821     0    42     1     1
  1.5731658116738267E-02 a       822     0    42     1     2
 -1.1511346123007568E-02 a       823     0    42     1     3
 -2.3436415339370892E-01 a       824     0    42     1     4
  6.9025568256526046E-02 a       825     0    42     1     5
 -1.7818581763165101E-01 a       826     0    42     1     6
 -2.3613132529084424E-02 a       827     0    42     1     7
  3.9012126441792840E-02 a       828     0    42     1     8
 -1.8720969227733292E-01 a       829     0    42     1     9
  1.1958684409283418E-01 a       830     0    42     1    10
  1.0602702172260682E-01 a       831     0    42     1    11
 -2.0985947785390294E-01 a       832     0    42     1    12
  3.0913678445172225E-02 a       833     0    42     1    13
  1.6312741599051599E-02 a       834     0    42     1    14
 -5.1354507324767621E-03 a       835     0    42     1    15
  1.0915457854751147E-01 a       836     0    42     1    16
 -1.5774106889092587E-01 a       837     0    42     1    17
 -1.3093798052644290E-01 a       838     0    42     1    18
  2.1542934898208876E-01 a       839     0    42     1    19
 -1.2851261455495841E-01 a       840     0    42     1    20
 -2.0125646557894037E-02 a       841     0    43     1     1
 -7.6212668530004885E-02 a       842     0    43     1     2
 -6.6826199518736515E-02 a       843     0    43     1     3
 -1.0992821006894676E-01 a       844     0    43     1     4
 -1.2988681250789333E-01 a       845     0    43     1     5
  9.2400456908990902E-03 a       846     0    43     1     6
  1.6027158293900554E-01 a       847     0    43     1     7
  2.5049584092776567E-01 a       848     0    43     1     8
 -1.5627415697831190E-01 a       849     0    43     1     9
 -1.2626904623495819E-01 a       850     0    43     1    10
 -7.3004146382199833E-02 a       851     0    43     1    11
  1.2807281293396280E-01 a       852     0    43     1    12
 -1.0294522114013999E-01 a       853     0    43     1    13
 -2.1929039527351907E-01 a       854     0    43     1    14
 -6.2371531840258031E-02 a       855     0    43     1    15
  8.8046841802786907E-02 a       856     0    43     1    16
  3.6205594921689378E-02 a       857     0    43     1    17
  7.6626406748770193E-02 a       858     0    43     1    18
  4.0849250651649169E-02 a       859     0    43     1    19
 -8.0341668209793909E-03 a       860     0    43     1    20
  1.2630675813099429E-01 a       861     0    44     1     1
  2.2738719267320767E-01 a       862     0    44     1     2
  7.5298023135309478E-02 a       863     0    44     1     3
 -6.5100976476531416E-02 a       864     0    44     1     4
  4.9779984603598243E-01 a       865     0    44     1     5
  1.1949289434625612E-01 a       866     0    44     1     6
 -1.7325136527495494E-01 a       867     0    44     1     7
  2.3939746745364218E-01 a       868     0    44     1     8
  2.2090604897679830E-01 a       869     0    44     1     9
  2.9227465537168401E-01 a       870     0    44     1    10
 -1.6694920977552274E-01 a       871     0    44     1    11
  1.2539835128889917E-01 a       872     0    44     1    12
  1.5796231323576362E-01 a       873     0    44     1    13
 -1.1859100398882846E-01 a       874     0    44     1    14
 -1.4393199358832859E-01 a       875     0    44     1    15
  2.2278056431485493E-01 a       876     0    44     1    16
 -5.8845386535419253E-01 a       877     0    44     1    17
  9.8098740022186354E-02 a       878     0    44     1    18
 -1.1082278430977149E-02 a       879     0    44     1    19
  2.3732790537835058E-01 a       880     0    44     1    20
 -4.8287785200902215E-03 a       881     0    45     1     1
 -8.3889473400824213E-02 a       882     0    45     1     2
  1.6301182231644012E-01 a       883     0    45     1     3
  2.0422877843759507E-01 a       884     0    45     1     4
  2.7493029428640941E-02 a       885     0    45     1     5
 -1.4692578744056051E-01 a       886     0    45     1     6
  1.2831657925682918E-01 a       887     0    45     1     7
 -1.2813224676057466E-01 a       888     0    45     1     8
 -1.1725012532445811E-01 a       889     0    45     1     9
 -8.0427251631765895E-02 a       890     0    45     1    10
  8.5545153875842370E-02 a       891     0    45     1    11
  1.6778281024921834E-01 a       892     0    45     1    12
  2.2317966918293436E-01 a       893     0    45     1    13
 -4.1483551626406504E-02 a       894     0    45     1    14
  3.1291199034694281E-02 a       895     0    45     1    15
 -8.2960935849911474E-02 a       896     0    45     1    16
  1.7477379200737431E-01 a       897     0    45     1    17
  1.2868124303035769E-01 a       898     0    45     1    18
 -1.9115773170785991E-01 a       899     0    45     1    19
  1.9231677418579513E-01 a       900     0    45     1    20
 -1.3910635686615025E-01 a       901     0    46     1     1
  6.4691706147253711E-02 a       902     0    46     1     2
  1.4592648747678405E-01 a       903     0    46     1     3
 -6.0074952067819855E-02 a       904     0    46     1     4
  2.2338035855633345E-01 a       905     0    46     1     5
  1.6657836795662537E-01 a       906     0    46     1     6
 -2.3041305169361323E-01 a       907     0    46     1     7
  2.9511885071966427E-02 a       908     0    46     1     8
  2.1674182847774473E-01 a       909     0    46     1     9
  1.0312800613138318E-01 a       910     0    46     1    10
 -4.9327668692109097E-02 a       911     0    46     1    11
  1.3740807467369831E-01 a       912     0    46     1    12
  2.0639663952577950E-01 a       913     0    46     1    13
  7.4820302068936750E-02 a       914     0    46     1    14
  4.4300037057647290E-02 a       915     0    46     1    15
 -1.4931104254963046E-02 a       916     0    46     1    16
 -2.0108320843425151E-01 a       917     0    46     1    17
  2.6956977501077189E-01 a       918     0    46     1    18
 -2.0610401472664558E-01 a       919     0    46     1    19
  1.7386304258639765E-01 a       920     0    46     1    20
  9.5599504964108781E-02 a       921     0    47     1     1
  5.5559022179258767E-02 a       922     0    47     1     2
 -5.5361617204083564E-02 a       923     0    47     1     3
  1.0548648427923986E-01 a       924     0    47     1     4
 -1.0267441489071631E-01 a       925     0    47     1     5
  7.0829054833875776E-02 a       926     0    47     1     6
  5.2129857017569371E-02 a       927     0    47     1     7
 -3.0760668092716471E-02 a       928     0    47     1     8
 -1.0066749712959852E-01 a       929     0    47     1     9
  5.6669160154245730E-02 a       930     0    47     1    10
  4.1886069054242983E-02 a       931     0    47     1    11
  1.4982648941705032E-01 a       932     0    47     1    12
 -5.3325912716555061E-02 a       933     0    47     1    13
 -7.2371126578907458E-02 a       934     0    47     1    14
 -3.3721351230587615E-02 a       935     0    47     1    15
 -4.9431001274499696E-02 a       936     0    47     1    16
 -5.7989384504868229E-02 a       937     0    47     1    17
  3.6063245055680697E-02 a       938     0    47     1    18
  1.9852527658335001E-01 a       939     0    47     1    19
  1.4105077773256425E-02 a       940     0    47     1    20
 -1.0321179548313637E-01 a       941     0    48     1     1
 -2.1645174290678748E-02 a       942     0    48     1     2
  5.0043745249975430E-02 a       943     0    48     1     3
  2.8249156043189082E-02 a       944     0    48     1     4
 -1.3251634638555337E-01 a       945     0    48     1     5
 -4.1150369500040966E-02 a       946     0    48     1     6
  1.8853410452868990E-02 a       947     0    48     1     7
 -4.6469119200347207E-02 a       948     0    48     1     8
 -2.7140255538706852E-02 a       949     0    48     1     9
 -2.3754876548312004E-01 a       950     0    48     1    10
  5.6708493305488661E-02 a       951     0    48     1    11
 -8.5145879025835730E-02 a       952     0    48     1    12
 -7.6744379751072261E-02 a       953     0    48     1    13
 -3.7040552186029800E-02 a       954     0    48     1    14
 -7.5176267231976731E-03 a       955     0    48     1    15
 -4.3874917440472103E-02 a       956     0    48     1    16
 -2.2391284230512690E-02 a       957     0    48     1    17
 -1.1624888499484275E-02 a       958     0    48     1    18
  1.4899641577981829E-01 a       959     0    48     1    19
  4.7899290833040335E-02 a       960     0    48     1    20
  2.4243931345747904E-01 a       961     0    49     1     1
 -2.5830347964947029E-02 a       962     0    49     1     2
  6.1834857505131659E-02 a       963     0    49     1     3
  2.6135448752785184E-01 a       964     0    49     1     4
 -2.3502918020516274E-02 a       965     0    49     1     5
 -1.5261718218503392E-01 a       966     0    49     1     6
  1.9734419569157325E-02 a       967     0    49     1     7
  1.9330879153935182E-01 a       968     0    49     1     8
 -9.6392292464143298E-02 a       969     0    49     1     9
  1.5224903698122666E-01 a       970     0    49     1    10
  1.6436832452507563E-01 a       971     0    49     1    11
 -2.4113935159251548E-01 a       972     0    49     1    12
 -9.5812076348340311E-02 a       973     0    49     1    13
 -7.1706010651816129E-02 a       974     0    49     1    14
 -1.0988050360285882E-02 a       975     0    49     1    15
  5.3745102034133199E-02 a       976     0    49     1    16
  1.3211161260400459E-01 a       977     0    49     1    17
 -1.6461774328096312E-01 a       978     0    49     1    18
  1.4333957219437497E-02 a       979     0    49     1    19
  1.8699543352999292E-02 a       980     0    49     1    20
 -5.5905477143327623E-02 a       981     0    50     1     1
  4.8893227525701843E-04 a       982     0    50     1     2
  2.2706149099394549E-01 a       983     0    50     1     3
 -5.2069101054412731E-02 a       984     0    50     1     4
 -1.2911345475441692E-02 a       985     0    50     1     5
  3.0940273584961944E-02 a       986     0    50     1     6
  1.4703034622155969E-02 a       987     0    50     1     7
  2.4313092722118410E-01 a       988     0    50     1     8
 -1.5595536882928257E-02 a       989     0    50     1     9
  8.0500839398001525E-02 a       990     0    50     1    10
 -1.0353116529828144E-01 a       991     0    50     1    11
  4.1448795985600112E-01 a       992     0    50     1    12
 -4.4846219634084562E-02 a       993     0    50     1    13
 -1.2951433297445203E-01 a       994     0    50     1    14
  4.0406274814228441E-02 a       995     0    50     1    15
 -1.2112023895264297E-01 a       996     0    50     1    16
 -1.4718481557391580E-01 a       997     0    50     1    17
 -1.5242877474829655E-01 a       998     0    50     1    18
 -7.0261612686605612E-03 a       999     0    50     1    19
 -8.7915272329928559E-02 a      1000     0    50     1    20
  3.1160908214481481E-01 a      1001     0    51     1     1
  2.6342205435754534E-01 a      1002     0    51     1     2
 -7.6269115159037193E-01 a      1003     0    51     1     3
  2.5063853068823699E-01 a      1004     0    51     1     4
  1.2982616137418862E-01 a      1005     0    51     1     5
 -1.6222753955028332E-01 a      1006     0    51     1     6
 -2.8550291931713706E-01 a      1007     0    51     1     7
  2.6478764463890150E-02 a      1008     0    51     1     8
  1.3767128746910565E-01 a      1009     0    51     1     9
  3.9921663027383469E-01 a      1010     0    51     1    10
  3.1226764657472489E-01 a      1011     0    51     1    11
 -4.7091886861284021E-01 a      1012     0    51     1    12
  3.0599886627077921E-01 a      1013     0    51     1    13
 -1.4636292137589446E-01 a      1014     0    51     1    14
 -1.7591210994607639E-01 a      1015     0    51     1    15
  1.7467507289837164E-01 a      1016     0    51     1    16
 -1.0868393157497507E-01 a      1017     0    51     1    17
  1.2911896462109290E-01 a      1018     0    51     1    18
  3.0440269103005520E-02 a      1019     0    51     1    19
 -8.5352117753179399E-02 a      1020     0    51     1    20
 -4.7440925646500702E-02 a      1021     0    52     1     1
  4.3062782654358776E-02 a      1022     0    52     1     2
  1.0316547259945588E-01 a      1023     0    52     1     3
  1.4783553929065085E-01 a      1024     0    52     1     4
 -1.4681924543160851E-01 a      1025     0    52     1     5
  1.7791506280790642E-01 a      1026     0    52     1     6
 -7.7732414604632697E-05 a      1027     0    52     1     7
 -1.0221178156054180E-01 a      1028     0    52     1     8
  5.7458419050782535E-02 a      1029     0    52     1     9
 -1.6470848707399580E-01 a      1030     0    52     1    10
 -5.8111081730776955E-02 a      1031     0    52     1    11
  1.3754478157715511E-01 a      1032     0    52     1    12
  7.6790791820590971E-03 a      1033     0    52     1    13
 -1.9509309798246394E-01 a      1034     0    52     1    14
 -3.2270116904567769E-03 a      1035     0    52     1    15
 -5.3762570716583913E-02 a      1036     0    52     1    16
  4.4442677629347865E-02 a      1037     0    52     1    17
  9.9168875352664615E-04 a      1038     0    52     1    18
 -1.4747247105287403E-01 a      1039     0    52     1    19
  7.7237191491893065E-02 a      1040     0    52     1    20
  1.1320814064422099E-01 a      1041     0    53     1     1
 -3.0067671258186490E-02 a      1042     0    53     1     2
  1.0257154179289411E-01 a      1043     0    53     1     3
 -7.3228181480851681E-02 a      1044     0    53     1     4
 -5.3695187407368210E-03 a      1045     0    53     1     5
 -5.2316355122391939E-02 a      1046     0    53     1     6
 -2.7645314889093338E-02 a      1047     0    53     1     7
 -1.5681075385943131E-02 a      1048     0    53     1     8
 -1.3009890699415563E-01 a      1049     0    53     1     9
  2.4643193205165202E-02 a      1050     0    53     1    10
  2.1644348394410842E-02 a      1051     0    53     1    11
 -1.0649665979235988E-01 a      1052     0    53     1    12
  9.2395091204237653E-02 a      1053     0    53     1    13
 -2.5276161422700925E-02 a      1054     0    53     1    14
  7.4460861366431631E-04 a      1055     0    53     1    15
  8.0224662966068214E-02 a      1056     0    53     1    16
 -6.5538788620479072E-02 a      1057     0    53     1    17
 -4.2529593954270008E-02 a      1058     0    53     1    18
  1.3575231607409316E-01 a      1059     0    53     1    19
 -5.9661751601055940E-02 a      1060     0    53     1    20
 -2.5089284312802190E-01 a      1061     0    54     1     1
 -6.2065982699034433E-02 a      1062     0    54     1     2
  1.2610030096073882E-01 a      1063     0    54     1     3
 -9.6314780996163432E-02 a      1064     0    54     1     4
 -2.1775985237303794E-01 a      1065     0    54     1     5
  2.3889284726780333E-01 a      1066     0    54     1     6
  6.5429758904789220E-02 a      1067     0    54     1     7
 -4.6255250137685699E-01 a      1068     0    54     1     8
 -4.3242255231451976E-02 a      1069     0    54     1     9
 -1.4566939984156652E-01 a      1070     0    54     1    10
 -1.0500031254822816E-01 a      1071     0    54     1    11
  2.7839053884183668E-01 a      1072     0    54     1    12
  7.4238306436408788E-02 a      1073     0    54     1    13
  2.8708190706843312E-01 a      1074     0    54     1    14
  1.0452617521393805E-01 a      1075     0    54     1    15
  5.1342044039726788E-02 a      1076     0    54     1    16
  2.6672545720903046E-01 a      1077     0    54     1    17
 -3.7719517830831162E-02 a      1078     0    54     1    18
 -9.9440799277500519E-02 a      1079     0    54     1    19
 -6.9350990642651498E-03 a      1080     0    54     1    20
 -4.8817063025562969E-02 a      1081     0    55     1     1
  2.7733294076155695E-02 a      1082     0    55     1     2
 -1.2554823726723807E-01 a      1083     0    55     1     3
 -3.7789814581084179E-02 a      1084     0    55     1     4
 -1.3503280563250319E-01 a      1085     0    55     1     5
 -1.0592120615327761E-02 a      1086     0    55     1     6
 -2.2022792709085772E-02 a      1087     0    55     1     7
  3.6160886909984556E-02 a      1088     0    55     1     8
  2.2928230616001322E-01 a      1089     0    55     1     9
 -1.0247224501475480E-02 a      1090     0    55     1    10
  4.2095999959558275E-02 a      1091     0    55     1    11
 -9.2269901166307733E-02 a      1092     0    55     1    12
 -2.3898540684139405E-01 a      1093     0    55     1    13
  7.3923592668674140E-02 a      1094     0    55     1    14
 -3.8819717837027504E-03 a      1095     0    55     1    15
 -5.3084505076061661E-02 a      1096     0    55     1    16
  5.0263879819350932E-02 a      1097     0    55     1    17
 -8.3123853522671820E-02 a      1098     0    55     1    18
  1.3290350923814798E-01 a      1099     0    55     1    19
 -1.3650551831026989E-01 a      1100     0    55     1    20
  1.1353924095425634E-01 a      1101     0    56     1     1
 -6.0897051738112294E-02 a      1102     0    56     1     2
 -1.5593248177184530E-02 a      1103     0    56     1     3
  1.0264313059597673E-01 a      1104     0    56     1     4
  3.6818687474238436E-02 a      1105     0    56     1     5
  1.2674751582447211E-01 a      1106     0    56     1     6
  4.8801898474488813E-02 a      1107     0    56     1     7
  1.0292252237183547E-01 a      1108     0    56     1     8
 -5.0188628120834834E-02 a      1109     0    56     1     9
  5.8552951748850654E-02 a      1110     0    56     1    10
 -5.5467416291755729E-02 a      1111     0    56     1    11
  2.5742354844645293E-02 a      1112     0    56     1    12
  1.7062634242113385E-02 a      1113     0    56     1    13
  2.8815923984872031E-02 a      1114     0    56     1    14
 -4.8045659170312477E-02 a      1115     0    56     1    15
 -5.8519519747377034E-02 a      1116     0    56     1    16
  1.5296032394203005E-02 a      1117     0    56     1    17
  7.3177876589298349E-02 a      1118     0    56     1    18
 -1.3351078784829795E-01 a      1119     0    56     1    19
  5.1228836953055988E-02 a      1120     0    56     1    20
 -8.8328088735815227E-02 a      1121     0    57     1     1
 -1.9934871191074721E-01 a      1122     0    57     1     2
  1.0368874914572564E-01 a      1123     0    57     1     3
 -7.6720527795983998E-02 a      1124     0    57     1     4
  1.1833973504667812E-01 a      1125     0    57     1     5
 -2.8704999939345374E-02 a      1126     0    57     1     6
  6.7659775649378584E-02 a      1127     0    57     1     7
 -2.9953357310143990E-02 a      1128     0    57     1     8
  1.8759945093177804E-01 a      1129     0    57     1     9
 -1.1321916954649808E-03 a      1130     0    57     1    10
 -2.1113118863280941E-01 a      1131     0    57     1    11
 -2.1807160850563995E-01 a      1132     0    57     1    12
 -4.3891095775937083E-02 a      1133     0    57     1    13
 -7.5476700623149956E-02 a      1134     0    57     1    14
 -4.8617976107069132E-02 a      1135     0    57     1    15
  1.1211470717163055E-01 a      1136     0    57     1    16
 -4.9454465772640614E-02 a      1137     0    57     1    17
  1.5862450270706256E-02 a      1138     0    57     1    18
 -1.5894421775369832E-01 a      1139     0    57     1    19
  1.7590044147489537E-02 a      1140     0    57     1    20
  2.1867933148486748E-01 a      1141     0    58     1     1
  5.7805171483675047E-02 a      1142     0    58     1     2
  4.7693447115014689E-03 a      1143     0    58     1     3
 -7.5415212031904238E-02 a      1144     0    58     1     4
  1.0420402464848416E-01 a      1145     0    58     1     5
 -1.1645187276537899E-01 a      1146     0    58     1     6
  2.9300331516060256E-02 a      1147     0    58     1     7
 -1.1142595556670266E-01 a      1148     0    58     1     8
 -1.2919406962559027E-01 a      1149     0    58     1     9
  1.9057354017670433E-01 a      1150     0    58     1    10
  1.1336484637375134E-03 a      1151     0    58     1    11
 -8.8782031416725048E-03 a      1152     0    58     1    12
  6.8114340548209806E-02 a      1153     0    58     1    13
  7.2056339804329739E-02 a      1154     0    58     1    14
  6.0408499388497197E-02 a      1155     0    58     1    15
  5.1012612494485840E-02 a      1156     0    58     1    16
  4.8563859745783450E-02 a      1157     0    58     1    17
 -1.1638621735945913E-01 a      1158     0    58     1    18
  3.4551768140349236E-02 a      1159     0    58     1    19
 -5.7546170619676928E-02 a      1160     0    58     1    20
 -1.9143708999678719E-01 a      1161     0    59     1     1
  1.4766107594166261E-01 a      1162     0    59     1     2
  9.1506008675405915E-03 a      1163     0    59     1     3
 -9.2496371479738361E-03 a      1164     0    59     1     4
 -1.1119522943120609E-02 a      1165     0    59     1     5
  1.3687961419349585E-02 a      1166     0    59     1     6
 -7.8854178041513096E-02 a      1167     0    59     1     7
  9.9400629279105590E-02 a      1168     0    59     1     8
 -1.5427301403693724E-01 a      1169     0    59     1     9
 -7.3983787956910699E-02 a      1170     0    59     1    10
  1.3811333539202325E-01 a      1171     0    59     1    11
  1.3989227613998217E-01 a      1172     0    59     1    12
 -1.8413762526183347E-01 a      1173     0    59     1    13
  6.2074053694392631E-02 a      1174     0    59     1    14
  2.1186658287523145E-02 a      1175     0    59     1    15
 -1.7791941107477896E-01 a      1176     0    59     1    16
 -8.8535924854838965E-02 a      1177     0    59     1    17
  2.6388519945536371E-02 a      1178     0    59     1    18
 -2.2662724466045003E-01 a      1179     0    59     1    19
  1.1068806523866587E-01 a      1180     0    59     1    20
 -5.2614596552553412E-02 a      1181     0    60     1     1
  5.7603792101756316E-03 a      1182     0    60     1     2
 -1.5312908467694623E-02 a      1183     0    60     1     3
  2.3261684363254734E-01 a      1184     0    60     1     4
  5.3994368856239506E-03 a      1185     0    60     1     5
 -1.2564359914495456E-02 a      1186     0    60     1     6
 -8.9617266281668911E-02 a      1187     0    60     1     7
 -1.4310772147268030E-01 a      1188     0    60     1     8
  1.7859313850230610E-02 a      1189     0    60     1     9
  7.2166185226393530E-03 a      1190     0    60     1    10
  2.5551188147380700E-02 a      1191     0    60     1    11
 -9.3049821196918195E-02 a      1192     0    60     1    12
  1.0848648310110284E-01 a      1193     0    60     1    13
 -9.7446978727946173E-04 a      1194     0    60     1    14
  3.0193701779042591E-02 a      1195     0    60     1    15
 -3.9394451576412914E-02 a      1196     0    60     1    16
 -5.8161308958925417E-03 a      1197     0    60     1    17
 -1.0911226271250349E-01 a      1198     0    60     1    18
 -4.0513740502146164E-02 a      1199     0    60     1    19
 -6.5264025414539004E-02 a      1200     0    60     1    20
  2.2834391489443114E-02 a      1201     0    61     1     1
 -8.0243814910788656E-03 a      1202     0    61     1     2
 -2.3733015614153599E-02 a      1203     0    61     1     3
 -5.8523739854322833E-02 a      1204     0    61     1     4
  1.8631232949575822E-02 a      1205     0    61     1     5
  3.1637480722925194E-02 a      1206     0    61     1     6
  1.1520883165107229E-01 a      1207     0    61     1     7
  7.3273630500390985E-02 a      1208     0    61     1     8
  1.6605882265311941E-01 a      1209     0    61     1     9
  1.0503665483254891E-01 a      1210     0    61     1    10
 -6.3731781145945701E-02 a      1211     0    61     1    11
 -5.7672483407130909E-02 a      1212     0    61     1    12
  1.1775403923607196E-01 a      1213     0    61     1    13
  2.9258030046246910E-02 a      1214     0    61     1    14
 -2.5053493817245927E-02 a      1215     0    61     1    15
  1.0015600178772163E-01 a      1216     0    61     1    16
  4.8361851759186354E-03 a      1217     0    61     1    17
  1.4486917686754930E-01 a      1218     0    61     1    18
 -2.0514583067299707E-02 a      1219     0    61     1    19
  1.3189691626505401E-01 a      1220     0    61     1    20
 -6.8893607553589795E-02 a      1221     0    62     1     1
 -2.4548142307603806E-02 a      1222     0    62     1     2
 -4.4726800040377650E-02 a      1223     0    62     1     3
 -2.6279261904369730E-02 a      1224     0    62     1     4
  2.2411296827177300E-02 a      1225     0    62     1     5
  1.0726130914655346E-01 a      1226     0    62     1     6
  1.0654422452749392E-02 a      1227     0    62     1     7
 -4.9595669438981235E-02 a      1228     0    62     1     8
  1.2602954578904643E-01 a      1229     0    62     1     9
 -4.5644006083445904E-02 a      1230     0    62     1    10
 -1.1863730202540848E-01 a      1231     0    62     1    11
 -1.5707511951374656E-01 a      1232     0    62     1    12
 -5.6292885711067928E-02 a      1233     0    62     1    13
  1.5686759157121182E-02 a      1234     0    62     1    14
  7.7473845016296878E-03 a      1235     0    62     1    15
 -3.8589245505795247E-02 a      1236     0    62     1    16
 -5.9929394252654519E-02 a      1237     0    62     1    17
  4.2084498178852535E-02 a      1238     0    62     1    18
  1.5487561326394431E-01 a      1239     0    62     1    19
  5.4765034383860933E-02 a      1240     0    62     1    20
  3.4434431293889574E-02 a      1241     0    63     1     1
  9.6383349823860407E-03 a      1242     0    63     1     2
 -6.2855037732801017E-02 a      1243     0    63     1     3
  1.3966151874558297E-01 a      1244     0    63     1     4
  5.7652809594513577E-02 a      1245     0    63     1     5
 -6.1717053814531055E-02 a      1246     0    63     1     6
 -8.6372276901300518E-02 a      1247     0    63     1     7
  7.2610510694923303E-02 a      1248     0    63     1     8
 -3.8483395754973101E-02 a      1249     0    63     1     9
  3.0451844808858559E-02 a      1250     0    63     1    10
  7.8157571196568854E-02 a      1251     0    63     1    11
 -1.2600768881069344E-01 a      1252     0    63     1    12
 -4.5170157166164175E-02 a      1253     0    63     1    13
  2.1921512034707141E-02 a      1254     0    63     1    14
 -1.4341947817855756E-02 a      1255     0    63     1    15
 -1.2451183975333971E-01 a      1256     0    63     1    16
 -1.5983989856602827E-02 a      1257     0    63     1    17
 -9.4334493013021437E-02 a      1258     0    63     1    18
 -7.7554459339806273E-02 a      1259     0    63     1    19
 -8.4401390480533273E-02 a      1260     0    63     1    20
 -3.7556366617353593E-01 a      1261     0    64     1     1
  3.8318145281286908E-02 a      1262     0    64     1     2
 -1.4970345764585341E-01 a      1263     0    64     1     3
  1.7791000532657217E-01 a      1264     0    64     1     4
 -5.6081742312547790E-02 a      1265     0    64     1     5
  3.2920210930068861E-02 a      1266     0    64     1     6
 -3.3239899628412284E-01 a      1267     0    64     1     7
  1.7687681105766254E-01 a      1268     0    64     1     8
 -6.0164231519270906E-04 a      1269     0    64     1     9
 -1.4706503978203089E-01 a      1270     0    64     1    10
  1.3571144266915688E-01 a      1271     0    64     1    11
  2.9301565431436260E-02 a      1272     0    64     1    12
 -1.1400212543416334E-01 a      1273     0    64     1    13
  3.3458988230498127E-01 a      1274     0    64     1    14
  7.9891979294981000E-03 a      1275     0    64     1    15
 -1.0451066092111289E-01 a      1276     0    64     1    16
  1.2758316255485400E-01 a      1277     0    64     1    17
 -2.4011909978819840E-01 a      1278     0    64     1    18
  9.7247538836883057E-02 a      1279     0    64     1    19
 -2.3554641099004492E-01 a      1280     0    64     1    20
 -4.9186059053875963E-02 a      1281     0    65     1     1
 -4.7186492912730180E-02 a      1282     0    65     1     2
 -3.0258953799397418E-02 a      1283     0    65     1     3
 -8.2621104277699545E-02 a      1284     0    65     1     4
 -2.2590303801068513E-02 a      1285     0    65     1     5
  4.4343207661046206E-02 a      1286     0    65     1     6
  4.7007845606878255E-02 a      1287     0    65     1     7
  1.5771993275483415E-02 a      1288     0    65     1     8
  8.5770816908541048E-02 a      1289     0    65     1     9
 -7.7786281689827735E-02 a      1290     0    65     1    10
 -1.0660256503646341E-01 a      1291     0    65     1    11
 -1.0915355008420351E-02 a      1292     0    65     1    12
  6.8756785841216084E-02 a      1293     0    65     1    13
  5.9033260328818560E-02 a      1294     0    65     1    14
  2.4352066227349624E-02 a      1295     0    65     1    15
  1.0685813543827188E-01 a      1296     0    65     1    16
  1.0628102308615284E-01 a      1297     0    65     1    17
  3.3282706524382991E-02 a      1298     0    65     1    18
 -1.1192892619107948E-01 a      1299     0    65     1    19
 -3.8213548563759928E-02 a      1300     0    65     1    20
 -1.1563993598251712E-02 a      1301     0    66     1     1
  6.4434274925924323E-02 a      1302     0    66     1     2
 -6.8897976096297817E-02 a      1303     0    66     1     3
  8.4992309851711439E-02 a      1304     0    66     1     4
 -3.3570434389565938E-02 a      1305     0    66     1     5
  8.3923652752514205E-02 a      1306     0    66     1     6
 -8.1231592491004354E-02 a      1307     0    66     1     7
  1.4082489988437477E-01 a      1308     0    66     1     8
 -5.8202526583641431E-02 a      1309     0    66     1     9
  3.8043672752049928E-03 a      1310     0    66     1    10
  7.6177882532042801E-02 a      1311     0    66     1    11
  3.6317224347216973E-02 a      1312     0    66     1    12
 -2.6344432290514017E-02 a      1313     0    66     1    13
  3.2826370859207965E-01 a      1314     0    66     1    14
 -4.9325653870430225E-02 a      1315     0    66     1    15
 -1.6968951924772151E-02 a      1316     0    66     1    16
  1.0454500431532215E-01 a      1317     0    66     1    17
 -1.6331130842398545E-01 a      1318     0    66     1    18
  1.2666092891008696E-01 a      1319     0    66     1    19
 -3.4828694917954255E-02 a      1320     0    66     1    20
 -1.7611131126570416E-02 a      1321     0    67     1     1
 -3.9014047634266955E-02 a      1322     0    67     1     2
 -4.9712671692505671E-02 a      1323     0    67     1     3
  6.6905695562525735E-02 a      1324     0    67     1     4
  5.8943489744520433E-02 a      1325     0    67     1     5
  3.9697218103369944E-02 a      1326     0    67     1     6
 -1.1671723577711131E-01 a      1327     0    67     1     7
  1.5248282783761966E-01 a      1328     0    67     1     8
 -1.8245502705944685E-02 a      1329     0    67     1     9
  7.4817219647281233E-02 a      1330     0    67     1    10
  4.2705477786735613E-02 a      1331     0    67     1    11
  5.4863520862396382E-02 a      1332     0    67     1    12
  3.2833650748660591E-02 a      1333     0    67     1    13
  8.0744634507155730E-02 a      1334     0    67     1    14
 -1.1289435460468939E-02 a      1335     0    67     1    15
 -6.8702330544663751E-02 a      1336     0    67     1    16
  1.0569329503294868E-02 a      1337     0    67     1    17
  1.9311725734056370E-02 a      1338     0    67     1    18
 -1.8212977348840340E-01 a      1339     0    67     1    19
 -8.9095851783523292E-02 a      1340     0    67     1    20
  1.4344825999544526E-02 a      1341     0    68     1     1
 -1.4597348781401434E-02 a      1342     0    68     1     2
 -2.9264630931118200E-02 a      1343     0    68     1     3
  1.0683132234782233E-01 a      1344     0    68     1     4
  4.9058315248740707E-02 a      1345     0    68     1     5
 -9.0390512169542248E-02 a      1346     0    68     1     6
 -3.1757799526449082E-02 a      1347     0    68     1     7
  4.5572610569291024E-02 a      1348     0    68     1     8
  5.0566070918267238E-02 a      1349     0    68     1     9
  8.3806140683923031E-02 a      1350     0    68     1    10
 -1.8905827888448641E-02 a      1351     0    68     1    11
  5.7149796991771723E-02 a      1352     0    68     1    12
  8.3197961833040637E-02 a      1353     0    68     1    13
 -4.0393096377733154E-02 a      1354     0    68     1    14
  3.9135136698208511E-03 a      1355     0    68     1    15
  6.2951442887827655E-02 a      1356     0    68     1    16
  5.2255769352339476E-03 a      1357     0    68     1    17
 -5.6764504558168359E-02 a      1358     0    68     1    18
  4.0128123859198544E-03 a      1359     0    68     1    19
 -7.5914117785682134E-02 a      1360     0    68     1    20
 -1.9071612533606444E-01 a      1361     0    69     1     1
  9.2308234408686587E-02 a      1362     0    69     1     2
 -3.8114119361882595E-02 a      1363     0    69     1     3
 -2.7517843926851537E-01 a      1364     0    69     1     4
 -5.6858941874016238E-02 a      1365     0    69     1     5
  8.2319084938011225E-02 a      1366     0    69     1     6
  2.4970410287423722E-02 a      1367     0    69     1     7
 -5.7070659198956951E-02 a      1368     0    69     1     8
  9.4996278971600564E-03 a      1369     0    69     1     9
 -1.7341494320478268E-01 a      1370     0    69     1    10
 -1.3288306894746246E-01 a      1371     0    69     1    11
  1.2586778700837639E-01 a      1372     0    69     1    12
  1.0201000953359797E-01 a      1373     0    69     1    13
 -1.3427624394911125E-01 a      1374     0    69     1    14
  3.7508423198440256E-02 a      1375     0    69     1    15
  1.3301906228277854E-01 a      1376     0    69     1    16
  3.2069455184420760E-02 a      1377     0    69     1    17
  4.8964373197731177E-02 a      1378     0    69     1    18
  1.1317381904170015E-02 a      1379     0    69     1    19
 -6.1433264943396695E-02 a      1380     0    69     1    20
  1.5180965483453654E-01 a      1381     0    70     1     1
  9.7984549379806843E-02 a      1382     0    70     1     2
 -1.3066881476361555E-01 a      1383     0    70     1     3
 -2.6660786291280825E-02 a      1384     0    70     1     4
 -7.2678656239698963E-02 a      1385     0    70     1     5
 -1.8523300327963305E-01 a      1386     0    70     1     6
  1.4153182300434233E-01 a      1387     0    70     1     7
 -3.3658112462329243E-01 a      1388     0    70     1     8
 -1.7939374127217783E-01 a      1389     0    70     1     9
  1.0305519865164037E-01 a      1390     0    70     1    10
  1.0722797751367336E-01 a      1391     0    70     1    11
 -6.2500453592592625E-02 a      1392     0    70     1    12
 -7.7990255766075640E-03 a      1393     0    70     1    13
  1.7212260145443944E-01 a      1394     0    70     1    14
  9.4296671801816237E-02 a      1395     0    70     1    15
  1.6926041371187042E-01 a      1396     0    70     1    16
  4.0095233468733948E-01 a      1397     0    70     1    17
  1.0625469983681414E-02 a      1398     0    70     1    18
  2.6351595362785735E-01 a      1399     0    70     1    19
  2.3284425907464767E-02 a      1400     0    70     1    20
 -1.1093434475219446E-01 a      1401     0    71     1     1
 -2.6695591406528807E-01 a      1402     0    71     1     2
  1.0165037248480819E+00 a      1403     0    71     1     3
  1.8693168577342170E-02 a      1404     0    71     1     4
 -5.8083407358371558E-02 a      1405     0    71     1     5
  9.6195915029526569E-02 a      1406     0    71     1     6
  1.1037199849472346E-01 a      1407     0    71     1     7
  8.5381677931140095E-03 a      1408     0    71     1     8
  1.1262591910607200E-01 a      1409     0    71     1     9
 -4.0632249419007888E-01 a      1410     0    71     1    10
  3.8332470119869018E-02 a      1411     0    71     1    11
  3.2078416355701311E-01 a      1412     0    71     1    12
  8.1779139801122624E-01 a      1413     0    71     1    13
 -1.7684908295344023E-01 a      1414     0    71     1    14
 -1.4131035311142848E-01 a      1415     0    71     1    15
 -2.7077032094182424E-01 a      1416     0    71     1    16
 -6.4375337833393742E-01 a      1417     0    71     1    17
  3.9371301929710778E-02 a      1418     0    71     1    18
 -3.5363961747564693E-01 a      1419     0    71     1    19
  4.5535166880562977E-01 a      1420     0    71     1    20
  4.5278391718443618E-02 a      1421     0    72     1     1
 -2.4728372059179743E-02 a      1422     0    72     1     2
  1.9625933073607792E-02 a      1423     0    72     1     3
 -6.7359745683315722E-02 a      1424     0    72     1     4
  3.7770310356366112E-02 a      1425     0    72     1     5
 -1.1231429216977454E-01 a      1426     0    72     1     6
  3.4736001307946004E-02 a      1427     0    72     1     7
  8.0364994200142495E-02 a      1428     0    72     1     8
 -9.5314255465986861E-02 a      1429     0    72     1     9
  9.6900603293776824E-02 a      1430     0    72     1    10
  3.7999987431338048E-02 a      1431     0    72     1    11
 -6.4317182139470130E-02 a      1432     0    72     1    12
  1.9353095327924594E-02 a      1433     0    72     1    13
  5.6993031123134356E-02 a      1434     0    72     1    14
  2.2604857025655893E-02 a      1435     0    72     1    15
  7.6223519443888901E-02 a      1436     0    72     1    16
  5.5489068017825546E-04 a      1437     0    72     1    17
 -1.8618369722270652E-02 a      1438     0    72     1    18
  1.1484673758613068E-01 a      1439     0    72     1    19
 -2.0719747718631415E-02 a      1440     0    72     1    20
 -6.0326905201981224E-02 a      1441     0    73     1     1
  1.5258163611567486E-02 a      1442     0    73     1     2
 -4.7328515251436852E-02 a      1443     0    73     1     3
 -3.1050534587879788E-02 a      1444     0    73     1     4
 -5.1794101421364499E-03 a      1445     0    73     1     5
 -6.4842590596316682E-02 a      1446     0    73     1     6
  2.4054426959172568E-02 a      1447     0    73     1     7
 -1.0130567140251907E-01 a      1448     0    73     1     8
  1.5908276726780586E-02 a      1449     0    73     1     9
 -8.4042326375972573E-03 a      1450     0    73     1    10
  1.3759929611202829E-02 a      1451     0    73     1    11
  7.6278740121933017E-02 a      1452     0    73     1    12
  1.3860155238841615E-01 a      1453     0    73     1    13
 -2.0540007872603291E-02 a      1454     0    73     1    14
 -1.2954879811382346E-02 a      1455     0    73     1    15
  1.1959928587878216E-02 a      1456     0    73     1    16
  2.4149001295321659E-02 a      1457     0    73     1    17
  2.4826111749559218E-02 a      1458     0    73     1    18
 -2.1143014234717511E-02 a      1459     0    73     1    19
  7.7115077856781136E-02 a      1460     0    73     1    20
  1.6906560977366566E-01 a      1461     0    74     1     1
  8.7845338529413175E-02 a      1462     0    74     1     2
 -2.7519789901798741E-01 a      1463     0    74     1     3
  6.8677631152004120E-02 a      1464     0    74     1     4
  4.8041606369507737E-02 a      1465     0    74     1     5
 -3.6204862316616473E-02 a      1466     0    74     1     6
 -1.0377820896214512E-01 a      1467     0    74     1     7
  3.8338022893261980E-01 a      1468     0    74     1     8
 -2.3118294825071597E-01 a      1469     0    74     1     9
  1.2000228688762979E-01 a      1470     0    74     1    10
  1.8202372400212413E-01 a      1471     0    74     1    11
 -9.7711757559077489E-02 a      1472     0    74     1    12
 -7.7651143743396367E-01 a      1473     0    74     1    13
  2.4625098901547290E-02 a      1474     0    74     1    14
 -1.7632193516448031E-02 a      1475     0    74     1    15
 -1.5375279770387817E-01 a      1476     0    74     1    16
  7.2143816962286236E-02 a      1477     0    74     1    17
 -2.5954372515070611E-02 a      1478     0    74     1    18
 -1.3991366803075339E-01 a      1479     0    74     1    19
 -8.5925650545495946E-02 a      1480     0    74     1    20
  4.7585511398949752E-02 a      1481     0    75     1     1
  5.9876905921751405E-02 a      1482     0    75     1     2
 -1.2459505656329167E-02 a      1483     0    75     1     3
 -2.5668447370307546E-01 a      1484     0    75     1     4
  1.1385136128888688E-01 a      1485     0    75     1     5
  3.7576438238462795E-02 a      1486     0    75     1     6
 -1.8553806925196134E-02 a      1487     0    75     1     7
 -1.9333452510715338E-01 a      1488     0    75     1     8
 -9.2460548541870580E-02 a      1489     0    75     1     9
  1.1286050185514304E-01 a      1490     0    75     1    10
  6.5877159795666605E-03 a      1491     0    75     1    11
  2.1454888728017205E-01 a      1492     0    75     1    12
  2.3798529370047652E-01 a      1493     0    75     1    13
 -9.6281467107696382E-03 a      1494     0    75     1    14
  4.4503811852274706E-02 a      1495     0    75     1    15
 -4.5699068109008659E-02 a      1496     0    75     1    16
  4.9735322465617730E-02 a      1497     0    75     1    17
  1.0383281265964826E-01 a      1498     0    75     1    18
 -8.4740279080853020E-02 a      1499     0    75     1    19
 -3.7679316016057930E-02 a      1500     0    75     1    20
 -7.9691309523356874E-02 a      1501     0    76     1     1
  3.2448038551351865E-02 a      1502     0    76     1     2
 -1.4793951083372409E-02 a      1503     0    76     1     3
  6.9485948565379735E-02 a      1504     0    76     1     4
 -6.1607427098522960E-02 a      1505     0    76     1     5
 -4.7818421088644189E-02 a      1506     0    76     1     6
 -2.4471227981181617E-02 a      1507     0    76     1     7
  4.4814761537604234E-02 a      1508     0    76     1     8
 -4.3036437173866016E-02 a      1509     0    76     1     9
 -4.4207375157428293E-02 a      1510     0    76     1    10
  6.7293370119837950E-02 a      1511     0    76     1    11
 -7.7159098960618955E-02 a      1512     0    76     1    12
 -2.4912211091560871E-01 a      1513     0    76     1    13
  1.1988129542110960E-02 a      1514     0    76     1    14
  8.6223735848734787E-03 a      1515     0    76     1    15
  2.5159841718854478E-02 a      1516     0    76     1    16
 -3.0884222296436083E-03 a      1517     0    76     1    17
 -8.8914556274339501E-02 a      1518     0    76     1    18
  1.8506815343710618E-02 a      1519     0    76     1    19
 -1.4687659540192395E-02 a      1520     0    76     1    20
 -4.8140510579619766E-02 a      1521     0    77     1     1
  1.5019139488602842E-01 a      1522     0    77     1     2
 -2.0605628451838172E-02 a      1523     0    77     1     3
  1.3309860063792384E-01 a      1524     0    77     1     4
 -5.9419364425049928E-02 a      1525     0    77     1     5
 -4.7257408223126005E-02 a      1526     0    77     1     6
 -8.2258192177365921E-02 a      1527     0    77     1     7
  8.0495638929609592E-02 a      1528     0    77     1     8
 -7.1234036055668332E-02 a      1529     0    77     1     9
 -5.8704809294314847E-02 a      1530     0    77     1    10
  1.6552438491603857E-01 a      1531     0    77     1    11
  2.7351221642963611E-02 a      1532     0    77     1    12
 -2.8523904511675195E-02 a      1533     0    77     1    13
  3.9030138027802037E-02 a      1534     0    77     1    14
  5.9127295985805892E-02 a      1535     0    77     1    15
 -3.7807405996094133E-02 a      1536     0    77     1    16
  6.5449180518661068E-02 a      1537     0    77     1    17
 -8.7895239168419348E-02 a      1538     0    77     1    18
 -6.8071340533493188E-02 a      1539     0    77     1    19
 -3.3758644052533939E-03 a      1540     0    77     1    20
 -1.4655728930871972E-01 a      1541     0    78     1     1
  6.3947538221731581E-03 a      1542     0    78     1     2
 -5.7524307486501933E-03 a      1543     0    78     1     3
 -1.5340065599391257E-02 a      1544     0    78     1     4
 -1.1674775154875226E-01 a      1545     0    78     1     5
  1.4343024726310350E-02 a      1546     0    78     1     6
 -1.3513715092358873E-02 a      1547     0    78     1     7
 -1.1401227800230921E-02 a      1548     0    78     1     8
  7.9273283396764538E-02 a      1549     0    78     1     9
 -9.6167275790061998E-02 a      1550     0    78     1    10
  5.3459546356576557E-02 a      1551     0    78     1    11
  6.1023949489883877E-02 a      1552     0    78     1    12
  1.1868166295595518E-02 a      1553     0    78     1    13
 -7.1745638382863436E-02 a      1554     0    78     1    14
 -1.8306899914584944E-02 a      1555     0    78     1    15
 -3.4851925144756611E-03 a      1556     0    78     1    16
  6.5158751878197450E-03 a      1557     0    78     1    17
  5.0444745946427699E-02 a      1558     0    78     1    18
  1.1738031643979846E-02 a      1559     0    78     1    19
  1.9997730963038113E-02 a      1560     0    78     1    20
  1.1127654919038488E-01 a      1561     0    79     1     1
 -8.7051418071103406E-02 a      1562     0    79     1     2
 -1.9626173723548641E-02 a      1563     0    79     1     3
 -1.1288880499695078E-01 a      1564     0    79     1     4
  2.9231347983023442E-02 a      1565     0    79     1     5
  6.3324076681493729E-02 a      1566     0    79     1     6
  1.6520421361111162E-02 a      1567     0    79     1     7
 -4.8638006722910465E-02 a      1568     0    79     1     8
  6.0684910347658265E-02 a      1569     0    79     1     9
  1.5892713437537270E-02 a      1570     0    79     1    10
 -1.0882792683397337E-01 a      1571     0    79     1    11
  4.5304879066028210E-02 a      1572     0    79     1    12
  1.2713092578651794E-01 a      1573     0    79     1    13
 -2.9592317042909811E-02 a      1574     0    79     1    14
 -1.3766230601361987E-02 a      1575     0    79     1    15
  9.3027776331708348E-02 a      1576     0    79     1    16
  4.5887799512892236E-02 a      1577     0    79     1    17
  6.0800744947981149E-02 a      1578     0    79     1    18
  2.4397386317555482E-02 a      1579     0    79     1    19
 -8.9895171982942959E-02 a      1580     0    79     1    20
  9.3811137111509835E-01 b      1581     1     1
  1.7743684954698086E-01 b      1582     1     2
 -1.0683559853144498E+00 b      1583     1     3
 -1.0624343421523299E+00 b      1584     1     4
  4.4320572208591696E-01 b      1585     1     5
  9.1093934019859535E-01 b      1586     1     6
 -2.3765526679455012E-01 b      1587     1     7
  8.0830857153858937E-01 b      1588     1     8
 -1.1959016562564522E+00 b      1589     1     9
  5.4604593559759895E-01 b      1590     1    10
  4.5553303845669427E-02 b      1591     1    11
  9.7127167235036871E-01 b      1592     1    12
  1.3876893876237828E+00 b      1593     1    13
 -9.7734645174204815E-01 b      1594     1    14
 -3.6439391965094942E-01 b      1595     1    15
  1.3240219909922896E-01 b      1596     1    16
  5.1653288444075085E-01 b      1597     1    17
 -5.3686283803724466E-01 b      1598     1    18
  7.0210161260033732E-01 b      1599     1    19
  3.0573125447395551E-02 b      1600     1    20
  4.7177362724451494E-01 a      1601     1     1     2     1
  3.9431558209071971E-01 a      1602     1     1     2     2
  1.2393706443663652E-01 a      1603     1     1     2     3
 -4.0425385304493894E-01 a      1604     1     1     2     4
 -4.0885027725271494E-01 a      1605     1     1     2     5
  3.6164921788398513E-01 a      1606     1     1     2     6
  3.9666397515586915E-01 a      1607     1     1     2     7
 -2.9742376027469181E-01 a      1608     1     1     2     8
  3.7490509278624129E-01 a      1609     1     1     2     9
 -3.7205834420196565E-02 a      1610     1     1     2    10
 -4.2133276904509775E-01 a      1611     1     1     2    11
  2.3522180869635240E-01 a      1612     1     1     2    12
  2.9090432083271295E-01 a      1613     1     1     2    13
  1.6145348836848988E-01 a      1614     1     1     2    14
  3.4913058034465683E-01 a      1615     1     1     2    15
 -2.8534313856757837E-01 a      1616     1     1     2    16
  2.2093668198811586E-01 a      1617     1     1     2    17
 -8.2279934686085021E-02 a      1618     1     1     2    18
  1.2881282878912156E-01 a      1619     1     1     2    19
 -3.6550453960120410E-01 a      1620     1     1     2    20
 -6.9312870597140952E-01 a      1621     1     2     2     1
 -7.5033172331876397E-01 a      1622     1     2     2     2
 -1.7559614279092586E-01 a      1623     1     2     2     3
  5.2982578802119318E-01 a      1624     1     2     2     4
  5.2395685960257588E-01 a      1625     1     2     2     5
  4.1454740084020020E-01 a      1626     1     2     2     6
 -3.7187262390970546E-02 a      1627     1     2     2     7
