################################################################################
# Neural network connection values (weights and biases).
################################################################################
# Col  Name       Description
################################################################################
# 1    connection Neural network connection value.
# 2    t          Connection type (a = weight, b = bias).
# 3    index      Index enumerating weights.
# 4    l_s        Starting point layer (end point layer for biases).
# 5    n_s        Starting point neuron in starting layer (end point neuron for biases).
# 6    l_e        End point layer.
# 7    n_e        End point neuron in end layer.
################################################################################
#                      1 2         3     4     5     6     7
#             connection t     index   l_s   n_s   l_e   n_e
############################################################
  5.0970089444307076E-01 a         1     0     1     1     1
  1.8108479231790342E-01 a         2     0     1     1     2
  8.5992346284592444E-02 a         3     0     1     1     3
  1.2691172061689901E-01 a         4     0     1     1     4
  4.9505525849310526E-02 a         5     0     1     1     5
  2.5045152127138925E-01 a         6     0     1     1     6
 -8.7036158236437774E-02 a         7     0     1     1     7
  1.4784727239199191E-01 a         8     0     1     1     8
  2.7327962263356251E-02 a         9     0     1     1     9
 -8.2788127268183312E-02 a        10     0     1     1    10
 -2.5674287300202064E-01 a        11     0     1     1    11
  2.6434825653670859E-02 a        12     0     1     1    12
 -6.4376966929649948E-02 a        13     0     1     1    13
  1.3787522642079883E-01 a        14     0     1     1    14
 -1.9730256670282523E-01 a        15     0     1     1    15
  3.0209427801563682E-01 a        16     0     1     1    16
 -1.2324094734575626E-01 a        17     0     1     1    17
 -2.3987672728111395E-01 a        18     0     1     1    18
  1.2100855707019496E-01 a        19     0     1     1    19
  1.5407373138659544E-01 a        20     0     1     1    20
 -1.4802647391745655E-01 a        21     0     2     1     1
  1.9679753261116406E-01 a        22     0     2     1     2
 -1.3892111493307222E-01 a        23     0     2     1     3
  1.4448330319901379E-01 a        24     0     2     1     4
 -3.7390461431758670E-02 a        25     0     2     1     5
  2.5958718072255854E-01 a        26     0     2     1     6
  8.5063077151220925E-02 a        27     0     2     1     7
  5.5836395307185538E-02 a        28     0     2     1     8
 -1.6049670791914836E-01 a        29     0     2     1     9
 -3.3839643349059020E-02 a        30     0     2     1    10
  2.0768033750374112E-01 a        31     0     2     1    11
 -1.1738273866130829E-02 a        32     0     2     1    12
 -9.9449690382267183E-03 a        33     0     2     1    13
  1.1922848468815443E-01 a        34     0     2     1    14
 -1.9083888536060825E-01 a        35     0     2     1    15
 -9.1360474063823582E-02 a        36     0     2     1    16
 -2.7017532047052406E-01 a        37     0     2     1    17
 -1.6486908942960798E-01 a        38     0     2     1    18
 -1.3132824791431810E-01 a        39     0     2     1    19
  4.6238399676539851E-02 a        40     0     2     1    20
  8.5284920328764627E-02 a        41     0     3     1     1
  1.4830215812964617E-01 a        42     0     3     1     2
  9.2589130927764579E-02 a        43     0     3     1     3
  5.3996844448686007E-02 a        44     0     3     1     4
 -1.1209259223218358E-01 a        45     0     3     1     5
 -1.6723317930033614E-02 a        46     0     3     1     6
 -1.3084297475029635E-01 a        47     0     3     1     7
 -7.0664351420628740E-02 a        48     0     3     1     8
  5.0576576751957258E-02 a        49     0     3     1     9
  9.7193500928007773E-03 a        50     0     3     1    10
 -1.2439906025205053E-01 a        51     0     3     1    11
 -7.1526450352042456E-02 a        52     0     3     1    12
  2.2856799165528081E-02 a        53     0     3     1    13
 -1.4655206666395645E-01 a        54     0     3     1    14
 -1.3069915507226273E-01 a        55     0     3     1    15
 -1.4597469099644008E-03 a        56     0     3     1    16
  1.1932697875952632E-02 a        57     0     3     1    17
 -1.2575779108389223E-01 a        58     0     3     1    18
 -9.1968509208648387E-03 a        59     0     3     1    19
 -5.4265199559090031E-02 a        60     0     3     1    20
 -1.7050535093720567E-01 a        61     0     4     1     1
  1.3302851548863839E-01 a        62     0     4     1     2
  3.5359337979893268E-02 a        63     0     4     1     3
  1.0433743104367885E-01 a        64     0     4     1     4
 -1.2608791231412803E-01 a        65     0     4     1     5
 -4.3666883282645917E-02 a        66     0     4     1     6
 -2.7298080441129102E-01 a        67     0     4     1     7
 -2.2219621870593353E-01 a        68     0     4     1     8
  2.9690983724108524E-02 a        69     0     4     1     9
 -4.1626419457786362E-02 a        70     0     4     1    10
 -1.6648052476805217E-01 a        71     0     4     1    11
  1.8683077114351523E-01 a        72     0     4     1    12
  1.3046455970733661E-01 a        73     0     4     1    13
 -4.2101763042134012E-02 a        74     0     4     1    14
 -4.8081641115027045E-02 a        75     0     4     1    15
 -6.1463367752406040E-03 a        76     0     4     1    16
 -1.6431839491645697E-01 a        77     0     4     1    17
 -3.2278191395324299E-02 a        78     0     4     1    18
  2.5982480292923309E-02 a        79     0     4     1    19
  7.5555921632813869E-02 a        80     0     4     1    20
  1.5183324043187150E-02 a        81     0     5     1     1
  5.8953153026088612E-01 a        82     0     5     1     2
 -3.8005532453121764E-02 a        83     0     5     1     3
  1.1286823504179894E-01 a        84     0     5     1     4
 -1.4073516630166152E-01 a        85     0     5     1     5
  2.3202773529143467E-01 a        86     0     5     1     6
 -5.7645370023856869E-02 a        87     0     5     1     7
 -1.2566927912539619E-01 a        88     0     5     1     8
 -2.0917774393169955E-01 a        89     0     5     1     9
 -4.6003550295511253E-01 a        90     0     5     1    10
 -1.4075999966136787E-01 a        91     0     5     1    11
 -2.6729536154729666E-01 a        92     0     5     1    12
 -2.1042783225316902E-01 a        93     0     5     1    13
 -8.3239890661269716E-02 a        94     0     5     1    14
  6.2122108989348952E-02 a        95     0     5     1    15
 -6.2038046740823516E-01 a        96     0     5     1    16
  3.9598062660395800E-01 a        97     0     5     1    17
  1.3755652458335340E-02 a        98     0     5     1    18
  2.7423278365940343E-02 a        99     0     5     1    19
  9.4097976916015263E-02 a       100     0     5     1    20
 -3.0277866931863210E-03 a       101     0     6     1     1
 -3.2679735602034382E-01 a       102     0     6     1     2
 -2.8772641227649470E-02 a       103     0     6     1     3
  1.9300195503864871E-03 a       104     0     6     1     4
  4.5288739505559034E-02 a       105     0     6     1     5
  3.3700548394780080E-02 a       106     0     6     1     6
  2.5104154090943308E-02 a       107     0     6     1     7
 -1.6810323185877268E-01 a       108     0     6     1     8
  1.4059720870694709E-01 a       109     0     6     1     9
 -3.8149685427803733E-02 a       110     0     6     1    10
  2.7200720025732157E-02 a       111     0     6     1    11
  2.0039918832567113E-01 a       112     0     6     1    12
  2.8317930596612848E-02 a       113     0     6     1    13
 -7.3284243357208248E-02 a       114     0     6     1    14
 -1.4130429758886792E-02 a       115     0     6     1    15
  6.5098162009921023E-02 a       116     0     6     1    16
  2.7318192519596773E-02 a       117     0     6     1    17
  1.2574915752774102E-01 a       118     0     6     1    18
  5.1937172292320102E-02 a       119     0     6     1    19
 -4.5292433076974642E-02 a       120     0     6     1    20
 -7.5442565889963217E-02 a       121     0     7     1     1
 -1.3599254451950923E-01 a       122     0     7     1     2
  4.1422197996209387E-02 a       123     0     7     1     3
  3.0549324722754491E-04 a       124     0     7     1     4
  1.1661246319540659E-01 a       125     0     7     1     5
 -2.0131266507060777E-01 a       126     0     7     1     6
  1.8687599256966528E-01 a       127     0     7     1     7
  6.0925423477326691E-02 a       128     0     7     1     8
  6.0049497054004933E-02 a       129     0     7     1     9
  1.1794267897348311E-01 a       130     0     7     1    10
  8.7260677571582193E-02 a       131     0     7     1    11
 -1.8614262075523058E-01 a       132     0     7     1    12
  2.8297605186819234E-02 a       133     0     7     1    13
 -7.2972853887230307E-02 a       134     0     7     1    14
 -1.2716972736622143E-02 a       135     0     7     1    15
  1.7782313571429872E-01 a       136     0     7     1    16
 -1.0841516351078558E-01 a       137     0     7     1    17
  1.2870830220285495E-01 a       138     0     7     1    18
  3.3662695141568375E-02 a       139     0     7     1    19
 -2.1017946125175220E-02 a       140     0     7     1    20
  4.2912521771442849E-02 a       141     0     8     1     1
  2.8062008212900893E-03 a       142     0     8     1     2
 -4.2716759388506352E-03 a       143     0     8     1     3
 -1.8438750312771918E-01 a       144     0     8     1     4
  1.7859182349454600E-01 a       145     0     8     1     5
  2.0168179936169606E-01 a       146     0     8     1     6
 -7.6948127509418526E-02 a       147     0     8     1     7
  2.6903370607216182E-01 a       148     0     8     1     8
 -9.7716584316156319E-02 a       149     0     8     1     9
  1.3156990630403470E-01 a       150     0     8     1    10
  1.9617109185450043E-01 a       151     0     8     1    11
 -2.0093208713102892E-01 a       152     0     8     1    12
 -1.7193323037887559E-01 a       153     0     8     1    13
  1.5611477145653405E-01 a       154     0     8     1    14
 -1.5251490254320824E-01 a       155     0     8     1    15
 -4.9198304891306138E-02 a       156     0     8     1    16
  1.4072857683573850E-02 a       157     0     8     1    17
 -1.5734207057417554E-01 a       158     0     8     1    18
 -8.4908528426503524E-02 a       159     0     8     1    19
 -1.9435757581457608E-01 a       160     0     8     1    20
 -7.3233439430659937E-03 a       161     0     9     1     1
  1.1505410048080211E-01 a       162     0     9     1     2
 -1.0805702920620978E-01 a       163     0     9     1     3
 -1.8395119618158950E-01 a       164     0     9     1     4
 -8.2453861493077082E-02 a       165     0     9     1     5
  1.6302765538175901E-01 a       166     0     9     1     6
 -1.2451091249199144E-01 a       167     0     9     1     7
  6.8920703984340331E-02 a       168     0     9     1     8
 -7.0219419001852454E-02 a       169     0     9     1     9
  2.5567972350327195E-01 a       170     0     9     1    10
 -1.6734126292677672E-02 a       171     0     9     1    11
 -4.3164472127222298E-01 a       172     0     9     1    12
  9.4381314667088156E-02 a       173     0     9     1    13
  2.9285004154217087E-01 a       174     0     9     1    14
  1.1957638066942916E-02 a       175     0     9     1    15
  1.7225695343924427E-01 a       176     0     9     1    16
 -9.8315357320904490E-02 a       177     0     9     1    17
  1.0490058985298183E-01 a       178     0     9     1    18
 -3.9862402067408020E-01 a       179     0     9     1    19
 -6.9392460752588925E-02 a       180     0     9     1    20
  7.7497091797303921E-02 a       181     0    10     1     1
 -2.5608512068618021E-02 a       182     0    10     1     2
  2.5590146413598602E-01 a       183     0    10     1     3
 -1.7112358728901730E-01 a       184     0    10     1     4
 -7.4199311987793434E-02 a       185     0    10     1     5
  3.1813037403722882E-01 a       186     0    10     1     6
 -9.6822359159838375E-02 a       187     0    10     1     7
  2.3396519286967135E-01 a       188     0    10     1     8
  2.4327074886721528E-01 a       189     0    10     1     9
  2.0073270581756417E-01 a       190     0    10     1    10
 -1.6416898398507446E-01 a       191     0    10     1    11
  2.9369139917310291E-03 a       192     0    10     1    12
 -1.4195246518869992E-01 a       193     0    10     1    13
 -9.4418795643887207E-02 a       194     0    10     1    14
  4.6258071079167601E-02 a       195     0    10     1    15
  8.8990755487444659E-02 a       196     0    10     1    16
 -4.3764567746463819E-02 a       197     0    10     1    17
  6.6764117613387478E-02 a       198     0    10     1    18
  3.1329208962420374E-01 a       199     0    10     1    19
 -9.4641649321827753E-02 a       200     0    10     1    20
  2.1250301525902232E-01 a       201     0    11     1     1
  1.7374290482722851E-01 a       202     0    11     1     2
 -1.2240436512801986E-01 a       203     0    11     1     3
 -1.4056592760597611E-01 a       204     0    11     1     4
  1.6578597827755084E-01 a       205     0    11     1     5
 -1.0255969146084599E-01 a       206     0    11     1     6
 -1.4544565219227370E-02 a       207     0    11     1     7
 -2.5236920693282763E-03 a       208     0    11     1     8
  1.1394128463339454E-01 a       209     0    11     1     9
 -2.6154662067014348E-02 a       210     0    11     1    10
 -2.7416131829604506E-01 a       211     0    11     1    11
 -1.2071310498396901E-01 a       212     0    11     1    12
 -1.8289210165663472E-01 a       213     0    11     1    13
  2.2216331788029198E-01 a       214     0    11     1    14
 -3.6052184418371318E-02 a       215     0    11     1    15
 -1.0766285951250035E-01 a       216     0    11     1    16
 -1.4577131580617769E-01 a       217     0    11     1    17
 -1.8339338758493841E-02 a       218     0    11     1    18
 -2.1629153137151158E-01 a       219     0    11     1    19
  1.7045468604315422E-01 a       220     0    11     1    20
  6.4541377614788439E-02 a       221     0    12     1     1
 -1.2504613608958340E-01 a       222     0    12     1     2
  4.7218775530717107E-02 a       223     0    12     1     3
  2.0212601495018900E-01 a       224     0    12     1     4
 -4.9143046050709155E-02 a       225     0    12     1     5
 -7.0404765432678221E-02 a       226     0    12     1     6
  1.7324453703114343E-01 a       227     0    12     1     7
 -4.0286799615279187E-02 a       228     0    12     1     8
 -4.4370887295327434E-02 a       229     0    12     1     9
 -9.4366119354812261E-02 a       230     0    12     1    10
 -4.5804085034475861E-02 a       231     0    12     1    11
 -6.3649401184090085E-02 a       232     0    12     1    12
 -1.2828214611751171E-01 a       233     0    12     1    13
 -1.9934593344284254E-01 a       234     0    12     1    14
 -8.9121181882733547E-02 a       235     0    12     1    15
  8.2269195783399751E-02 a       236     0    12     1    16
  1.6134127055276343E-01 a       237     0    12     1    17
  2.1531437738068329E-01 a       238     0    12     1    18
  4.1347092616687342E-02 a       239     0    12     1    19
  1.6282069859612386E-01 a       240     0    12     1    20
  3.5439710464487245E-01 a       241     0    13     1     1
  8.8014533230139677E-02 a       242     0    13     1     2
  1.0956837098755359E-01 a       243     0    13     1     3
  5.4381414451458221E-02 a       244     0    13     1     4
 -6.4920974404270885E-03 a       245     0    13     1     5
  2.0676599842813698E-01 a       246     0    13     1     6
  5.5409073995772551E-02 a       247     0    13     1     7
  1.5883865096306565E-01 a       248     0    13     1     8
 -4.2435262808659752E-02 a       249     0    13     1     9
 -1.0749425307684074E-01 a       250     0    13     1    10
 -2.4925297280919209E-01 a       251     0    13     1    11
  1.1134314217324954E-02 a       252     0    13     1    12
 -4.3655373722844809E-02 a       253     0    13     1    13
  2.8486034808013239E-01 a       254     0    13     1    14
  1.4903499663614995E-03 a       255     0    13     1    15
 -6.5540606064380191E-01 a       256     0    13     1    16
 -1.4322865985883318E-02 a       257     0    13     1    17
 -5.3566409778859903E-02 a       258     0    13     1    18
  4.5539570452058482E-02 a       259     0    13     1    19
  6.9839950791092537E-02 a       260     0    13     1    20
  2.3066080649148085E-01 a       261     0    14     1     1
 -5.7186973111481791E-02 a       262     0    14     1     2
 -1.0570754767329413E-01 a       263     0    14     1     3
  2.7564128868975548E-02 a       264     0    14     1     4
  6.3863659193951886E-02 a       265     0    14     1     5
 -6.9813060016550604E-02 a       266     0    14     1     6
 -5.5680333310897202E-02 a       267     0    14     1     7
 -2.3866442357662201E-01 a       268     0    14     1     8
  3.3181768583841906E-02 a       269     0    14     1     9
 -4.6583848692770886E-02 a       270     0    14     1    10
  1.9549473721762947E-01 a       271     0    14     1    11
  1.6406676213578517E-01 a       272     0    14     1    12
 -2.2530337646174323E-02 a       273     0    14     1    13
 -3.7200179061902261E-01 a       274     0    14     1    14
  4.8442303489213421E-03 a       275     0    14     1    15
 -1.3475409125518625E-01 a       276     0    14     1    16
  4.6787965795037675E-02 a       277     0    14     1    17
 -8.4199410492234811E-02 a       278     0    14     1    18
  1.1657774951067099E-01 a       279     0    14     1    19
  5.9812694446819005E-02 a       280     0    14     1    20
  9.3532946435966977E-02 a       281     0    15     1     1
  7.5712128790134947E-02 a       282     0    15     1     2
  2.9950959972048513E-01 a       283     0    15     1     3
  3.2787568360100255E-01 a       284     0    15     1     4
  4.5757026266915572E-02 a       285     0    15     1     5
 -1.6808067350775741E-01 a       286     0    15     1     6
  4.5246429718526410E-02 a       287     0    15     1     7
  8.1554417928078632E-02 a       288     0    15     1     8
 -2.4760276249098273E-01 a       289     0    15     1     9
 -1.2092678788590489E-01 a       290     0    15     1    10
  9.1054170132288444E-03 a       291     0    15     1    11
 -1.0580834714076201E-01 a       292     0    15     1    12
  3.1227600299150526E-01 a       293     0    15     1    13
 -7.1561623749175934E-02 a       294     0    15     1    14
 -2.4770025291366951E-01 a       295     0    15     1    15
  7.4753723172016492E-02 a       296     0    15     1    16
  1.4570290856322826E-01 a       297     0    15     1    17
 -1.8630504723128521E-01 a       298     0    15     1    18
 -4.0404472409236628E-02 a       299     0    15     1    19
 -9.1812953022289395E-02 a       300     0    15     1    20
 -4.5114767730069269E-02 a       301     0    16     1     1
  2.1558385931788859E-01 a       302     0    16     1     2
 -1.4061621212580494E-01 a       303     0    16     1     3
 -6.3243367453640967E-02 a       304     0    16     1     4
 -4.3736596308428410E-02 a       305     0    16     1     5
  1.3281636057682561E-01 a       306     0    16     1     6
 -1.8228771511412728E-01 a       307     0    16     1     7
 -1.2118934143677770E-01 a       308     0    16     1     8
  1.6202430559951159E-01 a       309     0    16     1     9
  1.2962869836406474E-01 a       310     0    16     1    10
 -4.3366511176732604E-02 a       311     0    16     1    11
  1.6104784309696474E-01 a       312     0    16     1    12
 -1.5132546654077281E-01 a       313     0    16     1    13
 -1.2818199698661353E-01 a       314     0    16     1    14
 -5.9506167726085933E-02 a       315     0    16     1    15
 -1.2051434319945396E-01 a       316     0    16     1    16
 -4.4751293246218724E-02 a       317     0    16     1    17
 -1.5809310048568589E-01 a       318     0    16     1    18
  1.6622089078260133E-01 a       319     0    16     1    19
  1.0986377598885934E-02 a       320     0    16     1    20
 -1.5641027583428006E-02 a       321     0    17     1     1
  3.0761154378263245E-01 a       322     0    17     1     2
 -1.7674981972016254E-01 a       323     0    17     1     3
  3.0414046623000950E-02 a       324     0    17     1     4
  1.1678088669527609E-01 a       325     0    17     1     5
 -7.1204191878711770E-02 a       326     0    17     1     6
 -3.2805928312706556E-01 a       327     0    17     1     7
 -1.0591951839203131E-01 a       328     0    17     1     8
 -1.7272060812376799E-01 a       329     0    17     1     9
 -2.3638211744185917E-02 a       330     0    17     1    10
 -2.2674156233309120E-01 a       331     0    17     1    11
 -4.4457602456107681E-01 a       332     0    17     1    12
  2.1778472954790080E-02 a       333     0    17     1    13
  4.3529871451701241E-01 a       334     0    17     1    14
  1.3693706580689712E-03 a       335     0    17     1    15
  1.7944001587308794E-01 a       336     0    17     1    16
 -2.7105806665349924E-01 a       337     0    17     1    17
  7.2300517010166876E-02 a       338     0    17     1    18
 -4.0131560422805257E-01 a       339     0    17     1    19
  1.1605548529025013E-01 a       340     0    17     1    20
 -7.7189905452187929E-02 a       341     0    18     1     1
 -8.7717028551851400E-02 a       342     0    18     1     2
  3.6224731459741213E-02 a       343     0    18     1     3
  1.5394555195967566E-01 a       344     0    18     1     4
  8.2679089044681492E-02 a       345     0    18     1     5
  7.8918140898600594E-02 a       346     0    18     1     6
  1.4713235006714026E-01 a       347     0    18     1     7
  2.4752808222529570E-03 a       348     0    18     1     8
  3.0158414513174930E-01 a       349     0    18     1     9
 -2.9313980834320469E-01 a       350     0    18     1    10
  1.9450987839986325E-01 a       351     0    18     1    11
  2.8997906821540087E-01 a       352     0    18     1    12
  3.3106692779342299E-02 a       353     0    18     1    13
 -6.0964508400879980E-01 a       354     0    18     1    14
 -1.2853100263788805E-01 a       355     0    18     1    15
  2.0243172910044208E-01 a       356     0    18     1    16
  1.6192060257553403E-01 a       357     0    18     1    17
 -1.9872060211299694E-01 a       358     0    18     1    18
  2.5396243584715983E-01 a       359     0    18     1    19
 -6.3926443763287322E-02 a       360     0    18     1    20
  1.1037957209709148E-01 a       361     0    19     1     1
  2.8263298253561647E-02 a       362     0    19     1     2
 -1.2316970862314029E-01 a       363     0    19     1     3
 -2.4330246774300762E-01 a       364     0    19     1     4
  1.3426650041219387E-01 a       365     0    19     1     5
 -1.2606275320425966E-01 a       366     0    19     1     6
 -9.3463152394063956E-02 a       367     0    19     1     7
  1.2242745397997964E-02 a       368     0    19     1     8
 -1.6920506531618904E-02 a       369     0    19     1     9
  2.9000553610832164E-01 a       370     0    19     1    10
 -1.5771324831509020E-01 a       371     0    19     1    11
 -1.4902191311780855E-01 a       372     0    19     1    12
 -3.4737638952517982E-02 a       373     0    19     1    13
  2.3438960662394459E-01 a       374     0    19     1    14
  3.5146926814992728E-02 a       375     0    19     1    15
 -1.5757868170675821E-01 a       376     0    19     1    16
  1.8522906239891956E-01 a       377     0    19     1    17
 -1.4122726331497462E-01 a       378     0    19     1    18
 -4.0428303045313294E-02 a       379     0    19     1    19
  1.5057731130739602E-01 a       380     0    19     1    20
  2.2932515423361763E-01 a       381     0    20     1     1
  9.5663647036486832E-02 a       382     0    20     1     2
  2.1233502017662366E-02 a       383     0    20     1     3
  5.8308675976910848E-02 a       384     0    20     1     4
 -2.3201657946972799E-02 a       385     0    20     1     5
 -1.1728903218024601E-01 a       386     0    20     1     6
 -4.7345822641817137E-02 a       387     0    20     1     7
 -1.5169908216929820E-01 a       388     0    20     1     8
 -1.0311227880074135E-01 a       389     0    20     1     9
 -6.5456742312516678E-02 a       390     0    20     1    10
 -3.1670495595721881E-02 a       391     0    20     1    11
 -1.3521274417868517E-01 a       392     0    20     1    12
 -2.3680084540398105E-01 a       393     0    20     1    13
 -1.3104277647684934E-01 a       394     0    20     1    14
  1.7243832747043934E-02 a       395     0    20     1    15
  9.9765907233370574E-02 a       396     0    20     1    16
  2.0362580770347857E-02 a       397     0    20     1    17
 -9.8282885460167710E-02 a       398     0    20     1    18
  1.9904209700245795E-01 a       399     0    20     1    19
 -8.8968437210413490E-02 a       400     0    20     1    20
  4.0093368692443038E-02 a       401     0    21     1     1
  5.9222240636889155E-03 a       402     0    21     1     2
 -1.2634362317771002E-02 a       403     0    21     1     3
  3.5875552822188121E-02 a       404     0    21     1     4
  2.4957756535296535E-01 a       405     0    21     1     5
  1.2215877998883591E-01 a       406     0    21     1     6
  3.5352675317336685E-01 a       407     0    21     1     7
  4.8287125069136613E-02 a       408     0    21     1     8
  1.2570153991495006E-01 a       409     0    21     1     9
  4.3865618646095533E-02 a       410     0    21     1    10
 -1.3265862050359700E-01 a       411     0    21     1    11
 -6.5240735463448662E-02 a       412     0    21     1    12
  1.5454193642914940E-01 a       413     0    21     1    13
  3.0025549356545539E-01 a       414     0    21     1    14
 -3.3092699468781706E-01 a       415     0    21     1    15
 -3.0631397855686637E-01 a       416     0    21     1    16
  1.5617735935982029E-02 a       417     0    21     1    17
  1.0551703549506483E-01 a       418     0    21     1    18
  1.9040420099145850E-02 a       419     0    21     1    19
  1.2095076587221570E-01 a       420     0    21     1    20
  6.7061870235810964E-02 a       421     0    22     1     1
 -7.9147982171130726E-02 a       422     0    22     1     2
 -8.7314949609614990E-03 a       423     0    22     1     3
 -1.5961794846214428E-01 a       424     0    22     1     4
 -1.9027042564258650E-01 a       425     0    22     1     5
  7.4519313653327007E-02 a       426     0    22     1     6
 -3.3358380536896541E-02 a       427     0    22     1     7
  7.1346646786702009E-02 a       428     0    22     1     8
 -5.4088441327070262E-03 a       429     0    22     1     9
 -1.6762469215946701E-01 a       430     0    22     1    10
  1.8238173920074996E-01 a       431     0    22     1    11
  2.4698882526794089E-01 a       432     0    22     1    12
 -1.0145977325746938E-01 a       433     0    22     1    13
 -3.8335284987645035E-01 a       434     0    22     1    14
  3.3187092441251403E-01 a       435     0    22     1    15
  3.4628262615007108E-02 a       436     0    22     1    16
 -4.7301734011631395E-02 a       437     0    22     1    17
 -3.6242645576602991E-02 a       438     0    22     1    18
  2.9489633888690425E-01 a       439     0    22     1    19
 -1.4301515694489872E-01 a       440     0    22     1    20
 -3.5717996896189236E-02 a       441     0    23     1     1
  4.9761790642575222E-02 a       442     0    23     1     2
  4.5545659351179865E-02 a       443     0    23     1     3
  1.2333242156808848E-01 a       444     0    23     1     4
  4.2851113248344876E-02 a       445     0    23     1     5
  1.4800098596868221E-02 a       446     0    23     1     6
  8.4972815091406612E-02 a       447     0    23     1     7
 -1.7661231131539105E-02 a       448     0    23     1     8
 -7.3284499240521286E-02 a       449     0    23     1     9
 -1.3359735809250067E-01 a       450     0    23     1    10
 -7.0815490230645664E-02 a       451     0    23     1    11
 -1.5659586784467217E-01 a       452     0    23     1    12
  6.0172806830017106E-02 a       453     0    23     1    13
  2.5512474209715935E-01 a       454     0    23     1    14
 -5.0407460704692056E-02 a       455     0    23     1    15
 -1.6263568771089275E-02 a       456     0    23     1    16
  3.2243615530113783E-02 a       457     0    23     1    17
  4.8601440168194746E-02 a       458     0    23     1    18
  3.1660731187470974E-02 a       459     0    23     1    19
  1.1090536689459330E-02 a       460     0    23     1    20
 -1.0203428667839019E-03 a       461     0    24     1     1
 -7.5766547572283502E-02 a       462     0    24     1     2
 -6.4051825902271237E-02 a       463     0    24     1     3
 -2.9735253025740836E-02 a       464     0    24     1     4
  5.0881322910567538E-02 a       465     0    24     1     5
 -1.6445991404432200E-01 a       466     0    24     1     6
  1.3929877053939729E-01 a       467     0    24     1     7
  1.4334977418729780E-01 a       468     0    24     1     8
  9.9418379896618905E-02 a       469     0    24     1     9
 -1.3758875521420718E-02 a       470     0    24     1    10
  6.0858645005749459E-02 a       471     0    24     1    11
  6.7154052816752310E-02 a       472     0    24     1    12
 -1.9342668768010315E-02 a       473     0    24     1    13
 -3.4074379731527960E-01 a       474     0    24     1    14
  1.3084120296004589E-01 a       475     0    24     1    15
 -2.3454662255610766E-02 a       476     0    24     1    16
 -4.0712060817693331E-02 a       477     0    24     1    17
 -9.9187953920634078E-02 a       478     0    24     1    18
  1.6012920912842493E-01 a       479     0    24     1    19
  4.3361270952667987E-02 a       480     0    24     1    20
  2.8288192379372529E-01 a       481     0    25     1     1
 -8.0823638974310882E-03 a       482     0    25     1     2
 -3.2977660796349853E-02 a       483     0    25     1     3
  1.1552294128268084E-01 a       484     0    25     1     4
 -1.6257794579189130E-02 a       485     0    25     1     5
  9.5994999829973546E-02 a       486     0    25     1     6
 -9.1458522486629529E-02 a       487     0    25     1     7
 -2.7540012797624275E-02 a       488     0    25     1     8
 -1.5943519299209785E-01 a       489     0    25     1     9
 -7.2660302693219499E-03 a       490     0    25     1    10
  7.1877199678005467E-03 a       491     0    25     1    11
  8.2176258550280372E-03 a       492     0    25     1    12
  1.7881898741471630E-01 a       493     0    25     1    13
  2.8283262085824629E-01 a       494     0    25     1    14
 -5.0606476117403321E-02 a       495     0    25     1    15
  5.0512648274305252E-02 a       496     0    25     1    16
  6.4187246482097116E-02 a       497     0    25     1    17
 -1.9235132177582898E-01 a       498     0    25     1    18
 -2.9432660199572658E-01 a       499     0    25     1    19
  3.7514261725657957E-02 a       500     0    25     1    20
 -1.2751145497228120E-01 a       501     0    26     1     1
 -5.3784019649335772E-03 a       502     0    26     1     2
  4.2993171891967545E-02 a       503     0    26     1     3
  8.9725953744912504E-03 a       504     0    26     1     4
 -1.3922090161100859E-01 a       505     0    26     1     5
 -1.8835569635819552E-01 a       506     0    26     1     6
 -9.4560520505550527E-02 a       507     0    26     1     7
 -7.0324330628896412E-02 a       508     0    26     1     8
  7.1668141436866839E-02 a       509     0    26     1     9
  2.5629861033328500E-02 a       510     0    26     1    10
  1.1284182294894442E-02 a       511     0    26     1    11
  1.5910287708976147E-02 a       512     0    26     1    12
 -2.7339404134278650E-01 a       513     0    26     1    13
 -1.9271971680580902E-01 a       514     0    26     1    14
  1.4357691496621397E-01 a       515     0    26     1    15
 -6.9360020142282216E-04 a       516     0    26     1    16
 -1.1686666535408462E-01 a       517     0    26     1    17
  2.9360591249294920E-02 a       518     0    26     1    18
  1.5049997870094703E-01 a       519     0    26     1    19
 -3.0003122589171132E-02 a       520     0    26     1    20
  3.9513633031084044E-02 a       521     0    27     1     1
  8.8295564045258266E-03 a       522     0    27     1     2
  2.0881405263709758E-02 a       523     0    27     1     3
  5.4563385203635129E-02 a       524     0    27     1     4
 -8.7108004824135842E-03 a       525     0    27     1     5
 -2.9241934618009353E-02 a       526     0    27     1     6
 -1.0223165648694983E-01 a       527     0    27     1     7
  1.9223168747289972E-02 a       528     0    27     1     8
 -1.7380665010892826E-01 a       529     0    27     1     9
  2.7290951143706697E-02 a       530     0    27     1    10
  5.3009737185439179E-02 a       531     0    27     1    11
  1.4441216324988118E-01 a       532     0    27     1    12
  1.9621075541753499E-01 a       533     0    27     1    13
 -1.0347308354085126E-01 a       534     0    27     1    14
  4.0387330466209431E-02 a       535     0    27     1    15
 -4.7998513975825420E-02 a       536     0    27     1    16
  6.0232798437041213E-02 a       537     0    27     1    17
 -1.6478589445497097E-01 a       538     0    27     1    18
 -1.3317071563876984E-01 a       539     0    27     1    19
  2.5719454058127696E-02 a       540     0    27     1    20
 -3.4038199659322164E-02 a       541     0    28     1     1
  5.2937794110388799E-02 a       542     0    28     1     2
  4.3131116043240735E-02 a       543     0    28     1     3
 -1.8575061036137694E-02 a       544     0    28     1     4
 -6.1152239653463523E-02 a       545     0    28     1     5
  4.1851146720261981E-02 a       546     0    28     1     6
 -9.7877271280248923E-02 a       547     0    28     1     7
 -5.0328058087361523E-02 a       548     0    28     1     8
 -9.2670738018851145E-02 a       549     0    28     1     9
 -4.2635495286765558E-03 a       550     0    28     1    10
  1.8322908684852368E-02 a       551     0    28     1    11
  5.0937768081468120E-03 a       552     0    28     1    12
  6.2498682483775707E-02 a       553     0    28     1    13
  8.3411362376491424E-02 a       554     0    28     1    14
  3.9976922532753270E-02 a       555     0    28     1    15
  1.3091402768289795E-02 a       556     0    28     1    16
  2.7188854182190875E-01 a       557     0    28     1    17
 -4.7277679122063217E-02 a       558     0    28     1    18
  2.1656083796733707E-03 a       559     0    28     1    19
 -4.3890151304464012E-02 a       560     0    28     1    20
 -1.2132568247968013E-01 a       561     0    29     1     1
 -1.1629359166497901E-02 a       562     0    29     1     2
  2.8091575457498158E-02 a       563     0    29     1     3
 -2.0227101908159781E-02 a       564     0    29     1     4
  1.6493715604800116E-01 a       565     0    29     1     5
  4.0924839029231039E-02 a       566     0    29     1     6
  2.0619104567079041E-01 a       567     0    29     1     7
  7.4164306684427583E-02 a       568     0    29     1     8
  3.0098825418365414E-02 a       569     0    29     1     9
  1.1743627386698444E-01 a       570     0    29     1    10
 -8.8644166615988798E-02 a       571     0    29     1    11
 -5.1627582495762471E-02 a       572     0    29     1    12
  5.8949532787923560E-03 a       573     0    29     1    13
  1.1138158394651008E-01 a       574     0    29     1    14
 -9.5623911137891981E-02 a       575     0    29     1    15
 -8.8408225635351667E-02 a       576     0    29     1    16
  2.2055586909298774E-01 a       577     0    29     1    17
  1.3906539755088029E-01 a       578     0    29     1    18
  5.1751840147943658E-02 a       579     0    29     1    19
  1.0149622314312594E-01 a       580     0    29     1    20
 -5.5356992225885901E-02 a       581     0    30     1     1
  2.8901385990233140E-02 a       582     0    30     1     2
  2.4864656546639045E-02 a       583     0    30     1     3
 -7.4730414932154404E-02 a       584     0    30     1     4
 -1.0406443831768874E-02 a       585     0    30     1     5
  1.2540248234521506E-01 a       586     0    30     1     6
 -1.5756329096714425E-01 a       587     0    30     1     7
  3.8224931351769492E-02 a       588     0    30     1     8
  1.0190089852356096E-01 a       589     0    30     1     9
 -1.5664428593119684E-01 a       590     0    30     1    10
  3.1171370588995027E-02 a       591     0    30     1    11
  7.9269454916032715E-03 a       592     0    30     1    12
  1.7237833628191857E-02 a       593     0    30     1    13
 -2.3103977354093713E-01 a       594     0    30     1    14
 -4.2550865825104991E-02 a       595     0    30     1    15
  1.2395309842490054E-01 a       596     0    30     1    16
 -2.1243653550427691E-01 a       597     0    30     1    17
  2.9919889552279026E-02 a       598     0    30     1    18
  9.5092289394036342E-02 a       599     0    30     1    19
 -7.1542791536954628E-02 a       600     0    30     1    20
  1.1735457058559946E-02 a       601     0    31     1     1
 -2.2319934503567288E-02 a       602     0    31     1     2
 -7.9200724382265261E-02 a       603     0    31     1     3
  1.8772829583326465E-02 a       604     0    31     1     4
  4.6696720989637321E-02 a       605     0    31     1     5
  6.1905077981996404E-02 a       606     0    31     1     6
  2.1662504786908715E-01 a       607     0    31     1     7
 -1.5897107666546324E-03 a       608     0    31     1     8
  8.3595142037806783E-02 a       609     0    31     1     9
 -1.0817696764141156E-01 a       610     0    31     1    10
 -6.5174273282028891E-02 a       611     0    31     1    11
 -6.6939870308560190E-02 a       612     0    31     1    12
 -4.3785980544203504E-02 a       613     0    31     1    13
  3.0152927488560582E-01 a       614     0    31     1    14
 -7.7895784541182650E-02 a       615     0    31     1    15
  1.3569774197232562E-03 a       616     0    31     1    16
  9.9491472047427920E-02 a       617     0    31     1    17
  1.3955871462845973E-01 a       618     0    31     1    18
  5.3062202996962113E-02 a       619     0    31     1    19
  2.4875704678944788E-02 a       620     0    31     1    20
  7.0753368773314007E-02 a       621     0    32     1     1
  3.0839456732919501E-02 a       622     0    32     1     2
 -6.0763591984951355E-02 a       623     0    32     1     3
  9.8691174857396022E-02 a       624     0    32     1     4
  3.6281434975962826E-02 a       625     0    32     1     5
 -1.9217332714280153E-02 a       626     0    32     1     6
  9.7679392739100174E-02 a       627     0    32     1     7
  4.1445602421608607E-02 a       628     0    32     1     8
  7.5994388163205572E-03 a       629     0    32     1     9
 -1.3996713421803222E-01 a       630     0    32     1    10
  1.8459275367763102E-02 a       631     0    32     1    11
  8.1295832692320352E-02 a       632     0    32     1    12
 -7.1872340313940533E-02 a       633     0    32     1    13
 -3.0446138229636410E-01 a       634     0    32     1    14
  7.7355150676173337E-02 a       635     0    32     1    15
  3.2002628766329609E-02 a       636     0    32     1    16
  1.9176268264334204E-02 a       637     0    32     1    17
 -4.8929407666151441E-02 a       638     0    32     1    18
  4.6399903518828181E-02 a       639     0    32     1    19
 -6.4041207247752243E-03 a       640     0    32     1    20
  2.1073868362330517E-01 a       641     0    33     1     1
  1.6549372106153499E-02 a       642     0    33     1     2
  7.3411017301958717E-03 a       643     0    33     1     3
 -3.8688796764212170E-02 a       644     0    33     1     4
 -1.3510412483678955E-01 a       645     0    33     1     5
 -1.9818278733320399E-01 a       646     0    33     1     6
 -1.5146268654515907E-01 a       647     0    33     1     7
 -8.8447083031696377E-02 a       648     0    33     1     8
 -1.1279052977915992E-01 a       649     0    33     1     9
 -5.5305490730480251E-02 a       650     0    33     1    10
  9.0964438694278338E-02 a       651     0    33     1    11
 -1.6356964207875569E-02 a       652     0    33     1    12
  3.8466246798606919E-02 a       653     0    33     1    13
  7.7682541320070644E-02 a       654     0    33     1    14
  1.3515039072638688E-01 a       655     0    33     1    15
 -1.7005361592793831E-02 a       656     0    33     1    16
 -1.0461559689763504E-02 a       657     0    33     1    17
 -7.8470889875735181E-02 a       658     0    33     1    18
 -1.8441663614893275E-01 a       659     0    33     1    19
 -6.5374769331823693E-02 a       660     0    33     1    20
 -1.0387519585953502E-01 a       661     0    34     1     1
 -6.1799718736034685E-03 a       662     0    34     1     2
  8.9668769799599549E-02 a       663     0    34     1     3
 -3.8961569745904430E-02 a       664     0    34     1     4
 -9.3390774059494738E-02 a       665     0    34     1     5
 -1.1354405627040957E-02 a       666     0    34     1     6
 -4.8276734646001393E-02 a       667     0    34     1     7
  1.6332781819669125E-02 a       668     0    34     1     8
 -1.6536305493039100E-01 a       669     0    34     1     9
  5.5661364131594483E-02 a       670     0    34     1    10
  6.4532129021067641E-02 a       671     0    34     1    11
  9.7288533311710862E-03 a       672     0    34     1    12
 -2.3788560272121402E-02 a       673     0    34     1    13
  9.1139542967524717E-02 a       674     0    34     1    14
  1.7022637232746990E-01 a       675     0    34     1    15
 -1.1110707232887086E-01 a       676     0    34     1    16
  1.2850115577618901E-01 a       677     0    34     1    17
 -1.0093929370869027E-01 a       678     0    34     1    18
  6.8304344966078775E-02 a       679     0    34     1    19
  9.3569224576426756E-03 a       680     0    34     1    20
 -1.1577841517371826E-02 a       681     0    35     1     1
  5.1649876250447299E-02 a       682     0    35     1     2
  4.4904686985860420E-02 a       683     0    35     1     3
  5.9309467280902362E-04 a       684     0    35     1     4
 -1.7273707821622328E-02 a       685     0    35     1     5
  6.4962915695416776E-02 a       686     0    35     1     6
 -1.1989277895385161E-01 a       687     0    35     1     7
 -1.5982100361539301E-02 a       688     0    35     1     8
 -6.3789277376232453E-02 a       689     0    35     1     9
  3.5849567407382252E-02 a       690     0    35     1    10
  8.0745747302225751E-02 a       691     0    35     1    11
  9.0854144194563551E-03 a       692     0    35     1    12
  9.4661863239861324E-02 a       693     0    35     1    13
 -1.5456960392297861E-01 a       694     0    35     1    14
  7.8903584928760439E-03 a       695     0    35     1    15
 -1.7483728716971845E-03 a       696     0    35     1    16
 -1.1611572023722042E-01 a       697     0    35     1    17
 -1.2311363293339837E-01 a       698     0    35     1    18
 -4.8697419661294372E-02 a       699     0    35     1    19
 -3.9170081975769041E-03 a       700     0    35     1    20
 -3.1606249707246709E-02 a       701     0    36     1     1
 -4.3223542492728764E-02 a       702     0    36     1     2
 -7.6121216167111530E-03 a       703     0    36     1     3
 -1.3169871027960342E-01 a       704     0    36     1     4
 -2.1119277749242896E-02 a       705     0    36     1     5
 -9.3438897553567282E-02 a       706     0    36     1     6
 -4.2633240846252359E-04 a       707     0    36     1     7
 -5.8152742241198589E-02 a       708     0    36     1     8
  5.6822643703621341E-02 a       709     0    36     1     9
  5.4619787814823406E-02 a       710     0    36     1    10
 -3.6623782283442666E-02 a       711     0    36     1    11
 -1.2439856044667416E-01 a       712     0    36     1    12
  9.2445620959760402E-02 a       713     0    36     1    13
  2.1848491886787513E-01 a       714     0    36     1    14
  3.4900161121353010E-02 a       715     0    36     1    15
 -6.2994562082250207E-03 a       716     0    36     1    16
 -1.5063347930323606E-01 a       717     0    36     1    17
  8.7505259091051071E-02 a       718     0    36     1    18
  8.1178912016798711E-03 a       719     0    36     1    19
 -2.6098165074066194E-02 a       720     0    36     1    20
 -5.9742835931447622E-02 a       721     0    37     1     1
 -2.6945233011704040E-02 a       722     0    37     1     2
  4.0514670939793378E-02 a       723     0    37     1     3
  1.9781671900426085E-02 a       724     0    37     1     4
  2.5564963171079719E-02 a       725     0    37     1     5
  9.6105602025287742E-02 a       726     0    37     1     6
  9.7541276473870647E-02 a       727     0    37     1     7
  4.9352268101350238E-02 a       728     0    37     1     8
 -8.1966515780533003E-02 a       729     0    37     1     9
 -2.2560633860208495E-02 a       730     0    37     1    10
 -3.2291556321156892E-02 a       731     0    37     1    11
  2.2987739981627318E-02 a       732     0    37     1    12
  1.2373830616012399E-01 a       733     0    37     1    13
  7.2335470199799787E-02 a       734     0    37     1    14
  2.5081432643052567E-02 a       735     0    37     1    15
 -4.1978433895522180E-02 a       736     0    37     1    16
  3.7567936490631726E-02 a       737     0    37     1    17
 -1.9287343145046328E-02 a       738     0    37     1    18
  7.8187283330715243E-02 a       739     0    37     1    19
  3.6514551770185727E-02 a       740     0    37     1    20
 -1.1139969001282897E-01 a       741     0    38     1     1
  4.0543613034270412E-02 a       742     0    38     1     2
 -9.7555177193470607E-02 a       743     0    38     1     3
  4.6749397691765116E-02 a       744     0    38     1     4
  3.9894047512647954E-02 a       745     0    38     1     5
  1.1123904708131080E-01 a       746     0    38     1     6
  4.8724321781287074E-03 a       747     0    38     1     7
 -3.0579775754681845E-02 a       748     0    38     1     8
  2.1514449290180643E-01 a       749     0    38     1     9
 -7.1265696894748959E-02 a       750     0    38     1    10
 -7.7740769830530890E-03 a       751     0    38     1    11
  1.7826699001566346E-02 a       752     0    38     1    12
 -7.4852605184283966E-02 a       753     0    38     1    13
 -1.3338923318305229E-01 a       754     0    38     1    14
 -1.5089194226988700E-01 a       755     0    38     1    15
  9.7192549806216832E-02 a       756     0    38     1    16
 -1.3724327431295325E-01 a       757     0    38     1    17
  1.2711804994233838E-01 a       758     0    38     1    18
 -2.2143070078301179E-02 a       759     0    38     1    19
 -7.1188806494986790E-03 a       760     0    38     1    20
  7.2712520723914029E-02 a       761     0    39     1     1
 -7.7064771899049880E-02 a       762     0    39     1     2
 -5.5799545758630081E-02 a       763     0    39     1     3
  1.3963818045447168E-02 a       764     0    39     1     4
  2.0952544645118847E-02 a       765     0    39     1     5
 -6.9775209220616724E-02 a       766     0    39     1     6
  1.1746996848516124E-01 a       767     0    39     1     7
 -2.9729875805142780E-03 a       768     0    39     1     8
  2.1728181144033114E-02 a       769     0    39     1     9
  2.1970802989522205E-02 a       770     0    39     1    10
 -5.1193079223696772E-02 a       771     0    39     1    11
  7.2152801393260738E-04 a       772     0    39     1    12
 -2.9957327057432044E-02 a       773     0    39     1    13
  1.4427336488840101E-01 a       774     0    39     1    14
 -2.7855599356901468E-02 a       775     0    39     1    15
 -8.8769092055195394E-03 a       776     0    39     1    16
  2.0942012874902140E-02 a       777     0    39     1    17
  7.9306804746925169E-02 a       778     0    39     1    18
 -3.8083532962693165E-02 a       779     0    39     1    19
  1.9240955226414972E-03 a       780     0    39     1    20
 -1.5816303716820187E-02 a       781     0    40     1     1
  7.1336711478649326E-02 a       782     0    40     1     2
 -2.1244111156799080E-02 a       783     0    40     1     3
  6.5710221695646109E-02 a       784     0    40     1     4
 -8.4573356560576161E-03 a       785     0    40     1     5
  1.1885180267057353E-01 a       786     0    40     1     6
 -8.2022316831382620E-03 a       787     0    40     1     7
  7.1896799791136314E-03 a       788     0    40     1     8
 -4.2401130567444954E-02 a       789     0    40     1     9
 -1.1580846300629681E-01 a       790     0    40     1    10
  4.5011426394060784E-02 a       791     0    40     1    11
  5.3258015133576551E-02 a       792     0    40     1    12
 -3.9024374368288081E-02 a       793     0    40     1    13
 -1.3815186137117533E-01 a       794     0    40     1    14
  6.7185589710197349E-02 a       795     0    40     1    15
 -5.0246282191173984E-03 a       796     0    40     1    16
  3.8090995168423333E-02 a       797     0    40     1    17
 -7.6067445615242521E-02 a       798     0    40     1    18
  6.4880253797229823E-02 a       799     0    40     1    19
  9.9463772164234878E-03 a       800     0    40     1    20
 -5.7285301378599905E-02 a       801     0    41     1     1
 -1.5988500587485927E-01 a       802     0    41     1     2
  3.0964412196141289E-01 a       803     0    41     1     3
  1.9837084739702474E-01 a       804     0    41     1     4
 -1.2378442766698347E-02 a       805     0    41     1     5
  1.1963915838449836E-01 a       806     0    41     1     6
 -2.2144857454709693E-01 a       807     0    41     1     7
 -9.5777704824709167E-02 a       808     0    41     1     8
 -6.1468023510370493E-02 a       809     0    41     1     9
 -1.3143269068682356E-01 a       810     0    41     1    10
  2.3048072234279951E-01 a       811     0    41     1    11
  4.0660960634389032E-01 a       812     0    41     1    12
  9.5973782109142772E-02 a       813     0    41     1    13
 -1.1388975832218601E-01 a       814     0    41     1    14
 -1.3828690189753653E-01 a       815     0    41     1    15
  1.3689332117198372E-01 a       816     0    41     1    16
  2.5693303539992174E-01 a       817     0    41     1    17
 -1.8972451267926713E-01 a       818     0    41     1    18
  1.6648032983880595E-01 a       819     0    41     1    19
  4.3528003696667472E-01 a       820     0    41     1    20
 -2.0112943793001931E-01 a       821     0    42     1     1
 -1.5538090238649555E-01 a       822     0    42     1     2
 -5.8189667086052743E-01 a       823     0    42     1     3
  2.5712769138095771E-02 a       824     0    42     1     4
  2.4317481812256411E-01 a       825     0    42     1     5
 -9.4481605967079961E-03 a       826     0    42     1     6
  2.4588463488010529E-02 a       827     0    42     1     7
  2.2220195080889779E-01 a       828     0    42     1     8
 -1.1634534401707039E-01 a       829     0    42     1     9
  1.4112772997133016E-01 a       830     0    42     1    10
 -2.0184020297221708E-01 a       831     0    42     1    11
 -1.9065477981042994E-01 a       832     0    42     1    12
  3.3806017796696275E-01 a       833     0    42     1    13
  1.8076086655016335E-01 a       834     0    42     1    14
  2.3065429643531138E-01 a       835     0    42     1    15
 -1.2408786919396322E-01 a       836     0    42     1    16
 -1.3585255506229491E-01 a       837     0    42     1    17
 -1.1994220664437670E-01 a       838     0    42     1    18
  2.0460547345560817E-01 a       839     0    42     1    19
 -3.1777680031431776E-01 a       840     0    42     1    20
 -1.5615162294330984E-01 a       841     0    43     1     1
 -1.5626860710983681E-01 a       842     0    43     1     2
  1.0479469049273732E-01 a       843     0    43     1     3
 -1.3555918193033056E-01 a       844     0    43     1     4
  2.5952372357089658E-02 a       845     0    43     1     5
 -4.8137460492667594E-02 a       846     0    43     1     6
  2.7699295654847761E-01 a       847     0    43     1     7
 -1.5392568707833595E-01 a       848     0    43     1     8
 -1.9082521997198146E-01 a       849     0    43     1     9
 -2.7896372283325954E-01 a       850     0    43     1    10
 -6.8989710358790618E-02 a       851     0    43     1    11
  3.1119153903821418E-03 a       852     0    43     1    12
 -3.2647888061276900E-02 a       853     0    43     1    13
 -1.5899707420048589E-01 a       854     0    43     1    14
  2.3649845005762221E-01 a       855     0    43     1    15
 -1.0329695911702234E-02 a       856     0    43     1    16
  9.9892532050335187E-02 a       857     0    43     1    17
 -3.7042773330652534E-01 a       858     0    43     1    18
  1.8449812553920672E-01 a       859     0    43     1    19
 -1.4382236051514777E-01 a       860     0    43     1    20
  2.7666235693450669E-02 a       861     0    44     1     1
 -5.3944535214522582E-02 a       862     0    44     1     2
  3.9376683314393313E-02 a       863     0    44     1     3
 -7.6167809469892850E-02 a       864     0    44     1     4
 -7.5644723385998217E-02 a       865     0    44     1     5
  3.0695568029545311E-01 a       866     0    44     1     6
  1.6548371009857801E-01 a       867     0    44     1     7
  7.5926256310707582E-02 a       868     0    44     1     8
 -7.5588065038906136E-03 a       869     0    44     1     9
  7.7751794659524321E-03 a       870     0    44     1    10
  1.6814804339432476E-01 a       871     0    44     1    11
  2.1340013614740656E-02 a       872     0    44     1    12
  1.3008285351561469E-01 a       873     0    44     1    13
 -6.2024650259611833E-02 a       874     0    44     1    14
  1.4698655300739238E-01 a       875     0    44     1    15
  1.3385177014045679E-01 a       876     0    44     1    16
 -8.6116037370318949E-02 a       877     0    44     1    17
  1.9407924950946013E-02 a       878     0    44     1    18
  3.8262839396733271E-02 a       879     0    44     1    19
 -1.3644854421877878E-01 a       880     0    44     1    20
 -2.2103864796364492E-01 a       881     0    45     1     1
 -5.9880385000384305E-02 a       882     0    45     1     2
  2.7732463602976637E-01 a       883     0    45     1     3
 -1.3277995157557229E-01 a       884     0    45     1     4
  1.1872050145509963E-01 a       885     0    45     1     5
  4.5840890532558069E-02 a       886     0    45     1     6
 -3.3485308470342867E-02 a       887     0    45     1     7
  6.0234749193099173E-02 a       888     0    45     1     8
  2.3794974672136476E-01 a       889     0    45     1     9
 -3.4172899950069036E-01 a       890     0    45     1    10
  2.0822132307547092E-02 a       891     0    45     1    11
  1.9358664865635894E-01 a       892     0    45     1    12
  1.2670981107107576E-02 a       893     0    45     1    13
  1.7951245055270629E-01 a       894     0    45     1    14
 -1.7904474132501069E-01 a       895     0    45     1    15
  2.5896199389936647E-01 a       896     0    45     1    16
 -9.0752758819602097E-02 a       897     0    45     1    17
  3.8031497260543189E-02 a       898     0    45     1    18
 -1.5285756092742606E-01 a       899     0    45     1    19
  2.6327568975854071E-01 a       900     0    45     1    20
 -1.6530694229250004E-01 a       901     0    46     1     1
  5.2001961826060095E-02 a       902     0    46     1     2
  3.7418755172523993E-02 a       903     0    46     1     3
  3.4701848078190427E-02 a       904     0    46     1     4
 -2.6019322573281631E-02 a       905     0    46     1     5
 -1.0017583950491681E-01 a       906     0    46     1     6
 -1.2889563231052761E-01 a       907     0    46     1     7
  1.0114086833884796E-01 a       908     0    46     1     8
 -2.0750682626595929E-01 a       909     0    46     1     9
  1.1540511080170145E-01 a       910     0    46     1    10
 -3.8303160365839868E-02 a       911     0    46     1    11
 -1.0274875205987759E-01 a       912     0    46     1    12
  4.5497085156298460E-02 a       913     0    46     1    13
 -1.4091661551037082E-01 a       914     0    46     1    14
  2.5295113362893674E-02 a       915     0    46     1    15
  2.3138537529304410E-02 a       916     0    46     1    16
  1.6868669466045949E-01 a       917     0    46     1    17
  7.0118027254252854E-02 a       918     0    46     1    18
  1.5188344189762437E-01 a       919     0    46     1    19
 -4.7682281399323095E-02 a       920     0    46     1    20
  1.9223137431079246E-02 a       921     0    47     1     1
 -5.5297833964921154E-02 a       922     0    47     1     2
 -2.0954865128681899E-01 a       923     0    47     1     3
  6.8765779876343823E-03 a       924     0    47     1     4
 -3.4388577562849937E-02 a       925     0    47     1     5
  7.9302846300850938E-02 a       926     0    47     1     6
 -6.2006231582710195E-02 a       927     0    47     1     7
 -1.0895224908088240E-01 a       928     0    47     1     8
  6.3137655157985945E-02 a       929     0    47     1     9
  9.2467983637635948E-02 a       930     0    47     1    10
 -2.3319430961629306E-02 a       931     0    47     1    11
  9.1111641082223856E-03 a       932     0    47     1    12
 -1.4494514671979714E-01 a       933     0    47     1    13
  9.8853817634951838E-02 a       934     0    47     1    14
 -1.5054384927107756E-01 a       935     0    47     1    15
 -5.4474580235420879E-02 a       936     0    47     1    16
 -1.0587708754432870E-01 a       937     0    47     1    17
  4.7880637737654191E-02 a       938     0    47     1    18
 -1.8706300539762119E-02 a       939     0    47     1    19
  6.0583329518696508E-02 a       940     0    47     1    20
 -2.2904114114154334E-01 a       941     0    48     1     1
 -7.2731341639071953E-02 a       942     0    48     1     2
 -1.1123469391929117E-01 a       943     0    48     1     3
 -3.5632482250008958E-02 a       944     0    48     1     4
 -1.0771179467521366E-02 a       945     0    48     1     5
 -6.1860505466912151E-02 a       946     0    48     1     6
  1.4135301329139802E-02 a       947     0    48     1     7
 -5.5885204446698936E-02 a       948     0    48     1     8
 -1.3119766877897621E-01 a       949     0    48     1     9
  8.1377618165228441E-02 a       950     0    48     1    10
  1.0647258832871444E-01 a       951     0    48     1    11
  9.8711411785325359E-03 a       952     0    48     1    12
  1.2619778717040528E-01 a       953     0    48     1    13
  1.7495612782367387E-01 a       954     0    48     1    14
  9.6214532809879655E-02 a       955     0    48     1    15
 -4.7665181092801934E-02 a       956     0    48     1    16
 -1.9364561506076186E-01 a       957     0    48     1    17
 -1.6179806706827068E-01 a       958     0    48     1    18
 -1.4988329314817447E-01 a       959     0    48     1    19
  3.5058445619301049E-02 a       960     0    48     1    20
  6.8560169154955705E-02 a       961     0    49     1     1
 -2.5274110489722244E-02 a       962     0    49     1     2
  1.6963199045098090E-02 a       963     0    49     1     3
 -1.5459144935147820E-01 a       964     0    49     1     4
  9.5852248729971584E-02 a       965     0    49     1     5
  1.5289161502941426E-01 a       966     0    49     1     6
 -1.7893854864764809E-02 a       967     0    49     1     7
  7.1825107671451283E-02 a       968     0    49     1     8
  7.8777927839468839E-02 a       969     0    49     1     9
  1.9618212133548968E-01 a       970     0    49     1    10
 -1.5307207591172381E-01 a       971     0    49     1    11
 -1.1169204632424065E-01 a       972     0    49     1    12
 -7.2637697708345939E-02 a       973     0    49     1    13
 -2.7199582003767167E-02 a       974     0    49     1    14
  1.0613685429523835E-01 a       975     0    49     1    15
  8.2886126584867229E-02 a       976     0    49     1    16
  6.0950228843690467E-02 a       977     0    49     1    17
  1.3629979980474213E-01 a       978     0    49     1    18
 -5.0541052005113968E-02 a       979     0    49     1    19
 -1.7676243642765890E-02 a       980     0    49     1    20
 -1.2440329258478691E-01 a       981     0    50     1     1
 -9.8574052699808137E-02 a       982     0    50     1     2
 -1.0975753429716935E-01 a       983     0    50     1     3
  1.2166394450014452E-01 a       984     0    50     1     4
 -6.9150052395015899E-02 a       985     0    50     1     5
 -1.8517190071530684E-01 a       986     0    50     1     6
 -1.3233824458616902E-01 a       987     0    50     1     7
 -1.2303425954732676E-01 a       988     0    50     1     8
 -2.0551820751184119E-01 a       989     0    50     1     9
 -1.1871504856222169E-01 a       990     0    50     1    10
  8.8310905713626167E-03 a       991     0    50     1    11
  9.6949289098520935E-02 a       992     0    50     1    12
  2.3722024785026655E-01 a       993     0    50     1    13
 -1.0517056602978848E-01 a       994     0    50     1    14
  1.4277031414659563E-01 a       995     0    50     1    15
 -4.9355328875544856E-02 a       996     0    50     1    16
 -2.7328549935933877E-01 a       997     0    50     1    17
 -1.4562912893831379E-02 a       998     0    50     1    18
  1.0714506359634289E-01 a       999     0    50     1    19
  1.3535147640471744E-02 a      1000     0    50     1    20
  7.5974223026111801E-02 a      1001     0    51     1     1
 -3.0233767669044270E-01 a      1002     0    51     1     2
 -1.5741219456380939E-01 a      1003     0    51     1     3
  8.4431130451079681E-03 a      1004     0    51     1     4
 -9.4522946273242994E-02 a      1005     0    51     1     5
 -4.0011854575570542E-02 a      1006     0    51     1     6
  1.5225121365758210E-01 a      1007     0    51     1     7
  4.2527087948781662E-02 a      1008     0    51     1     8
  1.9133816125091564E-02 a      1009     0    51     1     9
 -1.0877930732857188E-01 a      1010     0    51     1    10
  6.1409850518641750E-02 a      1011     0    51     1    11
  1.9565104428549041E-01 a      1012     0    51     1    12
  1.0544334749413921E-01 a      1013     0    51     1    13
 -3.4415283318797307E-01 a      1014     0    51     1    14
 -1.0259920123702597E-02 a      1015     0    51     1    15
 -3.2820048425008880E-01 a      1016     0    51     1    16
 -2.7944113654600011E-01 a      1017     0    51     1    17
  1.6498622538207476E-02 a      1018     0    51     1    18
 -1.0019982141683544E-01 a      1019     0    51     1    19
 -3.1463575462796073E-02 a      1020     0    51     1    20
 -6.0520930099071668E-02 a      1021     0    52     1     1
  3.1204891181923919E-02 a      1022     0    52     1     2
  1.3108197296306184E-01 a      1023     0    52     1     3
  9.3196279649481115E-02 a      1024     0    52     1     4
 -3.7513752508213749E-01 a      1025     0    52     1     5
  5.7947468002912679E-02 a      1026     0    52     1     6
  7.6924644793867444E-02 a      1027     0    52     1     7
 -3.2077470447943318E-01 a      1028     0    52     1     8
  2.0850323773104004E-01 a      1029     0    52     1     9
  1.3162122898949941E-01 a      1030     0    52     1    10
 -1.7585284230735831E-01 a      1031     0    52     1    11
 -1.3009125189147192E-01 a      1032     0    52     1    12
  3.2343953009122538E-02 a      1033     0    52     1    13
  2.7547391580544511E-01 a      1034     0    52     1    14
 -3.4656175134115086E-01 a      1035     0    52     1    15
  2.2673053014283751E-01 a      1036     0    52     1    16
  1.9315307318839281E-01 a      1037     0    52     1    17
 -1.9305345228090021E-01 a      1038     0    52     1    18
 -1.4648712464813976E-01 a      1039     0    52     1    19
  1.8332560284596888E-01 a      1040     0    52     1    20
  2.5237929895029632E-01 a      1041     0    53     1     1
  2.7494528936516610E-01 a      1042     0    53     1     2
 -3.0137814805950641E-01 a      1043     0    53     1     3
 -1.4410937526361516E-02 a      1044     0    53     1     4
  3.4894124256065036E-02 a      1045     0    53     1     5
  8.0798728021071353E-02 a      1046     0    53     1     6
 -7.3624792392735797E-02 a      1047     0    53     1     7
 -8.4383551418315716E-02 a      1048     0    53     1     8
  2.8475454631635408E-02 a      1049     0    53     1     9
 -2.0551554301293817E-01 a      1050     0    53     1    10
  1.1305686748545246E-01 a      1051     0    53     1    11
 -1.6585665055396923E-02 a      1052     0    53     1    12
  6.4492021527389795E-02 a      1053     0    53     1    13
  1.2730133475620950E-01 a      1054     0    53     1    14
  4.4199247331684656E-02 a      1055     0    53     1    15
 -5.6000924827223068E-02 a      1056     0    53     1    16
  2.5378991084497680E-02 a      1057     0    53     1    17
  1.2290965973472158E-01 a      1058     0    53     1    18
  7.1984017267237188E-02 a      1059     0    53     1    19
  1.6212962644189341E-01 a      1060     0    53     1    20
  1.6047042949235560E-01 a      1061     0    54     1     1
 -8.0883438757954909E-02 a      1062     0    54     1     2
  1.6339439393135313E-02 a      1063     0    54     1     3
  1.1298612965058637E-01 a      1064     0    54     1     4
  1.9706612934691081E-01 a      1065     0    54     1     5
  3.2647988805261784E-02 a      1066     0    54     1     6
  1.8136091067258645E-01 a      1067     0    54     1     7
  9.8366449884771612E-02 a      1068     0    54     1     8
 -4.7261707786692263E-03 a      1069     0    54     1     9
 -1.5070679389139496E-01 a      1070     0    54     1    10
 -1.7334268231366123E-01 a      1071     0    54     1    11
 -7.1694558688783133E-02 a      1072     0    54     1    12
  1.2015667719067587E-01 a      1073     0    54     1    13
  3.0756637255993469E-01 a      1074     0    54     1    14
 -3.6498750537707667E-02 a      1075     0    54     1    15
  6.1130026514596009E-02 a      1076     0    54     1    16
 -1.2315472267407720E-02 a      1077     0    54     1    17
 -4.0261814822720093E-02 a      1078     0    54     1    18
 -6.7126349742251748E-03 a      1079     0    54     1    19
  4.6139243575994186E-02 a      1080     0    54     1    20
  1.5580630205747248E-01 a      1081     0    55     1     1
  2.1948431524479120E-01 a      1082     0    55     1     2
 -2.1493969619918455E-02 a      1083     0    55     1     3
  1.6154522561681964E-01 a      1084     0    55     1     4
  6.1569247430731701E-02 a      1085     0    55     1     5
 -4.2091797907551333E-02 a      1086     0    55     1     6
 -1.1166054031374402E-01 a      1087     0    55     1     7
  1.7048453368540983E-01 a      1088     0    55     1     8
 -1.3750049313358259E-01 a      1089     0    55     1     9
  2.6351873357512046E-01 a      1090     0    55     1    10
  9.5444126959367229E-02 a      1091     0    55     1    11
 -1.7887998946439906E-01 a      1092     0    55     1    12
  1.6896328311382022E-01 a      1093     0    55     1    13
  4.2065949363741001E-02 a      1094     0    55     1    14
 -7.5495144639254972E-03 a      1095     0    55     1    15
 -3.1530863529365921E-01 a      1096     0    55     1    16
  6.2624812249126013E-02 a      1097     0    55     1    17
  1.6761438787963170E-01 a      1098     0    55     1    18
 -1.3767376648987129E-01 a      1099     0    55     1    19
 -7.6702525059566873E-02 a      1100     0    55     1    20
  2.3621392533388244E-01 a      1101     0    56     1     1
 -1.3398242731649782E-01 a      1102     0    56     1     2
  2.5600184130876624E-01 a      1103     0    56     1     3
 -4.1025179774831756E-02 a      1104     0    56     1     4
 -1.0272590768145679E-01 a      1105     0    56     1     5
 -2.2103855722710428E-01 a      1106     0    56     1     6
 -4.2054232942702378E-02 a      1107     0    56     1     7
  7.9462266225631979E-03 a      1108     0    56     1     8
  1.3782037274911788E-01 a      1109     0    56     1     9
  8.0924864945948791E-02 a      1110     0    56     1    10
 -1.8912526424408121E-01 a      1111     0    56     1    11
  6.8801489486749065E-02 a      1112     0    56     1    12
  1.9923078530609986E-01 a      1113     0    56     1    13
 -6.2671837037820102E-02 a      1114     0    56     1    14
  7.5382575500404891E-02 a      1115     0    56     1    15
 -8.6019461597099486E-02 a      1116     0    56     1    16
 -1.9619948600634007E-01 a      1117     0    56     1    17
 -1.5590994698270830E-01 a      1118     0    56     1    18
 -3.6970229749213650E-02 a      1119     0    56     1    19
  7.4061751676291393E-02 a      1120     0    56     1    20
 -1.0559502139651471E-01 a      1121     0    57     1     1
  7.2880505002736490E-02 a      1122     0    57     1     2
  2.1950652121711378E-01 a      1123     0    57     1     3
 -5.7167221863053272E-02 a      1124     0    57     1     4
  1.8260214085238738E-01 a      1125     0    57     1     5
 -2.2820805155526022E-01 a      1126     0    57     1     6
 -7.1651336307173102E-02 a      1127     0    57     1     7
  1.0261838107531226E-01 a      1128     0    57     1     8
 -1.6896465767198994E-03 a      1129     0    57     1     9
  1.8455110792327711E-02 a      1130     0    57     1    10
  2.1816439954640596E-02 a      1131     0    57     1    11
 -1.3486785484534361E-01 a      1132     0    57     1    12
  6.4504836979515617E-02 a      1133     0    57     1    13
 -9.6866248398336852E-02 a      1134     0    57     1    14
 -2.5285767849979396E-01 a      1135     0    57     1    15
  3.0181347958490260E-02 a      1136     0    57     1    16
  1.1962176883703803E-01 a      1137     0    57     1    17
 -1.0030732297308197E-01 a      1138     0    57     1    18
  1.7417226701971092E-04 a      1139     0    57     1    19
  6.6015453703120799E-03 a      1140     0    57     1    20
 -1.7298829560643741E-01 a      1141     0    58     1     1
 -2.3816964633841788E-02 a      1142     0    58     1     2
  3.4339775383088196E-02 a      1143     0    58     1     3
  1.3412286734050510E-01 a      1144     0    58     1     4
  1.3767878635969205E-02 a      1145     0    58     1     5
  1.3821506477438647E-01 a      1146     0    58     1     6
 -3.6737500916573483E-02 a      1147     0    58     1     7
  2.3848523661167052E-02 a      1148     0    58     1     8
  2.4912438645624463E-01 a      1149     0    58     1     9
  9.4640281545015859E-02 a      1150     0    58     1    10
  2.5588337150912840E-02 a      1151     0    58     1    11
 -2.4149258957532269E-02 a      1152     0    58     1    12
 -2.8182030691180182E-01 a      1153     0    58     1    13
 -1.8017174549997853E-01 a      1154     0    58     1    14
 -1.2029451141683430E-01 a      1155     0    58     1    15
  2.9138074113112884E-02 a      1156     0    58     1    16
 -6.4526552887356238E-03 a      1157     0    58     1    17
  5.4768599627270813E-02 a      1158     0    58     1    18
  1.5630535374917595E-01 a      1159     0    58     1    19
 -5.0214005318468549E-02 a      1160     0    58     1    20
 -1.4598830671658944E-01 a      1161     0    59     1     1
 -1.0467283030751728E-01 a      1162     0    59     1     2
  1.5596562610094775E-03 a      1163     0    59     1     3
  1.2892851618219214E-01 a      1164     0    59     1     4
 -1.3869819068162242E-01 a      1165     0    59     1     5
 -6.4409281206628477E-02 a      1166     0    59     1     6
 -5.2709880150224660E-02 a      1167     0    59     1     7
 -7.0389061126993696E-02 a      1168     0    59     1     8
  1.4546369194513747E-02 a      1169     0    59     1     9
 -4.3886687947100884E-02 a      1170     0    59     1    10
  2.2163369339983954E-01 a      1171     0    59     1    11
  3.4995552058680914E-02 a      1172     0    59     1    12
  6.7101463465479808E-02 a      1173     0    59     1    13
  7.9736803988100895E-03 a      1174     0    59     1    14
 -1.5641668082533622E-01 a      1175     0    59     1    15
 -1.2139559754424691E-01 a      1176     0    59     1    16
  5.0136125213411167E-02 a      1177     0    59     1    17
 -9.8130544497505995E-02 a      1178     0    59     1    18
  4.5430727639796012E-02 a      1179     0    59     1    19
 -4.8845088086011443E-02 a      1180     0    59     1    20
  8.8524258676092843E-02 a      1181     0    60     1     1
  1.4274945093945310E-01 a      1182     0    60     1     2
  1.1747386962480955E-01 a      1183     0    60     1     3
 -1.6152546070770166E-01 a      1184     0    60     1     4
 -7.0328140956061838E-02 a      1185     0    60     1     5
  1.9013505618566506E-01 a      1186     0    60     1     6
  3.0091854827789460E-01 a      1187     0    60     1     7
  1.3161807094672687E-01 a      1188     0    60     1     8
  1.7105483536427116E-01 a      1189     0    60     1     9
 -1.2911437789140487E-01 a      1190     0    60     1    10
  1.5961813298758015E-01 a      1191     0    60     1    11
  5.2764022236216547E-02 a      1192     0    60     1    12
 -1.6984665765789708E-01 a      1193     0    60     1    13
  2.7125602018520489E-01 a      1194     0    60     1    14
  1.5441691450394063E-01 a      1195     0    60     1    15
 -3.1070681011165679E-02 a      1196     0    60     1    16
  1.8792682156662485E-01 a      1197     0    60     1    17
 -1.5636925788991073E-02 a      1198     0    60     1    18
 -1.7768870489140901E-01 a      1199     0    60     1    19
 -3.6922253582997605E-03 a      1200     0    60     1    20
 -2.6965699919412578E-01 a      1201     0    61     1     1
  1.5488127964800902E-01 a      1202     0    61     1     2
  2.9741086620108198E-01 a      1203     0    61     1     3
  2.6194071030748595E-01 a      1204     0    61     1     4
 -4.2302718806207715E-02 a      1205     0    61     1     5
 -2.1701449483199944E-01 a      1206     0    61     1     6
 -1.9984723043936023E-01 a      1207     0    61     1     7
  1.8444887799614570E-01 a      1208     0    61     1     8
  2.6939894714730328E-01 a      1209     0    61     1     9
 -8.1984655834527423E-02 a      1210     0    61     1    10
  9.7131334937780409E-02 a      1211     0    61     1    11
  1.7186654673060189E-01 a      1212     0    61     1    12
  2.9426540443280014E-01 a      1213     0    61     1    13
  1.5519438719998217E-02 a      1214     0    61     1    14
 -1.2382782957295405E-02 a      1215     0    61     1    15
  1.4309426287119018E-01 a      1216     0    61     1    16
 -7.5325250228229362E-02 a      1217     0    61     1    17
  5.8780676806652825E-02 a      1218     0    61     1    18
 -1.3221891240878683E-01 a      1219     0    61     1    19
 -1.1307428900462758E-01 a      1220     0    61     1    20
  2.8804650999913913E-02 a      1221     0    62     1     1
 -3.5457863445766963E-01 a      1222     0    62     1     2
 -2.8601567851158771E-01 a      1223     0    62     1     3
 -2.9171003166968101E-01 a      1224     0    62     1     4
 -2.0420155197734291E-01 a      1225     0    62     1     5
 -1.6367208009287315E-01 a      1226     0    62     1     6
  1.6746686441269218E-01 a      1227     0    62     1     7
 -2.7866502936526255E-01 a      1228     0    62     1     8
 -2.5514138022307630E-02 a      1229     0    62     1     9
 -7.1098282800863458E-02 a      1230     0    62     1    10
  5.0256672998092833E-02 a      1231     0    62     1    11
  7.2329730872091394E-02 a      1232     0    62     1    12
 -1.0360338326795322E-01 a      1233     0    62     1    13
  1.5779881050334824E-01 a      1234     0    62     1    14
  3.2533121160734424E-02 a      1235     0    62     1    15
 -2.1573532094149100E-01 a      1236     0    62     1    16
  3.2168926265611736E-01 a      1237     0    62     1    17
 -7.2851910037668458E-02 a      1238     0    62     1    18
 -1.0938287724993033E-01 a      1239     0    62     1    19
  9.0776914186277896E-02 a      1240     0    62     1    20
  3.8672218635114586E-01 a      1241     0    63     1     1
  1.4882500456057915E-01 a      1242     0    63     1     2
 -1.0810531166143482E-01 a      1243     0    63     1     3
  1.2947954649622948E-01 a      1244     0    63     1     4
  6.6103426535852230E-02 a      1245     0    63     1     5
  1.9652421750297328E-01 a      1246     0    63     1     6
 -1.0858834549733461E-01 a      1247     0    63     1     7
  4.5625822285965664E-02 a      1248     0    63     1     8
  1.3266474979291595E-01 a      1249     0    63     1     9
 -3.4179339082592179E-02 a      1250     0    63     1    10
 -2.1954865408227581E-02 a      1251     0    63     1    11
 -2.2889150353814794E-02 a      1252     0    63     1    12
  2.1197560042856342E-01 a      1253     0    63     1    13
  3.6500537202412725E-02 a      1254     0    63     1    14
  9.1629743623121582E-02 a      1255     0    63     1    15
 -1.8957381346669095E-02 a      1256     0    63     1    16
  3.3273059128150712E-01 a      1257     0    63     1    17
  8.3629358153811964E-02 a      1258     0    63     1    18
  9.1479482349565641E-02 a      1259     0    63     1    19
  7.4363145071573031E-02 a      1260     0    63     1    20
 -8.8610659190326443E-02 a      1261     0    64     1     1
 -1.2390959963798423E-01 a      1262     0    64     1     2
  6.5289108881959185E-02 a      1263     0    64     1     3
 -1.1070478083504719E-01 a      1264     0    64     1     4
 -6.7088612467138847E-02 a      1265     0    64     1     5
 -2.6130760827030520E-02 a      1266     0    64     1     6
 -3.2296191610655861E-02 a      1267     0    64     1     7
 -1.1725541328813744E-02 a      1268     0    64     1     8
  3.7494233396239043E-02 a      1269     0    64     1     9
 -4.8596117765926129E-02 a      1270     0    64     1    10
 -3.2390438603860940E-03 a      1271     0    64     1    11
  3.8226179709934409E-02 a      1272     0    64     1    12
  9.2448910864384420E-02 a      1273     0    64     1    13
  1.3307886679641015E-01 a      1274     0    64     1    14
  1.8934009716109088E-01 a      1275     0    64     1    15
 -6.2389765011767004E-02 a      1276     0    64     1    16
  3.7421975567366152E-03 a      1277     0    64     1    17
  2.4056162285935080E-02 a      1278     0    64     1    18
 -2.7905051259362490E-02 a      1279     0    64     1    19
 -9.5510490443834230E-03 a      1280     0    64     1    20
  7.9000422866817979E-02 a      1281     0    65     1     1
  1.3285315031713479E-01 a      1282     0    65     1     2
  5.4154215143551322E-02 a      1283     0    65     1     3
  1.6614521247271932E-02 a      1284     0    65     1     4
  4.3114802425056512E-02 a      1285     0    65     1     5
 -1.2387924246530134E-01 a      1286     0    65     1     6
  1.4508942834494759E-01 a      1287     0    65     1     7
  1.2042107469819938E-01 a      1288     0    65     1     8
  1.1487599660879312E-02 a      1289     0    65     1     9
  1.3139449492809019E-01 a      1290     0    65     1    10
  8.3398604584376507E-02 a      1291     0    65     1    11
 -2.5655585366139738E-02 a      1292     0    65     1    12
 -2.3918788324854698E-01 a      1293     0    65     1    13
 -1.8598803578797207E-01 a      1294     0    65     1    14
  1.1453103450394395E-01 a      1295     0    65     1    15
  8.9943378294252793E-02 a      1296     0    65     1    16
  1.8551991913240201E-01 a      1297     0    65     1    17
  3.5136106760225723E-02 a      1298     0    65     1    18
 -9.3008263751482426E-02 a      1299     0    65     1    19
 -5.4636824601458731E-02 a      1300     0    65     1    20
  1.3942075106323126E-01 a      1301     0    66     1     1
 -6.0277328877231272E-02 a      1302     0    66     1     2
 -1.7821952803329449E-03 a      1303     0    66     1     3
 -1.8110992181492602E-02 a      1304     0    66     1     4
 -4.0975661034442550E-02 a      1305     0    66     1     5
 -1.0078593504448249E-01 a      1306     0    66     1     6
  2.3587927690405186E-02 a      1307     0    66     1     7
 -6.3917189513898118E-03 a      1308     0    66     1     8
  8.5307765665754265E-02 a      1309     0    66     1     9
 -6.2114462538984297E-02 a      1310     0    66     1    10
 -1.2426466528963299E-01 a      1311     0    66     1    11
 -4.5427968871505395E-02 a      1312     0    66     1    12
  6.8764972259274776E-02 a      1313     0    66     1    13
  8.9968015000884277E-02 a      1314     0    66     1    14
  9.1664889486862397E-02 a      1315     0    66     1    15
 -4.4105226431551549E-02 a      1316     0    66     1    16
 -1.6199054732675897E-01 a      1317     0    66     1    17
  9.0682735188359120E-02 a      1318     0    66     1    18
  9.1993090662489826E-02 a      1319     0    66     1    19
  1.7320808834565819E-02 a      1320     0    66     1    20
  3.7443452739475136E-02 a      1321     0    67     1     1
 -4.2930092676911662E-02 a      1322     0    67     1     2
  1.1225565639565642E-02 a      1323     0    67     1     3
  6.2945488498480084E-02 a      1324     0    67     1     4
  3.0395265396040757E-02 a      1325     0    67     1     5
 -2.3679948571452542E-01 a      1326     0    67     1     6
  1.8669755961647405E-01 a      1327     0    67     1     7
  4.8379857100472448E-02 a      1328     0    67     1     8
 -2.7057410009847637E-03 a      1329     0    67     1     9
  6.0632507162317488E-02 a      1330     0    67     1    10
 -5.3513015439781202E-02 a      1331     0    67     1    11
  5.1331324306089762E-02 a      1332     0    67     1    12
 -4.2846512262993332E-02 a      1333     0    67     1    13
 -1.4496102244227566E-01 a      1334     0    67     1    14
  6.5620696723153210E-02 a      1335     0    67     1    15
  3.6843932787188213E-02 a      1336     0    67     1    16
  4.3365671838146082E-02 a      1337     0    67     1    17
  9.5220270454008785E-02 a      1338     0    67     1    18
 -5.0743214359225720E-02 a      1339     0    67     1    19
 -4.6121167570708790E-02 a      1340     0    67     1    20
  2.1549951063547207E-01 a      1341     0    68     1     1
  3.3529839344058697E-02 a      1342     0    68     1     2
 -1.8757126487911116E-01 a      1343     0    68     1     3
  3.2756934327483903E-02 a      1344     0    68     1     4
 -1.1566372171845340E-02 a      1345     0    68     1     5
 -7.9713800534437690E-02 a      1346     0    68     1     6
  1.0780760173743602E-01 a      1347     0    68     1     7
 -3.1693274851907330E-02 a      1348     0    68     1     8
 -1.9995589961864292E-03 a      1349     0    68     1     9
 -1.7149039223904400E-01 a      1350     0    68     1    10
 -9.7171776707616953E-02 a      1351     0    68     1    11
  3.0589387587592703E-02 a      1352     0    68     1    12
 -2.6625029034864489E-01 a      1353     0    68     1    13
  1.5771114320184985E-02 a      1354     0    68     1    14
  1.3435542544119713E-01 a      1355     0    68     1    15
 -4.0242507834728422E-02 a      1356     0    68     1    16
  2.0530870719616331E-01 a      1357     0    68     1    17
  1.0667441358976805E-02 a      1358     0    68     1    18
  1.2087610734468218E-01 a      1359     0    68     1    19
  5.4790053335297940E-02 a      1360     0    68     1    20
 -1.0725628581042121E-01 a      1361     0    69     1     1
 -5.6592624251111445E-02 a      1362     0    69     1     2
 -4.9092871103116519E-02 a      1363     0    69     1     3
 -1.6596629351203731E-02 a      1364     0    69     1     4
 -6.6479498857415831E-02 a      1365     0    69     1     5
  1.1012809280139151E-01 a      1366     0    69     1     6
  5.4975041631109924E-02 a      1367     0    69     1     7
 -4.1264992736223555E-02 a      1368     0    69     1     8
  8.2138553638287605E-04 a      1369     0    69     1     9
  6.2942625297068247E-02 a      1370     0    69     1    10
  1.1700883413342011E-01 a      1371     0    69     1    11
 -7.5780810716061936E-02 a      1372     0    69     1    12
  2.5721548245140342E-02 a      1373     0    69     1    13
  4.7448681125292852E-02 a      1374     0    69     1    14
 -1.2879391106404911E-01 a      1375     0    69     1    15
 -2.9047129413674114E-02 a      1376     0    69     1    16
 -2.9088701516338344E-01 a      1377     0    69     1    17
  6.6504267364982494E-02 a      1378     0    69     1    18
  4.7159634726430706E-03 a      1379     0    69     1    19
  2.6758609060614246E-03 a      1380     0    69     1    20
 -6.6678210200330629E-02 a      1381     0    70     1     1
  8.5769107204388354E-03 a      1382     0    70     1     2
 -1.2547543599446773E-02 a      1383     0    70     1     3
  1.5307146867843839E-02 a      1384     0    70     1     4
  7.6153231381275499E-02 a      1385     0    70     1     5
  2.0053652722967288E-01 a      1386     0    70     1     6
  1.2900958031997381E-02 a      1387     0    70     1     7
  2.7649225887492454E-02 a      1388     0    70     1     8
  1.3087517602888166E-02 a      1389     0    70     1     9
  1.5584935197802940E-01 a      1390     0    70     1    10
 -1.0561550835723320E-03 a      1391     0    70     1    11
 -7.8470493917093848E-02 a      1392     0    70     1    12
 -1.1771618879020918E-01 a      1393     0    70     1    13
  2.7897650384343945E-02 a      1394     0    70     1    14
 -2.3360602814399808E-01 a      1395     0    70     1    15
  7.5849401914631501E-03 a      1396     0    70     1    16
  1.3461968863163237E-01 a      1397     0    70     1    17
 -3.5649007102850135E-02 a      1398     0    70     1    18
  5.9034258796671221E-02 a      1399     0    70     1    19
  6.4609646534961908E-03 a      1400     0    70     1    20
 -7.7422968169361506E-02 a      1401     0    71     1     1
  1.4636613466513643E-02 a      1402     0    71     1     2
  9.9044048780094054E-02 a      1403     0    71     1     3
 -2.3704995796661948E-01 a      1404     0    71     1     4
  8.7372230676248679E-04 a      1405     0    71     1     5
  5.7188947348514492E-02 a      1406     0    71     1     6
  2.0287267183377519E-02 a      1407     0    71     1     7
 -1.1168860554988851E-01 a      1408     0    71     1     8
 -8.4617151204788729E-02 a      1409     0    71     1     9
  1.9391330648943852E-01 a      1410     0    71     1    10
  1.9774517025429295E-01 a      1411     0    71     1    11
 -1.5708849467355071E-01 a      1412     0    71     1    12
 -1.8082393919500204E-02 a      1413     0    71     1    13
  1.5776646577098874E-02 a      1414     0    71     1    14
  1.0869994522922059E-01 a      1415     0    71     1    15
  6.6896284432802447E-02 a      1416     0    71     1    16
  1.7423307370696320E-01 a      1417     0    71     1    17
 -1.5058645686027447E-01 a      1418     0    71     1    18
  1.0234929856119683E-01 a      1419     0    71     1    19
 -6.8157105649323119E-02 a      1420     0    71     1    20
  8.0512750304387357E-02 a      1421     0    72     1     1
  4.5602950405619136E-01 a      1422     0    72     1     2
  3.8300421472698770E-01 a      1423     0    72     1     3
  2.5251575470166897E-02 a      1424     0    72     1     4
 -9.8312942107757054E-02 a      1425     0    72     1     5
 -2.0334039101261500E-01 a      1426     0    72     1     6
  8.2805985055153256E-02 a      1427     0    72     1     7
  4.0405747384820118E-01 a      1428     0    72     1     8
 -2.3198632829749242E-02 a      1429     0    72     1     9
 -1.5424322958467682E-01 a      1430     0    72     1    10
  3.2606552760911023E-01 a      1431     0    72     1    11
  3.4352152500741967E-01 a      1432     0    72     1    12
 -3.4916070726549725E-01 a      1433     0    72     1    13
  3.5970478101439390E-01 a      1434     0    72     1    14
  2.3360158439655013E-01 a      1435     0    72     1    15
  8.8864157729671966E-01 a      1436     0    72     1    16
 -3.5362891593750452E-02 a      1437     0    72     1    17
  5.8497816239106437E-01 a      1438     0    72     1    18
  2.9094038728105215E-01 a      1439     0    72     1    19
 -4.2474130293301249E-01 a      1440     0    72     1    20
 -1.3146591101672009E-01 a      1441     0    73     1     1
 -3.6735732113935410E-02 a      1442     0    73     1     2
  1.1823072287226798E-01 a      1443     0    73     1     3
 -1.3744660065494307E-01 a      1444     0    73     1     4
  5.1141305216068716E-02 a      1445     0    73     1     5
 -7.8739410647510694E-02 a      1446     0    73     1     6
 -8.1919056615391127E-03 a      1447     0    73     1     7
  3.6671829496087563E-02 a      1448     0    73     1     8
 -3.8707307862027314E-02 a      1449     0    73     1     9
 -1.2795855312049606E-01 a      1450     0    73     1    10
  4.4036488889600350E-02 a      1451     0    73     1    11
 -6.9214403491909632E-02 a      1452     0    73     1    12
  1.5425423272171609E-02 a      1453     0    73     1    13
  3.0129738625663854E-02 a      1454     0    73     1    14
  1.0023500596165996E-03 a      1455     0    73     1    15
  2.1677648929470648E-03 a      1456     0    73     1    16
  2.1648561656219312E-02 a      1457     0    73     1    17
 -1.0759454413180061E-01 a      1458     0    73     1    18
  2.3606593758745482E-02 a      1459     0    73     1    19
 -2.0907633178533964E-02 a      1460     0    73     1    20
 -7.1033447735765719E-03 a      1461     0    74     1     1
  1.1725320560623087E-01 a      1462     0    74     1     2
  1.8392627661132599E-01 a      1463     0    74     1     3
 -7.5058886242407641E-02 a      1464     0    74     1     4
 -2.3681433699317192E-01 a      1465     0    74     1     5
  4.4945844191082329E-02 a      1466     0    74     1     6
 -1.1951566442236210E-01 a      1467     0    74     1     7
 -2.7619629407069649E-02 a      1468     0    74     1     8
 -7.6443289115264962E-02 a      1469     0    74     1     9
 -7.5384030084405862E-02 a      1470     0    74     1    10
  1.5211421042331177E-01 a      1471     0    74     1    11
  1.4327422138141152E-01 a      1472     0    74     1    12
 -3.1215250308064383E-02 a      1473     0    74     1    13
  3.0789605849618078E-02 a      1474     0    74     1    14
 -9.7138926413579019E-02 a      1475     0    74     1    15
  2.2716343963624139E-01 a      1476     0    74     1    16
 -3.1214264021884406E-02 a      1477     0    74     1    17
  1.3277465231004457E-01 a      1478     0    74     1    18
  1.1218362414856001E-01 a      1479     0    74     1    19
 -1.3616780436357212E-01 a      1480     0    74     1    20
 -2.5408490762877062E-01 a      1481     0    75     1     1
 -9.7828913113248234E-02 a      1482     0    75     1     2
 -1.5066032455403888E-01 a      1483     0    75     1     3
 -5.3897170125828717E-02 a      1484     0    75     1     4
 -7.0370192547229954E-02 a      1485     0    75     1     5
  9.9107586928524657E-02 a      1486     0    75     1     6
 -1.5319354483026229E-01 a      1487     0    75     1     7
 -2.4733479212554110E-01 a      1488     0    75     1     8
 -2.1153208807216478E-01 a      1489     0    75     1     9
 -1.1625311630007118E-01 a      1490     0    75     1    10
 -1.0660939167860842E-01 a      1491     0    75     1    11
 -1.5804656383693605E-01 a      1492     0    75     1    12
  2.0359234304412069E-02 a      1493     0    75     1    13
 -2.2701655777376953E-01 a      1494     0    75     1    14
  9.0283547060226843E-02 a      1495     0    75     1    15
 -1.6559427022292683E-01 a      1496     0    75     1    16
 -6.1585744196165880E-02 a      1497     0    75     1    17
 -4.6543455050099949E-02 a      1498     0    75     1    18
 -2.4188211801777490E-01 a      1499     0    75     1    19
  5.3340307292412223E-02 a      1500     0    75     1    20
  1.0090454426070015E-01 a      1501     0    76     1     1
 -2.9001384848961812E-02 a      1502     0    76     1     2
  1.2032971168738746E-03 a      1503     0    76     1     3
  6.9539249575700762E-02 a      1504     0    76     1     4
 -8.8696693657346788E-03 a      1505     0    76     1     5
  1.2415101322054595E-01 a      1506     0    76     1     6
  1.5048238401286601E-01 a      1507     0    76     1     7
  8.5933993328895023E-02 a      1508     0    76     1     8
 -1.3966132062386266E-01 a      1509     0    76     1     9
  3.8633843557503038E-02 a      1510     0    76     1    10
  1.8907848500510020E-02 a      1511     0    76     1    11
  9.6311072413801505E-02 a      1512     0    76     1    12
 -3.7903735534646127E-02 a      1513     0    76     1    13
  7.0759557798625250E-02 a      1514     0    76     1    14
  2.5403574835118625E-01 a      1515     0    76     1    15
  1.7789393300817549E-01 a      1516     0    76     1    16
 -2.0242920145574939E-01 a      1517     0    76     1    17
  4.1963976909908343E-02 a      1518     0    76     1    18
  1.3791864455539884E-01 a      1519     0    76     1    19
 -1.6274663661264413E-01 a      1520     0    76     1    20
 -5.1322770445743168E-02 a      1521     0    77     1     1
 -7.1407065763265332E-02 a      1522     0    77     1     2
 -7.4352473389503945E-02 a      1523     0    77     1     3
  5.4939576703159312E-02 a      1524     0    77     1     4
 -1.5037899196841895E-01 a      1525     0    77     1     5
  7.0850203084279764E-02 a      1526     0    77     1     6
 -8.5240109628345051E-02 a      1527     0    77     1     7
 -6.4833804040049486E-02 a      1528     0    77     1     8
  5.8100771477975705E-03 a      1529     0    77     1     9
  1.2359529597261497E-01 a      1530     0    77     1    10
 -3.6644898024113262E-02 a      1531     0    77     1    11
  9.0198948571281093E-02 a      1532     0    77     1    12
 -9.3131781672447844E-02 a      1533     0    77     1    13
 -6.1678040249996916E-04 a      1534     0    77     1    14
  2.2266327187488694E-01 a      1535     0    77     1    15
 -7.6907225241202512E-02 a      1536     0    77     1    16
 -1.7426883192156470E-01 a      1537     0    77     1    17
  9.7079743505539023E-02 a      1538     0    77     1    18
 -9.4441153822226065E-02 a      1539     0    77     1    19
 -1.8672645621653748E-03 a      1540     0    77     1    20
  1.3466370435595218E-02 a      1541     0    78     1     1
  5.8836850562876283E-02 a      1542     0    78     1     2
 -4.3218745759181179E-02 a      1543     0    78     1     3
 -1.1227434406599858E-01 a      1544     0    78     1     4
  1.9055060085442357E-02 a      1545     0    78     1     5
  1.2301052592181488E-02 a      1546     0    78     1     6
  8.6233215375024666E-02 a      1547     0    78     1     7
 -1.2333182443322049E-02 a      1548     0    78     1     8
  5.4223993193773072E-02 a      1549     0    78     1     9
 -3.4405708214860081E-02 a      1550     0    78     1    10
  4.2451169132259638E-02 a      1551     0    78     1    11
 -5.2951656673524132E-02 a      1552     0    78     1    12
  4.9249549997846316E-02 a      1553     0    78     1    13
  1.0178415724460387E-02 a      1554     0    78     1    14
 -1.1402265875271078E-01 a      1555     0    78     1    15
  3.4934861500221605E-02 a      1556     0    78     1    16
  1.9041088056745467E-01 a      1557     0    78     1    17
  1.4817793523164297E-01 a      1558     0    78     1    18
 -1.7397933183517539E-01 a      1559     0    78     1    19
  3.6681957946786421E-02 a      1560     0    78     1    20
  1.9727448309435763E-01 a      1561     0    79     1     1
  5.3856416054472875E-02 a      1562     0    79     1     2
 -1.3332364933516473E-03 a      1563     0    79     1     3
 -5.5236026645786758E-02 a      1564     0    79     1     4
  3.9574892051335651E-02 a      1565     0    79     1     5
  8.7566597647845065E-02 a      1566     0    79     1     6
  2.2473369836236511E-02 a      1567     0    79     1     7
 -2.3665934144851901E-02 a      1568     0    79     1     8
 -9.2728126965712740E-02 a      1569     0    79     1     9
  5.9109960322891973E-02 a      1570     0    79     1    10
 -1.8404026906356352E-01 a      1571     0    79     1    11
 -5.6767117538757253E-02 a      1572     0    79     1    12
 -9.3207493200979777E-02 a      1573     0    79     1    13
 -2.3337556566465790E-02 a      1574     0    79     1    14
 -8.5087411710218830E-02 a      1575     0    79     1    15
  1.0399449787040595E-01 a      1576     0    79     1    16
 -2.6132169914811115E-01 a      1577     0    79     1    17
  8.1866404570920925E-02 a      1578     0    79     1    18
 -5.5423690776346943E-02 a      1579     0    79     1    19
 -3.7520095842836060E-03 a      1580     0    79     1    20
  1.5795392695611213E-01 a      1581     0    80     1     1
  2.9481804500063102E-02 a      1582     0    80     1     2
 -1.1019527279154503E-02 a      1583     0    80     1     3
  6.8072679835168917E-02 a      1584     0    80     1     4
  8.0827393331683373E-02 a      1585     0    80     1     5
 -1.6540091078749911E-01 a      1586     0    80     1     6
 -2.4099821204967831E-01 a      1587     0    80     1     7
 -8.1145222536463474E-02 a      1588     0    80     1     8
  4.8933049932006541E-02 a      1589     0    80     1     9
  2.6921709695438917E-02 a      1590     0    80     1    10
 -2.5569675719061641E-01 a      1591     0    80     1    11
 -5.2726192425268055E-02 a      1592     0    80     1    12
  7.5705272855163734E-04 a      1593     0    80     1    13
 -1.6010357594710878E-01 a      1594     0    80     1    14
 -5.4228381700722965E-02 a      1595     0    80     1    15
  5.7031675040195025E-02 a      1596     0    80     1    16
  1.1999571869437775E-01 a      1597     0    80     1    17
  1.1072814630400617E-01 a      1598     0    80     1    18
  3.5101858180495063E-02 a      1599     0    80     1    19
  3.2078838953980122E-02 a      1600     0    80     1    20
  1.3572203472171229E+00 b      1601     1     1
 -3.4019183533515457E-01 b      1602     1     2
 -3.8943869241567491E-01 b      1603     1     3
  1.2525942657510520E+00 b      1604     1     4
 -1.0535324584809949E+00 b      1605     1     5
 -1.1216614697217728E+00 b      1606     1     6
  6.6250438214849605E-01 b      1607     1     7
  6.3611729848876786E-01 b      1608     1     8
 -8.5593977418597678E-01 b      1609     1     9
  1.1095788069307009E-02 b      1610     1    10
 -9.3253500955596647E-01 b      1611     1    11
 -1.0791337866131265E+00 b      1612     1    12
 -6.6071502544167959E-01 b      1613     1    13
  1.0504226307526456E+00 b      1614     1    14
  1.4369293589936092E+00 b      1615     1    15
 -3.0056049391913026E-01 b      1616     1    16
  1.3643166179376851E+00 b      1617     1    17
 -5.8204670375739220E-01 b      1618     1    18
  7.5064318447423806E-01 b      1619     1    19
 -2.0050383430110566E-01 b      1620     1    20
 -1.3335384829300120E-01 a      1621     1     1     2     1
  2.4102985697175344E-01 a      1622     1     1     2     2
 -2.8793078264585276E-01 a      1623     1     1     2     3
  3.3369735367972420E-01 a      1624     1     1     2     4
  4.0209664602212963E-01 a      1625     1     1     2     5
 -2.3710958019189607E-01 a      1626     1     1     2     6
  4.8778983935853598E-01 a      1627     1     1     2     7
