################################################################################
# Neural network connection values (weights and biases).
################################################################################
# Col  Name       Description
################################################################################
# 1    connection Neural network connection value.
# 2    t          Connection type (a = weight, b = bias).
# 3    index      Index enumerating weights.
# 4    l_s        Starting point layer (end point layer for biases).
# 5    n_s        Starting point neuron in starting layer (end point neuron for biases).
# 6    l_e        End point layer.
# 7    n_e        End point neuron in end layer.
################################################################################
#                      1 2         3     4     5     6     7
#             connection t     index   l_s   n_s   l_e   n_e
############################################################
  8.6716161158821498E-02 a         1     0     1     1     1
 -1.3068195727458687E-01 a         2     0     1     1     2
  1.0390910578440028E-01 a         3     0     1     1     3
  7.9828636393558944E-02 a         4     0     1     1     4
 -6.0309402228303902E-02 a         5     0     1     1     5
  2.2015797488556393E-02 a         6     0     1     1     6
  1.3591928161001618E-01 a         7     0     1     1     7
  1.0564650409275640E-01 a         8     0     1     1     8
  1.3296581746724440E-01 a         9     0     1     1     9
  5.2639491165680313E-02 a        10     0     1     1    10
 -7.8104382925582097E-02 a        11     0     1     1    11
  1.7354342512729420E-01 a        12     0     1     1    12
  6.5585481194176495E-02 a        13     0     1     1    13
  2.7229039428950112E-02 a        14     0     1     1    14
 -4.6766843293018341E-02 a        15     0     1     1    15
  1.7761272948658136E-01 a        16     0     1     1    16
  3.6787285894712959E-02 a        17     0     1     1    17
  2.2364330329007948E-01 a        18     0     1     1    18
  1.2016508035310740E-01 a        19     0     1     1    19
  8.4413098396127761E-02 a        20     0     1     1    20
 -1.0256910581797021E-01 a        21     0     2     1     1
 -3.7533258860338002E-03 a        22     0     2     1     2
  4.8436098857877467E-02 a        23     0     2     1     3
  4.0788363314017459E-02 a        24     0     2     1     4
 -1.2158643383742936E-01 a        25     0     2     1     5
  3.5044220767610809E-02 a        26     0     2     1     6
  2.0625136501515390E-01 a        27     0     2     1     7
 -2.8829642531178108E-02 a        28     0     2     1     8
  1.5484110728780692E-01 a        29     0     2     1     9
  4.0033890676578573E-02 a        30     0     2     1    10
 -1.7204901249492855E-02 a        31     0     2     1    11
 -4.7633523323998908E-02 a        32     0     2     1    12
  1.1642925928359918E-01 a        33     0     2     1    13
 -2.2572757107135843E-01 a        34     0     2     1    14
 -4.2996643239009216E-02 a        35     0     2     1    15
  7.6573067003888620E-02 a        36     0     2     1    16
 -1.4659933149900276E-01 a        37     0     2     1    17
  6.7040049153483994E-02 a        38     0     2     1    18
  8.3829637431339074E-02 a        39     0     2     1    19
  1.1492882909357731E-01 a        40     0     2     1    20
  5.0976095942558204E-02 a        41     0     3     1     1
 -8.0589684842846010E-02 a        42     0     3     1     2
  6.1212507074299019E-03 a        43     0     3     1     3
  2.0151255200144169E-01 a        44     0     3     1     4
 -7.3079637828206756E-02 a        45     0     3     1     5
 -9.3980108064410497E-02 a        46     0     3     1     6
 -2.4051545231074334E-01 a        47     0     3     1     7
  1.8905445244022051E-01 a        48     0     3     1     8
 -1.0485985818342558E-01 a        49     0     3     1     9
  1.1580170641952008E-01 a        50     0     3     1    10
  2.0688988751276741E-01 a        51     0     3     1    11
 -1.1797887055969025E-02 a        52     0     3     1    12
 -1.1111303652354235E-01 a        53     0     3     1    13
  2.3254743508632830E-01 a        54     0     3     1    14
 -2.1755785317826276E-01 a        55     0     3     1    15
  3.0478450681137883E-02 a        56     0     3     1    16
 -1.3382173011571002E-01 a        57     0     3     1    17
  1.0648133671199904E-01 a        58     0     3     1    18
 -2.4459972237058988E-01 a        59     0     3     1    19
  9.8259321405815385E-03 a        60     0     3     1    20
  2.0735398461123156E-01 a        61     0     4     1     1
  7.5002221592430099E-02 a        62     0     4     1     2
  3.9015850770765803E-02 a        63     0     4     1     3
  9.0696618129701700E-02 a        64     0     4     1     4
 -4.0954725164383823E-02 a        65     0     4     1     5
 -2.3878387660263997E-01 a        66     0     4     1     6
 -8.6254112873059063E-02 a        67     0     4     1     7
  7.2897862907040478E-02 a        68     0     4     1     8
 -8.8917806250342915E-02 a        69     0     4     1     9
  1.3235402436559793E-01 a        70     0     4     1    10
  9.2467534476069133E-02 a        71     0     4     1    11
  1.9606129537549945E-02 a        72     0     4     1    12
 -1.0155433946179539E-01 a        73     0     4     1    13
  6.1779281875550991E-02 a        74     0     4     1    14
 -1.5887050235064812E-01 a        75     0     4     1    15
  8.4388807789795448E-02 a        76     0     4     1    16
  2.6078228754376274E-03 a        77     0     4     1    17
 -1.9674814211884334E-01 a        78     0     4     1    18
  6.2778996986445179E-02 a        79     0     4     1    19
  1.2114096839210708E-01 a        80     0     4     1    20
 -1.5181090357510924E-01 a        81     0     5     1     1
  1.1014525510150508E-01 a        82     0     5     1     2
 -2.3448853149841853E-01 a        83     0     5     1     3
 -4.7114860179403931E-02 a        84     0     5     1     4
 -1.0084430300651888E-01 a        85     0     5     1     5
  1.5659959003869675E-01 a        86     0     5     1     6
 -6.9699489638049561E-02 a        87     0     5     1     7
 -1.1757522889065777E-01 a        88     0     5     1     8
 -1.8391323231562143E-01 a        89     0     5     1     9
 -5.5146360419759129E-02 a        90     0     5     1    10
  1.2511872483574432E-01 a        91     0     5     1    11
  1.2447211784232551E-01 a        92     0     5     1    12
 -7.8805361646907962E-02 a        93     0     5     1    13
 -9.7992952016663915E-02 a        94     0     5     1    14
 -1.7316084245030769E-01 a        95     0     5     1    15
 -1.9434908846972423E-01 a        96     0     5     1    16
 -1.4802010300183391E-01 a        97     0     5     1    17
 -2.2426678394610672E-01 a        98     0     5     1    18
 -2.0862176826745835E-01 a        99     0     5     1    19
  1.6968249494023133E-01 a       100     0     5     1    20
  3.7614690619194459E-02 a       101     0     6     1     1
 -1.3490505309058415E-01 a       102     0     6     1     2
 -1.5240060800675620E-01 a       103     0     6     1     3
 -2.2177587683585925E-01 a       104     0     6     1     4
 -8.0315724960553350E-02 a       105     0     6     1     5
 -2.1844502930940679E-01 a       106     0     6     1     6
 -2.0793918338768291E-01 a       107     0     6     1     7
  1.0566289004626805E-01 a       108     0     6     1     8
 -1.4823349363167368E-01 a       109     0     6     1     9
  4.5023109921686962E-02 a       110     0     6     1    10
  5.2181906782947582E-02 a       111     0     6     1    11
  1.1453802308625750E-01 a       112     0     6     1    12
  1.1635756140455726E-02 a       113     0     6     1    13
  1.1113499967935983E-01 a       114     0     6     1    14
 -1.2354712212192874E-01 a       115     0     6     1    15
  2.2465547030066441E-02 a       116     0     6     1    16
  1.9265253751553321E-01 a       117     0     6     1    17
  1.3261094602010046E-01 a       118     0     6     1    18
 -9.2069213252296944E-02 a       119     0     6     1    19
 -2.7100297165159618E-02 a       120     0     6     1    20
  1.2212003103764654E-02 a       121     0     7     1     1
 -1.7673860075892261E-01 a       122     0     7     1     2
  1.2770503747869325E-01 a       123     0     7     1     3
 -2.4613616536960137E-01 a       124     0     7     1     4
 -1.4138300879770407E-01 a       125     0     7     1     5
  2.5983893091632276E-01 a       126     0     7     1     6
  5.5729161051403422E-02 a       127     0     7     1     7
 -8.1339976008652656E-02 a       128     0     7     1     8
 -1.4719226249382830E-01 a       129     0     7     1     9
 -3.6180154871701710E-03 a       130     0     7     1    10
 -1.3293325174180806E-01 a       131     0     7     1    11
  2.2783339675364160E-02 a       132     0     7     1    12
  1.7195660533306559E-01 a       133     0     7     1    13
  2.4956730484981846E-01 a       134     0     7     1    14
 -2.1663912521628856E-01 a       135     0     7     1    15
 -1.3008127161501334E-01 a       136     0     7     1    16
  1.6907729540889740E-01 a       137     0     7     1    17
 -9.4060835992347352E-02 a       138     0     7     1    18
  2.3707571629453794E-01 a       139     0     7     1    19
  1.0126135340747415E-01 a       140     0     7     1    20
 -5.1310111204502393E-02 a       141     0     8     1     1
  4.1689571828262814E-02 a       142     0     8     1     2
 -1.0822058956668579E-01 a       143     0     8     1     3
 -2.4125520135846329E-01 a       144     0     8     1     4
  5.0201983876093301E-02 a       145     0     8     1     5
  2.7835803754471578E-01 a       146     0     8     1     6
 -7.6812423170586175E-02 a       147     0     8     1     7
  1.3877179774743062E-01 a       148     0     8     1     8
  8.2639385723649747E-02 a       149     0     8     1     9
  1.4559833862084013E-02 a       150     0     8     1    10
 -4.1408920015684372E-02 a       151     0     8     1    11
 -6.8752180543671812E-02 a       152     0     8     1    12
 -3.5690322905382772E-02 a       153     0     8     1    13
  7.4271275882726445E-02 a       154     0     8     1    14
  2.1238790383257744E-01 a       155     0     8     1    15
  1.9670932933246482E-01 a       156     0     8     1    16
  1.4410799443386227E-01 a       157     0     8     1    17
 -1.7062867140495191E-02 a       158     0     8     1    18
  1.7393761711754804E-01 a       159     0     8     1    19
 -1.5854653890257756E-01 a       160     0     8     1    20
 -5.0874380382760528E-02 a       161     0     9     1     1
 -2.3442188586284230E-03 a       162     0     9     1     2
  1.4522569472217992E-01 a       163     0     9     1     3
  1.5675237993547259E-01 a       164     0     9     1     4
 -1.5436840419784517E-01 a       165     0     9     1     5
  9.6584721533034587E-02 a       166     0     9     1     6
  2.8865919876456935E-02 a       167     0     9     1     7
 -8.5116130691253108E-02 a       168     0     9     1     8
 -3.0610959986723512E-02 a       169     0     9     1     9
  1.5992804714255482E-01 a       170     0     9     1    10
  6.4380724015215690E-02 a       171     0     9     1    11
 -3.1458191545496811E-01 a       172     0     9     1    12
  2.3443840621612591E-01 a       173     0     9     1    13
 -1.4366550070346484E-01 a       174     0     9     1    14
 -3.0003024908809631E-02 a       175     0     9     1    15
  5.8670203735161783E-02 a       176     0     9     1    16
  4.4898928731736017E-02 a       177     0     9     1    17
 -3.2567863029725856E-02 a       178     0     9     1    18
  1.7544996180488442E-01 a       179     0     9     1    19
  1.2791674671936415E-01 a       180     0     9     1    20
 -1.3171071866086648E-01 a       181     0    10     1     1
 -6.7401600850815813E-02 a       182     0    10     1     2
 -2.2346515410777648E-01 a       183     0    10     1     3
  6.8064325906962417E-02 a       184     0    10     1     4
 -1.6830390780637020E-01 a       185     0    10     1     5
  1.9672298773968620E-02 a       186     0    10     1     6
  2.9459006012384342E-01 a       187     0    10     1     7
 -2.7832182327824545E-01 a       188     0    10     1     8
  2.0591652125937190E-01 a       189     0    10     1     9
  2.0786778689957649E-02 a       190     0    10     1    10
  6.7407396101497749E-02 a       191     0    10     1    11
 -8.1281229699085258E-02 a       192     0    10     1    12
 -1.1471620991513744E-01 a       193     0    10     1    13
  1.4275227800696413E-01 a       194     0    10     1    14
 -2.3149525731477344E-01 a       195     0    10     1    15
 -7.5142757971213531E-02 a       196     0    10     1    16
 -1.8158417561949441E-01 a       197     0    10     1    17
  2.1940794490220550E-01 a       198     0    10     1    18
  6.3574922840022988E-02 a       199     0    10     1    19
  3.3049527952074886E-02 a       200     0    10     1    20
  6.9525389613056154E-02 a       201     0    11     1     1
  9.0953442203849488E-02 a       202     0    11     1     2
 -1.8297409695190489E-01 a       203     0    11     1     3
  1.6263823235252800E-01 a       204     0    11     1     4
 -1.8196051663788387E-01 a       205     0    11     1     5
 -6.4798828381627219E-02 a       206     0    11     1     6
 -2.2983494344127092E-01 a       207     0    11     1     7
 -1.7771104513631980E-01 a       208     0    11     1     8
  7.8603112000681319E-02 a       209     0    11     1     9
  1.8000878997286751E-02 a       210     0    11     1    10
  5.0780260850794241E-02 a       211     0    11     1    11
 -8.5704518319281331E-02 a       212     0    11     1    12
 -1.4540800325274852E-01 a       213     0    11     1    13
  1.0939956357632726E-01 a       214     0    11     1    14
  2.7942279522546082E-01 a       215     0    11     1    15
 -6.7896947663202756E-02 a       216     0    11     1    16
  7.1254698550689806E-03 a       217     0    11     1    17
  1.3494863752159708E-01 a       218     0    11     1    18
  1.8664936188889358E-01 a       219     0    11     1    19
  2.3415613832417187E-01 a       220     0    11     1    20
  1.1189338795043613E-01 a       221     0    12     1     1
  2.0097352435623217E-02 a       222     0    12     1     2
 -7.7930192561814023E-04 a       223     0    12     1     3
 -6.6818917267078550E-03 a       224     0    12     1     4
 -1.1720412364667324E-01 a       225     0    12     1     5
 -1.6595479794313067E-01 a       226     0    12     1     6
  8.5387322954987480E-02 a       227     0    12     1     7
 -1.2836627734194922E-01 a       228     0    12     1     8
  4.3648801457580627E-02 a       229     0    12     1     9
  1.3957997956122159E-01 a       230     0    12     1    10
  1.6275674693534173E-01 a       231     0    12     1    11
  3.2252921434662803E-02 a       232     0    12     1    12
 -1.7154066255945796E-01 a       233     0    12     1    13
  8.6964413320244197E-02 a       234     0    12     1    14
  2.1223910803335799E-02 a       235     0    12     1    15
  3.3297918035944440E-01 a       236     0    12     1    16
 -5.9350217583758337E-02 a       237     0    12     1    17
 -1.0593986501876318E-01 a       238     0    12     1    18
 -2.1196775308095567E-01 a       239     0    12     1    19
 -3.1189648703900075E-01 a       240     0    12     1    20
 -1.0534081475265347E-01 a       241     0    13     1     1
  1.1346386021843068E-01 a       242     0    13     1     2
  1.4032876509123450E-02 a       243     0    13     1     3
 -2.0332560622326235E-01 a       244     0    13     1     4
 -1.4825867423889422E-01 a       245     0    13     1     5
  4.1224441227570650E-02 a       246     0    13     1     6
  3.5915040008280455E-02 a       247     0    13     1     7
 -2.4673287763690484E-02 a       248     0    13     1     8
  2.5422491592649238E-01 a       249     0    13     1     9
 -6.7716961131849537E-02 a       250     0    13     1    10
 -2.3686843204795924E-01 a       251     0    13     1    11
  1.3426232674185554E-01 a       252     0    13     1    12
 -9.6869548943313954E-02 a       253     0    13     1    13
 -2.6386796676457697E-01 a       254     0    13     1    14
  3.9819034949284460E-02 a       255     0    13     1    15
 -1.5197701094938664E-02 a       256     0    13     1    16
  1.1427226446416647E-01 a       257     0    13     1    17
 -9.5702255326501479E-02 a       258     0    13     1    18
 -6.1189363900651786E-02 a       259     0    13     1    19
 -8.4388061660191194E-02 a       260     0    13     1    20
  1.4114320556139748E-01 a       261     0    14     1     1
 -1.9829368919829413E-01 a       262     0    14     1     2
  6.1185261014444874E-02 a       263     0    14     1     3
 -1.3655501836494210E-01 a       264     0    14     1     4
  1.2113833629762251E-01 a       265     0    14     1     5
 -9.5544755420332805E-02 a       266     0    14     1     6
 -2.6512014628752691E-03 a       267     0    14     1     7
 -1.9411185138870940E-01 a       268     0    14     1     8
  4.6905585406570964E-02 a       269     0    14     1     9
  6.5034124127609299E-04 a       270     0    14     1    10
 -1.4980992801842674E-01 a       271     0    14     1    11
 -1.2528216765602523E-01 a       272     0    14     1    12
  1.4751134656269371E-01 a       273     0    14     1    13
 -2.7716237595583071E-01 a       274     0    14     1    14
  1.5711537746249316E-01 a       275     0    14     1    15
 -2.1263167350857609E-01 a       276     0    14     1    16
  9.4299691979919706E-02 a       277     0    14     1    17
 -2.1267895392465871E-01 a       278     0    14     1    18
 -2.0628107737617546E-01 a       279     0    14     1    19
 -2.3993903288767535E-01 a       280     0    14     1    20
 -1.7739012553447761E-01 a       281     0    15     1     1
 -9.0020878795082585E-03 a       282     0    15     1     2
 -5.0713824046633556E-02 a       283     0    15     1     3
  6.1905978279868934E-02 a       284     0    15     1     4
  4.0277577723895498E-03 a       285     0    15     1     5
 -5.9759068178177211E-03 a       286     0    15     1     6
  1.6989464085644915E-01 a       287     0    15     1     7
 -7.8846089443892250E-02 a       288     0    15     1     8
  3.7034326835130020E-02 a       289     0    15     1     9
  9.9460565359049180E-02 a       290     0    15     1    10
  8.0965025195965143E-02 a       291     0    15     1    11
  1.7728891696510976E-01 a       292     0    15     1    12
 -4.7744284019148098E-02 a       293     0    15     1    13
  7.0668015438075049E-02 a       294     0    15     1    14
 -1.5869015279091511E-01 a       295     0    15     1    15
  2.5069710248950355E-01 a       296     0    15     1    16
  1.1732393306036839E-02 a       297     0    15     1    17
 -4.3559557647991340E-02 a       298     0    15     1    18
 -1.4339764765017127E-01 a       299     0    15     1    19
  7.6173161734250233E-02 a       300     0    15     1    20
  1.9237655321274058E-01 a       301     0    16     1     1
 -1.2537629757492334E-02 a       302     0    16     1     2
  7.1794531796684408E-02 a       303     0    16     1     3
  1.0996162796067883E-01 a       304     0    16     1     4
  7.4493667502147559E-02 a       305     0    16     1     5
  1.9905893486521641E-03 a       306     0    16     1     6
 -2.9854896762313010E-01 a       307     0    16     1     7
 -7.0257360002616981E-02 a       308     0    16     1     8
  9.0846469791867598E-02 a       309     0    16     1     9
 -1.7884408906970639E-01 a       310     0    16     1    10
 -1.7910455965643698E-01 a       311     0    16     1    11
  1.2901360396543118E-01 a       312     0    16     1    12
 -8.3382453496783096E-02 a       313     0    16     1    13
  1.2385728709013704E-02 a       314     0    16     1    14
 -1.1833516766351249E-01 a       315     0    16     1    15
  8.0914304245584573E-02 a       316     0    16     1    16
  4.9054031832779774E-02 a       317     0    16     1    17
 -2.3241709696033827E-02 a       318     0    16     1    18
  1.9015059441627497E-01 a       319     0    16     1    19
  2.5091961461187701E-01 a       320     0    16     1    20
 -8.3297252223674040E-02 a       321     0    17     1     1
 -5.7051893229567018E-02 a       322     0    17     1     2
 -9.0257833546075028E-02 a       323     0    17     1     3
  1.4682683844622452E-01 a       324     0    17     1     4
 -2.5633234830067530E-02 a       325     0    17     1     5
 -4.9937730084805045E-02 a       326     0    17     1     6
  2.4115220886997957E-01 a       327     0    17     1     7
 -1.0897156488106649E-01 a       328     0    17     1     8
  1.3727142508487342E-01 a       329     0    17     1     9
  2.6243022757730463E-02 a       330     0    17     1    10
 -3.6036202601132966E-02 a       331     0    17     1    11
 -1.8952309517898733E-01 a       332     0    17     1    12
 -2.3731788221681354E-02 a       333     0    17     1    13
 -1.3469327429887148E-01 a       334     0    17     1    14
 -1.9224513735788376E-01 a       335     0    17     1    15
 -6.9189866332203892E-02 a       336     0    17     1    16
 -1.0438441772541965E-01 a       337     0    17     1    17
 -4.5079881172637504E-02 a       338     0    17     1    18
  1.2525547389446101E-01 a       339     0    17     1    19
  8.6743961113889240E-02 a       340     0    17     1    20
  1.7377717599873008E-01 a       341     0    18     1     1
  7.2392260278914711E-02 a       342     0    18     1     2
 -1.1674326082676990E-01 a       343     0    18     1     3
 -9.0330102074863708E-02 a       344     0    18     1     4
 -1.1354593929787640E-01 a       345     0    18     1     5
 -1.7860268333799428E-01 a       346     0    18     1     6
 -6.1202223958449549E-02 a       347     0    18     1     7
  1.1876421133655582E-01 a       348     0    18     1     8
  2.7951323146950391E-01 a       349     0    18     1     9
  1.4742652473076692E-01 a       350     0    18     1    10
  1.1702837888092447E-02 a       351     0    18     1    11
  1.3625801592094347E-01 a       352     0    18     1    12
 -3.4649172952444601E-01 a       353     0    18     1    13
 -7.8906506576718174E-02 a       354     0    18     1    14
 -6.4455477318872759E-02 a       355     0    18     1    15
  4.1336270911555735E-02 a       356     0    18     1    16
  3.5565953465072457E-02 a       357     0    18     1    17
 -9.0725532891168179E-03 a       358     0    18     1    18
  5.8111328675648968E-03 a       359     0    18     1    19
  1.3865103039800595E-02 a       360     0    18     1    20
 -4.5459326652241616E-02 a       361     0    19     1     1
  1.2130051873911799E-01 a       362     0    19     1     2
  1.2969991491491401E-01 a       363     0    19     1     3
  2.1506849261914561E-02 a       364     0    19     1     4
 -7.7708480299943122E-02 a       365     0    19     1     5
  1.8296396072761328E-01 a       366     0    19     1     6
  6.3424721254902783E-02 a       367     0    19     1     7
  4.4214736704207488E-03 a       368     0    19     1     8
 -1.1975722676667044E-01 a       369     0    19     1     9
  1.7116822818015498E-01 a       370     0    19     1    10
 -1.6853748660826456E-01 a       371     0    19     1    11
 -8.4965851834098535E-02 a       372     0    19     1    12
  2.8484893530062411E-01 a       373     0    19     1    13
 -1.4507404634737067E-01 a       374     0    19     1    14
 -7.0183069541916526E-02 a       375     0    19     1    15
  7.8028440160213671E-03 a       376     0    19     1    16
 -1.2021901007415906E-01 a       377     0    19     1    17
 -2.1592665795974145E-01 a       378     0    19     1    18
 -1.2891719843498628E-01 a       379     0    19     1    19
  7.6537926007437584E-02 a       380     0    19     1    20
  2.5390272730146046E-01 a       381     0    20     1     1
  7.2908249207090645E-02 a       382     0    20     1     2
 -1.1357225382737360E-01 a       383     0    20     1     3
  1.4297988543750258E-02 a       384     0    20     1     4
 -1.9245521980648897E-01 a       385     0    20     1     5
  2.6448630212478863E-01 a       386     0    20     1     6
  7.7845338290892324E-02 a       387     0    20     1     7
 -9.9724320376667050E-02 a       388     0    20     1     8
 -4.2324948959180549E-02 a       389     0    20     1     9
  2.3634569061952543E-01 a       390     0    20     1    10
  2.5669108503598276E-01 a       391     0    20     1    11
 -5.4591141224998564E-02 a       392     0    20     1    12
 -1.2863982826729377E-02 a       393     0    20     1    13
  2.5817603979752496E-01 a       394     0    20     1    14
 -1.0868921729355159E-01 a       395     0    20     1    15
 -8.9111090513375568E-02 a       396     0    20     1    16
 -1.6107806256934937E-01 a       397     0    20     1    17
  2.6846443901484201E-02 a       398     0    20     1    18
 -5.5118582290382134E-03 a       399     0    20     1    19
 -2.0206565615309746E-01 a       400     0    20     1    20
  6.7901177348354165E-03 a       401     0    21     1     1
  6.6272266615339942E-02 a       402     0    21     1     2
 -1.5685868207872676E-02 a       403     0    21     1     3
 -1.3972637426238915E-01 a       404     0    21     1     4
 -2.0641851185888074E-01 a       405     0    21     1     5
 -5.6490177028772466E-02 a       406     0    21     1     6
 -2.1191605497823583E-02 a       407     0    21     1     7
 -1.0902045817375951E-01 a       408     0    21     1     8
 -7.9908271889402499E-02 a       409     0    21     1     9
  1.0822977404944426E-01 a       410     0    21     1    10
  5.8790215807976852E-02 a       411     0    21     1    11
 -4.2878777260512743E-02 a       412     0    21     1    12
  6.8136619572220961E-02 a       413     0    21     1    13
 -2.7730959770455804E-01 a       414     0    21     1    14
  4.1334241051103421E-02 a       415     0    21     1    15
  1.7084394263000816E-01 a       416     0    21     1    16
  3.8959299483395434E-03 a       417     0    21     1    17
  2.1822663131710590E-01 a       418     0    21     1    18
 -2.0027864910727669E-01 a       419     0    21     1    19
  5.2716855314957213E-02 a       420     0    21     1    20
 -1.8642504658047457E-01 a       421     0    22     1     1
 -8.5914935444236895E-02 a       422     0    22     1     2
 -1.8551024874555230E-01 a       423     0    22     1     3
 -1.9408777485551740E-01 a       424     0    22     1     4
  3.1236245204825924E-01 a       425     0    22     1     5
 -1.3698235602638370E-01 a       426     0    22     1     6
 -1.1474889122291271E-01 a       427     0    22     1     7
  1.0581848609668768E-01 a       428     0    22     1     8
  1.3256211871649975E-01 a       429     0    22     1     9
 -2.3512183137962678E-01 a       430     0    22     1    10
 -6.7547172724449017E-02 a       431     0    22     1    11
 -8.5499639060313451E-02 a       432     0    22     1    12
 -2.2604037678949698E-01 a       433     0    22     1    13
 -2.3229719810864927E-02 a       434     0    22     1    14
  1.5059583518210842E-01 a       435     0    22     1    15
 -1.3134801375866342E-01 a       436     0    22     1    16
  1.5850247703571511E-02 a       437     0    22     1    17
 -1.2387805978645010E-01 a       438     0    22     1    18
  1.0352847458891058E-01 a       439     0    22     1    19
 -4.8366898390375807E-02 a       440     0    22     1    20
  2.7503021660640936E-01 a       441     0    23     1     1
 -1.9336705614621105E-01 a       442     0    23     1     2
 -1.0812088134167692E-01 a       443     0    23     1     3
  2.0877181429871369E-01 a       444     0    23     1     4
  5.9084402253152368E-02 a       445     0    23     1     5
 -6.2741529966798782E-03 a       446     0    23     1     6
  1.5586284202490833E-01 a       447     0    23     1     7
  1.3702454371849795E-01 a       448     0    23     1     8
  1.6836991812847540E-01 a       449     0    23     1     9
 -1.3726495469948111E-01 a       450     0    23     1    10
  6.8508396560296073E-02 a       451     0    23     1    11
 -1.3729533871654338E-02 a       452     0    23     1    12
 -1.1564413098393103E-01 a       453     0    23     1    13
  1.6971860820792042E-01 a       454     0    23     1    14
 -1.5618977862922701E-01 a       455     0    23     1    15
 -6.3027455960918147E-02 a       456     0    23     1    16
  4.1381543607442992E-02 a       457     0    23     1    17
  1.7929643726877650E-01 a       458     0    23     1    18
  2.1035843646274260E-01 a       459     0    23     1    19
  1.2499477198610444E-01 a       460     0    23     1    20
 -1.1043482677702804E-01 a       461     0    24     1     1
 -7.0615327603778991E-02 a       462     0    24     1     2
 -1.6415638951273917E-02 a       463     0    24     1     3
  4.7054205398508089E-02 a       464     0    24     1     4
  2.4920288890292197E-01 a       465     0    24     1     5
 -1.7268364246625231E-01 a       466     0    24     1     6
 -1.2106320991472694E-02 a       467     0    24     1     7
 -1.0466071811028368E-02 a       468     0    24     1     8
  9.7399462789074659E-02 a       469     0    24     1     9
  5.4864391370757640E-03 a       470     0    24     1    10
 -9.5648368007521439E-02 a       471     0    24     1    11
 -1.0594019088860211E-01 a       472     0    24     1    12
 -2.1652237796701287E-01 a       473     0    24     1    13
  1.1255199520705643E-01 a       474     0    24     1    14
  2.7843075021853975E-01 a       475     0    24     1    15
 -2.0677128500988469E-02 a       476     0    24     1    16
  4.8016567602658107E-02 a       477     0    24     1    17
  1.0674119876936933E-01 a       478     0    24     1    18
 -1.1752899362785790E-01 a       479     0    24     1    19
 -9.6192440435547422E-02 a       480     0    24     1    20
  2.6319624850409232E-02 a       481     0    25     1     1
 -5.6961152873353189E-02 a       482     0    25     1     2
  6.2060780060296909E-02 a       483     0    25     1     3
  2.5741431419839360E-02 a       484     0    25     1     4
  3.2927013469621097E-02 a       485     0    25     1     5
  3.8302627358996477E-02 a       486     0    25     1     6
  1.2576602138517010E-01 a       487     0    25     1     7
  4.3886970382035879E-02 a       488     0    25     1     8
  1.0644914803067695E-01 a       489     0    25     1     9
 -1.0719952294029264E-01 a       490     0    25     1    10
 -1.3126106650895497E-01 a       491     0    25     1    11
 -3.4992951933242269E-02 a       492     0    25     1    12
 -1.1902233958597980E-02 a       493     0    25     1    13
  1.5712432376528129E-01 a       494     0    25     1    14
  9.6283779804731198E-02 a       495     0    25     1    15
  1.6445233161038147E-01 a       496     0    25     1    16
  8.4164752756358790E-02 a       497     0    25     1    17
  9.4001347563808513E-02 a       498     0    25     1    18
 -3.1102245856024866E-02 a       499     0    25     1    19
 -1.0407691887432871E-04 a       500     0    25     1    20
 -1.0425758897841586E-01 a       501     0    26     1     1
  1.7665424586348166E-01 a       502     0    26     1     2
  5.9837660293425743E-02 a       503     0    26     1     3
 -1.3591159909639300E-01 a       504     0    26     1     4
 -1.0194049537705180E-01 a       505     0    26     1     5
 -7.9644090267978168E-02 a       506     0    26     1     6
 -3.8893167290897679E-01 a       507     0    26     1     7
 -7.3870855604440738E-03 a       508     0    26     1     8
 -1.0947222134589599E-01 a       509     0    26     1     9
  1.3933491727635802E-01 a       510     0    26     1    10
 -1.0385443638375493E-01 a       511     0    26     1    11
 -5.6286313539054320E-02 a       512     0    26     1    12
 -1.5887405581162936E-01 a       513     0    26     1    13
  8.3462034553193190E-02 a       514     0    26     1    14
  1.1254503239998993E-01 a       515     0    26     1    15
 -1.4370463483270293E-01 a       516     0    26     1    16
  1.1002378857923660E-01 a       517     0    26     1    17
 -4.1357865299811267E-02 a       518     0    26     1    18
 -1.3652271403899527E-01 a       519     0    26     1    19
  1.2344147110047170E-01 a       520     0    26     1    20
 -1.9166384327364050E-01 a       521     0    27     1     1
  6.8609275972805014E-02 a       522     0    27     1     2
  4.9442814146965315E-03 a       523     0    27     1     3
 -7.2070855104005016E-02 a       524     0    27     1     4
 -1.7335275746166590E-01 a       525     0    27     1     5
 -5.9710561680742985E-02 a       526     0    27     1     6
  3.2296593093847631E-01 a       527     0    27     1     7
 -2.1199800114771697E-01 a       528     0    27     1     8
 -3.8131172829642013E-02 a       529     0    27     1     9
  1.1818120134794961E-01 a       530     0    27     1    10
  1.6348466798134981E-02 a       531     0    27     1    11
 -1.1367784339032366E-01 a       532     0    27     1    12
  1.8601545570020919E-01 a       533     0    27     1    13
 -1.2530359443198116E-01 a       534     0    27     1    14
  1.5148494864634685E-01 a       535     0    27     1    15
 -1.5649342305508057E-01 a       536     0    27     1    16
  1.4057845145008876E-01 a       537     0    27     1    17
  1.6919893378994308E-01 a       538     0    27     1    18
  3.7071887260485166E-02 a       539     0    27     1    19
  7.2750233868092734E-02 a       540     0    27     1    20
  6.3435247873932898E-02 a       541     0    28     1     1
  1.2625030045673999E-01 a       542     0    28     1     2
  2.4572111138591621E-03 a       543     0    28     1     3
 -1.6022943824479577E-01 a       544     0    28     1     4
  5.8923640927422305E-02 a       545     0    28     1     5
  1.9534737406587364E-02 a       546     0    28     1     6
 -6.4008836461108165E-02 a       547     0    28     1     7
  2.3382512165631439E-01 a       548     0    28     1     8
  1.6252982282669451E-01 a       549     0    28     1     9
 -6.0312955420357292E-02 a       550     0    28     1    10
  1.9396320682897504E-02 a       551     0    28     1    11
  2.1289260090076800E-01 a       552     0    28     1    12
 -2.9006756879616857E-02 a       553     0    28     1    13
 -1.4609258888067203E-01 a       554     0    28     1    14
  1.3611555851619916E-01 a       555     0    28     1    15
  1.6120377725288759E-01 a       556     0    28     1    16
 -8.4690717942280305E-03 a       557     0    28     1    17
  5.3669924792177991E-02 a       558     0    28     1    18
 -8.5538731754847674E-03 a       559     0    28     1    19
  3.5792044311604092E-02 a       560     0    28     1    20
  1.2651881463359352E-01 a       561     0    29     1     1
  1.6504874164073488E-01 a       562     0    29     1     2
  3.5151817412165290E-02 a       563     0    29     1     3
  2.1604124513977817E-02 a       564     0    29     1     4
  1.6100400869926240E-01 a       565     0    29     1     5
  1.8128735590012362E-02 a       566     0    29     1     6
  9.0492396041876338E-02 a       567     0    29     1     7
  6.3169533406725153E-02 a       568     0    29     1     8
 -3.5928728973212830E-02 a       569     0    29     1     9
  1.1175082811130141E-01 a       570     0    29     1    10
 -9.4490751581928600E-02 a       571     0    29     1    11
  1.5740908308984533E-01 a       572     0    29     1    12
  7.6440380961661294E-02 a       573     0    29     1    13
 -1.6597215425757947E-01 a       574     0    29     1    14
  1.7068536817688729E-01 a       575     0    29     1    15
 -7.9697150706476413E-02 a       576     0    29     1    16
 -2.4153305599244604E-01 a       577     0    29     1    17
  4.9357839416251541E-02 a       578     0    29     1    18
 -1.8902337435207739E-01 a       579     0    29     1    19
  7.2479577847586130E-02 a       580     0    29     1    20
 -7.2536388843979116E-02 a       581     0    30     1     1
 -1.2707266599919376E-01 a       582     0    30     1     2
 -1.6635084281651927E-01 a       583     0    30     1     3
 -5.4832469991783275E-02 a       584     0    30     1     4
  1.6471861769307185E-02 a       585     0    30     1     5
 -1.7152249004866151E-02 a       586     0    30     1     6
  1.6664286972522188E-01 a       587     0    30     1     7
 -7.9148447855676637E-02 a       588     0    30     1     8
  1.9819203362289370E-01 a       589     0    30     1     9
 -2.7649711835131263E-03 a       590     0    30     1    10
  1.1845381613351569E-01 a       591     0    30     1    11
  1.2666976575661479E-01 a       592     0    30     1    12
  5.3420954234106373E-02 a       593     0    30     1    13
 -1.6029011588109057E-01 a       594     0    30     1    14
  1.8719684826730557E-01 a       595     0    30     1    15
  1.4399900719048814E-01 a       596     0    30     1    16
 -1.7848923335493622E-02 a       597     0    30     1    17
 -3.6586048920314751E-02 a       598     0    30     1    18
  6.0106992195703118E-02 a       599     0    30     1    19
  8.0589305625419466E-02 a       600     0    30     1    20
  1.3466937506891605E-01 a       601     0    31     1     1
 -6.4648852187735042E-02 a       602     0    31     1     2
  3.2589201141578733E-02 a       603     0    31     1     3
 -4.3916983666090537E-02 a       604     0    31     1     4
  1.3064344139241794E-02 a       605     0    31     1     5
 -4.6000680822401940E-02 a       606     0    31     1     6
 -1.2310249960923346E-01 a       607     0    31     1     7
  1.6448318437262344E-01 a       608     0    31     1     8
  6.6624182661555995E-02 a       609     0    31     1     9
 -3.7242784550922156E-02 a       610     0    31     1    10
  3.6504966877421746E-02 a       611     0    31     1    11
  1.5713096691912129E-01 a       612     0    31     1    12
 -1.7615925184997702E-02 a       613     0    31     1    13
  1.0023745683736013E-01 a       614     0    31     1    14
  1.4373367830222050E-01 a       615     0    31     1    15
  3.0772610536337064E-01 a       616     0    31     1    16
  3.1066535481332709E-02 a       617     0    31     1    17
  1.6095916443003552E-01 a       618     0    31     1    18
  4.7655820648112461E-02 a       619     0    31     1    19
  2.3295968420240978E-02 a       620     0    31     1    20
 -2.1064857660952938E-01 a       621     0    32     1     1
 -1.4779455092622101E-01 a       622     0    32     1     2
 -9.1162408446071194E-02 a       623     0    32     1     3
 -1.0176443286107105E-01 a       624     0    32     1     4
 -1.5409955800045436E-01 a       625     0    32     1     5
 -1.2355206684906030E-01 a       626     0    32     1     6
 -1.8117602802181779E-01 a       627     0    32     1     7
 -3.5218922232048047E-02 a       628     0    32     1     8
 -3.0154124675505334E-01 a       629     0    32     1     9
  6.9248156279950970E-02 a       630     0    32     1    10
  1.4555353996807974E-01 a       631     0    32     1    11
  9.8813665890327071E-02 a       632     0    32     1    12
 -1.9554362551914622E-01 a       633     0    32     1    13
 -1.3931464652040446E-01 a       634     0    32     1    14
  1.5426618836333739E-01 a       635     0    32     1    15
  2.0096137338560568E-01 a       636     0    32     1    16
 -1.7039031264495796E-01 a       637     0    32     1    17
  7.9707165895908441E-02 a       638     0    32     1    18
  1.3522245330952487E-01 a       639     0    32     1    19
  1.3213711690814126E-01 a       640     0    32     1    20
 -1.2332807768972484E-02 a       641     0    33     1     1
 -1.1355689832032850E-01 a       642     0    33     1     2
 -2.2747029852548797E-02 a       643     0    33     1     3
 -2.5391740321096534E-02 a       644     0    33     1     4
  6.1400032946542947E-03 a       645     0    33     1     5
 -2.5142008405929034E-02 a       646     0    33     1     6
  6.3124230981200929E-02 a       647     0    33     1     7
  1.6898356533494807E-01 a       648     0    33     1     8
 -2.9266837020316884E-02 a       649     0    33     1     9
 -2.1243336586297701E-01 a       650     0    33     1    10
  1.8046907176011363E-02 a       651     0    33     1    11
  8.7762198207084086E-02 a       652     0    33     1    12
 -9.7838215718339158E-02 a       653     0    33     1    13
 -1.3039390585031219E-01 a       654     0    33     1    14
 -9.3237297221133580E-03 a       655     0    33     1    15
  9.0484388434930604E-02 a       656     0    33     1    16
  7.5979782577455288E-02 a       657     0    33     1    17
 -4.0183963609715406E-02 a       658     0    33     1    18
  1.0053503770345380E-01 a       659     0    33     1    19
  2.4033399683154637E-02 a       660     0    33     1    20
  1.5880326836007808E-01 a       661     0    34     1     1
 -1.9718287199391390E-02 a       662     0    34     1     2
  7.5446489294957439E-02 a       663     0    34     1     3
 -1.8655896072713337E-02 a       664     0    34     1     4
 -6.7064212867276055E-02 a       665     0    34     1     5
 -1.4971063175768892E-01 a       666     0    34     1     6
  1.2340114784255074E-01 a       667     0    34     1     7
 -1.0386102436984884E-01 a       668     0    34     1     8
  1.0422974702887393E-01 a       669     0    34     1     9
  4.5749123412365832E-02 a       670     0    34     1    10
 -1.7307529462433802E-01 a       671     0    34     1    11
  7.6735689205245386E-02 a       672     0    34     1    12
 -1.3643220969082956E-01 a       673     0    34     1    13
  2.1851299865058710E-01 a       674     0    34     1    14
 -1.4832544306500775E-01 a       675     0    34     1    15
  2.4283581405593060E-01 a       676     0    34     1    16
 -9.7413130099969381E-02 a       677     0    34     1    17
 -2.1890681789330999E-02 a       678     0    34     1    18
  2.4125076216550581E-01 a       679     0    34     1    19
 -2.0589062794413709E-01 a       680     0    34     1    20
 -4.9558592120069779E-02 a       681     0    35     1     1
 -4.6315296029286232E-02 a       682     0    35     1     2
 -1.8704763401016272E-02 a       683     0    35     1     3
  3.6281173629891666E-02 a       684     0    35     1     4
  1.0119989548883354E-01 a       685     0    35     1     5
  3.3032704586697693E-03 a       686     0    35     1     6
  7.0336992966465769E-02 a       687     0    35     1     7
 -1.0094982724917941E-02 a       688     0    35     1     8
 -6.7740162314938651E-02 a       689     0    35     1     9
 -7.0053883491431074E-02 a       690     0    35     1    10
  1.4795265838411786E-01 a       691     0    35     1    11
 -8.6449477466264066E-02 a       692     0    35     1    12
 -9.7377339864025650E-02 a       693     0    35     1    13
  5.3907383534417486E-02 a       694     0    35     1    14
  6.9829620510400633E-02 a       695     0    35     1    15
 -2.2599278331404379E-01 a       696     0    35     1    16
 -2.8455619477829344E-02 a       697     0    35     1    17
  1.1644792133977992E-01 a       698     0    35     1    18
 -1.7050799931848548E-01 a       699     0    35     1    19
 -1.0506358700496329E-01 a       700     0    35     1    20
  2.5790515914876838E-01 a       701     0    36     1     1
  1.2482099294215525E-01 a       702     0    36     1     2
  8.8384464153394224E-02 a       703     0    36     1     3
  5.9522423590645190E-02 a       704     0    36     1     4
  2.4636755878816638E-01 a       705     0    36     1     5
  3.1425801881992531E-02 a       706     0    36     1     6
 -2.1705288922426014E-02 a       707     0    36     1     7
  1.4465358543936457E-01 a       708     0    36     1     8
  2.0285980237653706E-01 a       709     0    36     1     9
 -2.1606276155150109E-01 a       710     0    36     1    10
 -1.1470631001721830E-01 a       711     0    36     1    11
 -1.5310191171269003E-01 a       712     0    36     1    12
  9.6810203474139121E-03 a       713     0    36     1    13
  1.3179856888008681E-01 a       714     0    36     1    14
 -1.1822800662653120E-02 a       715     0    36     1    15
 -2.4599725134735354E-02 a       716     0    36     1    16
  1.2899144312811553E-01 a       717     0    36     1    17
  2.2220480262973205E-01 a       718     0    36     1    18
 -4.7009110155010296E-02 a       719     0    36     1    19
 -1.7167119938960518E-01 a       720     0    36     1    20
 -2.0916813725044271E-02 a       721     0    37     1     1
  5.4558499025430189E-02 a       722     0    37     1     2
 -2.0797570900978161E-02 a       723     0    37     1     3
  8.3918798468054431E-03 a       724     0    37     1     4
  7.5893988393675130E-02 a       725     0    37     1     5
 -2.2547243093110531E-02 a       726     0    37     1     6
 -1.3240453825503939E-01 a       727     0    37     1     7
  4.9501098733235473E-02 a       728     0    37     1     8
 -6.5289266357188611E-02 a       729     0    37     1     9
  3.8316649404684947E-02 a       730     0    37     1    10
  1.9303354447670902E-03 a       731     0    37     1    11
 -1.7767887436619209E-01 a       732     0    37     1    12
 -3.6488813134089575E-02 a       733     0    37     1    13
  1.7712659598232267E-01 a       734     0    37     1    14
 -3.1993145709041743E-02 a       735     0    37     1    15
 -3.7584922061465402E-02 a       736     0    37     1    16
 -3.5253577015160603E-02 a       737     0    37     1    17
  1.6644901081880437E-01 a       738     0    37     1    18
 -8.7360090983971225E-02 a       739     0    37     1    19
  1.1583163858833644E-02 a       740     0    37     1    20
  2.8247537423802940E-02 a       741     0    38     1     1
  1.2504276131038290E-02 a       742     0    38     1     2
 -3.7510778475433236E-02 a       743     0    38     1     3
 -1.3556931084349662E-02 a       744     0    38     1     4
 -1.2266975818045306E-02 a       745     0    38     1     5
  4.4788420540468853E-02 a       746     0    38     1     6
 -6.1434744481894905E-02 a       747     0    38     1     7
 -2.6776091612576550E-02 a       748     0    38     1     8
 -1.1518352917847854E-01 a       749     0    38     1     9
  7.2215099785537668E-02 a       750     0    38     1    10
  9.6188202202352482E-02 a       751     0    38     1    11
  2.8840380244870498E-02 a       752     0    38     1    12
  5.2974678857781607E-02 a       753     0    38     1    13
 -2.2635783890339076E-01 a       754     0    38     1    14
  8.5068162806309855E-02 a       755     0    38     1    15
 -2.3029430238243713E-02 a       756     0    38     1    16
  1.0495162276996303E-02 a       757     0    38     1    17
  5.7965840254367358E-02 a       758     0    38     1    18
 -2.6170043613355398E-01 a       759     0    38     1    19
  1.6164962436453076E-01 a       760     0    38     1    20
  6.7359846141139379E-02 a       761     0    39     1     1
  4.2058051585507281E-02 a       762     0    39     1     2
 -1.3807150413985532E-03 a       763     0    39     1     3
 -6.1731031409899106E-02 a       764     0    39     1     4
 -6.7907748484992855E-02 a       765     0    39     1     5
 -6.6282547349753071E-02 a       766     0    39     1     6
  9.0657365475431809E-02 a       767     0    39     1     7
 -9.3720705556408587E-02 a       768     0    39     1     8
 -8.2698950940340563E-02 a       769     0    39     1     9
  1.0727513844457788E-01 a       770     0    39     1    10
 -1.2355406330123453E-05 a       771     0    39     1    11
  6.9001900891972945E-02 a       772     0    39     1    12
  7.0743021696272612E-02 a       773     0    39     1    13
  1.3522554620139798E-01 a       774     0    39     1    14
  3.2154306995306900E-02 a       775     0    39     1    15
  1.0425569306764020E-01 a       776     0    39     1    16
  6.2645026512097676E-02 a       777     0    39     1    17
 -1.5032053464009792E-01 a       778     0    39     1    18
  1.2416739011664079E-02 a       779     0    39     1    19
 -8.9668203051528575E-02 a       780     0    39     1    20
 -6.2611665704208036E-02 a       781     0    40     1     1
 -3.4599953273046720E-02 a       782     0    40     1     2
 -4.8735736992179174E-02 a       783     0    40     1     3
 -1.3032695543862893E-01 a       784     0    40     1     4
 -9.3455501396331589E-02 a       785     0    40     1     5
 -6.8387682996067456E-02 a       786     0    40     1     6
  2.0465721663684520E-03 a       787     0    40     1     7
 -1.0874285613886864E-01 a       788     0    40     1     8
 -9.0315620451271603E-02 a       789     0    40     1     9
  6.5766335550052804E-02 a       790     0    40     1    10
  1.2813674680422985E-01 a       791     0    40     1    11
 -1.1305126238799520E-01 a       792     0    40     1    12
 -2.1110052075792200E-02 a       793     0    40     1    13
 -1.0594192953732148E-01 a       794     0    40     1    14
  1.8159593114960987E-01 a       795     0    40     1    15
  7.3385968040608526E-02 a       796     0    40     1    16
  1.0713638749998243E-01 a       797     0    40     1    17
 -7.3009978785928825E-02 a       798     0    40     1    18
  6.6969721576166485E-02 a       799     0    40     1    19
 -1.3482877529232742E-02 a       800     0    40     1    20
  2.8004719515766115E-02 a       801     0    41     1     1
  1.1075662917918197E-01 a       802     0    41     1     2
 -5.6067694074669857E-03 a       803     0    41     1     3
 -7.5804047592145495E-03 a       804     0    41     1     4
  6.8824008787944008E-02 a       805     0    41     1     5
  1.3939196366815562E-01 a       806     0    41     1     6
 -1.2018292782486134E-01 a       807     0    41     1     7
  1.1220081869010756E-01 a       808     0    41     1     8
  1.0626538808045906E-01 a       809     0    41     1     9
  1.1036409677173328E-01 a       810     0    41     1    10
 -6.1540126044472128E-02 a       811     0    41     1    11
 -8.7402186802254922E-02 a       812     0    41     1    12
 -1.3884633235147858E-02 a       813     0    41     1    13
 -5.8429763185631312E-02 a       814     0    41     1    14
  1.5510257550456166E-01 a       815     0    41     1    15
 -5.8469035721595338E-03 a       816     0    41     1    16
  1.8894941428750286E-01 a       817     0    41     1    17
 -2.1314015448355247E-01 a       818     0    41     1    18
  2.7474862289977478E-03 a       819     0    41     1    19
  4.0644937754451958E-02 a       820     0    41     1    20
 -2.5434078617097150E-01 a       821     0    42     1     1
 -1.0815176881273477E-02 a       822     0    42     1     2
  5.2546722245353873E-02 a       823     0    42     1     3
  9.9787186702186795E-02 a       824     0    42     1     4
  1.4808557668865327E-01 a       825     0    42     1     5
 -8.2420291877684224E-02 a       826     0    42     1     6
 -7.6569415095118923E-03 a       827     0    42     1     7
  7.5074892988152786E-02 a       828     0    42     1     8
  1.5351388935514720E-01 a       829     0    42     1     9
  7.0098109541782430E-02 a       830     0    42     1    10
 -1.9137046877208144E-02 a       831     0    42     1    11
  5.0483978009071902E-02 a       832     0    42     1    12
 -1.3964085942228222E-01 a       833     0    42     1    13
 -2.5016487258808284E-01 a       834     0    42     1    14
 -1.0320947684572702E-01 a       835     0    42     1    15
 -6.0178631553532945E-02 a       836     0    42     1    16
  1.1261660608376788E-01 a       837     0    42     1    17
  1.3086205513637175E-01 a       838     0    42     1    18
 -2.0855536378016257E-01 a       839     0    42     1    19
  6.1728823143445272E-03 a       840     0    42     1    20
 -1.3082897856577533E-01 a       841     0    43     1     1
 -9.2056075081541927E-02 a       842     0    43     1     2
 -1.6747192415445925E-01 a       843     0    43     1     3
 -1.4535165381252289E-02 a       844     0    43     1     4
 -3.7742792296510653E-03 a       845     0    43     1     5
 -2.4355076585033089E-01 a       846     0    43     1     6
  7.6966474863367162E-02 a       847     0    43     1     7
 -1.2341510498741884E-01 a       848     0    43     1     8
 -1.3143859622062529E-01 a       849     0    43     1     9
 -6.6491435642663854E-02 a       850     0    43     1    10
 -1.6848212993890824E-01 a       851     0    43     1    11
  3.9021419579968020E-02 a       852     0    43     1    12
  2.9814791977497879E-01 a       853     0    43     1    13
 -5.8489269358647433E-03 a       854     0    43     1    14
  2.0217715443500509E-01 a       855     0    43     1    15
 -6.2374659826655007E-02 a       856     0    43     1    16
  5.0640839128467251E-02 a       857     0    43     1    17
  1.1372890510759594E-01 a       858     0    43     1    18
  1.0391391524529810E-02 a       859     0    43     1    19
  1.9063106075370539E-01 a       860     0    43     1    20
  2.6045531271644464E-02 a       861     0    44     1     1
 -5.2101398463879234E-02 a       862     0    44     1     2
 -1.8078904202806789E-03 a       863     0    44     1     3
  1.1987135900646619E-01 a       864     0    44     1     4
  4.7495072995055988E-02 a       865     0    44     1     5
  6.9725353307373394E-02 a       866     0    44     1     6
  4.1992620591599493E-02 a       867     0    44     1     7
  2.8724488802175448E-03 a       868     0    44     1     8
  2.2311146280545757E-01 a       869     0    44     1     9
 -1.3621687816937228E-01 a       870     0    44     1    10
 -4.3219102673937755E-02 a       871     0    44     1    11
 -2.5655845682965424E-02 a       872     0    44     1    12
  3.6312864444088905E-02 a       873     0    44     1    13
 -1.7600312719389605E-01 a       874     0    44     1    14
 -6.0353083149235889E-02 a       875     0    44     1    15
 -1.2518742744376876E-01 a       876     0    44     1    16
  4.4673246348738503E-02 a       877     0    44     1    17
  2.4372758738780334E-01 a       878     0    44     1    18
 -1.1271086943451304E-01 a       879     0    44     1    19
 -1.8889793311392447E-01 a       880     0    44     1    20
  2.2413843812356041E-01 a       881     0    45     1     1
  1.5568475567825493E-01 a       882     0    45     1     2
  8.1472377144286456E-02 a       883     0    45     1     3
  1.9044472711755472E-01 a       884     0    45     1     4
 -7.8021937561649893E-02 a       885     0    45     1     5
  3.2223207776116736E-01 a       886     0    45     1     6
  6.8187674550858876E-02 a       887     0    45     1     7
 -1.5682672372846421E-01 a       888     0    45     1     8
  1.2554326458622100E-01 a       889     0    45     1     9
 -1.0738224839395150E-01 a       890     0    45     1    10
  6.3233226757572134E-02 a       891     0    45     1    11
 -1.9671365977874089E-01 a       892     0    45     1    12
 -3.5141464152015300E-02 a       893     0    45     1    13
 -1.8675845172749858E-01 a       894     0    45     1    14
 -3.0310254685812478E-02 a       895     0    45     1    15
  1.5483600368438483E-01 a       896     0    45     1    16
 -1.4828541251277244E-01 a       897     0    45     1    17
 -1.0645852960438483E-01 a       898     0    45     1    18
  2.2349078337103054E-01 a       899     0    45     1    19
  1.8581240684853004E-03 a       900     0    45     1    20
 -9.7701324044907251E-02 a       901     0    46     1     1
  3.0723986999106070E-02 a       902     0    46     1     2
  1.6754735828767137E-01 a       903     0    46     1     3
 -4.1034991461666226E-02 a       904     0    46     1     4
  2.2215523529639455E-02 a       905     0    46     1     5
  2.0724673782216552E-01 a       906     0    46     1     6
  2.2408802119294688E-01 a       907     0    46     1     7
 -6.6622959698873468E-02 a       908     0    46     1     8
  2.7741387234297293E-01 a       909     0    46     1     9
 -4.4659463461440545E-03 a       910     0    46     1    10
 -2.2414487325312208E-02 a       911     0    46     1    11
  2.4842232653033788E-01 a       912     0    46     1    12
  1.9205103950952210E-01 a       913     0    46     1    13
 -1.7118915883860361E-01 a       914     0    46     1    14
  1.8960682618571939E-01 a       915     0    46     1    15
 -5.1232078258805491E-02 a       916     0    46     1    16
 -1.1934136112123474E-01 a       917     0    46     1    17
 -2.4610577985051010E-01 a       918     0    46     1    18
 -7.5864428675017664E-02 a       919     0    46     1    19
 -1.1924370085610704E-01 a       920     0    46     1    20
 -2.8905694790363012E-01 a       921     0    47     1     1
  4.4046727236633040E-02 a       922     0    47     1     2
  5.1034216965345304E-02 a       923     0    47     1     3
 -2.2324342861076185E-01 a       924     0    47     1     4
  6.2217029134122798E-03 a       925     0    47     1     5
 -1.3597836056101545E-01 a       926     0    47     1     6
  3.9097413683115374E-02 a       927     0    47     1     7
  1.1639973619332156E-01 a       928     0    47     1     8
 -8.0453882980941582E-02 a       929     0    47     1     9
 -2.3951625073520947E-02 a       930     0    47     1    10
 -8.7523240994310969E-02 a       931     0    47     1    11
 -9.4887890769969271E-03 a       932     0    47     1    12
  6.5290630700955588E-02 a       933     0    47     1    13
 -1.8115443749810604E-02 a       934     0    47     1    14
  2.2221640917041022E-01 a       935     0    47     1    15
  8.3465687220028215E-02 a       936     0    47     1    16
  1.1891036375014459E-02 a       937     0    47     1    17
 -8.7312277236595348E-02 a       938     0    47     1    18
  1.3699622463323560E-01 a       939     0    47     1    19
  3.3546865190090085E-02 a       940     0    47     1    20
 -1.2851953191558829E-01 a       941     0    48     1     1
 -1.1408191382150425E-01 a       942     0    48     1     2
 -1.1099559908076920E-01 a       943     0    48     1     3
  1.8922689996589689E-01 a       944     0    48     1     4
  7.0141063102923867E-02 a       945     0    48     1     5
 -7.6823250960652387E-02 a       946     0    48     1     6
 -9.7696405578822310E-02 a       947     0    48     1     7
  1.1294636719843229E-01 a       948     0    48     1     8
 -2.2226136891167700E-01 a       949     0    48     1     9
  5.4591523814863652E-02 a       950     0    48     1    10
 -1.3056233496907767E-02 a       951     0    48     1    11
  1.2720353207398746E-01 a       952     0    48     1    12
 -4.6618464059026692E-02 a       953     0    48     1    13
  1.8028693776684065E-01 a       954     0    48     1    14
 -5.3287506026710937E-02 a       955     0    48     1    15
  1.4366586725207928E-01 a       956     0    48     1    16
 -6.4883256236277470E-02 a       957     0    48     1    17
 -1.1881111471861733E-01 a       958     0    48     1    18
 -2.4585722504612611E-03 a       959     0    48     1    19
 -3.1559279858400714E-02 a       960     0    48     1    20
  2.5136835496753474E-01 a       961     0    49     1     1
 -5.8221849830758822E-02 a       962     0    49     1     2
  8.2862618266067722E-03 a       963     0    49     1     3
  1.3108648848998455E-01 a       964     0    49     1     4
 -2.9288823176354811E-01 a       965     0    49     1     5
 -1.1865761367068572E-01 a       966     0    49     1     6
  5.6110717986746161E-02 a       967     0    49     1     7
 -2.7095370510085252E-02 a       968     0    49     1     8
 -1.8233807786634484E-02 a       969     0    49     1     9
  4.5127764241814985E-02 a       970     0    49     1    10
  1.5584272227350154E-01 a       971     0    49     1    11
  1.2310047987234149E-01 a       972     0    49     1    12
  1.0759146557215341E-02 a       973     0    49     1    13
 -2.5726242985779640E-01 a       974     0    49     1    14
 -2.6328431010005576E-01 a       975     0    49     1    15
 -1.5116115221333885E-02 a       976     0    49     1    16
  1.3413956668262322E-02 a       977     0    49     1    17
 -1.1672366769887087E-01 a       978     0    49     1    18
  1.0129871559132059E-01 a       979     0    49     1    19
  1.0957083983548031E-01 a       980     0    49     1    20
 -2.4893270951913984E-02 a       981     0    50     1     1
  2.1372694840945131E-02 a       982     0    50     1     2
 -1.2718896477292324E-01 a       983     0    50     1     3
 -2.0744707344769597E-01 a       984     0    50     1     4
  2.1288350535123176E-02 a       985     0    50     1     5
 -1.5206852343113739E-01 a       986     0    50     1     6
  1.6919540594578911E-01 a       987     0    50     1     7
  1.8738080044940997E-01 a       988     0    50     1     8
  4.4888512092560347E-02 a       989     0    50     1     9
  2.0383860570306719E-01 a       990     0    50     1    10
  5.6768764533138151E-02 a       991     0    50     1    11
 -1.2085157458192886E-01 a       992     0    50     1    12
  2.5638105868826788E-01 a       993     0    50     1    13
  2.4366730804878525E-01 a       994     0    50     1    14
 -1.3432153039074388E-01 a       995     0    50     1    15
  1.9007189286143708E-01 a       996     0    50     1    16
  6.8456665414177054E-02 a       997     0    50     1    17
  3.9265367187722458E-02 a       998     0    50     1    18
 -4.4523566434937829E-02 a       999     0    50     1    19
 -5.1615881158031805E-02 a      1000     0    50     1    20
  3.8629546311357482E-02 a      1001     0    51     1     1
 -1.8517772938162069E-01 a      1002     0    51     1     2
 -7.5171884201436423E-03 a      1003     0    51     1     3
  5.6810347205343906E-02 a      1004     0    51     1     4
 -6.5887290592016881E-02 a      1005     0    51     1     5
 -6.5780303360958470E-02 a      1006     0    51     1     6
  3.5116767654526904E-01 a      1007     0    51     1     7
 -1.0233232556008280E-01 a      1008     0    51     1     8
 -1.3223072355307577E-01 a      1009     0    51     1     9
 -2.3136019576547193E-01 a      1010     0    51     1    10
  3.0325962650140491E-03 a      1011     0    51     1    11
 -1.0223943138007012E-01 a      1012     0    51     1    12
  9.0755223518114062E-02 a      1013     0    51     1    13
  1.0576227458804997E-01 a      1014     0    51     1    14
 -1.0834431200703901E-01 a      1015     0    51     1    15
 -1.2314239566555328E-01 a      1016     0    51     1    16
 -1.4284338398770904E-01 a      1017     0    51     1    17
  2.5727010427634905E-01 a      1018     0    51     1    18
 -7.1907279979654029E-02 a      1019     0    51     1    19
  6.4807358999131606E-02 a      1020     0    51     1    20
  5.2007656781003636E-02 a      1021     0    52     1     1
  4.5491701113272477E-02 a      1022     0    52     1     2
  1.6405540773639420E-02 a      1023     0    52     1     3
  1.7303961995216405E-01 a      1024     0    52     1     4
  8.3901875870013437E-02 a      1025     0    52     1     5
 -2.8117859014877328E-01 a      1026     0    52     1     6
  2.7036784593970964E-01 a      1027     0    52     1     7
  2.2216503882853636E-01 a      1028     0    52     1     8
 -8.6852785604540614E-02 a      1029     0    52     1     9
  1.4707927317752373E-01 a      1030     0    52     1    10
  1.0911714170970296E-01 a      1031     0    52     1    11
 -2.3304431686899754E-01 a      1032     0    52     1    12
  2.4671653660884882E-01 a      1033     0    52     1    13
  2.1548201683094789E-01 a      1034     0    52     1    14
 -6.4957151201118071E-02 a      1035     0    52     1    15
  3.3735349523133833E-02 a      1036     0    52     1    16
 -8.8450761568392156E-02 a      1037     0    52     1    17
  2.7040994503291810E-01 a      1038     0    52     1    18
  7.3026270263520696E-02 a      1039     0    52     1    19
  9.7782977711964314E-02 a      1040     0    52     1    20
 -3.9170632915296544E-02 a      1041     0    53     1     1
 -1.3671148793383572E-01 a      1042     0    53     1     2
 -1.4282144337358416E-01 a      1043     0    53     1     3
  3.1246670954972579E-04 a      1044     0    53     1     4
  1.7171116151925434E-01 a      1045     0    53     1     5
  1.2692662522777440E-01 a      1046     0    53     1     6
  6.7472235219027343E-02 a      1047     0    53     1     7
  2.1154434315449658E-01 a      1048     0    53     1     8
 -4.7859647360194102E-02 a      1049     0    53     1     9
 -1.1244876819069398E-01 a      1050     0    53     1    10
  1.8594009520619925E-01 a      1051     0    53     1    11
  2.3709080938301219E-01 a      1052     0    53     1    12
 -1.3872522489835193E-01 a      1053     0    53     1    13
  1.4580881951168398E-01 a      1054     0    53     1    14
 -1.3158163502872322E-01 a      1055     0    53     1    15
  8.8218277548680793E-02 a      1056     0    53     1    16
 -8.7901339847165541E-02 a      1057     0    53     1    17
  8.0475961087673409E-02 a      1058     0    53     1    18
  1.1236561034836957E-01 a      1059     0    53     1    19
 -1.4328702540981270E-01 a      1060     0    53     1    20
  6.5240288794908452E-02 a      1061     0    54     1     1
 -8.7763869338986500E-02 a      1062     0    54     1     2
  1.0899063197272615E-02 a      1063     0    54     1     3
 -1.4998724526624660E-01 a      1064     0    54     1     4
  1.8181082511052188E-01 a      1065     0    54     1     5
 -2.6856918758678744E-01 a      1066     0    54     1     6
  1.9701200685868903E-01 a      1067     0    54     1     7
 -1.0696729854874325E-01 a      1068     0    54     1     8
  1.0169525906918361E-01 a      1069     0    54     1     9
  9.9166762631868896E-02 a      1070     0    54     1    10
 -2.8345066713809732E-02 a      1071     0    54     1    11
 -1.8727214025265179E-01 a      1072     0    54     1    12
 -1.0324443474137993E-01 a      1073     0    54     1    13
 -2.2782938936606889E-01 a      1074     0    54     1    14
  1.6868178244602772E-01 a      1075     0    54     1    15
 -1.0080307750343369E-02 a      1076     0    54     1    16
  4.0010583141825283E-02 a      1077     0    54     1    17
 -2.2627949151856216E-01 a      1078     0    54     1    18
  7.4028711733729619E-03 a      1079     0    54     1    19
 -6.0334232278132706E-02 a      1080     0    54     1    20
 -3.3915960277991215E-02 a      1081     0    55     1     1
  4.1689409851780164E-02 a      1082     0    55     1     2
  6.6566384374343576E-02 a      1083     0    55     1     3
 -8.8318999727628286E-02 a      1084     0    55     1     4
  1.4551002668652926E-01 a      1085     0    55     1     5
 -5.1319712100028551E-02 a      1086     0    55     1     6
 -1.0033374759207077E-01 a      1087     0    55     1     7
 -2.4552082105166370E-01 a      1088     0    55     1     8
 -7.8185444836530657E-02 a      1089     0    55     1     9
 -1.0007505771076854E-01 a      1090     0    55     1    10
 -3.2605454104487153E-01 a      1091     0    55     1    11
 -2.1993238498152254E-01 a      1092     0    55     1    12
  1.4114191103273746E-01 a      1093     0    55     1    13
  1.9252787142819211E-01 a      1094     0    55     1    14
 -9.0380669871255717E-02 a      1095     0    55     1    15
 -2.1163889708163072E-01 a      1096     0    55     1    16
  1.2612350497685779E-01 a      1097     0    55     1    17
 -1.2823993227835714E-01 a      1098     0    55     1    18
 -2.0699732864417879E-02 a      1099     0    55     1    19
  2.0350844936819423E-01 a      1100     0    55     1    20
 -9.8976155523969475E-02 a      1101     0    56     1     1
 -7.8200903628383681E-02 a      1102     0    56     1     2
 -1.3683454173824995E-02 a      1103     0    56     1     3
 -1.4949057677287778E-01 a      1104     0    56     1     4
 -8.6727178432719432E-02 a      1105     0    56     1     5
 -1.9366724678646541E-01 a      1106     0    56     1     6
 -6.9310641968129805E-02 a      1107     0    56     1     7
  2.8651468255699625E-01 a      1108     0    56     1     8
  4.6151449440862385E-02 a      1109     0    56     1     9
 -2.3310043874633823E-02 a      1110     0    56     1    10
  1.0838915447399582E-01 a      1111     0    56     1    11
 -9.3325718188698434E-02 a      1112     0    56     1    12
 -7.0280878418497186E-02 a      1113     0    56     1    13
  1.3226419065062336E-01 a      1114     0    56     1    14
  3.4922753460580998E-02 a      1115     0    56     1    15
 -9.1269688700209087E-03 a      1116     0    56     1    16
  8.7887411747471278E-02 a      1117     0    56     1    17
  1.1537807265475665E-01 a      1118     0    56     1    18
 -1.8522433052667897E-01 a      1119     0    56     1    19
 -8.3081474078258305E-03 a      1120     0    56     1    20
  1.3021326873249459E-01 a      1121     0    57     1     1
  1.0545138502594832E-01 a      1122     0    57     1     2
 -5.7128381092053433E-02 a      1123     0    57     1     3
  3.2799193759396307E-02 a      1124     0    57     1     4
  2.4475058939784045E-01 a      1125     0    57     1     5
  1.0686694693152388E-01 a      1126     0    57     1     6
 -1.5953885713153176E-01 a      1127     0    57     1     7
  8.6093334306407490E-02 a      1128     0    57     1     8
 -1.8994800283226593E-01 a      1129     0    57     1     9
 -1.7435675543967574E-01 a      1130     0    57     1    10
 -1.0761623849236112E-02 a      1131     0    57     1    11
  6.4650524032849932E-02 a      1132     0    57     1    12
 -4.7242173750259388E-02 a      1133     0    57     1    13
  2.2741922919787660E-01 a      1134     0    57     1    14
  1.3393922216752330E-01 a      1135     0    57     1    15
  2.0638386331789607E-01 a      1136     0    57     1    16
 -2.9981219503289313E-02 a      1137     0    57     1    17
  1.0144935887113755E-01 a      1138     0    57     1    18
 -7.7184971939547653E-02 a      1139     0    57     1    19
  5.2834148692260129E-02 a      1140     0    57     1    20
  1.0547273153155909E-01 a      1141     0    58     1     1
  9.7450613694032170E-02 a      1142     0    58     1     2
  9.7615518351592739E-02 a      1143     0    58     1     3
 -1.3476609816800886E-01 a      1144     0    58     1     4
 -1.0601542613976397E-01 a      1145     0    58     1     5
  1.1313695132774249E-01 a      1146     0    58     1     6
  1.2423816824375397E-02 a      1147     0    58     1     7
 -1.1858285734985199E-01 a      1148     0    58     1     8
  1.6106502785606253E-01 a      1149     0    58     1     9
 -3.7519939287672557E-03 a      1150     0    58     1    10
 -1.5467646469586496E-01 a      1151     0    58     1    11
  7.8063165501955675E-02 a      1152     0    58     1    12
  9.0323125889402833E-02 a      1153     0    58     1    13
 -2.2610824558680162E-01 a      1154     0    58     1    14
 -7.9690725024309961E-02 a      1155     0    58     1    15
 -8.7061539077395944E-02 a      1156     0    58     1    16
 -4.3636901090271421E-02 a      1157     0    58     1    17
  4.8661480665003320E-03 a      1158     0    58     1    18
  7.0657113421005932E-02 a      1159     0    58     1    19
 -1.4878550248582020E-01 a      1160     0    58     1    20
 -1.3059348074975086E-01 a      1161     0    59     1     1
 -1.6795340538152023E-01 a      1162     0    59     1     2
  5.4203618706715487E-02 a      1163     0    59     1     3
 -3.0019054612709220E-02 a      1164     0    59     1     4
  2.3312227621258852E-01 a      1165     0    59     1     5
  2.0648150632989881E-01 a      1166     0    59     1     6
 -5.6184250141510489E-02 a      1167     0    59     1     7
 -1.4862633922664589E-01 a      1168     0    59     1     8
 -1.4771323790325633E-01 a      1169     0    59     1     9
 -1.7641697775447487E-01 a      1170     0    59     1    10
 -7.2326327071968047E-03 a      1171     0    59     1    11
  1.5306447872865975E-01 a      1172     0    59     1    12
  2.4411994903615722E-01 a      1173     0    59     1    13
 -3.0972136700032227E-03 a      1174     0    59     1    14
 -2.8995546160930374E-02 a      1175     0    59     1    15
  4.2974372913835122E-02 a      1176     0    59     1    16
 -2.3783333867220116E-01 a      1177     0    59     1    17
 -1.5654786563646245E-01 a      1178     0    59     1    18
 -1.6222045653078029E-01 a      1179     0    59     1    19
  1.1704544722143502E-02 a      1180     0    59     1    20
 -1.9688808998137550E-01 a      1181     0    60     1     1
  4.6158172680735000E-02 a      1182     0    60     1     2
 -3.6457754992701964E-02 a      1183     0    60     1     3
 -1.5119603551321778E-01 a      1184     0    60     1     4
 -1.6869432679894653E-01 a      1185     0    60     1     5
  8.2815049487229869E-02 a      1186     0    60     1     6
 -1.4275571859777050E-01 a      1187     0    60     1     7
 -1.6934993903572312E-01 a      1188     0    60     1     8
 -8.9447794979380255E-02 a      1189     0    60     1     9
 -2.4915177877228231E-01 a      1190     0    60     1    10
 -6.4098703137108262E-02 a      1191     0    60     1    11
 -1.6591264901715719E-01 a      1192     0    60     1    12
 -8.4491722322652826E-02 a      1193     0    60     1    13
 -1.3689082968508534E-01 a      1194     0    60     1    14
  2.6169495592749203E-01 a      1195     0    60     1    15
 -1.5289452376432228E-01 a      1196     0    60     1    16
  6.7643186896061108E-02 a      1197     0    60     1    17
  2.4462623762798488E-01 a      1198     0    60     1    18
  2.6863995753679348E-01 a      1199     0    60     1    19
  1.0601398425719850E-01 a      1200     0    60     1    20
 -1.2459653430136529E-01 a      1201     0    61     1     1
  9.4268869757910323E-02 a      1202     0    61     1     2
 -5.9142104189315606E-02 a      1203     0    61     1     3
 -1.4718685049411051E-01 a      1204     0    61     1     4
  1.5728912979907542E-01 a      1205     0    61     1     5
 -2.2238650988509767E-01 a      1206     0    61     1     6
 -2.4249730555862273E-01 a      1207     0    61     1     7
  1.9916692753481477E-01 a      1208     0    61     1     8
 -2.2684066666261368E-01 a      1209     0    61     1     9
 -3.6984411067722961E-03 a      1210     0    61     1    10
  1.0973803257422157E-01 a      1211     0    61     1    11
 -2.0573456674718341E-01 a      1212     0    61     1    12
 -1.2478655758564308E-01 a      1213     0    61     1    13
 -3.6559127573212807E-02 a      1214     0    61     1    14
  1.9538734966982534E-02 a      1215     0    61     1    15
 -1.6593955923735648E-01 a      1216     0    61     1    16
  2.0773130953690010E-02 a      1217     0    61     1    17
  1.8038260886005544E-01 a      1218     0    61     1    18
 -1.0814330681147724E-01 a      1219     0    61     1    19
 -9.4122996827413360E-02 a      1220     0    61     1    20
  1.3950494840923910E-01 a      1221     0    62     1     1
 -3.8778918216377405E-02 a      1222     0    62     1     2
  1.0620139416267614E-01 a      1223     0    62     1     3
  1.1323778096731048E-01 a      1224     0    62     1     4
  1.8530038770425192E-01 a      1225     0    62     1     5
 -3.0601010504215719E-02 a      1226     0    62     1     6
  8.9186336147177317E-02 a      1227     0    62     1     7
  2.2163162765683314E-01 a      1228     0    62     1     8
  1.2713490902754987E-01 a      1229     0    62     1     9
 -5.2779836830607552E-02 a      1230     0    62     1    10
 -1.5669964208293555E-01 a      1231     0    62     1    11
  7.9690284275129947E-02 a      1232     0    62     1    12
 -3.9934251563480690E-02 a      1233     0    62     1    13
  1.4780737266926267E-01 a      1234     0    62     1    14
  7.4784359769758627E-02 a      1235     0    62     1    15
 -1.1894571945151776E-01 a      1236     0    62     1    16
  2.1342270677847160E-02 a      1237     0    62     1    17
  1.9358773309357247E-02 a      1238     0    62     1    18
 -1.5227686108502531E-01 a      1239     0    62     1    19
 -4.0150606172174613E-02 a      1240     0    62     1    20
  2.3099495207202153E-01 a      1241     0    63     1     1
  2.1701520234401143E-02 a      1242     0    63     1     2
  6.9646534301678956E-02 a      1243     0    63     1     3
 -2.2658774644259666E-02 a      1244     0    63     1     4
 -1.1920902050535904E-02 a      1245     0    63     1     5
  4.6067201001459591E-02 a      1246     0    63     1     6
  1.7137072119002356E-01 a      1247     0    63     1     7
  1.2322663882994091E-01 a      1248     0    63     1     8
  5.1795587331552760E-03 a      1249     0    63     1     9
  6.4312736750956029E-02 a      1250     0    63     1    10
  2.1607371893534823E-02 a      1251     0    63     1    11
  2.4534489612980626E-01 a      1252     0    63     1    12
 -2.0986166501185877E-01 a      1253     0    63     1    13
 -1.3081627144431696E-01 a      1254     0    63     1    14
 -1.0900270358155020E-01 a      1255     0    63     1    15
 -1.7193792031323242E-02 a      1256     0    63     1    16
 -1.4751927951553861E-01 a      1257     0    63     1    17
  9.7680663782197058E-02 a      1258     0    63     1    18
  4.1392478046938477E-02 a      1259     0    63     1    19
 -8.2478002220834970E-02 a      1260     0    63     1    20
 -2.0208880427868089E-01 a      1261     0    64     1     1
 -2.5918148081482555E-02 a      1262     0    64     1     2
 -1.1767786199946692E-02 a      1263     0    64     1     3
  1.3390957838323801E-02 a      1264     0    64     1     4
  3.2382998862115361E-02 a      1265     0    64     1     5
  4.2440706226231362E-02 a      1266     0    64     1     6
  3.0931927186844687E-02 a      1267     0    64     1     7
 -2.0538330540062166E-01 a      1268     0    64     1     8
  1.7032266190036416E-01 a      1269     0    64     1     9
 -6.0122402271106717E-03 a      1270     0    64     1    10
 -7.4402042703646826E-03 a      1271     0    64     1    11
 -7.2776438599791451E-02 a      1272     0    64     1    12
  1.2128114154623061E-01 a      1273     0    64     1    13
 -1.1625516356070141E-01 a      1274     0    64     1    14
  2.1594214926464825E-01 a      1275     0    64     1    15
  5.0902869262804802E-02 a      1276     0    64     1    16
 -1.3191171396577833E-01 a      1277     0    64     1    17
  2.8835700935706793E-01 a      1278     0    64     1    18
  6.3534302229696166E-02 a      1279     0    64     1    19
 -1.1402516339976972E-01 a      1280     0    64     1    20
  1.8832656343881993E-01 a      1281     0    65     1     1
  7.0130403702386115E-02 a      1282     0    65     1     2
  4.9562322162074554E-02 a      1283     0    65     1     3
 -3.7918862498097963E-02 a      1284     0    65     1     4
  1.9554460706947727E-01 a      1285     0    65     1     5
  1.8543304097012155E-02 a      1286     0    65     1     6
  4.1550568302992134E-02 a      1287     0    65     1     7
 -1.0047814041506234E-01 a      1288     0    65     1     8
 -1.7599057272820079E-01 a      1289     0    65     1     9
 -1.3101153885008978E-02 a      1290     0    65     1    10
 -1.7048304640851977E-01 a      1291     0    65     1    11
  1.6678020824537121E-01 a      1292     0    65     1    12
  2.4560747102242669E-01 a      1293     0    65     1    13
  1.5024579006196381E-01 a      1294     0    65     1    14
  3.3448930841253816E-01 a      1295     0    65     1    15
  3.0480839803275636E-02 a      1296     0    65     1    16
 -8.3333560243657442E-02 a      1297     0    65     1    17
 -1.3688450939616231E-01 a      1298     0    65     1    18
  1.2523692412604599E-02 a      1299     0    65     1    19
 -2.0900173490040287E-02 a      1300     0    65     1    20
 -1.1874770116896496E-01 a      1301     0    66     1     1
  8.1599215957401841E-02 a      1302     0    66     1     2
  6.1423600317613597E-02 a      1303     0    66     1     3
 -3.6925053885232158E-02 a      1304     0    66     1     4
  1.0497109075997813E-02 a      1305     0    66     1     5
 -6.6248071236278197E-02 a      1306     0    66     1     6
 -4.4294987196172413E-03 a      1307     0    66     1     7
 -6.4486480966807355E-02 a      1308     0    66     1     8
  1.2132396004895535E-01 a      1309     0    66     1     9
  1.0458277728915243E-01 a      1310     0    66     1    10
 -5.7274058505278232E-02 a      1311     0    66     1    11
  3.0138853890910549E-03 a      1312     0    66     1    12
 -9.8533679211586355E-03 a      1313     0    66     1    13
  2.1897340131025882E-02 a      1314     0    66     1    14
  1.4282661968672206E-01 a      1315     0    66     1    15
 -1.0544281184865748E-01 a      1316     0    66     1    16
  6.8046074521399019E-02 a      1317     0    66     1    17
  6.4681970187538615E-02 a      1318     0    66     1    18
 -1.4919345455487687E-01 a      1319     0    66     1    19
 -6.9892262174384212E-02 a      1320     0    66     1    20
  1.0534523040053236E-01 a      1321     0    67     1     1
 -4.0403598480687732E-02 a      1322     0    67     1     2
 -3.6624213171936232E-02 a      1323     0    67     1     3
  4.8008604449217519E-03 a      1324     0    67     1     4
 -5.2271048143654561E-02 a      1325     0    67     1     5
  4.5600728890840068E-02 a      1326     0    67     1     6
  3.5573140451986458E-02 a      1327     0    67     1     7
  4.5933635483782272E-02 a      1328     0    67     1     8
 -1.3189063137014831E-01 a      1329     0    67     1     9
  3.1144762343963867E-02 a      1330     0    67     1    10
  6.5963337274929243E-02 a      1331     0    67     1    11
 -1.5129382689403101E-01 a      1332     0    67     1    12
 -2.5450814218413734E-02 a      1333     0    67     1    13
 -5.4554914013540387E-02 a      1334     0    67     1    14
 -4.7934949050679680E-02 a      1335     0    67     1    15
 -1.0261914624021476E-01 a      1336     0    67     1    16
  2.3018874426715913E-01 a      1337     0    67     1    17
  1.2142130528355116E-02 a      1338     0    67     1    18
 -1.0706313805540066E-01 a      1339     0    67     1    19
  2.3598408122278572E-01 a      1340     0    67     1    20
 -1.7458146702897082E-01 a      1341     0    68     1     1
  2.8210894226596644E-02 a      1342     0    68     1     2
 -2.3184444541948716E-03 a      1343     0    68     1     3
 -1.2302791544604672E-01 a      1344     0    68     1     4
  1.0773825855157522E-02 a      1345     0    68     1     5
 -1.8850334849771867E-02 a      1346     0    68     1     6
 -1.0087775369469619E-01 a      1347     0    68     1     7
 -1.0586534722755503E-01 a      1348     0    68     1     8
  1.2044305276980409E-01 a      1349     0    68     1     9
 -4.6028267660612680E-02 a      1350     0    68     1    10
  7.6370010665605156E-02 a      1351     0    68     1    11
 -1.7855232340658167E-01 a      1352     0    68     1    12
 -1.0260445503146035E-02 a      1353     0    68     1    13
 -2.2501855523897915E-01 a      1354     0    68     1    14
 -1.3270109978961103E-01 a      1355     0    68     1    15
 -1.8469489273948800E-01 a      1356     0    68     1    16
  5.9011938124484874E-02 a      1357     0    68     1    17
 -1.2826384263318566E-01 a      1358     0    68     1    18
 -8.7645385580836510E-02 a      1359     0    68     1    19
 -1.9204586638174340E-01 a      1360     0    68     1    20
  3.2870413814934085E-01 a      1361     0    69     1     1
  4.0435579195015225E-02 a      1362     0    69     1     2
  5.0374343651953160E-02 a      1363     0    69     1     3
 -4.2240047749081126E-02 a      1364     0    69     1     4
  8.0937749308236634E-02 a      1365     0    69     1     5
 -4.9476431820707802E-02 a      1366     0    69     1     6
  7.0549934196832961E-02 a      1367     0    69     1     7
  1.2251913581617627E-01 a      1368     0    69     1     8
 -1.0694267248405986E-01 a      1369     0    69     1     9
 -1.0409908245286563E-01 a      1370     0    69     1    10
 -7.3799146495472021E-02 a      1371     0    69     1    11
 -1.4685862520598519E-01 a      1372     0    69     1    12
 -4.0820863347858755E-02 a      1373     0    69     1    13
 -8.6984231040477228E-02 a      1374     0    69     1    14
 -8.3129529106416147E-02 a      1375     0    69     1    15
  2.0547673640074376E-01 a      1376     0    69     1    16
  3.3814386740933067E-02 a      1377     0    69     1    17
 -1.1405982488775715E-01 a      1378     0    69     1    18
  9.2679243019432533E-02 a      1379     0    69     1    19
  8.4606755018363941E-02 a      1380     0    69     1    20
 -1.1872941492966030E-01 a      1381     0    70     1     1
 -5.2851091299118795E-02 a      1382     0    70     1     2
  7.6269435948983333E-02 a      1383     0    70     1     3
  1.3267295232323462E-01 a      1384     0    70     1     4
  6.2917140606633754E-02 a      1385     0    70     1     5
  1.4434620995630325E-02 a      1386     0    70     1     6
  8.4219045786625937E-02 a      1387     0    70     1     7
  1.1750875474874765E-02 a      1388     0    70     1     8
 -6.7665181223795388E-03 a      1389     0    70     1     9
 -9.5199109226116782E-02 a      1390     0    70     1    10
 -9.2771299942938742E-02 a      1391     0    70     1    11
  1.5176674888245248E-02 a      1392     0    70     1    12
 -2.5991308767537288E-02 a      1393     0    70     1    13
  6.5869658169500481E-02 a      1394     0    70     1    14
 -1.6816164342841677E-01 a      1395     0    70     1    15
  3.8974841873421144E-02 a      1396     0    70     1    16
  1.5797550011742555E-02 a      1397     0    70     1    17
 -1.8093835904832742E-01 a      1398     0    70     1    18
 -7.6360997775694661E-02 a      1399     0    70     1    19
 -7.5499707538968480E-02 a      1400     0    70     1    20
  1.4562721476655907E-01 a      1401     0    71     1     1
  1.1791622210344323E-01 a      1402     0    71     1     2
 -1.5216612344904287E-02 a      1403     0    71     1     3
  1.4094187122531618E-03 a      1404     0    71     1     4
  1.1420525876531393E-01 a      1405     0    71     1     5
  2.6120432965578488E-01 a      1406     0    71     1     6
  1.8778559294577498E-02 a      1407     0    71     1     7
 -2.2802194910611873E-01 a      1408     0    71     1     8
  1.5317195494848413E-02 a      1409     0    71     1     9
 -1.3679877251483605E-01 a      1410     0    71     1    10
 -1.1057027490185176E-01 a      1411     0    71     1    11
 -1.7265666318528838E-01 a      1412     0    71     1    12
  3.5832261102349154E-02 a      1413     0    71     1    13
 -2.2482782020270664E-01 a      1414     0    71     1    14
  5.0540110696522492E-02 a      1415     0    71     1    15
  1.5036707320953108E-01 a      1416     0    71     1    16
  1.1635423628237151E-01 a      1417     0    71     1    17
  3.3791474374289088E-02 a      1418     0    71     1    18
 -2.8962240412650279E-02 a      1419     0    71     1    19
  1.5924137044082527E-02 a      1420     0    71     1    20
 -5.1895839399856959E-02 a      1421     0    72     1     1
 -1.9015044926321811E-01 a      1422     0    72     1     2
 -1.4517080690480647E-01 a      1423     0    72     1     3
  1.2371922555766499E-01 a      1424     0    72     1     4
  1.3135907013982587E-01 a      1425     0    72     1     5
  1.5593257683781211E-01 a      1426     0    72     1     6
 -1.2258134297096865E-01 a      1427     0    72     1     7
  1.6801621716945214E-01 a      1428     0    72     1     8
  1.8401641812122280E-01 a      1429     0    72     1     9
 -1.0542931710795449E-01 a      1430     0    72     1    10
  9.4097804616178782E-02 a      1431     0    72     1    11
  2.2525862156647006E-01 a      1432     0    72     1    12
  2.5753507893498845E-01 a      1433     0    72     1    13
  3.4911284317212250E-02 a      1434     0    72     1    14
 -1.3497179720859678E-01 a      1435     0    72     1    15
  8.9146471570201558E-02 a      1436     0    72     1    16
  2.8680734516793166E-01 a      1437     0    72     1    17
 -2.0305354578706319E-01 a      1438     0    72     1    18
  1.6111773428858011E-02 a      1439     0    72     1    19
 -9.2078653022981974E-02 a      1440     0    72     1    20
 -9.4218190742931363E-02 a      1441     0    73     1     1
  2.3424577831622790E-02 a      1442     0    73     1     2
  2.7501474375251477E-03 a      1443     0    73     1     3
 -1.4143813484971884E-02 a      1444     0    73     1     4
 -1.9343165422814068E-01 a      1445     0    73     1     5
 -5.8200802766149744E-02 a      1446     0    73     1     6
  5.7990222879123664E-02 a      1447     0    73     1     7
 -2.2508123973125214E-02 a      1448     0    73     1     8
 -2.5815013030184637E-02 a      1449     0    73     1     9
  1.4168361490862907E-01 a      1450     0    73     1    10
  2.2086425444933594E-01 a      1451     0    73     1    11
 -9.4149870504457639E-02 a      1452     0    73     1    12
 -7.8555234056935555E-02 a      1453     0    73     1    13
 -1.5562362724266951E-01 a      1454     0    73     1    14
 -3.3985593692927737E-02 a      1455     0    73     1    15
 -1.0832225336055004E-01 a      1456     0    73     1    16
  1.2443711531472022E-01 a      1457     0    73     1    17
 -6.8911361820192349E-02 a      1458     0    73     1    18
 -5.2748351360163918E-02 a      1459     0    73     1    19
 -7.2442683832569507E-02 a      1460     0    73     1    20
 -1.9076212756583089E-01 a      1461     0    74     1     1
  8.2653266812249937E-02 a      1462     0    74     1     2
 -1.0551032468963201E-01 a      1463     0    74     1     3
  2.3649167770458720E-02 a      1464     0    74     1     4
 -1.4580217906585319E-01 a      1465     0    74     1     5
  1.0427572049052689E-01 a      1466     0    74     1     6
 -1.4696896415030464E-01 a      1467     0    74     1     7
 -5.9082025589668428E-02 a      1468     0    74     1     8
  1.1468128571554510E-01 a      1469     0    74     1     9
 -6.5977700639916079E-02 a      1470     0    74     1    10
 -6.2323123454073565E-02 a      1471     0    74     1    11
 -2.6881627223994356E-02 a      1472     0    74     1    12
 -5.5705398541828965E-03 a      1473     0    74     1    13
 -2.6441292562545706E-02 a      1474     0    74     1    14
 -1.1142774569033426E-01 a      1475     0    74     1    15
 -2.5747841875156913E-01 a      1476     0    74     1    16
  1.3763443470809048E-01 a      1477     0    74     1    17
 -9.8938362415161657E-02 a      1478     0    74     1    18
  7.3084322061572088E-02 a      1479     0    74     1    19
 -2.9944670143980157E-02 a      1480     0    74     1    20
  1.3400793985122586E-01 a      1481     0    75     1     1
  1.1055404595376582E-01 a      1482     0    75     1     2
  5.3221066168893480E-02 a      1483     0    75     1     3
 -2.6026229363308434E-01 a      1484     0    75     1     4
 -2.5813069512223680E-01 a      1485     0    75     1     5
 -1.2806991952495161E-01 a      1486     0    75     1     6
  1.8463378441688863E-01 a      1487     0    75     1     7
  1.1217886847768499E-01 a      1488     0    75     1     8
 -1.3510830440457333E-01 a      1489     0    75     1     9
  8.8108789133155785E-02 a      1490     0    75     1    10
  1.2590739295131032E-01 a      1491     0    75     1    11
 -5.0492992224748588E-02 a      1492     0    75     1    12
 -1.9514180376114499E-03 a      1493     0    75     1    13
  1.2176165362981488E-01 a      1494     0    75     1    14
  1.9414069728268002E-01 a      1495     0    75     1    15
  2.0875225904790792E-01 a      1496     0    75     1    16
 -5.4902015136909725E-02 a      1497     0    75     1    17
  1.2004872857922254E-01 a      1498     0    75     1    18
  8.7617493900495239E-02 a      1499     0    75     1    19
 -1.4959498366074131E-01 a      1500     0    75     1    20
  1.1756529512957732E-01 a      1501     0    76     1     1
  1.3046505091373017E-01 a      1502     0    76     1     2
  3.2308622558762427E-02 a      1503     0    76     1     3
 -3.0130034246119729E-02 a      1504     0    76     1     4
 -1.6351709829813519E-02 a      1505     0    76     1     5
  2.3280650787288994E-02 a      1506     0    76     1     6
 -1.8382052882201894E-02 a      1507     0    76     1     7
 -1.1337373026244915E-01 a      1508     0    76     1     8
  6.2561936338823287E-03 a      1509     0    76     1     9
  6.5018658747414457E-02 a      1510     0    76     1    10
 -3.2193100642622839E-02 a      1511     0    76     1    11
 -6.8509780876619478E-02 a      1512     0    76     1    12
  1.0688247984164616E-01 a      1513     0    76     1    13
  2.4495872652977485E-01 a      1514     0    76     1    14
 -1.3787190823174670E-02 a      1515     0    76     1    15
  1.2035216915046416E-01 a      1516     0    76     1    16
  1.2880324692713835E-01 a      1517     0    76     1    17
 -1.6343378854576984E-01 a      1518     0    76     1    18
  2.1266088049317865E-02 a      1519     0    76     1    19
  7.3032844682720227E-02 a      1520     0    76     1    20
 -2.7669462929033915E-02 a      1521     0    77     1     1
 -6.0376103297533706E-02 a      1522     0    77     1     2
  8.3160510798199069E-02 a      1523     0    77     1     3
 -8.7617110971706713E-02 a      1524     0    77     1     4
 -1.6798250661712857E-01 a      1525     0    77     1     5
 -1.0281377724782555E-01 a      1526     0    77     1     6
 -7.1590781181383997E-02 a      1527     0    77     1     7
  3.7169636031327953E-02 a      1528     0    77     1     8
  1.1928079400524174E-02 a      1529     0    77     1     9
  2.3167678391657918E-02 a      1530     0    77     1    10
  6.0644926098302139E-02 a      1531     0    77     1    11
 -6.9736939668908177E-02 a      1532     0    77     1    12
 -1.9037386368158948E-02 a      1533     0    77     1    13
 -8.0504361271581115E-03 a      1534     0    77     1    14
 -9.1400588703315827E-02 a      1535     0    77     1    15
  1.4689431677325590E-01 a      1536     0    77     1    16
  1.6893377814529639E-02 a      1537     0    77     1    17
  1.6530301571521527E-01 a      1538     0    77     1    18
  1.3086419026509413E-01 a      1539     0    77     1    19
 -3.9909517976349880E-03 a      1540     0    77     1    20
  3.0978284065517453E-01 a      1541     0    78     1     1
 -1.0125433981314663E-01 a      1542     0    78     1     2
  9.4909247019538956E-02 a      1543     0    78     1     3
  1.9632518701291424E-01 a      1544     0    78     1     4
 -6.4140867061996135E-02 a      1545     0    78     1     5
  5.8903421807219795E-02 a      1546     0    78     1     6
  5.2093083510265169E-02 a      1547     0    78     1     7
 -1.4607869238044427E-01 a      1548     0    78     1     8
 -8.8593869977873496E-02 a      1549     0    78     1     9
 -2.2286934045100428E-02 a      1550     0    78     1    10
  3.1129673314553120E-02 a      1551     0    78     1    11
  8.7283410841910353E-02 a      1552     0    78     1    12
 -3.8315147668610439E-02 a      1553     0    78     1    13
  1.5516997188811457E-01 a      1554     0    78     1    14
 -1.1728768539492314E-01 a      1555     0    78     1    15
  9.2601126842023276E-02 a      1556     0    78     1    16
 -1.4369154922693514E-01 a      1557     0    78     1    17
 -1.6680333428294630E-01 a      1558     0    78     1    18
  6.6643765223166826E-02 a      1559     0    78     1    19
  2.4741210835910010E-01 a      1560     0    78     1    20
  1.1878324069239518E-03 a      1561     0    79     1     1
  1.8849970275121739E-01 a      1562     0    79     1     2
 -9.3474531437007825E-03 a      1563     0    79     1     3
 -4.1639703921043332E-02 a      1564     0    79     1     4
 -1.8256791028954167E-01 a      1565     0    79     1     5
 -1.4504866629806812E-03 a      1566     0    79     1     6
 -1.9502058546349957E-01 a      1567     0    79     1     7
 -8.2785326380246327E-02 a      1568     0    79     1     8
 -7.5005479746905371E-02 a      1569     0    79     1     9
  1.9695735086445604E-01 a      1570     0    79     1    10
  3.4398258969709501E-02 a      1571     0    79     1    11
  2.2647367241984470E-01 a      1572     0    79     1    12
 -2.3696219162997900E-01 a      1573     0    79     1    13
 -1.3460562313944394E-02 a      1574     0    79     1    14
  1.9796920825660913E-01 a      1575     0    79     1    15
 -1.2473793043109008E-02 a      1576     0    79     1    16
 -8.1632695742858905E-02 a      1577     0    79     1    17
 -1.3368592299470297E-01 a      1578     0    79     1    18
 -3.6096524222073260E-02 a      1579     0    79     1    19
 -2.6553635509400664E-01 a      1580     0    79     1    20
  4.6635757636518900E-02 a      1581     0    80     1     1
 -2.8482166161862180E-02 a      1582     0    80     1     2
 -1.6614564885012454E-02 a      1583     0    80     1     3
 -5.7443207884773077E-02 a      1584     0    80     1     4
  7.5214707595600575E-02 a      1585     0    80     1     5
 -1.5787119381930617E-01 a      1586     0    80     1     6
 -1.1112392419603996E-02 a      1587     0    80     1     7
  1.8361417610199590E-01 a      1588     0    80     1     8
 -5.7842920510317267E-02 a      1589     0    80     1     9
  3.6842319273533708E-02 a      1590     0    80     1    10
  9.2907286533782857E-02 a      1591     0    80     1    11
  1.4781441360089534E-01 a      1592     0    80     1    12
 -1.4284475242099973E-01 a      1593     0    80     1    13
 -1.0247877983154666E-01 a      1594     0    80     1    14
 -7.7519656605538846E-03 a      1595     0    80     1    15
  3.4322751131465379E-02 a      1596     0    80     1    16
  2.2622289968297831E-02 a      1597     0    80     1    17
 -1.7731315859485772E-01 a      1598     0    80     1    18
 -1.0394260137834739E-01 a      1599     0    80     1    19
 -8.2914340877060289E-02 a      1600     0    80     1    20
  7.8678573732897905E-01 b      1601     1     1
  1.4393264156472656E+00 b      1602     1     2
  3.9741433952455579E-01 b      1603     1     3
 -6.8088573239107364E-01 b      1604     1     4
 -3.1433064105813013E-01 b      1605     1     5
  1.1223246774223201E+00 b      1606     1     6
  9.3920829593046495E-01 b      1607     1     7
  8.1893610729089439E-01 b      1608     1     8
 -1.1569766573038400E+00 b      1609     1     9
  1.3807697824219984E+00 b      1610     1    10
 -1.2247628944949228E-01 b      1611     1    11
 -4.3713805226781838E-01 b      1612     1    12
  6.8294690689515125E-01 b      1613     1    13
  1.3183414152709678E+00 b      1614     1    14
 -9.2487077031822407E-01 b      1615     1    15
  1.4815312560172016E+00 b      1616     1    16
 -1.6205622196474265E-01 b      1617     1    17
  1.2340168011226396E+00 b      1618     1    18
 -4.9737445389247475E-01 b      1619     1    19
 -7.3455244805834619E-01 b      1620     1    20
  5.5018825235627944E-01 a      1621     1     1     2     1
  3.2398966651614974E-01 a      1622     1     1     2     2
 -4.2932055522530116E-01 a      1623     1     1     2     3
  2.2160590337424318E-01 a      1624     1     1     2     4
 -3.4406871508585307E-01 a      1625     1     1     2     5
  2.0411257431921265E-01 a      1626     1     1     2     6
  9.4293708145013511E-01 a      1627     1     1     2     7
